362 300
点击 -0.087100685 -0.2248835 0.043542475 0.043435138 0.19415149 -0.076815784 -0.21382327 0.027567085 -0.093517505 -0.048999067 0.21420868 -0.20229831 -0.26269394 -0.06766127 0.12236702 -0.07464237 -0.036354877 -0.19230276 0.06743864 0.37850353 -0.007812838 -0.018243816 0.16056697 0.09323132 0.07622969 -0.13916354 0.29994503 -0.068202324 -0.09810709 0.05032048 0.102197535 -0.21346141 0.012329797 0.0011833542 -0.045936562 -0.1670053 -0.124008276 0.10479412 0.08172761 0.0033378045 0.12160932 -0.006347674 -0.074194595 0.0763866 -0.06265286 0.11969579 0.058393534 -0.046771478 0.07904827 0.2306508 0.02890722 -0.08756974 -0.07595997 0.15286872 0.06611884 0.052396756 0.1797328 -0.30933806 -0.032493725 -0.0430706 -0.20534877 0.040081248 -0.15997842 0.1316631 -0.019399475 0.08280313 0.0978143 -0.2966523 0.08631335 -0.20527649 -0.14263125 -0.089504205 0.10835255 0.07458321 0.123030245 0.24531156 -0.12727004 -0.06458068 -0.11098881 0.25906464 -0.05058712 -0.10649777 -0.19908236 0.017526748 0.068518534 0.19375613 -0.2341087 -0.102408245 -0.19567563 -0.13386557 -0.032138646 -0.018724984 0.044473276 0.015764387 0.03162607 0.13971739 -0.016208597 0.13117714 0.07258318 0.111067586 0.011261172 0.15862872 -0.14510609 0.04353105 -0.05159821 0.19895738 0.15430611 0.053392403 0.13862209 0.088112175 0.058779046 -0.02204634 -0.06689267 -0.11922123 0.18581949 0.24911846 -0.0856028 0.033127736 -0.21839693 -0.039290883 0.0135373585 -0.065524206 -0.31830156 -0.0024841249 -0.13385195 -0.22894661 -0.14892286 -0.12162751 0.16541803 0.03981611 0.015888646 -0.093400106 -0.19251484 0.01646494 0.15449828 -0.09972721 -0.22981498 -0.09514487 -0.068733096 0.024112368 0.13726325 -0.16568184 0.1555739 0.24390751 0.07231402 0.2652447 0.06888929 -0.0492052 -0.19022341 0.016813133 0.16973864 0.08543928 0.07872422 0.13406761 -0.0374745 0.05833134 -0.06462751 0.08990097 0.10192674 0.052556187 0.051825713 0.20609435 -0.16914184 0.09323242 -0.19487356 0.16905901 0.12791547 0.26466888 0.053477038 -0.09747725 -0.043114573 -0.089303344 -0.066045344 -0.10577253 -0.031194877 0.1423461 0.1324857 -0.1017422 -0.14790392 -0.067734554 -0.112234436 -0.21535565 -0.07592598 0.14774935 -0.24639197 -0.008008283 -0.042085122 0.35562724 0.07352619 -0.04718276 0.049254056 -0.056549303 0.24834926 0.029533517 0.0590567 -0.028715579 0.10873082 -0.03625779 0.081162654 -0.1751242 0.115341745 -0.13861276 0.012579028 -0.06043256 -0.048722144 -0.10936416 -0.24629715 0.018453624 0.13853829 0.12326104 0.0061083585 0.16919303 0.035958204 0.11137828 0.11698965 0.23221833 0.013159385 -0.019473717 -0.19957946 0.21033362 -0.18431328 0.20676787 -0.20768137 0.13708115 0.00095566787 -0.13183205 -0.009067524 0.17366911 -0.104425564 0.18802397 0.064245105 0.075634606 -0.09927581 0.022531986 0.18491834 0.22324 -0.019707492 0.01577051 0.005187827 -0.22313027 0.038103297 -0.07262073 -0.05794886 -0.07456112 0.1939561 -0.013594087 -0.0021319832 0.24052772 0.08430057 -0.013620246 0.12122681 0.11737082 -0.010541236 0.03284816 -0.1229162 -0.10728577 0.0039052523 -0.060159575 0.13340496 0.012370953 0.2668393 0.18411551 0.10336593 -0.11091508 0.0014767312 0.10718527 0.14310032 0.07977964 -0.1670121 0.018105185 -0.012916307 -0.021484662 0.10042043 0.2338716 -0.13366085 -0.3015324 0.32034335 0.13821538 0.19552895 0.06697739 0.013526061 -0.09976217 0.11406253 0.04736686 -0.24983332 0.07465344 0.093553424 0.06778753 -0.034207024 -0.20833388 0.24882314 0.038193922 0.13176227 -0.022073438 -0.1478424 0.2788055 0.003140692 -0.06526287 0.26001394 -0.028551398
登录 0.03432137 -0.14846954 -0.018223394 0.35014778 0.2892576 -0.13623737 -0.47151664 0.15090579 -0.10966659 0.16761808 0.16579266 -0.36932093 -0.41439804 -0.07346562 0.29072148 0.15792608 0.07313419 0.034607776 0.113339916 0.40573463 -0.24661267 -0.123289146 0.039866854 0.09477143 0.0076871742 -0.21468337 0.35641885 -0.024712661 -0.18375789 -0.021600949 0.14261058 -0.08742075 -0.09567709 -0.5144399 -0.18752047 -0.18352343 -0.12064133 -0.09390708 -0.12528369 -0.24624495 0.34000784 -0.082293145 0.07067378 0.16453357 -0.12640172 0.2525337 -0.23083965 0.12769684 0.09361501 0.47291124 0.24775316 -0.08827853 -0.120699584 0.15468979 -0.0024590231 0.10261397 0.290812 -0.33215556 -0.13508096 -0.5224924 -0.16860202 -0.14546634 -0.14250432 0.33233234 -0.42229435 -0.06802494 0.054753117 -0.08190586 0.05694683 -0.17506917 -0.012430748 -0.20123476 0.09818655 0.09360923 0.2806504 0.40334553 -0.21264085 0.19112952 0.018476466 0.3269892 -0.18594381 -0.2249755 -0.16296904 -0.057851955 0.14374422 0.23608175 -0.26180783 -0.16429386 -0.4943467 -0.13507998 -0.09136075 -0.0797507 0.16814238 -0.0020849006 0.28981537 0.37867022 0.13889621 0.2654683 -0.005496401 -0.067389056 -0.09434395 0.3613728 -0.17999588 -0.082653604 0.028362403 0.07663999 0.19814147 -0.055408016 0.07320377 0.0039209886 0.2656623 -0.035681974 -0.03748341 -0.0049282904 0.26714188 0.35708687 -0.323182 0.02501098 -0.29686722 -0.15625916 0.10766925 -0.053882968 -0.3708242 -0.1840159 -0.0021831943 0.004800064 -0.51090795 -0.27126455 -0.1275927 0.28666866 0.04850177 -0.16968837 0.11354784 0.06843963 0.07084561 0.16029035 -0.58831286 -0.0019377313 -0.44057804 0.02238575 -0.17215192 -0.2770268 -0.06885665 0.19971871 0.0765313 0.29398158 0.3357696 0.40893155 -0.018169386 -0.049270928 0.09309013 -0.103578396 0.25491348 0.38070148 -0.20982032 0.029854385 -0.06616068 -0.010322307 0.18892762 -0.17274706 0.126207 0.3740074 -0.32670626 -0.070355624 -0.1713603 -0.042619772 0.14608428 0.056946695 -0.346924 -0.35858804 -0.05220616 0.12330938 -0.015758418 -0.05555253 0.023376012 0.10182479 0.28507814 -0.28374165 -0.21928693 -0.15465842 -0.16053051 -0.5093859 -0.24068256 0.066293396 -0.48913953 0.12593485 -0.07590193 0.34617594 0.18465056 -0.15886775 0.22428022 0.1599907 0.40331152 -0.155764 -0.12480014 -0.23248559 -0.00067163125 -0.2538748 -0.015451665 -0.17561276 0.063029796 -0.15882441 -0.033114076 -0.36188427 -0.060780052 -0.17058124 -0.20482633 -0.057768773 -0.19919486 -0.099677324 0.1758888 0.082854256 0.07666345 0.14715369 0.2230173 0.40004903 0.4300915 -0.0804793 -0.23925292 0.12973318 0.15952477 0.26080734 -0.0022985458 0.086323164 -0.10238736 -0.016617334 0.05269888 0.09381146 0.024101313 0.3210224 -0.08460615 -0.2610555 0.035482753 0.024473935 0.091867335 0.29934913 0.102633 -0.054532632 -0.10862009 -0.38663986 -0.05224603 -0.25069597 -0.23853475 -0.027883172 0.12966235 0.07387839 0.01381635 0.17773113 0.16447602 0.031764597 0.34805313 0.26041454 -0.144944 0.18966638 -0.22662857 -0.20823109 0.00089629577 -0.028098665 0.07229798 -0.15433319 0.31988788 0.6115675 0.2256156 -0.083216384 0.0018092548 0.1492604 0.034304652 0.20673203 -0.2692065 -0.009261958 -0.21256444 0.04274087 0.05794554 0.33042493 -0.009874684 -0.61552143 0.33429897 0.23222892 0.3388487 0.0042243535 0.16853456 -0.21542454 -0.027248526 -0.034847107 -0.16005184 0.2704204 0.005705834 0.015910408 0.22739163 -0.019717062 0.2749309 0.11492223 0.22437376 0.032494098 -0.24358551 0.14345498 -0.06889765 -0.1509095 -0.015745334 -0.06854801
测试 -0.16223116 -0.33489862 0.110179536 -0.1753903 0.20780848 -0.1169203 -0.096985236 -0.006572377 -0.09382099 -0.13237478 0.2297512 -0.11034007 -0.18821056 -0.03458814 0.031231567 -0.21661843 -0.19976206 -0.30701798 0.13685426 0.40783727 0.19457597 0.024157843 0.2819076 0.13984582 0.139316 -0.100157835 0.36181936 -0.17503262 -0.03317217 0.14968887 0.031205708 -0.3688978 0.1009474 0.3349356 0.061002966 -0.24217623 -0.10119534 0.20639703 0.22466528 0.113338575 0.04315696 -0.0265856 -0.24930078 0.0067779142 -0.0045636506 0.10066831 0.28302568 -0.080204874 0.1512023 0.16205253 -0.06347518 -0.09909769 -0.05380428 0.2074164 0.12121161 -0.006296565 0.08563469 -0.3555467 0.013350897 0.18404993 -0.23421821 0.10138157 -0.19300725 0.12269249 0.23465762 0.2242532 0.14971462 -0.46678632 0.108208746 -0.23785049 -0.2055957 -0.039287202 0.24841209 0.0059399935 0.04252579 0.14790525 -0.07506204 -0.20312034 -0.2540148 0.23008896 0.06661892 -0.0070639355 -0.18316768 0.10570952 0.02591303 0.16281019 -0.21120006 -0.019686285 -0.004393041 -0.15030098 -0.07549909 -0.034023672 0.025497423 -0.031139616 -0.13798122 -0.0106304325 -0.13279042 0.06374695 0.17554882 0.2779519 0.0023675843 0.038745802 -0.119476706 0.040918056 -0.11884273 0.24638411 0.18290675 0.1895954 0.16104366 0.16978817 -0.07259645 0.006720451 -0.09489751 -0.17992483 0.17819533 0.2521666 0.08150659 0.10377827 -0.22894962 0.07694579 -0.018739121 -0.06727287 -0.34408718 0.123418614 -0.27827767 -0.35702035 0.016305022 0.0010268206 0.3527383 -0.10447487 -0.037533723 -0.04492047 -0.5076614 -0.011323027 0.3361044 -0.276669 -0.114252254 -0.09415377 0.17782512 -0.022986457 0.2919127 -0.03360963 0.33167443 0.23089415 0.06217075 0.26989946 -0.1605818 -0.28575397 -0.21396235 0.15751798 0.13614528 0.17795537 0.07137142 0.03302069 0.021830915 0.1551201 -0.11808862 0.1600877 0.06004799 0.19273415 0.11487087 0.14599392 -0.13287911 0.1519157 -0.2661993 0.3113655 0.15920505 0.45888677 0.32661134 -0.022166457 -0.04334032 -0.1114813 -0.14137031 -0.1788427 -0.060144898 0.19824724 0.023282792 -0.053398438 -0.14601676 0.09946671 -0.13887095 -0.05644202 0.00044926506 0.24658951 -0.22446385 -0.11308344 -0.037333217 0.44668728 -0.045180798 -0.039055966 -0.08265787 -0.10990312 0.14358583 0.22015119 0.22183037 0.093955934 0.16107443 0.027579438 0.19000979 -0.22351405 0.17892717 -0.17703088 0.04064687 0.15949802 -0.056698523 -0.11664484 -0.1899276 0.06668535 0.34572446 0.21654211 -0.11929287 0.22071588 0.07246427 0.13254622 0.021906968 0.18092522 -0.2827503 0.05821742 -0.24690177 0.28136864 -0.4099123 0.18464115 -0.37099394 0.16162561 0.20724508 -0.26612505 -0.056516267 0.25690678 -0.17797473 0.20658256 0.15707108 0.2759962 -0.20406267 -0.001625038 0.26937068 0.16150257 -0.14369471 0.1163684 0.099916846 -0.2045309 0.10327196 0.036234118 0.026969567 -0.18946369 0.24114843 -0.12386619 0.024032988 0.3036205 -0.069265485 -0.11440221 0.05410026 0.04568297 0.06080118 -0.05537883 -0.0074949386 -0.07284973 -0.0022758513 -0.1053033 0.21565026 0.107913926 0.3519778 -0.050887857 -0.040648576 -0.09685228 0.025821349 0.053817395 0.24303982 0.02066408 -0.13848698 0.026521312 0.10416354 -0.083573356 0.07961511 0.2137765 -0.2369509 -0.1704025 0.2889368 0.12972994 0.19602835 0.11716975 -0.001859397 -0.07949689 0.1741292 0.06827797 -0.34882733 -0.09190161 0.25087434 0.10099089 -0.24953273 -0.30534112 0.24499464 -0.08559262 0.094734535 -0.024677398 -0.14157468 0.37239194 0.0024649305 -0.018450698 0.3858101 -0.06336201
密码 0.07351925 -0.06435069 -0.043997508 0.5452461 0.26537353 -0.01866151 -0.58324444 0.11881116 -0.045171365 0.09094975 0.32601586 -0.46438488 -0.5488592 -0.089083575 0.48602697 0.20990632 0.37286377 -0.060719322 0.013615552 0.5656413 -0.32664427 -0.08916662 -0.06535085 0.061461568 -0.0011026972 -0.31147218 0.27858055 0.20510137 -0.34824103 -0.112051874 0.3744342 -0.019118987 -0.19529283 -0.7055637 -0.34329984 -0.10972679 -0.30675262 -0.08639947 -0.24063176 -0.23819116 0.3696737 -0.027329935 0.2633716 0.24874301 -0.25091085 0.18551174 -0.4504225 -0.027192378 0.00039993867 0.51013064 0.2767843 -0.13897032 -0.078610696 0.110904336 -0.09273398 0.15918826 0.5320087 -0.3918732 -0.14176185 -0.60259384 -0.1900362 -0.045586843 -0.11798316 0.12149859 -0.5585913 -0.27970222 0.02130229 -0.13581881 0.12465355 -0.20111686 -0.11440045 -0.1766909 -0.11369383 0.27790263 0.41059932 0.6633952 -0.3201908 0.14498146 0.15353243 0.44006982 -0.38398433 -0.4475796 -0.30759725 -0.16396844 0.18515468 0.38927296 -0.36663967 -0.37711784 -0.7646063 -0.22968619 0.058929652 0.052337393 0.08509037 0.08578244 0.46205166 0.59882385 0.18427885 0.30141813 -0.10666369 -0.20107521 0.07269177 0.49022081 -0.27920514 0.035121366 0.10906209 0.2255466 0.28340077 -0.16645421 0.16714579 -0.038136527 0.4524507 -0.1797453 -0.032398205 -0.06779741 0.32663012 0.38270602 -0.50814396 -0.17552562 -0.31279036 -0.3019958 0.055156052 -0.114526466 -0.4501609 -0.27265817 0.12631914 -0.09723758 -0.57776994 -0.4819635 -0.16630116 0.33813268 0.1293839 -0.20657393 0.3667518 0.13285264 -0.15162824 0.25084785 -0.642992 -0.13299508 -0.68770856 0.14319786 -0.056948047 -0.5376726 -0.15419038 0.3819312 0.124032825 0.34790483 0.54601955 0.4058239 -0.3136945 -0.34901935 0.37692168 -0.11653906 0.09627632 0.4368267 -0.21429221 -0.035675872 0.063155524 0.070467785 0.22322956 -0.19559675 -0.0344118 0.44826022 -0.39619115 0.06225254 -0.118863136 -0.13615096 0.1869425 -0.019070052 -0.50386184 -0.3067667 -0.0063486 -0.14718057 0.06885871 -0.020768845 0.00013233116 0.10720624 0.48887712 -0.2801838 -0.22954479 -0.47062308 -0.16274035 -0.7290647 -0.34310883 -0.015312501 -0.43449175 0.24045318 -0.11303461 0.31018484 0.410984 -0.115667574 0.38006866 0.05345869 0.6183009 -0.34094724 -0.29320282 -0.3155345 0.08273837 -0.17631881 -0.085947946 -0.14164515 0.06923485 -0.14760458 0.06579309 -0.61712164 -0.09826447 -0.1708106 -0.43034682 -0.13266681 -0.24559596 0.056311656 0.23397052 0.105511926 -0.05027439 0.13495705 0.42461154 0.4798236 0.7053175 -0.17360042 -0.22929785 0.16246547 0.21229991 0.45046884 0.050286442 0.24387074 -0.47699273 0.12839967 0.10574428 0.10559792 0.017757295 0.24826431 -0.06810477 -0.34358647 0.087308675 0.13570242 0.0877179 0.53240544 0.20063636 -0.14903817 -0.15454978 -0.35749635 -0.1258611 -0.36927894 -0.3279636 0.12985444 0.20855334 0.17249665 -0.041059338 0.2734751 0.43791267 0.18947771 0.36165953 0.290552 -0.2143656 0.33527952 -0.47794718 -0.28495163 0.023486214 0.056167595 -0.07028886 -0.16997036 0.3178635 0.8153034 0.56111556 -0.1818864 0.0029386024 0.32605353 -0.03772212 0.22037941 -0.29711848 -0.01434037 -0.26824746 0.10271199 0.18502396 0.32820034 0.069206394 -0.71740264 0.60366344 0.23559879 0.28241408 0.010976837 0.05768075 -0.15757439 0.07727601 0.04226879 -0.23307872 0.5105926 -0.22529328 0.08224204 0.49962255 -0.1447456 0.37423906 0.38435844 0.25605664 -0.04602217 -0.20545426 0.15800661 -0.03314028 -0.2335356 0.17015322 0.057494402
按钮 -0.107603475 -0.22523804 0.047471266 0.008796454 0.21866918 -0.1021685 -0.23452084 0.03790751 -0.096916914 -0.015555029 0.22636755 -0.18392749 -0.2559739 -0.070981294 0.108443856 -0.08146486 -0.08930905 -0.15736552 0.08436951 0.35823822 -0.00497579 -0.031667624 0.17703645 0.1104701 0.086721435 -0.11893958 0.3222596 -0.09986636 -0.09066249 0.07834011 0.06857301 -0.23520355 0.03614121 0.022942446 -0.022371002 -0.18460701 -0.10540864 0.09289312 0.0834612 -0.003695051 0.13015425 -0.01880802 -0.11083121 0.087145045 -0.041845866 0.15241745 0.08102615 -0.006190837 0.103400126 0.26009175 0.051669564 -0.07336366 -0.08789066 0.17304146 0.08232301 0.06926702 0.15228398 -0.3392571 -0.046064865 -0.058115333 -0.2214993 0.012650605 -0.1640428 0.18880646 -0.036069784 0.13003361 0.10171842 -0.30411464 0.08334526 -0.19786066 -0.15014349 -0.09784057 0.12858447 0.06401096 0.1382484 0.22354251 -0.12682812 -0.05431523 -0.14341906 0.2556405 -0.025778895 -0.094286315 -0.18780191 0.025759984 0.062092565 0.20235264 -0.22977565 -0.08599013 -0.18833813 -0.13261537 -0.04518049 -0.038096253 0.08082647 -0.002698272 0.0027063496 0.13691552 -0.027373105 0.1553186 0.09952793 0.14440557 -0.009956274 0.17035572 -0.12586612 0.03542289 -0.08354869 0.17321333 0.14254078 0.081704915 0.13244575 0.09557889 0.036245987 -0.008295919 -0.068459846 -0.10931395 0.18345648 0.30785173 -0.09802567 0.06628286 -0.21949512 0.00045096962 0.031388085 -0.048469886 -0.3448755 -0.012971894 -0.1486673 -0.19301932 -0.15746494 -0.091755375 0.14915575 0.053281005 0.024175974 -0.09819998 -0.2340321 0.04145348 0.18849494 -0.09696257 -0.24563298 -0.058084514 -0.04329033 0.024679242 0.11645352 -0.12487392 0.16447487 0.23847242 0.06318447 0.25148532 0.06362331 0.0012438105 -0.14182302 0.07420095 0.14578258 0.08206885 0.13638306 0.14021558 -0.050325107 0.06463894 -0.1163471 0.07108749 0.120639235 0.055714823 0.08448844 0.24093477 -0.17239758 0.049381796 -0.22739746 0.17338721 0.119459115 0.27020904 0.067859605 -0.11769432 -0.043274622 -0.028169032 -0.07714259 -0.14680308 -0.04794029 0.12640117 0.12103294 -0.12310271 -0.16354907 -0.026353486 -0.1076372 -0.21126154 -0.06790952 0.17747302 -0.2694545 -0.041834902 -0.059009805 0.3634537 0.05784275 -0.06869714 0.02854273 -0.025843922 0.2385634 0.040183645 0.09375004 -0.021759218 0.11918387 -0.07651499 0.07433462 -0.18988296 0.12149898 -0.13004246 0.0017028009 -0.03918325 -0.030353375 -0.12903535 -0.21917148 0.0067773694 0.14334539 0.07455232 0.0052158805 0.15655635 0.06419352 0.10818949 0.09713207 0.24499628 -0.021644305 -0.006349788 -0.20392048 0.19988963 -0.19817317 0.19334945 -0.20973149 0.12178495 0.058838077 -0.15616126 -0.023868207 0.169524 -0.10291167 0.20668834 0.039608125 0.07675488 -0.099257514 0.025839375 0.1957311 0.19270143 -0.031129612 0.022293268 0.010183342 -0.25903475 0.030645015 -0.0717194 -0.05364667 -0.100366585 0.18037814 -0.009377833 0.0022076524 0.25402254 0.05195026 -0.03366244 0.1418387 0.10211336 0.0077886335 0.02830853 -0.0784377 -0.10054051 -0.020267956 -0.07168359 0.1527885 0.017702417 0.28602406 0.1593318 0.06020631 -0.10352372 0.00035514054 0.082605496 0.15231074 0.08287292 -0.17289634 0.01670426 -0.0026032508 -0.045328114 0.08480449 0.2590608 -0.14874983 -0.28642446 0.2927628 0.15354244 0.21905796 0.06450257 0.051334575 -0.12632653 0.099259354 0.05268389 -0.24291235 0.03849667 0.1183568 0.05302696 -0.06055856 -0.180901 0.2552586 0.0002797008 0.13358599 -0.009187969 -0.15134287 0.26687068 -0.013862022 -0.05936695 0.21602444 -0.045402765
输入 0.046173017 -0.12184955 -0.018259358 0.44963646 0.27697742 -0.06297011 -0.5348757 0.12581816 -0.07102444 0.102188356 0.27320528 -0.42046544 -0.49204352 -0.076458536 0.4287769 0.17543371 0.24489747 -0.03822728 0.06253403 0.5207804 -0.27015632 -0.0847696 -0.0100651905 0.08239087 0.018043334 -0.28252572 0.32500434 0.11074065 -0.29315194 -0.056021683 0.28728986 -0.07999472 -0.16663027 -0.5919069 -0.27372086 -0.15279269 -0.24657694 -0.072137415 -0.16788977 -0.2348447 0.35762113 -0.055210777 0.16909233 0.20658576 -0.19633718 0.20359193 -0.3532959 0.026256714 0.048886765 0.48234835 0.24940535 -0.12770298 -0.09123484 0.14156301 -0.06567105 0.11732821 0.44112134 -0.3693485 -0.14139673 -0.55241394 -0.19868661 -0.07298331 -0.123513035 0.19654031 -0.46831965 -0.19983411 0.039340764 -0.14893235 0.10956959 -0.19813265 -0.107431665 -0.17707174 -0.035509203 0.2030693 0.34407288 0.5745378 -0.2683555 0.13669477 0.08856801 0.40355942 -0.3100737 -0.37301752 -0.257996 -0.103546016 0.15473892 0.3374272 -0.32736483 -0.28260872 -0.64618707 -0.19611889 -0.0020236208 0.0057520336 0.102929585 0.05239555 0.38716608 0.51926214 0.14652434 0.26450515 -0.057465598 -0.14841935 0.018699411 0.43402147 -0.24513157 0.013332281 0.085106336 0.19374523 0.25488925 -0.121569596 0.13301615 -0.011332982 0.37211844 -0.13506731 -0.04218062 -0.048186734 0.2954142 0.37956798 -0.41557488 -0.09643693 -0.3054152 -0.24880506 0.068939224 -0.09976335 -0.42762327 -0.22801957 0.07375067 -0.09573394 -0.5266871 -0.39574242 -0.13195895 0.2990351 0.10220986 -0.19157787 0.24043362 0.10633159 -0.051357117 0.20219028 -0.6221235 -0.0873203 -0.5817812 0.10986087 -0.06550332 -0.44091433 -0.098025255 0.33316934 0.08757654 0.33548173 0.44384262 0.3510412 -0.22436365 -0.2312222 0.28862488 -0.08519497 0.1679539 0.39939663 -0.20657846 -0.0041297697 0.017610151 0.06547708 0.2060296 -0.14562075 0.027934302 0.40849614 -0.3727377 0.017224 -0.15188798 -0.08830172 0.18301721 0.045705166 -0.4075397 -0.30618826 -0.023024647 -0.050963886 0.028416017 -0.045409113 -0.011999017 0.10903384 0.41034868 -0.26302725 -0.23698941 -0.3568725 -0.16772857 -0.62833196 -0.30604365 0.024422994 -0.46720684 0.1929993 -0.100481905 0.32496607 0.31531286 -0.12884712 0.2910122 0.060713254 0.5491396 -0.2549345 -0.22681607 -0.27345926 0.07190376 -0.18153994 -0.05467467 -0.16230744 0.090674326 -0.15938124 0.043534044 -0.50065184 -0.0985397 -0.17008612 -0.34401986 -0.09157 -0.20403564 0.032196317 0.18886286 0.11804439 -0.013192543 0.13431768 0.34952918 0.4394589 0.56750786 -0.12959057 -0.24067195 0.17522582 0.16294786 0.38718328 0.019594124 0.19748282 -0.32085645 0.06754984 0.07567765 0.12069448 0.01842329 0.28707373 -0.06091961 -0.27831158 0.05082989 0.089158334 0.101640716 0.45924735 0.15043725 -0.09987604 -0.11954894 -0.36410204 -0.096756995 -0.29944777 -0.29101643 0.06399355 0.19414464 0.13279618 -0.008238568 0.2628549 0.3228101 0.117157735 0.337797 0.28097233 -0.17599514 0.28464943 -0.39343685 -0.25271252 0.029126355 0.020995606 -0.011416096 -0.15029182 0.33082822 0.72543085 0.43926504 -0.14290605 0.0003669731 0.2674925 0.0050328663 0.21143216 -0.28528884 -0.011417164 -0.22387417 0.07092587 0.13701543 0.32489425 0.038623564 -0.66358274 0.5253165 0.23261647 0.29022527 0.027171737 0.09233595 -0.17459156 0.043789137 0.02088736 -0.24138464 0.3993091 -0.13042168 0.06406655 0.35912475 -0.13227414 0.3406116 0.28878704 0.234108 -0.009239954 -0.21664731 0.165787 -0.049702693 -0.20063058 0.14553532 0.0151963625
页面 -0.07345426 -0.23611665 0.059056416 0.08614864 0.26162508 -0.13134637 -0.31434894 0.07958922 -0.084746405 0.030817226 0.24000941 -0.21716489 -0.29111454 -0.0534997 0.20367718 -0.018191166 -0.06833693 -0.10750374 0.11785662 0.40383023 -0.0142746745 -0.04044984 0.15639657 0.14113499 0.09308618 -0.1571075 0.34806615 -0.06665867 -0.13922861 0.08893937 0.09210933 -0.23182449 -0.0052128728 -0.066505045 -0.054513197 -0.21424547 -0.1369728 0.044440705 0.03104323 -0.083860904 0.20572788 -0.068746515 -0.09884508 0.09557491 -0.05404055 0.18286446 0.00027729818 0.03343641 0.13338819 0.33579105 0.10442554 -0.091397576 -0.0763782 0.19213545 0.05014809 0.06353059 0.19231007 -0.35981074 -0.07507641 -0.18703781 -0.21677361 -0.036048576 -0.13532755 0.22995104 -0.10585201 0.0759504 0.093605645 -0.29811826 0.09627457 -0.19263346 -0.15172563 -0.107022665 0.12867475 0.06897481 0.17329828 0.29308566 -0.14574702 -0.019887662 -0.11208197 0.28571522 -0.06898932 -0.15853062 -0.17914575 0.02165572 0.05275829 0.22860746 -0.21861222 -0.09965041 -0.25521103 -0.1491898 -0.062948786 -0.049259942 0.09530155 -0.018758288 0.06931908 0.23453556 -0.011769022 0.16402966 0.103155404 0.10255929 -0.022786008 0.21858169 -0.14318705 0.0110357115 -0.05131428 0.1709242 0.1832152 0.06100756 0.113869585 0.083653525 0.095843084 -0.04405122 -0.06575676 -0.08155271 0.19777998 0.36412784 -0.14947899 0.051813696 -0.2553484 -0.026840236 0.042478856 -0.059340842 -0.3771987 -0.06816084 -0.11377028 -0.17375015 -0.22107878 -0.13287912 0.07925576 0.10732407 0.030061096 -0.110443875 -0.19566853 0.079825655 0.1864219 -0.027293194 -0.35766298 -0.02580286 -0.14480013 0.030651981 0.09248238 -0.15412092 0.13547483 0.25126243 0.043831423 0.24283081 0.09446102 0.07997611 -0.12861662 0.060719874 0.1502793 0.026565688 0.20493984 0.20053497 -0.11451258 0.08800856 -0.107824855 0.09966502 0.13317268 0.03309846 0.123106994 0.29423904 -0.24526374 0.015909523 -0.24294072 0.11445847 0.14868455 0.26170155 -0.0069526434 -0.17462379 -0.032825787 0.019257355 -0.058177423 -0.158937 -0.06919679 0.1262622 0.16588871 -0.1730755 -0.2094317 -0.051284254 -0.14276332 -0.29310605 -0.13109882 0.15278186 -0.35643598 -0.014269615 -0.08814424 0.37373766 0.085376695 -0.09537784 0.053040322 0.016710697 0.29738194 0.022734948 0.048466314 -0.07376247 0.125809 -0.12171482 0.060297724 -0.19672728 0.13535708 -0.1485822 0.025012149 -0.108569406 -0.044309355 -0.16030632 -0.19203669 -0.018096985 0.06909261 0.054708414 0.02022889 0.14584588 0.06416533 0.12857938 0.14556028 0.30654913 0.058417786 0.009751726 -0.22943854 0.21556899 -0.13524325 0.24380489 -0.17040259 0.15099427 0.053738832 -0.11188349 -0.016115509 0.18395372 -0.056637272 0.25766036 0.0070210877 0.015885403 -0.079992004 0.035307363 0.18240173 0.24307774 -0.007856369 0.03170486 0.012405213 -0.2993406 -0.0042033657 -0.11515784 -0.1352031 -0.09724259 0.16780353 -0.007075607 0.02593459 0.29116988 0.044241037 -0.04891078 0.20957789 0.1391791 -0.028876668 0.10712501 -0.11375355 -0.14469628 -0.02423888 -0.06410487 0.10880077 -0.013845421 0.35111335 0.2783273 0.11218274 -0.10568688 0.011529294 0.11831614 0.13794488 0.123227105 -0.2062062 0.010372535 -0.04315658 -0.034565613 0.07650282 0.28693634 -0.109754905 -0.37146953 0.34990224 0.19824082 0.26251382 0.065104276 0.10303036 -0.1657527 0.072235696 0.061439555 -0.27917528 0.08470066 0.088233106 0.05447275 -0.008181567 -0.17448251 0.27854392 0.049936805 0.15281525 0.0056161447 -0.18481764 0.24569869 -0.055991422 -0.08816877 0.19921705 -0.05410199
信息 0.028120419 -0.10091556 0.010585052 0.33621666 0.21974875 -0.036346536 -0.42358223 0.110398255 -0.06205469 0.08048764 0.22336741 -0.30367485 -0.36636224 -0.054464735 0.32172793 0.1338849 0.16866532 -0.024832658 0.02347897 0.38412058 -0.18679138 -0.055806305 -0.0100514395 0.08106233 0.04218951 -0.22240284 0.23121122 0.106149815 -0.24393809 -0.03255653 0.21703698 -0.06861916 -0.1349835 -0.39597708 -0.1923549 -0.1151082 -0.21408676 -0.03464641 -0.12099286 -0.18647248 0.25734112 -0.048169397 0.112600975 0.15345678 -0.1321242 0.16399531 -0.2494935 0.019808479 0.04210437 0.36113855 0.1812694 -0.09871574 -0.06252917 0.1125879 -0.031166542 0.09596003 0.34966177 -0.29062915 -0.111848466 -0.39132175 -0.17532179 -0.063133314 -0.07647706 0.14803727 -0.3382553 -0.14386277 0.012962084 -0.14499894 0.096666604 -0.1359832 -0.12564622 -0.12017294 -0.042956345 0.16150913 0.24853243 0.4349564 -0.21536218 0.08126084 0.07397917 0.29701182 -0.23384918 -0.31107354 -0.21275179 -0.056228455 0.1073112 0.2630838 -0.23306052 -0.20598859 -0.4757905 -0.1525192 0.00084624114 0.009038436 0.06790663 0.042700812 0.27773595 0.40984988 0.112585 0.19416913 -0.011544758 -0.08934609 0.041244145 0.33941886 -0.18313842 0.041995857 0.06686653 0.17862292 0.18619929 -0.09947404 0.09088822 -0.011839893 0.256498 -0.119717516 -0.054020792 -0.028456021 0.20151216 0.31185117 -0.30556983 -0.07504152 -0.23087612 -0.18083358 0.011303596 -0.073699184 -0.3352934 -0.19393873 0.072629526 -0.10129112 -0.37952134 -0.2913266 -0.0886734 0.2213615 0.08486884 -0.15040492 0.14831112 0.122649275 -0.045085154 0.15426916 -0.45467046 -0.045903258 -0.43843108 0.08528887 0.007125899 -0.3272883 -0.046300657 0.29236433 0.04408124 0.21594922 0.30775648 0.25288153 -0.17976944 -0.15914012 0.25489852 -0.05711723 0.15255632 0.2810365 -0.1564086 0.0010745561 0.0058120973 0.08158246 0.16506806 -0.08308293 0.02658219 0.31066042 -0.2935915 0.023305334 -0.15374497 -0.056492098 0.14127228 0.059641022 -0.27850565 -0.20154083 -0.012417854 -0.04969398 0.06341931 -0.04838439 -0.03831129 0.07072154 0.28218362 -0.19322659 -0.19223675 -0.27673453 -0.11942139 -0.4618971 -0.23768318 0.0116730975 -0.34937385 0.13153146 -0.111916386 0.25823414 0.23756005 -0.08264322 0.21618047 0.03306856 0.4078541 -0.18716489 -0.16727372 -0.17528833 0.09347725 -0.11484721 -0.036359657 -0.13711642 0.09128131 -0.108666785 0.049783655 -0.36021635 -0.07761279 -0.14497285 -0.2715934 -0.062024217 -0.15387242 0.045666438 0.12672676 0.09222167 -0.036188103 0.08913337 0.26211545 0.33356518 0.38595396 -0.07200677 -0.1638212 0.14963157 0.09199223 0.31826204 -0.004356103 0.16335817 -0.24460676 0.07768676 0.04450968 0.11301145 0.027973741 0.20828399 -0.0445755 -0.17767817 0.017453529 0.086588435 0.07399638 0.34554723 0.1250542 -0.0469084 -0.064118035 -0.26268113 -0.0921191 -0.23701891 -0.23606828 0.042524174 0.12845506 0.103866845 0.007350275 0.24159811 0.23722418 0.07814883 0.24619967 0.1946816 -0.12170978 0.21394448 -0.28495458 -0.17936608 0.012640348 0.007682086 -0.030870538 -0.11198078 0.2740181 0.5116741 0.33592242 -0.1427625 0.007877394 0.23052014 0.019874893 0.16649395 -0.213278 0.003700316 -0.15456676 0.038219027 0.14477775 0.23751298 0.024341762 -0.48516506 0.44074798 0.1860184 0.21677597 0.031059628 0.07722922 -0.15266767 0.033948362 0.04410169 -0.18698372 0.26664105 -0.11383588 0.06526892 0.24540676 -0.10943769 0.26155156 0.24095027 0.15719278 -0.0014769472 -0.17900807 0.14788799 -0.029084498 -0.14088161 0.12773219 0.018648855
注册 0.04035797 -0.13637412 -0.009889686 0.36489 0.2390882 -0.07900753 -0.44215134 0.12798022 -0.08935768 0.10219364 0.16408116 -0.3657102 -0.4011282 -0.035496123 0.35173163 0.15259944 0.15714377 -0.0010925974 0.099377364 0.41947234 -0.22203822 -0.068304226 0.012903352 0.075744525 0.030315047 -0.24765946 0.31475422 0.040847257 -0.23415405 -0.032881215 0.1976467 -0.09928532 -0.16071543 -0.48851955 -0.2170917 -0.16164795 -0.1768384 -0.05368224 -0.10142928 -0.23271504 0.2999517 -0.071221136 0.10659714 0.141609 -0.1386928 0.1815571 -0.28046408 0.06306329 0.074083745 0.40260017 0.20282061 -0.11701143 -0.087661654 0.12994656 -0.054677114 0.050157957 0.33377188 -0.2868338 -0.119251885 -0.48542187 -0.17602655 -0.0858933 -0.100920886 0.22232251 -0.36360022 -0.16702385 0.027438954 -0.1099612 0.08011868 -0.15816353 -0.07518045 -0.15809987 0.03027125 0.11738142 0.24823979 0.4597645 -0.1852622 0.1303525 0.06325261 0.324133 -0.2405094 -0.29913428 -0.19153804 -0.044993192 0.1298672 0.24015786 -0.24870846 -0.18205453 -0.5012784 -0.15386528 -0.06550039 -0.035472054 0.0996327 0.022917004 0.3356139 0.40806887 0.1225748 0.18823479 -0.039172146 -0.13548636 -0.012212445 0.34982723 -0.20347555 -0.0185431 0.096954755 0.14760222 0.20351154 -0.10138179 0.0730936 -0.0011756297 0.29416683 -0.08990408 -0.05867849 -0.01220797 0.23949303 0.2854803 -0.2989029 -0.039714895 -0.27216166 -0.22819348 0.060045056 -0.0770798 -0.34511623 -0.18050721 0.044227093 -0.0828284 -0.45518535 -0.30440214 -0.09941367 0.24591383 0.06807322 -0.14742208 0.16791499 0.072050065 0.010814662 0.16617027 -0.5534246 -0.04466387 -0.47682372 0.080220796 -0.08772588 -0.34466696 -0.06549311 0.25555095 0.0381003 0.29079852 0.332984 0.27623883 -0.12938344 -0.14939465 0.18828247 -0.052603893 0.19584613 0.3440006 -0.17734924 0.012770603 0.02137814 0.04868769 0.16795412 -0.098799646 0.05860204 0.30306625 -0.32215506 -0.013385208 -0.13932993 -0.06337272 0.16623238 0.06480024 -0.33379152 -0.27272892 -0.028506793 0.018613305 0.0073843035 -0.015264413 0.0054911515 0.10911429 0.3119371 -0.22207865 -0.20473148 -0.2582972 -0.15817493 -0.4881541 -0.2609539 0.011751822 -0.4471956 0.1698526 -0.07362818 0.2808891 0.20931326 -0.11593667 0.21603453 0.07093051 0.44429785 -0.18466969 -0.19140875 -0.22244078 0.029857676 -0.14459416 -0.022095408 -0.15221676 0.09373606 -0.14209023 0.0336201 -0.39440688 -0.113898166 -0.14469232 -0.23642494 -0.033623263 -0.19459811 0.022691686 0.15599142 0.11318786 -0.009044184 0.107447326 0.25114915 0.34529004 0.44621608 -0.083971605 -0.21221447 0.15417856 0.15181777 0.29796445 0.019822558 0.13109624 -0.20017992 0.038322885 0.054861013 0.11019814 0.029660255 0.27589577 -0.047052085 -0.22614062 0.012742981 0.02299782 0.069742955 0.36874732 0.11303328 -0.06332633 -0.09571554 -0.3184045 -0.06619034 -0.2146678 -0.23727445 0.0125942165 0.1595565 0.09049267 0.034888115 0.19749586 0.21904862 0.058836117 0.27877924 0.26683575 -0.14813453 0.21522522 -0.31477976 -0.20184545 0.053508926 0.0014245291 0.016244303 -0.13729022 0.27911034 0.6210334 0.33622608 -0.09243213 0.0056993742 0.20989825 0.029842872 0.1850494 -0.2477104 -0.012397977 -0.18181619 0.069595344 0.093826525 0.25104156 0.02711957 -0.58239675 0.41251928 0.19648717 0.26536825 0.033649802 0.10345205 -0.15200533 -0.008890667 -0.01686118 -0.21313743 0.29188105 -0.053904 0.047225907 0.235712 -0.08570733 0.2554152 0.19053897 0.17330623 0.013032991 -0.21194917 0.13762115 -0.047543176 -0.16274968 0.09785595 -5.270543e-05
用户 -0.030388204 -0.19284683 0.041908134 0.18011995 0.2467873 -0.094559215 -0.36262086 0.092855826 -0.07568101 0.059715293 0.22194259 -0.24900375 -0.32175577 -0.05627423 0.26646006 0.037167616 0.012190279 -0.07454235 0.09420236 0.40362164 -0.07996174 -0.044217736 0.096479 0.11982186 0.06738537 -0.17799425 0.31262058 -0.016521247 -0.17584267 0.05077519 0.13962062 -0.18763827 -0.05819909 -0.19044605 -0.111460485 -0.18300681 -0.15981099 0.009494409 -0.018764015 -0.13208796 0.22606455 -0.05660829 -0.020761495 0.114422485 -0.0841869 0.18129934 -0.09259861 0.03374489 0.10188998 0.34783575 0.13407508 -0.10752889 -0.08139139 0.1684015 0.020436127 0.06619258 0.239005 -0.33385438 -0.09068697 -0.2687746 -0.19467759 -0.038639586 -0.11547444 0.20544413 -0.19351047 -0.0104186945 0.063464805 -0.23863317 0.08906159 -0.17510362 -0.13674709 -0.10644049 0.0681978 0.09810533 0.19404428 0.3496191 -0.1597834 0.019157313 -0.044250455 0.29442582 -0.1232118 -0.20426008 -0.18818967 -0.0100724725 0.07566221 0.23909785 -0.22091337 -0.13877352 -0.34047082 -0.14742458 -0.047395077 -0.036490683 0.08423354 -0.0063479915 0.1527544 0.30194548 0.042301774 0.17041895 0.05912984 0.01756195 -0.013118913 0.25345424 -0.1611417 0.021199113 -0.0046042446 0.17387396 0.18665212 0.0063863033 0.105951265 0.05276325 0.17453799 -0.067409374 -0.06522348 -0.06450256 0.20210962 0.34312233 -0.1997712 0.013122914 -0.2574133 -0.092391275 0.035942324 -0.06755028 -0.36228758 -0.10795048 -0.050857887 -0.14537778 -0.27843595 -0.19193718 0.0139590455 0.14811695 0.04954098 -0.12312703 -0.069806516 0.089349754 0.10620556 0.038513113 -0.39900202 -0.036918566 -0.254278 0.057400983 0.0554654 -0.20963421 0.0709063 0.26837 0.037494645 0.24048051 0.17191513 0.13335973 -0.13627696 -0.014188763 0.17890653 0.0024923547 0.18972608 0.23301657 -0.12775554 0.055798247 -0.060824987 0.08962458 0.13975105 -0.0021023785 0.08854332 0.30363095 -0.2713648 0.010458358 -0.20535444 0.055921238 0.15555336 0.19480121 -0.11358863 -0.20032245 -0.028074114 -0.005195476 -0.029827185 -0.123437814 -0.0465991 0.11062819 0.21663164 -0.18579198 -0.21438916 -0.13693911 -0.13816921 -0.3585919 -0.177535 0.1090082 -0.3718567 0.037247017 -0.1041871 0.34034958 0.1398921 -0.09951011 0.10932971 0.023330428 0.3416628 -0.048801925 -0.02715944 -0.115457155 0.11319474 -0.1211778 0.026078047 -0.17907579 0.12526245 -0.1378057 0.031029364 -0.2086789 -0.05214189 -0.14915362 -0.21461116 -0.020304712 -0.014807272 0.048017662 0.065609746 0.1301714 0.036308248 0.11909473 0.18487178 0.3173262 0.18003835 -0.023779722 -0.21730977 0.19229278 -0.04841666 0.26963064 -0.117222026 0.15616323 -0.04854186 -0.04540634 0.002785978 0.16464421 -0.035147775 0.2547011 -0.005809294 -0.05941255 -0.04878602 0.046860628 0.14027873 0.2924444 0.035582423 0.0071473913 -0.017146662 -0.29342258 -0.025600813 -0.15869689 -0.17105764 -0.04142227 0.17256336 0.021555742 0.027033828 0.27533957 0.10576617 -0.0068612983 0.23205152 0.17399192 -0.061400335 0.14785247 -0.17642593 -0.16163684 -0.005734691 -0.0404829 0.06837518 -0.048263073 0.33404082 0.38148865 0.18982717 -0.11054891 0.010046741 0.1572507 0.096974 0.1477097 -0.2111361 0.00013608043 -0.08842316 -0.0039453055 0.09442076 0.27869013 -0.059449866 -0.4315917 0.38393012 0.19952235 0.25855574 0.06475953 0.09873487 -0.15350167 0.053429466 0.047010206 -0.25585267 0.15303071 0.021919498 0.051543847 0.07991099 -0.1534793 0.26156506 0.11545559 0.15847223 0.0035175723 -0.18940078 0.21495983 -0.048890613 -0.11065361 0.18221375 -0.032976795
评测 -0.25604215 -0.41648182 0.1552004 -0.32635137 0.23010097 -0.15588534 -0.054998085 -0.035551094 -0.107102506 -0.1755675 0.30224797 -0.0529983 -0.15043785 -0.031849843 -0.005093977 -0.32936287 -0.32227913 -0.38076267 0.15395072 0.45557144 0.29560584 0.06593001 0.3756368 0.18647659 0.18116954 -0.06863066 0.42471206 -0.21878031 -0.012386618 0.22135149 -0.010574254 -0.4920174 0.17046079 0.5680065 0.14857984 -0.30010724 -0.103915796 0.28327462 0.31485274 0.1901177 -4.9587557e-05 -0.010019358 -0.3647122 -0.018992914 0.0421469 0.09389366 0.43036097 -0.10042574 0.19639215 0.14238806 -0.101317115 -0.10002223 -0.058983315 0.26768926 0.17348875 -0.013753131 0.019451266 -0.42186671 0.032804202 0.33461806 -0.2813969 0.15215883 -0.2211242 0.1383041 0.36704293 0.3339939 0.18643288 -0.6055206 0.12171652 -0.28065908 -0.27163008 -0.02397339 0.29393652 -0.0073182816 0.0063379905 0.09401622 -0.05467511 -0.30464444 -0.35286438 0.24072698 0.14383687 0.036854994 -0.19893372 0.14188182 -0.019613195 0.18411039 -0.22562262 -0.0038305433 0.09644953 -0.17749439 -0.05484059 -0.03904524 0.020648347 -0.04807996 -0.26869848 -0.072787456 -0.21815656 0.054929476 0.24752465 0.39375052 0.02148431 -0.0042051366 -0.103949465 0.091802254 -0.19443531 0.30338562 0.18002993 0.26801726 0.20947331 0.23621628 -0.15884186 0.019028563 -0.105149314 -0.22731566 0.16602609 0.32964337 0.14404799 0.15508042 -0.23216954 0.18287921 -0.021819869 -0.06496387 -0.40434644 0.17610982 -0.36317974 -0.44883496 0.13838524 0.08092201 0.47477895 -0.17290534 -0.030505648 -0.025919033 -0.706303 0.017784536 0.4502699 -0.37617818 -0.040920757 -0.10974664 0.3379099 -0.014823469 0.42999482 0.038974203 0.4538448 0.28370446 0.060842827 0.28423992 -0.27337235 -0.41449502 -0.2393568 0.26429725 0.160201 0.25276977 0.10331278 -0.038991228 0.049091782 0.19841804 -0.19167607 0.20857134 0.059564993 0.31370658 0.12630267 0.16135308 -0.10297111 0.17272118 -0.3456311 0.43476906 0.16120923 0.6037341 0.50582147 0.041639853 -0.043818384 -0.1280346 -0.1905756 -0.26439002 -0.12751694 0.2264725 -0.017031847 -0.026168596 -0.17975071 0.16875221 -0.14829166 0.027434321 0.05467769 0.3401042 -0.19171825 -0.21064223 -0.05190027 0.5279789 -0.10265764 -0.019458761 -0.16953552 -0.16685212 0.118802905 0.3185468 0.34674862 0.17655466 0.24516495 0.042563766 0.2243875 -0.26002127 0.2403188 -0.19103868 0.06493978 0.2778439 -0.029416427 -0.13006473 -0.20052306 0.0961545 0.5039128 0.2747127 -0.19248275 0.25744396 0.106392056 0.13434464 -0.016664462 0.17109573 -0.49266893 0.108805716 -0.27540958 0.34506488 -0.5849778 0.18702346 -0.4948498 0.20644099 0.33674884 -0.36235428 -0.103673756 0.30896816 -0.2330881 0.20768777 0.19729885 0.43750057 -0.26619032 0.018096443 0.34814864 0.13844468 -0.20846587 0.15439872 0.17264125 -0.21113583 0.13827947 0.09586548 0.07661591 -0.24860238 0.28861445 -0.17268896 0.012164931 0.39132434 -0.14448664 -0.16809314 0.021185232 -0.010550426 0.14349379 -0.092708364 0.058399253 -0.061646227 -0.035099234 -0.13980766 0.27608854 0.18440424 0.4214156 -0.21763806 -0.11919427 -0.11534328 0.02142782 0.041188013 0.32567146 0.0022256572 -0.13095552 0.041290022 0.18207173 -0.1400507 0.07914759 0.26204717 -0.32282332 -0.089850836 0.32139984 0.15068817 0.21283637 0.15936121 -0.020887002 -0.086053975 0.22923684 0.12745947 -0.44329962 -0.18152109 0.31286022 0.11323612 -0.39097717 -0.39574775 0.283513 -0.13049017 0.08455766 -0.030055134 -0.15959018 0.46416423 0.011328318 0.009562878 0.5096111 -0.09058066
修改 0.051571336 -0.057270054 -0.013272888 0.43712816 0.2182589 0.007144081 -0.4828993 0.10021118 -0.040482417 0.06771868 0.28848198 -0.35854602 -0.44025397 -0.07714459 0.38989383 0.16441993 0.30126223 -0.05759164 -0.02617059 0.45614046 -0.24458258 -0.061649796 -0.058837455 0.060897514 0.021422124 -0.2567604 0.20210473 0.19425777 -0.30366153 -0.08614175 0.31561786 -0.017681452 -0.16766457 -0.5222188 -0.2670017 -0.07704178 -0.27959213 -0.0468109 -0.187632 -0.18659934 0.28474644 -0.025187422 0.2071049 0.20569918 -0.19869648 0.15209003 -0.34494433 -0.0369256 -0.009062262 0.3976255 0.21384408 -0.10748011 -0.04982737 0.09561735 -0.060416978 0.14279263 0.45379153 -0.32176247 -0.11769425 -0.45187816 -0.1682122 -0.028904445 -0.0842102 0.07367674 -0.43269023 -0.22545092 0.0044145808 -0.14359744 0.11553395 -0.16090316 -0.14034975 -0.12864025 -0.1272542 0.24096213 0.32322133 0.5420457 -0.27688015 0.08909419 0.13522765 0.34991738 -0.32099214 -0.39376113 -0.27363446 -0.11793397 0.14098494 0.33239338 -0.29650232 -0.30828694 -0.61016816 -0.18293107 0.07357188 0.06384801 0.048357695 0.08720132 0.35398877 0.5050619 0.14965919 0.23596217 -0.06172212 -0.14376357 0.09387357 0.4026616 -0.2235285 0.07176918 0.08930102 0.22213732 0.22159755 -0.14795129 0.13660485 -0.042286195 0.34339535 -0.16303821 -0.03883568 -0.053349126 0.23901772 0.32717288 -0.40113837 -0.15949677 -0.24285987 -0.2372132 0.0062045343 -0.097706035 -0.36417925 -0.23826575 0.12510024 -0.11036755 -0.43795234 -0.3930281 -0.11933534 0.26028332 0.11943446 -0.17791764 0.27742714 0.1346083 -0.1493833 0.20025821 -0.49146217 -0.105406635 -0.556741 0.11987254 0.019965641 -0.44212678 -0.10571846 0.35123622 0.09036691 0.2506399 0.42213333 0.2981485 -0.28556162 -0.29005948 0.3535269 -0.08638412 0.078869276 0.32182685 -0.16462867 -0.030505367 0.049066078 0.086952806 0.18680318 -0.13733 -0.038366757 0.3623406 -0.32126078 0.07276736 -0.123848386 -0.10302403 0.14563158 0.0037433498 -0.3723438 -0.20936383 -0.0026985658 -0.14690769 0.09154097 -0.029546928 -0.033426948 0.06757325 0.37413326 -0.2079442 -0.19228809 -0.40444884 -0.1221152 -0.5793387 -0.2801705 -0.012149231 -0.33289638 0.18282293 -0.11435186 0.25006953 0.3449399 -0.068854414 0.30311775 0.009302533 0.4950853 -0.2796366 -0.2361539 -0.2291599 0.10938997 -0.11327617 -0.070004694 -0.11791235 0.07644338 -0.1088116 0.07013959 -0.48302245 -0.07940582 -0.14423102 -0.3715713 -0.10605804 -0.18867792 0.076858394 0.16854449 0.091223896 -0.072426915 0.09504687 0.35027212 0.38420743 0.536566 -0.12696998 -0.16772091 0.15140852 0.13961142 0.39025894 0.023462374 0.22083479 -0.41151288 0.13329755 0.079890914 0.104846984 0.02266815 0.17796093 -0.04715239 -0.24487399 0.054766912 0.13934547 0.073204726 0.43705425 0.1707424 -0.098636925 -0.101457 -0.26768988 -0.122523576 -0.3062499 -0.27711114 0.114250354 0.15906438 0.15147609 -0.035969347 0.26332065 0.36535156 0.15656717 0.27014628 0.21543036 -0.15946174 0.271687 -0.38579252 -0.22455132 0.013618266 0.0449554 -0.081755206 -0.12943709 0.27030206 0.61991376 0.47021678 -0.18239832 0.0035852646 0.2929384 -0.023279876 0.17645606 -0.2351459 0.0013016522 -0.19961385 0.06635334 0.18919542 0.25606737 0.056286056 -0.55367607 0.53298545 0.19580126 0.20736673 0.015508392 0.03299121 -0.13825548 0.07862394 0.06529412 -0.1910494 0.3934435 -0.21587856 0.08617385 0.3876045 -0.14374231 0.31193703 0.3507949 0.19264925 -0.034923602 -0.16924965 0.15364338 -0.009792971 -0.1792838 0.17138429 0.055536453
系统 -0.06919663 -0.21306227 0.062328022 0.057428014 0.22495756 -0.101626925 -0.26527208 0.059405446 -0.06774806 0.0063130856 0.21047813 -0.18795037 -0.260207 -0.044490557 0.1813083 -0.033790745 -0.061251555 -0.122658655 0.106959775 0.37199953 0.007458541 -0.020857716 0.14169416 0.11537384 0.08638271 -0.13995928 0.3094145 -0.060912695 -0.12431672 0.08552938 0.09792418 -0.23453687 -0.009381651 -0.026567765 -0.048610326 -0.18836783 -0.13105422 0.05767336 0.05343094 -0.058937073 0.15951204 -0.047745265 -0.09899712 0.07665014 -0.05112822 0.15180004 0.022779161 0.0083385585 0.11533664 0.27679768 0.07484281 -0.09664772 -0.07184751 0.17216343 0.0437294 0.044438507 0.17410542 -0.32713404 -0.054744296 -0.12369102 -0.19241677 -0.00989116 -0.12462994 0.17902328 -0.06599243 0.056595746 0.083373226 -0.28877196 0.092310086 -0.16785228 -0.1497984 -0.08112844 0.120163 0.060353808 0.14406647 0.26637843 -0.12078782 -0.045292716 -0.108401254 0.25573182 -0.06365104 -0.13456257 -0.1650223 0.026070049 0.05342124 0.20322557 -0.20053637 -0.09536506 -0.22427136 -0.13867193 -0.06080254 -0.031442907 0.06850001 -0.02298528 0.05884462 0.19705084 -0.012531833 0.12948236 0.08869719 0.096072465 -0.012640217 0.17915192 -0.12286407 0.018446892 -0.039275542 0.17759313 0.17288293 0.06435568 0.1087478 0.09071857 0.098017804 -0.043907773 -0.07046328 -0.08841245 0.18379058 0.30929777 -0.10381787 0.043160375 -0.2314356 -0.025468081 0.01909409 -0.054397903 -0.3438 -0.034804445 -0.11069194 -0.19450013 -0.17931193 -0.11670323 0.09978142 0.06658386 0.023968877 -0.08642711 -0.19530052 0.06357082 0.167383 -0.04871015 -0.30495524 -0.04428253 -0.11908329 0.030324 0.11589499 -0.1356086 0.1427744 0.24334641 0.03544725 0.23408669 0.062441286 0.015282515 -0.13448091 0.045946445 0.153771 0.052785162 0.15922222 0.16597092 -0.07937905 0.08944329 -0.083200924 0.10830907 0.11721366 0.05975065 0.09853421 0.24328622 -0.21618783 0.03838365 -0.21805528 0.1156422 0.14683095 0.25262472 0.023466686 -0.13946854 -0.02479782 -0.027318023 -0.05433431 -0.13604169 -0.056457624 0.12971207 0.15224965 -0.14114015 -0.18509136 -0.053134836 -0.12950648 -0.25679997 -0.11538941 0.14929965 -0.31214502 -0.016369203 -0.085930854 0.34966943 0.07461157 -0.08217511 0.045956004 -0.009396073 0.26169598 0.028114695 0.046848036 -0.041468564 0.13045281 -0.076678835 0.07198375 -0.18167813 0.13035706 -0.13975182 0.039347146 -0.08892268 -0.050273295 -0.13475578 -0.18335073 -0.0027742186 0.08664124 0.08602491 0.006736341 0.14110668 0.052517183 0.11516351 0.123313345 0.25705743 0.026613357 0.009329927 -0.20908312 0.20173375 -0.14986056 0.22606798 -0.17649089 0.14762165 0.041618913 -0.11605131 -0.020393744 0.18369009 -0.06456389 0.23403856 0.03327679 0.04098509 -0.086430095 0.03495529 0.1697265 0.23303041 -0.022523943 0.038589038 0.019650854 -0.25690138 0.0100485245 -0.095324546 -0.10192854 -0.09174598 0.17635623 -0.01212861 0.026987689 0.27126405 0.04187118 -0.04003733 0.17098357 0.119029224 -0.018229667 0.090221934 -0.10735855 -0.12649539 -0.011639236 -0.05602714 0.11274636 0.0007319132 0.3294722 0.22589715 0.10945998 -0.096111454 0.017824253 0.11608698 0.1339823 0.100990616 -0.17557241 0.007010065 -0.02660939 -0.035162795 0.08080612 0.24067031 -0.10912574 -0.3227721 0.32500404 0.1713372 0.2292757 0.08052673 0.07700595 -0.12897432 0.07597572 0.054236494 -0.27447894 0.05943707 0.093099006 0.06492767 -0.026740497 -0.17979763 0.23944591 0.04398618 0.1271877 -0.004074997 -0.16267228 0.23587063 -0.044376485 -0.08015835 0.21973057 -0.03383063
显示 -0.11868622 -0.27775565 0.0872968 -0.086635396 0.20673174 -0.113144934 -0.1473609 0.01783311 -0.08641377 -0.07655143 0.19957893 -0.1343635 -0.19909829 -0.032502294 0.068528555 -0.14401501 -0.1500744 -0.23198922 0.12545282 0.376556 0.11935007 0.0029878875 0.21988168 0.1186098 0.112729736 -0.112864345 0.33362204 -0.14248745 -0.05915872 0.11683965 0.04806631 -0.30364183 0.05484429 0.18904282 0.01739538 -0.21171361 -0.097990505 0.1473751 0.16016906 0.044221215 0.08017354 -0.03573116 -0.19238265 0.028571747 -0.01809447 0.114239134 0.1831232 -0.04086742 0.13539083 0.19723672 -0.010373536 -0.092723526 -0.058038406 0.18791407 0.089609586 0.010372224 0.10605213 -0.32558843 -0.008629694 0.06251468 -0.20660134 0.048696056 -0.16552363 0.14147933 0.11910633 0.15716913 0.120105684 -0.37353095 0.08789818 -0.19744313 -0.17078444 -0.05846103 0.20864397 0.012344725 0.072316185 0.1762471 -0.08580922 -0.13000707 -0.19337147 0.21932574 0.027183792 -0.046916515 -0.16384123 0.081413664 0.03958281 0.15420869 -0.19618885 -0.029466843 -0.07745184 -0.13323587 -0.07597961 -0.034739908 0.0406146 -0.028177937 -0.059473358 0.046861354 -0.07833668 0.08123855 0.13737574 0.20642991 -0.010056856 0.08080483 -0.11064944 0.016727015 -0.08286256 0.20267808 0.16972566 0.14086066 0.12845275 0.13268256 -0.015610964 -0.0019246462 -0.082386866 -0.13760644 0.16812713 0.24377403 0.023167228 0.08246426 -0.2194733 0.0331825 -0.00393534 -0.061023794 -0.32201245 0.06678267 -0.2127439 -0.2758007 -0.06152643 -0.030986516 0.25346565 -0.038520254 -0.02327297 -0.055152003 -0.38104588 0.008349725 0.26976398 -0.18792003 -0.17566636 -0.07086813 0.06718862 -0.010907635 0.20557752 -0.06587377 0.2492031 0.2115112 0.056262515 0.24780588 -0.08014928 -0.1666972 -0.16820008 0.11679605 0.121924706 0.12577546 0.09795806 0.08148953 -0.012613391 0.12841071 -0.09762005 0.12894684 0.079158634 0.12984252 0.11704967 0.16885418 -0.15701304 0.109697856 -0.23262401 0.23348445 0.14957184 0.36812383 0.20553316 -0.0713478 -0.040259663 -0.068314165 -0.107194595 -0.14962405 -0.04741291 0.16961285 0.058931183 -0.08643248 -0.14702016 0.056258865 -0.13191448 -0.123665445 -0.039033644 0.20232618 -0.25348327 -0.07087273 -0.046874177 0.40102917 -0.007438409 -0.054420177 -0.028460566 -0.062404264 0.17222196 0.14512286 0.1531085 0.044972047 0.13714501 -0.013287497 0.14673549 -0.2009337 0.1552329 -0.16159858 0.034437355 0.06585988 -0.056883205 -0.11633642 -0.17310539 0.03917643 0.22938369 0.1558414 -0.06884668 0.18381496 0.06431304 0.12226281 0.04807679 0.1994602 -0.15932885 0.041310955 -0.23038436 0.23766457 -0.2969217 0.18609364 -0.28616852 0.13902688 0.14601514 -0.20684564 -0.034388 0.21860158 -0.12850527 0.2114376 0.11274306 0.17733712 -0.15901534 0.0010075314 0.21658893 0.17179783 -0.10031455 0.08702467 0.061456818 -0.21778613 0.07074061 -0.012789367 -0.016399514 -0.15767567 0.20523688 -0.08339885 0.023917908 0.2696787 -0.029348567 -0.086733 0.09234476 0.07210402 0.027159547 -0.011503466 -0.04099742 -0.090909466 0.00010957093 -0.08992672 0.1779988 0.06200959 0.33414203 0.051828563 0.0010738552 -0.0902744 0.020031182 0.0631396 0.19634613 0.051792085 -0.15146314 0.019830624 0.052969098 -0.06330547 0.07717948 0.21013148 -0.1853502 -0.22688925 0.28481996 0.1396011 0.20441589 0.098572366 0.02966268 -0.09503268 0.12886071 0.045641545 -0.29969457 -0.037845638 0.19903599 0.0818923 -0.16275105 -0.2430266 0.23391654 -0.042469207 0.10530385 -0.011753713 -0.14627218 0.30748075 -0.008024999 -0.035099342 0.30058384 -0.054269418
界面 -0.03508562 -0.19969018 0.03594755 0.14957446 0.25219026 -0.1164741 -0.3387478 0.09913196 -0.09013677 0.06518536 0.19463721 -0.24557179 -0.30397516 -0.049999025 0.20147128 0.026180934 -0.030224845 -0.062404927 0.111467436 0.3704993 -0.07388347 -0.06204753 0.10685086 0.11530091 0.06474933 -0.15797456 0.31842786 -0.062410813 -0.1393398 0.056705017 0.0978542 -0.18185323 -0.024124863 -0.16077934 -0.08779293 -0.18922956 -0.11778477 0.0037456772 -0.0065113916 -0.11331467 0.20935968 -0.063940585 -0.04504056 0.09914858 -0.06343251 0.19401543 -0.045635954 0.054436926 0.11085275 0.33939177 0.13029261 -0.084287666 -0.08093997 0.1644629 0.042115357 0.064891085 0.204049 -0.32404065 -0.08514565 -0.25070086 -0.19168764 -0.062092744 -0.12878269 0.23605251 -0.17144564 0.042120993 0.075656064 -0.22491512 0.08045016 -0.17412344 -0.104297675 -0.11551951 0.11906829 0.062159296 0.18008694 0.28776613 -0.15200734 0.03969466 -0.07900599 0.26317742 -0.08503424 -0.15902929 -0.15523599 0.011717714 0.079593495 0.20766068 -0.2054027 -0.10453766 -0.2902127 -0.1277815 -0.07648674 -0.05146139 0.11108503 -0.018251467 0.11834767 0.24697793 0.03224109 0.17997265 0.071811266 0.061335873 -0.046198916 0.23444396 -0.14124921 -0.017774433 -0.03026828 0.1342114 0.17410326 0.032808617 0.08971292 0.05228122 0.13175094 -0.0331817 -0.059071355 -0.06168472 0.20630303 0.32893157 -0.18114033 0.047112364 -0.2512691 -0.054660965 0.052163385 -0.053203385 -0.34681958 -0.08747146 -0.08459953 -0.11972155 -0.28604582 -0.15289548 0.03041196 0.13943072 0.028962633 -0.11908562 -0.11462118 0.06765211 0.1457587 0.012421711 -0.38253084 -0.012468436 -0.19949539 0.02190979 0.020839788 -0.16793433 0.08179171 0.21746552 0.04284166 0.23669297 0.14256494 0.15945376 -0.091262236 0.03744972 0.12463388 -0.00033879397 0.20635132 0.2325611 -0.1240296 0.06700835 -0.09192621 0.05893041 0.13684537 -0.020781877 0.11696481 0.29300424 -0.25171807 -0.0025503787 -0.21132483 0.07057263 0.13747689 0.19536327 -0.08816774 -0.21475169 -0.035112083 0.04063658 -0.045309577 -0.12024855 -0.03093788 0.1082113 0.17537488 -0.1889605 -0.19562474 -0.05856385 -0.1381673 -0.32627225 -0.14661615 0.12222697 -0.36880922 0.026653377 -0.08339409 0.3526727 0.0981115 -0.108641826 0.08936624 0.05819401 0.2984616 -0.016182128 0.008401722 -0.09931494 0.07889745 -0.14640543 0.047554042 -0.1857016 0.11369022 -0.13903955 0.0052716294 -0.1563758 -0.04676922 -0.15698093 -0.18359101 -0.016196067 -0.0022932463 0.00932513 0.059725575 0.1239644 0.060944796 0.11892339 0.14440256 0.3089038 0.14089206 -0.010646008 -0.21074605 0.17653176 -0.056879833 0.23430651 -0.13043565 0.122461036 0.01032359 -0.0789112 -0.0033381185 0.14980821 -0.0323347 0.25784263 -0.007820605 -0.05275819 -0.053917002 0.026352622 0.15123026 0.2326598 0.020355249 0.023346521 -0.020276012 -0.3018023 -0.0072728717 -0.14566493 -0.14929827 -0.081326865 0.14259098 0.0098044835 0.024543572 0.23906346 0.06400145 -0.02605484 0.23136535 0.15475072 -0.06616465 0.105629995 -0.1262066 -0.14042673 -0.01586665 -0.05393521 0.09450899 -0.053512543 0.32861197 0.33758676 0.122269794 -0.093792945 0.008983631 0.12122487 0.10423293 0.13708411 -0.20733371 0.0072598658 -0.08221986 -0.013354429 0.07441237 0.27547643 -0.08546339 -0.41472408 0.32238132 0.19329 0.26937026 0.05030735 0.117944725 -0.17008321 0.043282025 0.021320144 -0.23068336 0.11505051 0.076316126 0.046694946 0.050165467 -0.1238131 0.25347954 0.04856076 0.16062228 0.016237913 -0.19179705 0.2155085 -0.05202025 -0.09938926 0.12893973 -0.051190056
测评 -0.2602823 -0.48672047 0.15280236 -0.3826831 0.19056632 -0.16238302 0.03948921 -0.0690739 -0.14545812 -0.28436026 0.2831732 -0.08066504 -0.1604579 -0.067663565 -0.088647224 -0.4032692 -0.33810705 -0.48952028 0.13206758 0.48980066 0.30938372 0.06753644 0.43354884 0.16641465 0.1927934 -0.078138985 0.43252602 -0.26661444 0.031013716 0.22897506 -0.025476072 -0.51097625 0.21222623 0.6707364 0.1851988 -0.32437778 -0.09254774 0.3683785 0.40231436 0.2662258 -0.033403244 0.03250951 -0.38631013 -0.058699906 0.035233077 0.0653354 0.52236617 -0.18267803 0.18103881 0.09592205 -0.20351131 -0.11831151 -0.08678572 0.275189 0.2164738 -0.0373811 0.0088626 -0.4301528 0.0661466 0.48500013 -0.31222844 0.21286173 -0.2652996 0.09057013 0.49464968 0.3961104 0.25400347 -0.6734029 0.14179577 -0.33713782 -0.29025602 -0.034282234 0.34783784 -0.009859611 -0.04579492 0.06430998 -0.023976134 -0.35760012 -0.38900858 0.28445148 0.17128025 0.11463661 -0.24528205 0.14967892 -0.016276415 0.16224292 -0.26690286 -0.0066149207 0.17391399 -0.16884464 -0.07202425 -0.052310742 -0.007088995 -0.009824567 -0.3238074 -0.15716231 -0.24169593 0.022583988 0.23314704 0.45450634 0.020648018 -0.061751537 -0.12176084 0.11858943 -0.22078541 0.3614884 0.17659834 0.2795201 0.25554845 0.2682061 -0.2159077 0.046512917 -0.13030101 -0.274903 0.19158125 0.2630991 0.22559294 0.16010404 -0.2605284 0.16585328 -0.023493197 -0.07146674 -0.41597033 0.25661263 -0.43617567 -0.55950284 0.20388454 0.08363046 0.59351313 -0.23987661 -0.078031756 -0.011872134 -0.7961462 -0.057098575 0.5031325 -0.50569844 0.025556572 -0.17806605 0.4336065 -0.033920746 0.4843615 0.029014613 0.5381275 0.2986213 0.08695822 0.35811916 -0.33477566 -0.57508343 -0.32199013 0.27066347 0.15048485 0.33708218 -0.0044495733 -0.08452979 0.09020931 0.19792214 -0.16889207 0.22333905 0.026108937 0.35370326 0.103311814 0.090819575 -0.06532006 0.2516233 -0.34924656 0.530417 0.16144764 0.68548983 0.59086376 0.11113356 -0.0787276 -0.2089983 -0.22268972 -0.21734661 -0.10766133 0.29069966 -0.07875509 0.013931783 -0.15010306 0.19364999 -0.1470489 0.12748355 0.11226879 0.3676158 -0.12734367 -0.23314308 -0.008424465 0.5817451 -0.13020584 0.02289211 -0.19284855 -0.22315174 0.07656203 0.38044357 0.39281872 0.21184726 0.20362209 0.12883395 0.26846558 -0.26795495 0.22832297 -0.2364787 0.035446055 0.35630795 -0.032883976 -0.10947881 -0.273033 0.16820739 0.6101537 0.36573488 -0.22396621 0.32266864 0.09691839 0.16300245 -0.033774022 0.14964464 -0.589893 0.09609666 -0.2868301 0.41649726 -0.67421365 0.16172883 -0.59590334 0.20539612 0.36338213 -0.4297872 -0.096786045 0.3457159 -0.30169103 0.20147324 0.25441802 0.5468897 -0.33711624 -0.024832884 0.38508928 0.11949031 -0.2315353 0.13348855 0.16098998 -0.17268462 0.20552067 0.16354023 0.15153512 -0.26023218 0.3476321 -0.21061265 -0.00060012116 0.3778281 -0.14472009 -0.17798992 -0.058334317 -0.0012665617 0.15547912 -0.18713754 0.06876866 -0.028788289 -0.026146138 -0.16934156 0.33820137 0.22185998 0.35979027 -0.29590333 -0.14969933 -0.12637173 0.021938015 0.0142992595 0.3624586 -0.030353671 -0.14354283 0.048339687 0.22247721 -0.12950192 0.10829676 0.26028156 -0.36529946 -0.06952561 0.30080953 0.10070156 0.19023609 0.16894716 -0.08020619 -0.042038467 0.2512068 0.119457036 -0.47827968 -0.22109766 0.37530175 0.124293484 -0.45829153 -0.4654885 0.3118279 -0.18067254 0.08434635 -0.05721642 -0.16821134 0.5333833 0.039579175 0.036167186 0.59638464 -0.071320824
邮箱 0.038019907 -0.13273154 0.00785936 0.3860937 0.2410195 -0.04171498 -0.4688405 0.121680744 -0.08905205 0.081494935 0.22558971 -0.3542629 -0.41601074 -0.056698836 0.37123322 0.15542078 0.1901352 -0.038693544 0.041291498 0.45178264 -0.22025684 -0.052726332 -0.0005858189 0.07888079 0.04393318 -0.26755026 0.28896016 0.099610284 -0.27141836 -0.041705593 0.23554356 -0.09089532 -0.17882968 -0.47064006 -0.2219999 -0.13219865 -0.23005065 -0.023309825 -0.1186264 -0.22024713 0.30162537 -0.06988879 0.124194786 0.16412126 -0.15450811 0.17755912 -0.28031108 0.026435377 0.055958178 0.39662397 0.19640206 -0.11384914 -0.08202081 0.13668914 -0.049542733 0.085072316 0.3931535 -0.2987995 -0.12989664 -0.46123463 -0.19831927 -0.0637042 -0.097015336 0.17727537 -0.37566128 -0.18066786 0.019342463 -0.15052477 0.09846487 -0.170564 -0.14057456 -0.1505959 -0.03923555 0.16556148 0.25302187 0.49959993 -0.23117864 0.09358544 0.09390656 0.33955702 -0.27423817 -0.3552344 -0.23613366 -0.04806378 0.13097814 0.2906911 -0.27722645 -0.21034852 -0.53891736 -0.165128 -0.0027351961 0.0055790828 0.06257565 0.054968674 0.33057496 0.4567345 0.12971698 0.20413458 -0.024202 -0.1295557 0.041564103 0.38437885 -0.22273855 0.049437672 0.09755216 0.20301677 0.2104454 -0.12842886 0.098373085 -0.016631164 0.29051265 -0.12650035 -0.06519324 -0.025155526 0.22226922 0.32484457 -0.32243624 -0.08365171 -0.2631548 -0.2361974 0.021962052 -0.09219329 -0.35616326 -0.20837043 0.081976466 -0.1257623 -0.43781838 -0.33439654 -0.09800066 0.24128403 0.09552866 -0.17887059 0.18791537 0.10432948 -0.04284221 0.1741478 -0.532575 -0.06429955 -0.50707084 0.09593656 -0.006913814 -0.38403606 -0.06386521 0.32106853 0.04210652 0.27238294 0.35058466 0.25275278 -0.20217076 -0.19046539 0.27256364 -0.047762074 0.17670687 0.3159281 -0.17889625 -0.0065795295 0.028276635 0.08872639 0.17880704 -0.08137796 0.026969934 0.32783985 -0.32898745 0.029197281 -0.16084911 -0.057822965 0.1686705 0.08406955 -0.32184538 -0.235571 -0.024375102 -0.044746224 0.054502893 -0.038680073 -0.031169392 0.08312671 0.3267497 -0.20820847 -0.22336027 -0.3321244 -0.13798347 -0.5150132 -0.27820313 0.006181733 -0.42191917 0.17315564 -0.10694406 0.27919298 0.25299808 -0.09543497 0.22954066 0.017202992 0.47970277 -0.21618804 -0.21002042 -0.20784889 0.092558436 -0.12030901 -0.034632515 -0.14680178 0.112379804 -0.132853 0.05447695 -0.4107836 -0.110122375 -0.152467 -0.30478263 -0.054992404 -0.18615827 0.071431935 0.14246358 0.131063 -0.04520733 0.090151705 0.30077338 0.35667652 0.44994894 -0.09018593 -0.1940361 0.17277978 0.12165592 0.3547633 0.007836605 0.16937307 -0.2791245 0.08383177 0.0576999 0.12708843 0.034605842 0.25212827 -0.03590887 -0.19827503 0.0126020955 0.07139785 0.08436026 0.40981162 0.13196036 -0.054842915 -0.07462485 -0.30371433 -0.08922853 -0.24439675 -0.2625125 0.04949255 0.16335145 0.12322431 0.017912325 0.26349646 0.2738671 0.08882264 0.26634482 0.25074154 -0.14302817 0.24064802 -0.35065243 -0.21212159 0.05349295 0.015700761 -0.022861442 -0.124369934 0.2929691 0.61063236 0.3857069 -0.14667986 0.0024275833 0.2621045 0.02791691 0.19534211 -0.24695967 -0.0004333932 -0.16857418 0.060982578 0.15219846 0.26640826 0.03782194 -0.5645863 0.4969335 0.20923904 0.23664874 0.037905045 0.06768505 -0.16115543 0.024448039 0.023752782 -0.21690434 0.30849224 -0.1169184 0.06638639 0.25491786 -0.13102217 0.28888994 0.27314714 0.17521678 0.012029348 -0.20762141 0.17468014 -0.021065464 -0.15697168 0.15625009 0.021658055
页 -0.20211937 -0.359563 0.12661654 -0.26392898 0.19279869 -0.12612562 -0.04179455 -0.03537205 -0.09366697 -0.16951138 0.24446313 -0.06849595 -0.1466616 -0.04085917 -0.018042604 -0.2765258 -0.25651813 -0.34276468 0.13018373 0.3954505 0.24085705 0.046202227 0.31982934 0.13978261 0.14984734 -0.07210012 0.35706347 -0.19672585 -0.0066049523 0.18098451 0.004520791 -0.41177723 0.14693618 0.4643253 0.113474086 -0.2502986 -0.08969348 0.2463868 0.27750248 0.16829364 0.0015207442 -0.0035989226 -0.3011128 -0.010800426 0.019840423 0.08073234 0.36439273 -0.10111124 0.15732692 0.123431385 -0.10508815 -0.09223919 -0.056100205 0.22191404 0.1474297 -0.009395882 0.036402285 -0.36306942 0.03633857 0.29290575 -0.24402624 0.1319815 -0.198701 0.10609932 0.31660303 0.28676695 0.16787207 -0.515637 0.108981 -0.24768086 -0.22757538 -0.024586534 0.26267764 -0.005481535 0.010487737 0.094546594 -0.048475288 -0.25650266 -0.30013207 0.21582642 0.11338781 0.03884008 -0.18307622 0.11858386 -0.0013185277 0.151015 -0.2090776 -0.0025730073 0.07370046 -0.14250846 -0.060566135 -0.036146138 0.014766413 -0.032872315 -0.2176759 -0.06731725 -0.17365399 0.04720948 0.19702573 0.33481437 0.011433933 -0.007594266 -0.09695841 0.0695964 -0.15896119 0.26136765 0.16414595 0.22258873 0.18024325 0.19739306 -0.12960526 0.016919253 -0.09792777 -0.20051914 0.15764025 0.25822923 0.12799302 0.123914175 -0.2121598 0.12967408 -0.019757044 -0.058714036 -0.3477039 0.16229519 -0.31895024 -0.3953836 0.103269145 0.05192272 0.4149969 -0.15280937 -0.041551884 -0.024482036 -0.5965458 -0.013916628 0.37401146 -0.33744353 -0.0375309 -0.11021556 0.2790517 -0.022711124 0.3534388 0.013477331 0.3864839 0.24285732 0.059788123 0.2655498 -0.22137547 -0.36891207 -0.22262672 0.20980856 0.13393056 0.2241996 0.057997167 -0.023854656 0.047812082 0.16454078 -0.14542082 0.17210059 0.04787943 0.24682733 0.10625341 0.12492999 -0.08934351 0.1660853 -0.28790903 0.37176532 0.14233033 0.5110943 0.42260498 0.031860504 -0.04460405 -0.13078536 -0.15987349 -0.20346434 -0.08859327 0.20664851 -0.016353648 -0.022465501 -0.1401737 0.13908821 -0.12501474 0.020395001 0.04730334 0.2846205 -0.16432838 -0.16783495 -0.030921163 0.4584392 -0.08244629 -0.013963567 -0.13100015 -0.1487182 0.10163508 0.26662415 0.28432855 0.14517549 0.1900686 0.05369075 0.20306328 -0.22539401 0.19181406 -0.17170009 0.046208825 0.23851436 -0.03649182 -0.10606946 -0.19315659 0.08681295 0.42869413 0.24471894 -0.15531768 0.23298231 0.086709425 0.12579095 -0.007553609 0.14834027 -0.40451875 0.07894554 -0.23858447 0.29815245 -0.49334684 0.1592536 -0.4275708 0.16907996 0.26784036 -0.31266817 -0.0771808 0.26987597 -0.2052839 0.18226211 0.17661309 0.36398587 -0.2316507 0.0015673735 0.29903457 0.1249542 -0.17121364 0.12524307 0.12876056 -0.17917518 0.12795132 0.07577908 0.075115636 -0.21071859 0.25643328 -0.1438996 0.009384543 0.31957293 -0.10531744 -0.1334945 0.010292266 0.004581039 0.107752055 -0.09620121 0.036238212 -0.04727825 -0.018462002 -0.121359564 0.24545176 0.15094358 0.34110987 -0.16610232 -0.09592698 -0.0992105 0.020052027 0.029918285 0.275415 -0.004813657 -0.118695736 0.034134783 0.14911292 -0.10644999 0.07579507 0.2149056 -0.27695033 -0.09193711 0.27124813 0.117600635 0.17997001 0.13262706 -0.024481397 -0.06286582 0.19786882 0.097517096 -0.37371868 -0.14844757 0.27794614 0.101269536 -0.32189965 -0.34128344 0.24642006 -0.116453744 0.078171335 -0.030853478 -0.13391624 0.40541768 0.01292693 0.0066012 0.43124676 -0.069333576
首页 -0.070110396 -0.21799387 0.06764252 0.069289915 0.26446977 -0.113489985 -0.33231413 0.08076297 -0.07124638 0.049800005 0.22523354 -0.19815417 -0.2865436 -0.07446988 0.1904329 -0.012617978 -0.10320744 -0.080071025 0.10678676 0.3638824 -0.02087847 -0.045656458 0.13626897 0.121849455 0.09320914 -0.13131866 0.33102176 -0.09815425 -0.13519226 0.110715844 0.095653385 -0.24795389 0.00015588198 -0.03810434 -0.05634985 -0.18568066 -0.1290613 0.022062253 0.046396364 -0.07399453 0.16873781 -0.046541546 -0.101371266 0.11404168 -0.037719544 0.21323913 0.013669 0.039222047 0.12571327 0.3254185 0.098533444 -0.090317726 -0.09789854 0.18520604 0.06215057 0.08427852 0.18731683 -0.36646 -0.07755029 -0.15402767 -0.23721026 -0.048642047 -0.13277431 0.24049002 -0.113124855 0.09648313 0.07880224 -0.29943895 0.09846016 -0.17053461 -0.16313268 -0.07680127 0.09704395 0.061562747 0.17702526 0.27140245 -0.13595685 -0.011293891 -0.13994178 0.2651925 -0.042303696 -0.13380481 -0.17004423 0.024855902 0.055951882 0.23062661 -0.19823796 -0.093233995 -0.25572905 -0.12133798 -0.090196714 -0.03873088 0.102562346 -0.044898704 0.05646714 0.22593234 0.006527275 0.16394676 0.11408323 0.10696095 -0.04208096 0.20465963 -0.12743278 0.02147129 -0.060891226 0.1575631 0.15568808 0.07587361 0.08611877 0.077918164 0.110390335 -0.036697317 -0.080112614 -0.09441034 0.19386543 0.38272458 -0.14969485 0.07781354 -0.25786024 -0.02958483 0.036735367 -0.052894235 -0.38002518 -0.06615002 -0.1195855 -0.16917443 -0.22034462 -0.11361718 0.064714536 0.099217005 0.030201305 -0.10553482 -0.21074195 0.078045875 0.15612496 -0.032689948 -0.33125845 -0.009065039 -0.13570961 0.042646732 0.08002617 -0.12177605 0.15018222 0.26656568 0.016399197 0.23124953 0.10444983 0.07837368 -0.09553835 0.097607985 0.14797524 0.050171733 0.22554581 0.19030927 -0.08481521 0.065819986 -0.12543352 0.07819798 0.13445486 0.045156315 0.12203498 0.30993265 -0.2492917 -0.01654706 -0.25189114 0.11446358 0.13984396 0.24121188 0.0067222845 -0.18397914 -0.030452503 0.014776734 -0.053132605 -0.17888139 -0.05915235 0.10125288 0.15686908 -0.17201649 -0.20903112 -0.03917564 -0.11772261 -0.30047065 -0.11732697 0.17472678 -0.36323747 -0.028527386 -0.113424115 0.3718768 0.08248326 -0.11344026 0.04299334 0.0132721905 0.28072655 0.019468352 0.062057544 -0.045351706 0.14816532 -0.11783264 0.05375672 -0.21181537 0.1298945 -0.12594223 0.010597149 -0.0797566 -0.016572094 -0.15937434 -0.18870854 -0.015244686 0.082248695 0.01835889 0.032143965 0.14593971 0.07457271 0.11990727 0.1172998 0.2971363 0.022629697 0.0134847555 -0.2068217 0.19690044 -0.14757444 0.22114877 -0.18223521 0.1340573 0.056075133 -0.117339455 -0.040656317 0.19679177 -0.06423921 0.27671292 0.00047287584 0.015825788 -0.08403261 0.039791998 0.18005754 0.2298274 -0.009540486 0.051949076 0.004503555 -0.30332828 0.00418836 -0.1330681 -0.11119416 -0.102915734 0.1627196 0.009956781 0.039238453 0.30029318 0.042975012 -0.041649196 0.21090983 0.11667615 -0.022454878 0.0830847 -0.084966086 -0.11693148 -0.039064355 -0.07900298 0.13599001 -0.009793359 0.35516092 0.25449833 0.07433436 -0.10745696 0.008691984 0.10431722 0.14376725 0.12618154 -0.19097807 0.015628269 -0.038802803 -0.067002505 0.09591943 0.28560627 -0.118322946 -0.3498225 0.3293048 0.19405946 0.27418774 0.08656805 0.13035679 -0.17075838 0.06469942 0.05937246 -0.27064285 0.03605103 0.11367534 0.04645437 -0.027729811 -0.16919045 0.2543615 0.017407468 0.15430716 0.0055622985 -0.16270562 0.2514742 -0.061103057 -0.09568005 0.1787258 -0.04032633
功能 -0.08443164 -0.23137136 0.0674367 0.030884966 0.22728918 -0.12054581 -0.25870213 0.06063457 -0.077297956 0.0102377115 0.23427816 -0.17665122 -0.24906178 -0.05042506 0.17117801 -0.04927864 -0.08532187 -0.12161529 0.09811732 0.3677181 0.011914632 -0.029288782 0.16377507 0.13747361 0.09210145 -0.12727723 0.30974546 -0.064177506 -0.116772026 0.097951435 0.07329014 -0.22183935 0.022725603 0.01606149 -0.024090253 -0.20181158 -0.11941136 0.06353121 0.04702777 -0.04740007 0.16286401 -0.05012322 -0.110619724 0.07476246 -0.039185982 0.15367527 0.04266343 0.013352343 0.122603886 0.2837603 0.068204865 -0.080291726 -0.06570858 0.17663185 0.06855867 0.056259744 0.15016183 -0.3313919 -0.056082156 -0.110596575 -0.19695227 -0.0051610665 -0.12472629 0.19164789 -0.05609126 0.099358015 0.099361025 -0.30559516 0.08686731 -0.18258736 -0.15345554 -0.08485234 0.11376914 0.066627935 0.13967587 0.2373924 -0.12305797 -0.04598493 -0.1222402 0.2584826 -0.035576236 -0.1241527 -0.1697788 0.020403355 0.034544684 0.20953313 -0.19235069 -0.094728954 -0.1921373 -0.13920368 -0.04537861 -0.04546105 0.08216855 -0.022048634 0.025467115 0.18805884 -0.029487938 0.14054976 0.102769114 0.12726694 -0.014498244 0.17344818 -0.12078634 0.030437978 -0.07168123 0.16781136 0.15842843 0.07555503 0.122330494 0.08654201 0.05847407 -0.03500926 -0.063269585 -0.09155737 0.17030308 0.3375198 -0.11194041 0.055962075 -0.22724332 0.0058393544 0.03562633 -0.051666375 -0.34627616 -0.04512955 -0.12706327 -0.18122183 -0.15468493 -0.09709233 0.10577803 0.06763673 0.023957161 -0.08589941 -0.22163941 0.077038534 0.18518007 -0.062705584 -0.28375763 -0.032440204 -0.07213165 0.034510028 0.13016355 -0.11872633 0.15636636 0.24254142 0.04112159 0.21086426 0.049604084 0.02721663 -0.13673736 0.07648302 0.14276384 0.049071677 0.16754225 0.1541137 -0.09155031 0.08884752 -0.11449701 0.10015707 0.109990224 0.061722662 0.10695857 0.2627611 -0.20264848 0.032455537 -0.22581857 0.1350968 0.12518582 0.27237695 0.043962535 -0.12371875 -0.03323899 -0.0032366272 -0.06646652 -0.16257416 -0.080092035 0.11950903 0.13146232 -0.14712529 -0.19328453 -0.02916774 -0.122000635 -0.22600234 -0.09470851 0.15269636 -0.28752047 -0.039648477 -0.08203678 0.34533185 0.06755982 -0.07087873 0.019876253 0.0011875675 0.24814273 0.045993052 0.08182907 -0.04384376 0.12884009 -0.0987819 0.06343977 -0.17882143 0.13143991 -0.12966165 0.03037692 -0.06152953 -0.026977248 -0.14602211 -0.17802764 -0.0034210773 0.10615256 0.0714541 0.0031794512 0.13786769 0.0612868 0.11551785 0.11716776 0.26549578 -0.008507093 0.020597637 -0.20785661 0.20843352 -0.1743962 0.21665916 -0.19365829 0.14688367 0.07087607 -0.115044154 -0.028376985 0.17253172 -0.07424651 0.21871151 0.024365291 0.062854335 -0.086581565 0.04097153 0.17508705 0.2024001 -0.024790587 0.032337967 0.026778776 -0.25596902 0.0047852667 -0.08291264 -0.102965616 -0.093545854 0.16428736 -0.024696173 0.015056212 0.27931166 0.021581104 -0.05629591 0.1737764 0.10356098 -0.0035029687 0.08071601 -0.078170374 -0.11770767 -0.034927428 -0.06400015 0.1070925 0.016816376 0.32214022 0.19013438 0.08156212 -0.101495855 0.013952423 0.100764275 0.13906641 0.09763271 -0.17911533 0.009615074 -0.016368438 -0.040202193 0.07567478 0.26919582 -0.11919713 -0.30516168 0.3142423 0.17292506 0.23356798 0.06781152 0.081360675 -0.14405926 0.080196485 0.073487304 -0.2703714 0.050114438 0.08887723 0.056070477 -0.031803004 -0.18809426 0.2555193 0.033927877 0.12723489 -0.006977167 -0.16648772 0.24038206 -0.045523334 -0.071414076 0.21591234 -0.044972062
成绩 -0.16927652 -0.3452653 0.16067372 -0.21266003 0.22758593 -0.20072933 -0.13592124 0.05958311 -0.048503935 -0.026269622 0.322265 -0.0022030945 -0.10520082 0.002262031 0.15735967 -0.16406667 -0.24900848 -0.14933456 0.13721986 0.3504912 0.26774845 0.0159948 0.27828932 0.28009614 0.18141916 -0.05819763 0.26984978 -0.053151935 -0.080675885 0.25243872 -0.045304365 -0.30001262 0.14538017 0.45795518 0.14544243 -0.30225983 -0.10195821 0.12809576 0.10126128 -0.0022717423 0.11324776 -0.10576116 -0.294468 -0.035010964 0.05763382 0.10202509 0.22995447 0.002211016 0.20237556 0.22320685 -0.014956901 -0.074108794 0.026503244 0.23186609 0.14166701 -0.020293863 -0.004884919 -0.3583017 -0.029656168 0.08999795 -0.1819648 0.035475552 -0.04943011 0.1538678 0.19892614 0.25824076 0.159217 -0.50120467 0.10891013 -0.19347388 -0.26317176 -0.010195167 0.16228858 0.033214036 0.031500146 0.08477859 -0.06605299 -0.20078728 -0.21124464 0.2034215 0.0872287 -0.073979415 -0.12393683 0.093280494 -0.11298053 0.2053657 -0.06727511 -0.035914604 0.079901055 -0.19139814 -0.0010943481 -0.08232887 0.0706911 -0.06599712 -0.18750635 0.10249876 -0.20644943 0.07171097 0.24404174 0.3297792 0.008950802 0.039313067 -0.057146825 0.077699795 -0.18215951 0.22110787 0.16031218 0.19590527 0.16414039 0.15772909 -0.13468753 -0.06189719 -0.062627874 -0.11684332 0.07904347 0.43494004 0.014154963 0.08719761 -0.20939423 0.23035932 0.011459361 -0.034128122 -0.35497352 -0.014469578 -0.21597154 -0.251741 0.12345177 0.08622248 0.2004106 -0.051147588 0.0016461707 -0.02788127 -0.5430447 0.17739 0.3692199 -0.19485778 -0.1337931 0.031286586 0.22689871 0.01667619 0.38696283 0.07143932 0.32912567 0.23859444 0.0063112457 0.06599262 -0.2465075 -0.13554437 -0.1762782 0.25057343 0.124724105 0.06945064 0.22086106 0.010892231 -0.11238642 0.22071482 -0.20663998 0.22907011 0.04141991 0.23839875 0.18885256 0.24497506 -0.17218155 0.056370456 -0.30822882 0.23952979 0.1153095 0.48554668 0.32997906 0.026483405 0.004357903 0.04102381 -0.107453465 -0.32604483 -0.24084899 0.12775102 -0.023965621 -0.12583095 -0.25356814 0.14777286 -0.14644364 -0.003218675 -0.02795411 0.21331584 -0.17151412 -0.20386265 -0.13664766 0.34489048 -0.036379367 -0.011846091 -0.19294946 0.005016422 0.11130227 0.27273124 0.2918137 0.06256532 0.22594504 -0.0952391 0.11468398 -0.18347241 0.20885023 -0.12679617 0.098508924 0.18177356 0.027624108 -0.19554646 -0.049796764 0.0023430525 0.2931342 0.147311 -0.15553348 0.13208249 0.081125446 0.119027935 0.06385153 0.23038888 -0.3657366 0.17664397 -0.21153918 0.29617414 -0.42532274 0.22044511 -0.33303913 0.23939565 0.34003988 -0.13632819 -0.09226606 0.21102439 -0.09595731 0.15866196 0.044599142 0.30389556 -0.17100978 0.07837017 0.22516507 0.08695558 -0.12065556 0.12351651 0.17654899 -0.18786643 0.005996123 0.050679736 -0.10830954 -0.1616769 0.14367765 -0.16683187 0.045125652 0.40548128 -0.22835106 -0.21559177 0.11510013 -0.028662274 0.08406937 0.08081167 0.11614171 -0.09353638 -0.14479272 -0.09535867 0.05599813 0.1403277 0.4229665 -0.13243668 -0.049420856 -0.118435726 0.046961684 0.069402196 0.21145935 0.048735064 -0.14328128 0.011157259 0.1203235 -0.10294374 0.04552441 0.29564637 -0.18378209 -0.08894367 0.30337697 0.20020506 0.20531125 0.09615845 0.10613235 -0.17286576 0.12439394 0.1933953 -0.40287617 -0.123380125 0.1303207 0.06530467 -0.21363288 -0.28493983 0.26566982 -0.017839836 0.047996286 -0.022590457 -0.18124107 0.263658 -0.09948627 -0.007226036 0.34746018 -0.084268704
成功 -0.011792365 -0.14883783 0.023855587 0.22608687 0.22352573 -0.07172183 -0.35964963 0.08601953 -0.06354562 0.051971808 0.21949165 -0.2689252 -0.3341301 -0.059164893 0.2610836 0.06260681 0.07593183 -0.064572714 0.06542645 0.39098498 -0.119555846 -0.04665437 0.051586937 0.091824636 0.050896276 -0.18795405 0.27193063 0.021487853 -0.18791094 0.01285769 0.1721576 -0.13334334 -0.07337944 -0.261769 -0.14275523 -0.14833525 -0.17115234 -0.0044810064 -0.052750334 -0.12596048 0.2196901 -0.039266165 0.034417164 0.12982343 -0.10452917 0.16550064 -0.13936132 0.013047366 0.06882609 0.33910227 0.14602783 -0.09883758 -0.06933346 0.13855886 -0.00022218381 0.08118314 0.27501845 -0.31218946 -0.08592335 -0.28801176 -0.18317012 -0.041074883 -0.10867858 0.16523226 -0.23639509 -0.05239123 0.051963333 -0.19814293 0.091127664 -0.16510355 -0.12091148 -0.10934748 0.030797059 0.11927164 0.21778353 0.36378327 -0.17678231 0.040630527 -0.012980965 0.28680068 -0.15953076 -0.22702636 -0.19270769 -0.034581296 0.08752096 0.24088913 -0.226087 -0.16651201 -0.3820924 -0.14616223 -0.02721879 -0.008840388 0.07959451 0.016324686 0.18814896 0.31953213 0.059310813 0.17808008 0.020423815 -0.01679479 0.007133971 0.27360597 -0.16337892 0.021805383 0.015526655 0.17330791 0.18368022 -0.024002261 0.106216446 0.030295111 0.20273438 -0.0812737 -0.054300398 -0.058693532 0.2057553 0.31362292 -0.2319317 -0.020930959 -0.24127288 -0.12180112 0.035019804 -0.0713366 -0.34117427 -0.12217949 -0.016183773 -0.12701705 -0.31203344 -0.228602 -0.009888783 0.16609426 0.05949868 -0.12890446 0.011414148 0.08074581 0.045186315 0.06459313 -0.39975557 -0.052143864 -0.30544537 0.064817145 0.03080763 -0.25277987 0.024845982 0.2611492 0.050202608 0.24380259 0.22558238 0.16315551 -0.15807042 -0.07263046 0.19997722 -0.014761492 0.15099186 0.24531223 -0.12451834 0.031912617 -0.032460034 0.07256309 0.14459005 -0.038158223 0.055528313 0.29700214 -0.2620712 0.023243846 -0.17121819 0.018447967 0.14004786 0.1323846 -0.16772127 -0.1940554 -0.020944994 -0.035550836 -0.0056271683 -0.08772303 -0.034157205 0.09362006 0.23591527 -0.17654681 -0.18594646 -0.18340091 -0.12769045 -0.39110455 -0.1825561 0.078526296 -0.34090298 0.07425907 -0.08781706 0.30400163 0.17357586 -0.08792145 0.15031323 0.019566111 0.35484713 -0.1024937 -0.069493234 -0.13235205 0.09599806 -0.11482265 0.0024128924 -0.15580921 0.09670027 -0.12798616 0.034894086 -0.25273392 -0.05832088 -0.13994852 -0.23932381 -0.039904866 -0.051363796 0.046093285 0.08855926 0.11554718 0.012111804 0.106461436 0.20823456 0.30944696 0.25296873 -0.04697369 -0.194242 0.1707778 0.0019316801 0.2740573 -0.07827196 0.15789741 -0.1263717 -0.01140771 0.01900849 0.14108054 -0.024009544 0.22552142 -0.018268 -0.10267552 -0.021861218 0.06287626 0.12010831 0.29963085 0.062072027 -0.021644538 -0.041296717 -0.2719576 -0.0454805 -0.18301532 -0.17518818 -0.0077788886 0.15735362 0.05457827 0.00711514 0.2399689 0.16129568 0.03376119 0.22359692 0.16694215 -0.087295644 0.1547374 -0.21348934 -0.16330196 -0.0021309794 -0.01866192 0.042393643 -0.0655973 0.29319 0.41136634 0.23467922 -0.11717148 0.0046878406 0.17035195 0.064629704 0.14262082 -0.2054679 0.00089380995 -0.10986534 0.010504936 0.109402835 0.25607374 -0.03145323 -0.43028817 0.3824573 0.17935231 0.23555122 0.04636016 0.08006512 -0.14295144 0.054950584 0.039242454 -0.22756127 0.19848655 -0.021975018 0.056593243 0.14827517 -0.1375679 0.26022276 0.14554377 0.1630215 -0.006934117 -0.16719714 0.18811414 -0.035998467 -0.12534669 0.15778098 -0.005897508
文字 -0.17410752 -0.32834363 0.110279776 -0.25402075 0.17142321 -0.10157651 -0.0151989665 -0.044025615 -0.08798684 -0.17679948 0.19619022 -0.058581714 -0.13037014 -0.035002466 -0.04551895 -0.26164103 -0.22788218 -0.34520054 0.1294137 0.35849902 0.24043752 0.04177763 0.29995778 0.107513264 0.13752115 -0.073046915 0.3387977 -0.2135457 0.0090894 0.15220274 0.01054692 -0.3802963 0.12177521 0.42500448 0.09019646 -0.21525069 -0.072998956 0.24558032 0.27657756 0.17148979 -0.01668555 -0.010154214 -0.28474602 -0.00964659 0.014209655 0.06385471 0.3502106 -0.108922146 0.14147237 0.08932639 -0.11549917 -0.08762734 -0.04812042 0.19503058 0.12867048 -0.018677922 0.03819924 -0.317604 0.04451146 0.29100823 -0.22150764 0.13011563 -0.19784392 0.07919674 0.32488286 0.25720805 0.14947107 -0.46709472 0.095178016 -0.22115685 -0.2079197 -0.015541923 0.2661512 -0.02608682 -0.0036603764 0.08561201 -0.037883326 -0.24473739 -0.2773154 0.18097581 0.110936955 0.044312507 -0.16828664 0.12745926 0.017630998 0.117107585 -0.19523108 0.027468763 0.0814164 -0.12048937 -0.07668595 -0.026386838 -0.006525974 -0.034787577 -0.19371079 -0.10467866 -0.15570788 0.023352914 0.18281181 0.31026164 0.0092544155 -0.030929739 -0.09288369 0.039251093 -0.12838523 0.23453428 0.15910716 0.21358432 0.1511869 0.18352272 -0.12816232 0.031684082 -0.09325932 -0.19100454 0.14220048 0.18520987 0.15736331 0.11379894 -0.18857071 0.09432076 -0.03309016 -0.062123537 -0.2906922 0.17726202 -0.30633172 -0.3742915 0.09522249 0.054515395 0.40784565 -0.16312765 -0.057622626 -0.02112754 -0.55988044 -0.053587146 0.35051653 -0.3331028 -0.016247323 -0.11233864 0.26649034 -0.04011396 0.31563655 0.0084027825 0.3578997 0.20086356 0.06612068 0.25868297 -0.21944246 -0.38468578 -0.21339533 0.17878549 0.10738541 0.21434271 0.019654775 -0.025026936 0.0694636 0.15316294 -0.106118955 0.15653701 0.03466475 0.21782297 0.10729177 0.0766999 -0.07403328 0.17980167 -0.2435769 0.34399968 0.14784013 0.47647613 0.4130171 0.02198516 -0.046656497 -0.13855562 -0.1586222 -0.1702281 -0.044797793 0.20147489 -0.024987962 -0.0024151667 -0.10290494 0.1390966 -0.11095492 0.024232533 0.047005195 0.25926065 -0.16390975 -0.14035529 -0.013417789 0.42929846 -0.08958501 -0.019494573 -0.11824044 -0.15352315 0.08015238 0.25453737 0.2515451 0.140919 0.16474652 0.07917922 0.21491903 -0.20990762 0.16951723 -0.1670601 0.034976166 0.24067 -0.06064767 -0.08495795 -0.17373723 0.0768756 0.40105578 0.24341911 -0.15338768 0.2290003 0.07453895 0.115869336 -0.02675475 0.11397279 -0.36951387 0.06903902 -0.23002027 0.26671988 -0.45775333 0.13569075 -0.39093542 0.13611121 0.2372785 -0.29958484 -0.060543638 0.25593847 -0.19548215 0.1700563 0.19378328 0.3273082 -0.22341222 -0.025002675 0.27166748 0.1162461 -0.17741506 0.13331556 0.10910041 -0.15989791 0.13498004 0.079750754 0.0887709 -0.20944908 0.24056987 -0.13753234 0.021215176 0.2759734 -0.086010106 -0.12163747 -0.011101152 0.018626025 0.08859183 -0.10984683 0.029205369 -0.043767367 0.016031673 -0.113769695 0.24888435 0.14086367 0.31249443 -0.15321733 -0.099758305 -0.08613116 0.02048297 0.013718899 0.25645155 -0.017030774 -0.101054356 0.029694384 0.14515643 -0.092508055 0.075510934 0.16290924 -0.26084805 -0.083367616 0.23462708 0.092787154 0.15009065 0.12236903 -0.035103098 -0.03966313 0.1905626 0.056757983 -0.32469884 -0.14771205 0.29075852 0.10103356 -0.31660196 -0.31244504 0.21167642 -0.12523744 0.07011949 -0.02724764 -0.10685706 0.37814745 0.021704609 0.013833705 0.40241715 -0.06237512
音频 -0.19266902 -0.36651242 0.13894846 -0.32418656 0.20039828 -0.10497582 -0.0026653267 -0.04403742 -0.076948315 -0.20026666 0.21524172 -0.035061937 -0.12493772 -0.011708239 -0.05934128 -0.30867568 -0.2774923 -0.40522507 0.17439401 0.39360338 0.3414438 0.05675255 0.34358156 0.13184991 0.16476072 -0.06836473 0.37683734 -0.25841928 0.02557762 0.17922764 0.0020314152 -0.45004833 0.1444299 0.53712785 0.10812803 -0.24651457 -0.08412106 0.27972662 0.3187252 0.20627363 -0.042676043 -0.04704369 -0.35923892 -0.017805614 0.018388985 0.07522718 0.4369894 -0.122524716 0.17930628 0.078406826 -0.13633405 -0.09670797 -0.030892756 0.21855299 0.136043 -0.035877425 0.03107079 -0.35148168 0.05683204 0.3518926 -0.2292387 0.14761107 -0.21793687 0.08100801 0.41453087 0.30287826 0.15780777 -0.54271936 0.10960265 -0.23782925 -0.2355175 0.009859783 0.33412933 -0.05272741 -0.012359728 0.0785238 -0.0415291 -0.30159545 -0.33764005 0.1698392 0.14418921 0.05435592 -0.16009091 0.17153035 0.017353091 0.115494855 -0.19315667 0.061624847 0.13192926 -0.1378091 -0.099858634 -0.020443512 -0.011193931 -0.05863459 -0.23906143 -0.14085597 -0.19862066 0.005174092 0.2370479 0.37749115 0.008661883 -0.06557556 -0.09271064 0.012979428 -0.14663477 0.25571233 0.20580809 0.28119797 0.15401414 0.2043555 -0.15557142 0.033382602 -0.10760941 -0.22151765 0.15725437 0.1897892 0.21959886 0.13091294 -0.20380294 0.13838087 -0.058545962 -0.07683248 -0.31138533 0.22745657 -0.36896762 -0.42666674 0.12467396 0.084541604 0.48798466 -0.22809596 -0.0869583 -0.013238547 -0.6822862 -0.06420109 0.41694173 -0.39102024 0.0012873417 -0.106319204 0.3376987 -0.06941134 0.3747765 0.054835036 0.41774234 0.19270979 0.060524352 0.26145506 -0.30496728 -0.46757263 -0.22846696 0.21634169 0.11032435 0.23248972 0.02588045 -0.04285372 0.09557053 0.20474455 -0.118432604 0.19041072 0.020416388 0.2565585 0.14641762 0.06713925 -0.090249546 0.21465774 -0.27481604 0.3824548 0.18078616 0.5542884 0.52089506 0.023558592 -0.03817626 -0.1573035 -0.18752931 -0.21569322 -0.044223946 0.21858749 -0.052643787 0.0021061047 -0.10417079 0.21101585 -0.13906781 0.04106467 0.056760147 0.29694784 -0.19531965 -0.1615399 -0.01967661 0.48420388 -0.12582795 -0.038375307 -0.15402937 -0.1725379 0.062517285 0.32745498 0.3125426 0.18912311 0.1950732 0.096425906 0.2798311 -0.24278064 0.2043944 -0.1846201 0.04966194 0.3174836 -0.085431986 -0.09670312 -0.15386477 0.075762 0.47629154 0.28211913 -0.20277068 0.2501792 0.0962664 0.13239674 -0.056962505 0.112968676 -0.45653138 0.09532173 -0.26853654 0.2889659 -0.5455451 0.15885732 -0.45398083 0.15722537 0.30110803 -0.3443134 -0.078385934 0.30165672 -0.21716256 0.19803913 0.23899566 0.37682232 -0.25941786 -0.031281248 0.31763545 0.123192355 -0.23723008 0.202209 0.15416929 -0.17869565 0.14930141 0.09773714 0.09797547 -0.26650894 0.26180464 -0.17728993 0.039319687 0.31367305 -0.13860205 -0.15460725 -0.011734572 -0.0042354492 0.10344955 -0.13257389 0.0594517 -0.039989535 0.026375806 -0.12373619 0.27304468 0.16906528 0.39222816 -0.20864934 -0.14490989 -0.0809471 0.039605204 0.005762252 0.2984449 -0.034217995 -0.097723916 0.029178377 0.18695228 -0.11739169 0.071871124 0.14887449 -0.31022128 -0.058883753 0.24906118 0.10697024 0.15948328 0.13988902 -0.03043271 -0.0372442 0.2302999 0.052269474 -0.37684777 -0.19882813 0.36271754 0.12577221 -0.38302094 -0.3559257 0.21997617 -0.16503045 0.07460447 -0.029812794 -0.10138718 0.43135968 0.026292201 0.013188333 0.45434976 -0.07792576
历史 -0.15431605 -0.32318136 0.1482801 -0.18018492 0.21534622 -0.19027843 -0.1372886 0.062119815 -0.05010388 -0.015576102 0.3090466 -0.0073134983 -0.11171865 -4.08525e-05 0.15920243 -0.14248452 -0.22430424 -0.12667823 0.12762016 0.33219925 0.23531842 0.011795727 0.2510339 0.2676757 0.16916668 -0.05804059 0.25379726 -0.048818674 -0.082606696 0.23639937 -0.039237212 -0.2679269 0.13339247 0.4062163 0.13057594 -0.28320402 -0.092726484 0.10755039 0.08169799 -0.015358024 0.1172886 -0.097552 -0.2685755 -0.024622032 0.048840195 0.10376436 0.19459158 0.005773321 0.19053148 0.23008487 -0.009805695 -0.069902696 0.024909833 0.22195114 0.12736005 -0.010322881 -0.001055045 -0.33744 -0.03514673 0.057885826 -0.17293139 0.021417622 -0.046258904 0.14996397 0.16741282 0.23550846 0.15028574 -0.4613737 0.10628825 -0.18034682 -0.24860139 -0.018945672 0.14383863 0.03815991 0.03937917 0.08745023 -0.068310976 -0.17758857 -0.19409582 0.20008136 0.07914043 -0.07266851 -0.12279365 0.077799134 -0.10819806 0.19892476 -0.06349072 -0.037811503 0.061260093 -0.18200555 -0.00012854328 -0.080121115 0.06955838 -0.055798117 -0.16858524 0.109536774 -0.18793267 0.08006877 0.22841266 0.30034554 0.009247951 0.04806186 -0.0598524 0.067256555 -0.17203341 0.20485409 0.15401062 0.17637543 0.15185457 0.14095308 -0.121067636 -0.06067906 -0.05141112 -0.101996206 0.07572378 0.41937533 -0.0025539855 0.081586584 -0.19968928 0.20921132 0.012329657 -0.03382467 -0.340532 -0.026756046 -0.19502431 -0.22115 0.10034867 0.07389826 0.16908132 -0.034151386 0.0013287807 -0.028667592 -0.49069518 0.16917238 0.34068653 -0.16414268 -0.14025402 0.03844645 0.19762334 0.022524271 0.35021657 0.058984563 0.30125523 0.22528869 0.007992726 0.058441494 -0.21397726 -0.10687091 -0.1639226 0.2279991 0.11558541 0.050492942 0.21479422 0.020390678 -0.11486116 0.19994393 -0.19515847 0.21258894 0.038919277 0.21461938 0.18264289 0.24372219 -0.17145723 0.04532841 -0.2843853 0.21501717 0.10294036 0.44582218 0.2923341 0.013721838 0.0048408667 0.048827022 -0.09566576 -0.3073976 -0.2279194 0.11889986 -0.012059008 -0.12719671 -0.2451276 0.12773447 -0.13868995 -0.017270606 -0.033290584 0.19294319 -0.17389192 -0.18742384 -0.13403837 0.31987342 -0.022190368 -0.019214435 -0.1761429 0.01514822 0.11951478 0.24800715 0.26688743 0.04600504 0.20483115 -0.10320732 0.103248164 -0.16968144 0.19117038 -0.11804924 0.08372335 0.1549181 0.03347088 -0.18520445 -0.04806417 -0.0013171578 0.25403717 0.12521547 -0.13628688 0.118603185 0.0717791 0.11903777 0.067099646 0.23076585 -0.32177305 0.1601347 -0.20505525 0.2776926 -0.38551614 0.20921376 -0.29798236 0.22210446 0.3110588 -0.114123255 -0.08084045 0.19719045 -0.08865038 0.15610337 0.032131422 0.2700795 -0.14974532 0.07946459 0.21140572 0.08699323 -0.10319395 0.10385552 0.15740208 -0.18440959 0.0036501214 0.036527913 -0.11239299 -0.14276071 0.12653276 -0.15042593 0.04261929 0.3809228 -0.20841561 -0.20216206 0.11885197 -0.016290434 0.07326325 0.08628973 0.10527187 -0.09221524 -0.14106132 -0.08252997 0.04461475 0.12762779 0.394206 -0.10177736 -0.039557345 -0.11249483 0.03979486 0.06330785 0.19121511 0.05604012 -0.14441499 0.012800839 0.106539406 -0.092982374 0.037720438 0.29050303 -0.16202018 -0.098670505 0.28262168 0.19231497 0.1968781 0.08174926 0.10834167 -0.17068276 0.10869949 0.17880821 -0.37503842 -0.10507579 0.11288535 0.059528247 -0.18811844 -0.26230735 0.25279626 -0.0078556305 0.053325772 -0.020031463 -0.16872597 0.24139085 -0.09965569 -0.011946272 0.31383184 -0.076365426
打开 -0.03743922 -0.1797035 0.034320753 0.11379921 0.21379165 -0.10724017 -0.28432235 0.076515354 -0.07134983 0.042796925 0.17881948 -0.207037 -0.26396602 -0.0470237 0.17362413 0.01557461 -0.034315825 -0.06454347 0.10239914 0.33725923 -0.05328725 -0.04651228 0.09809573 0.08946901 0.055090766 -0.14069451 0.28187343 -0.0597404 -0.11767199 0.05801365 0.09101826 -0.1739543 -0.015305064 -0.13819772 -0.0789677 -0.16702633 -0.11485162 0.011817988 0.004619601 -0.08513065 0.19064172 -0.052244775 -0.05022352 0.09396807 -0.058164027 0.16464673 -0.036290728 0.041246742 0.10323327 0.29869652 0.1139188 -0.07446989 -0.0681962 0.15815423 0.023540312 0.05634842 0.17440717 -0.29083145 -0.06686116 -0.20416148 -0.175544 -0.05123374 -0.11749402 0.19702226 -0.13504346 0.039398044 0.069690295 -0.20285434 0.0764204 -0.15913719 -0.09743229 -0.09951279 0.10701361 0.05764549 0.1649088 0.25826645 -0.13048457 0.022131657 -0.08322572 0.23213194 -0.0766817 -0.13634504 -0.13450569 0.004124417 0.05474137 0.18496814 -0.18483451 -0.087574676 -0.25924692 -0.11447773 -0.07334659 -0.03570013 0.09504835 -0.0114204 0.097618625 0.21396093 0.010675989 0.14944446 0.05947988 0.050023142 -0.039791524 0.1980956 -0.12810038 -0.008245825 -0.030789087 0.13180618 0.16258718 0.040472355 0.08825848 0.059605807 0.119802944 -0.037817694 -0.04631289 -0.05726697 0.1789219 0.2940495 -0.14825283 0.042045213 -0.22048832 -0.05007488 0.05065111 -0.052135196 -0.30765206 -0.0598308 -0.081798606 -0.11758903 -0.24273276 -0.13807157 0.034273785 0.11522472 0.027098577 -0.105875485 -0.112979606 0.049173843 0.12930308 -0.0006730014 -0.33249533 -0.021768259 -0.17713805 0.026076099 0.024757713 -0.14667943 0.070511274 0.1938413 0.0396961 0.22714627 0.1196237 0.106966995 -0.084724985 0.03382511 0.10839981 0.005876516 0.17304653 0.19598798 -0.10011523 0.06204753 -0.07596404 0.053814597 0.12053517 -0.0003578945 0.097783424 0.2559267 -0.21879995 -0.0011574061 -0.18850583 0.071700126 0.121988036 0.17085987 -0.06694922 -0.18005998 -0.023914259 0.029295703 -0.047131103 -0.110827886 -0.03474562 0.09793215 0.16015255 -0.15568314 -0.17245959 -0.060471807 -0.12323377 -0.28673896 -0.12707664 0.123215504 -0.32175744 0.016911073 -0.06642018 0.3152732 0.08833772 -0.10007246 0.07704171 0.030775173 0.26768172 -0.01230004 0.010667882 -0.08556186 0.0809008 -0.121725865 0.031315293 -0.16223203 0.09747421 -0.12781067 0.009370453 -0.12869802 -0.038168147 -0.12803468 -0.16171815 -0.021489536 0.01579504 0.018574942 0.044382486 0.11591681 0.059109878 0.10674811 0.13903278 0.26559362 0.11172972 -0.010887098 -0.19703506 0.16312148 -0.0604091 0.19964924 -0.118746616 0.11593093 0.017407702 -0.07960763 -0.0047574313 0.14152886 -0.037439533 0.23538226 -0.00846325 -0.037521455 -0.047519904 0.023946559 0.14183493 0.20567544 0.005029318 0.012443228 -0.014553707 -0.26570985 -0.010864983 -0.12791987 -0.11945734 -0.068523735 0.13818353 0.009627019 0.017916646 0.21596079 0.06202796 -0.022964526 0.1930949 0.12975389 -0.05461429 0.09605097 -0.12408678 -0.12767826 -0.01104505 -0.048305314 0.095570736 -0.038352627 0.29257765 0.2885734 0.10447252 -0.07672764 0.0030713365 0.10332981 0.09838133 0.11597055 -0.18401001 0.0055547142 -0.06727307 -0.023025043 0.058396816 0.24345568 -0.073528685 -0.34383148 0.28414387 0.16522492 0.2326783 0.046603013 0.09923408 -0.13995558 0.041004702 0.02068911 -0.22212122 0.10132516 0.07039241 0.036828347 0.03563177 -0.12376514 0.23562258 0.04228435 0.14945464 0.0106835505 -0.15218155 0.18854786 -0.042807966 -0.09263179 0.124825716 -0.04304627
账号 0.02636215 -0.11226626 -0.0070827263 0.27158344 0.20241027 -0.07802681 -0.3560292 0.10270585 -0.068721466 0.10050331 0.13706888 -0.28097138 -0.31587106 -0.041678593 0.2718174 0.11533872 0.09327228 0.011108589 0.08996633 0.32493713 -0.1696907 -0.06831303 0.022569222 0.070096985 0.012955936 -0.18186036 0.2607575 0.014274785 -0.1678472 -0.015998356 0.13949513 -0.08131302 -0.102872886 -0.37758625 -0.15623765 -0.13563034 -0.11973028 -0.061882842 -0.08483579 -0.17884922 0.24787307 -0.055227924 0.06892139 0.11937151 -0.102512754 0.16316524 -0.20890059 0.0673835 0.067361765 0.33937827 0.17056468 -0.0865563 -0.07838831 0.10641275 -0.0285878 0.05394294 0.23943962 -0.24155349 -0.097593814 -0.38885903 -0.13252893 -0.08330363 -0.08672559 0.2071016 -0.30355805 -0.09854874 0.030602282 -0.08746684 0.057760682 -0.13050318 -0.038734462 -0.13158512 0.038956933 0.08770038 0.20917565 0.34682274 -0.14928098 0.11410418 0.026222149 0.2608157 -0.16399716 -0.20681648 -0.14100736 -0.04921555 0.10296557 0.190567 -0.19474646 -0.1436871 -0.38652077 -0.11874277 -0.06208983 -0.04207752 0.099634945 0.0011417281 0.24617082 0.31455564 0.0943965 0.17064437 -0.018749163 -0.08713567 -0.04187059 0.2721796 -0.15239395 -0.027792918 0.053330842 0.09323028 0.16196668 -0.05772773 0.06348076 0.008771953 0.23215336 -0.057408556 -0.037705667 -0.013967062 0.19447532 0.2577903 -0.23981833 -0.004688551 -0.22380066 -0.15269452 0.07000115 -0.04995836 -0.28481027 -0.14178024 0.015343623 -0.039749138 -0.36281204 -0.22256298 -0.089192644 0.19991305 0.050310593 -0.11712249 0.11126456 0.058257714 0.030207485 0.12487979 -0.44561648 -0.026737517 -0.3520376 0.054522295 -0.08779621 -0.2461481 -0.044166654 0.1854894 0.042755287 0.22989574 0.26383406 0.24962912 -0.07277929 -0.08192793 0.11813257 -0.05205657 0.17398252 0.2813042 -0.14806393 0.017525692 -0.018141165 0.023951206 0.13815309 -0.093866706 0.067704715 0.26996237 -0.25322565 -0.036521915 -0.120023504 -0.045256965 0.12623347 0.05367455 -0.26371711 -0.2360345 -0.029068004 0.047852315 -0.012688317 -0.037932854 0.0046284394 0.08239085 0.24575016 -0.19244744 -0.16789329 -0.17216057 -0.124682255 -0.38891387 -0.19453186 0.03194619 -0.36451745 0.1138545 -0.05729125 0.23739967 0.1613961 -0.10732475 0.16309302 0.08053723 0.3376931 -0.13263969 -0.12289791 -0.18060589 0.019285439 -0.15096366 -0.017722866 -0.12794036 0.06264462 -0.11488164 0.0097525725 -0.29866216 -0.06546308 -0.12275393 -0.16914769 -0.030956374 -0.14146954 -0.020683039 0.12750955 0.07949099 0.023460954 0.10394128 0.18739419 0.28776821 0.34036812 -0.06674933 -0.17844026 0.11539011 0.11575255 0.22042951 0.0059508854 0.096667156 -0.11690027 0.0057797404 0.033875342 0.08065345 0.015939489 0.23427908 -0.047965024 -0.1827426 0.019955017 0.02249776 0.06264969 0.26926953 0.08346293 -0.05426577 -0.079852685 -0.27213964 -0.04651716 -0.17608523 -0.18598142 -0.0021996868 0.12051714 0.061093025 0.020982476 0.1589645 0.1466139 0.03436575 0.24252774 0.20626944 -0.10904934 0.16395105 -0.2121458 -0.15742607 0.018193083 -0.010821167 0.031269353 -0.10780085 0.23491694 0.48027492 0.22498545 -0.06460014 0.0034355402 0.1445317 0.022207014 0.14831564 -0.19570087 -0.014726225 -0.14623111 0.041786175 0.05229303 0.22984707 0.011035795 -0.4607849 0.2963546 0.1667045 0.23051679 0.024470232 0.107782096 -0.13395773 -0.009997837 -0.013865422 -0.16258578 0.219022 -0.02267419 0.03062508 0.18284488 -0.057073437 0.20530812 0.12465536 0.15010665 0.01303338 -0.16940758 0.10568732 -0.057385266 -0.12795715 0.049954753 -0.020518297
提示 -0.03365768 -0.19618952 0.027634922 0.21643712 0.23705855 -0.07083514 -0.36362654 0.07178624 -0.08196807 -0.0020662025 0.26139227 -0.3039793 -0.37705442 -0.068643905 0.283357 0.025278635 0.09037765 -0.14546232 0.073407285 0.48139167 -0.1095905 -0.036171578 0.094056 0.100159064 0.063099556 -0.21740931 0.32862946 0.019735353 -0.20694548 0.0184433 0.19371623 -0.18177837 -0.07732822 -0.23951253 -0.14955455 -0.17666008 -0.19639748 0.044155974 -0.021516912 -0.098940365 0.22917852 -0.02833643 0.023504108 0.12831758 -0.12403149 0.1531136 -0.1240168 -0.031679768 0.0787776 0.35124776 0.12183894 -0.12372234 -0.081511006 0.1616019 0.005818172 0.07138266 0.31315297 -0.3575426 -0.082806565 -0.26201388 -0.21854188 0.0062214546 -0.1433486 0.14933631 -0.20251784 -0.05590419 0.08441111 -0.27090365 0.107282594 -0.20961055 -0.15970713 -0.12349344 0.0437799 0.14184293 0.2237216 0.41594237 -0.18794593 0.00090466806 -0.025150035 0.34273043 -0.17396642 -0.24115571 -0.23991133 -0.030036071 0.10466294 0.2777809 -0.28236765 -0.19719347 -0.408389 -0.17815572 -0.014955857 0.002564514 0.060288653 0.030852502 0.1941008 0.32471314 0.048982453 0.18303321 0.016795205 0.0018134736 0.02661728 0.28940532 -0.19967702 0.04866875 0.012244098 0.23120666 0.21497007 -0.01906582 0.14664747 0.052417435 0.2074306 -0.08377532 -0.06401228 -0.10397834 0.24133208 0.32472566 -0.23438823 -0.032483056 -0.27364463 -0.14477818 0.03603372 -0.08738938 -0.39524326 -0.10299469 -0.050255768 -0.20641306 -0.30692914 -0.25342342 0.05286552 0.14615612 0.06123982 -0.13466091 -0.020817272 0.06745132 0.07578617 0.017673386 -0.42011902 -0.10077954 -0.30366024 0.07684227 0.083032444 -0.30124208 0.06480962 0.31340125 0.0757047 0.31243974 0.22970624 0.09308127 -0.24456854 -0.10249216 0.25016826 0.030068861 0.11775372 0.25422946 -0.1178113 0.03901699 -0.021057462 0.10269763 0.1480872 -0.0010450367 0.038696073 0.30705598 -0.27972728 0.07301191 -0.19101655 0.06832951 0.16872498 0.20126346 -0.13823013 -0.1808481 -0.030373568 -0.09492161 -0.030089922 -0.08889239 -0.03519543 0.13994232 0.26967254 -0.1748783 -0.2042755 -0.21636426 -0.14777158 -0.40873972 -0.18956359 0.10606888 -0.3562508 0.07750449 -0.08283266 0.35661063 0.19123535 -0.08227469 0.14960086 -0.019884715 0.403837 -0.088876426 -0.062629126 -0.13194045 0.11343422 -0.08800384 0.029088544 -0.17375332 0.1267927 -0.16205102 0.04285234 -0.2668348 -0.0797986 -0.14913803 -0.3057736 -0.023472343 0.0025911285 0.11654875 0.078171425 0.16145869 0.0011688328 0.12035589 0.23171133 0.33641875 0.2501701 -0.067617826 -0.23630361 0.22027874 -0.050758865 0.31399366 -0.12846692 0.18836877 -0.1450964 -0.047410686 0.02540404 0.17087337 -0.059244946 0.24362081 0.01985659 -0.05460653 -0.053880394 0.06060365 0.15843186 0.35579094 0.04374931 -0.034353446 -0.039944842 -0.29243433 -0.020141844 -0.16737641 -0.16317996 -0.015301541 0.21970198 0.04483528 -0.0002865786 0.28476653 0.19384716 0.03944517 0.21593401 0.19496332 -0.0843038 0.15623714 -0.25964677 -0.18403943 0.015725577 -0.026162216 0.06708312 -0.04336694 0.3180228 0.42869377 0.27323428 -0.1380286 0.004446434 0.19233066 0.09150145 0.14506401 -0.23323521 0.0045247776 -0.09447208 0.016672356 0.12898517 0.2849997 -0.060067963 -0.4740653 0.45005056 0.18734963 0.24335878 0.06492962 0.040324286 -0.13008292 0.09354617 0.042492867 -0.2841627 0.21843654 -0.0046946933 0.073373005 0.13620801 -0.21004649 0.31139407 0.16463462 0.17487893 -0.019598514 -0.18687485 0.24474414 -0.020102756 -0.13402155 0.25590232 0.0046916595
