219 300
翻译 0.12612426 -0.016334422 -0.10253 0.1196393 -0.030448379 0.14416322 -0.022903677 0.06893945 0.30758393 -0.01742686 -0.007795517 0.03592051 -0.037701547 0.05956179 -0.09610491 0.10212671 0.028863933 -0.042825677 0.0022621541 -0.010568961 -0.15804935 0.12717335 0.09985168 -0.05594522 -0.124780856 -0.19494684 -0.047297772 0.058646128 0.024557069 0.103658326 0.11221592 0.058324575 0.094740935 -0.03419561 -0.0013290129 0.0056042196 0.18831567 0.18624151 -0.06981964 0.2711416 0.03227184 -0.071904495 0.09638712 0.09750233 -0.031086328 0.0664199 0.16403724 0.1467239 -0.01669439 0.019796763 0.018640397 -0.08368311 0.019561365 0.016358934 0.010064129 0.09101371 0.078687884 0.11791388 0.10915281 -0.13304465 -0.10323344 -0.11076325 0.09779087 0.013399153 0.20432177 0.115295604 0.18531732 -0.05895205 -0.0792002 0.24543251 0.0074982583 0.005860456 -0.23378123 0.19151491 -0.11378438 0.11661378 0.07358976 0.035617817 0.19635266 0.10112719 -0.08752337 0.07044729 -0.039984368 0.21815157 0.25199643 0.064407 0.068328105 0.005808116 -0.016277572 -0.0870652 0.12178532 0.15903899 0.12080677 0.044358123 -0.028574673 -0.0030175156 0.04179316 0.16387898 0.18437783 0.013133124 -0.07676791 0.0814287 -0.062784314 -0.08558413 0.26226434 -0.009715331 0.12446613 -0.09143448 0.12059058 -0.08801533 0.04904017 0.050443247 -0.042186942 0.14431198 0.07392477 -0.23753941 0.013631178 -0.076851115 -0.044234205 -0.09311977 0.060085203 -0.12202381 -0.28013107 -0.0029634514 -0.04686802 0.16260682 -0.05642287 0.12125453 -0.19837582 -0.038929544 0.024150888 0.0011623171 0.1060398 -0.022456035 0.00056886784 0.15098025 -0.1083976 -0.08576857 -0.015737507 -0.018131154 -0.093299426 -0.13746655 0.11729143 -0.047396827 -0.0022840847 0.13553478 0.039282445 0.014282544 0.009227565 -0.1997867 -0.1690948 0.019056117 -0.10300347 0.12023066 -0.082909144 -0.30261737 0.03932187 0.09566614 0.13563839 0.12203348 0.04819086 0.035015 0.13395172 0.16265947 -0.16502634 -0.15858403 0.013066065 -0.04788777 -0.02229119 -0.0751718 0.021297494 -0.05497393 -0.03697462 -0.10126767 -0.15339576 -0.056149293 0.12001416 -0.21269915 0.042822216 0.122236095 -0.009177299 0.030211208 0.074052714 0.14445522 0.08331216 -0.025637772 -0.1664483 0.06752041 0.0752378 -0.004981143 -0.040519927 -0.1380365 0.12166945 -0.12593772 -0.028728904 0.15953988 0.042675577 -0.24282198 -0.21006718 -0.0028381795 -0.004668076 -0.20374773 0.20801036 0.17597942 -0.196187 -0.13280678 0.19386216 -0.19845617 -0.09061907 -0.03271767 0.025154412 -0.14223856 0.11311269 0.0460434 0.020615656 0.04166119 -0.17477065 0.045169618 -0.1091528 -0.34503323 0.023550734 -0.091052234 0.26458 0.18285173 -0.105577394 -0.026920954 -0.04403735 -0.063223295 0.021258561 0.16295604 0.20983122 0.1402593 -0.19975452 -0.05539842 -0.061040778 0.07487716 0.043552384 0.11282362 0.100408345 0.040689837 -0.2289239 0.0141979605 0.025880462 -0.12111076 -0.18042561 0.155802 -0.1522217 -0.12928621 -0.31558982 0.15305467 0.06558899 0.03438213 -0.035814986 -0.04062106 0.09562933 0.008421205 -0.16712776 -0.03168991 -0.012243941 -0.0317291 0.04003794 0.033713505 0.010139147 0.02602675 -0.021354998 -0.057548482 -0.043172672 -0.15518935 0.013607394 0.17523436 -0.011623488 0.0029797768 -0.10153808 0.004343537 0.1146174 -0.08392521 0.021118077 -0.027759308 0.009678085 -0.08590685 -0.02003777 0.02367411 -0.16061601 -0.05466513 0.077196404 -0.15115018 0.02519122 0.18299222 0.19669569 0.0030555348 0.17403731 -0.004271563 0.034326673 -0.18954846 0.08710479 -0.03462765 -0.020043312 -0.03298652 -0.20185547 -0.12926155
咕咚 0.12744194 -0.003625223 -0.10707369 0.14173716 -0.019941682 0.16211918 -0.04539952 0.08190474 0.34285608 -0.031478092 0.0022450916 0.0692955 -0.044711582 0.05937812 -0.079254076 0.09535861 0.03369812 -0.055837106 -0.0046197497 -0.031954862 -0.16979454 0.1616905 0.10286714 -0.07814888 -0.12987517 -0.23526461 -0.054234732 0.05101679 0.011538701 0.1272839 0.11501311 0.05176871 0.122064635 -0.020001011 0.019838775 0.0036475586 0.19749427 0.18639562 -0.06847424 0.29943752 0.025249988 -0.07304576 0.11228973 0.10250778 -0.014296464 0.09704686 0.17640515 0.16422765 -0.0022958785 0.025014335 0.049930245 -0.08575706 0.0049254242 0.013971131 -0.008958541 0.07581801 0.08819282 0.12837088 0.115128756 -0.14241017 -0.08436851 -0.0790445 0.12353079 0.02205707 0.20040911 0.16051252 0.18871814 -0.047748525 -0.07898865 0.26325303 0.022382805 0.013440618 -0.289455 0.17883976 -0.124693446 0.12164922 0.05987133 0.013394595 0.20103598 0.107129484 -0.08762618 0.0792743 -0.056986697 0.21745217 0.27534416 0.051163413 0.09058454 0.019307403 -0.016271804 -0.06410542 0.16098192 0.16313933 0.15496032 0.0849862 -0.04377897 0.015253968 0.06587817 0.20329423 0.2161612 0.013950093 -0.080368556 0.07962718 -0.061312724 -0.10461089 0.28897214 0.002416283 0.1374316 -0.096082 0.15708533 -0.109401286 0.075108394 0.049135413 -0.06789678 0.17811488 0.057330944 -0.24800812 0.04020786 -0.08468107 -0.041228928 -0.12533751 0.053600263 -0.16236787 -0.32201678 0.00018053687 -0.054687485 0.17511116 -0.092378505 0.14239503 -0.18085751 -0.045843612 0.06070626 -0.013250143 0.13015692 -0.009177636 -0.0069554783 0.18643823 -0.13827586 -0.12377388 -0.022801714 -0.051417917 -0.12860659 -0.15899687 0.14845942 -0.038868118 -0.004236421 0.15195301 0.046666514 0.010057952 0.0011245066 -0.21468028 -0.19532815 0.031847693 -0.11218625 0.131881 -0.10968365 -0.33638394 0.058345705 0.08397853 0.17363462 0.111693345 0.05509775 0.051438857 0.14112127 0.17685293 -0.18655941 -0.17797542 0.012702581 -0.054952085 -0.010527184 -0.08657541 0.023813022 -0.032489866 -0.050594848 -0.1344483 -0.16563681 -0.025107754 0.1667247 -0.2493079 0.033889093 0.10181454 -0.006124237 0.04593141 0.09961491 0.17665267 0.09362075 -0.048585497 -0.16210233 0.058620784 0.06696716 -0.0031752964 -0.03909017 -0.17138545 0.12397865 -0.08871858 -0.04504611 0.16730925 0.037491694 -0.25289518 -0.2161654 -0.02530482 0.009525519 -0.16973938 0.22779417 0.18916374 -0.17738791 -0.108449735 0.20206143 -0.20460859 -0.104542516 -0.029702509 0.019779012 -0.15611532 0.14221646 0.043828264 0.003890419 0.018716523 -0.18407188 0.042861495 -0.11408707 -0.33433148 0.041516863 -0.1112855 0.255471 0.17009991 -0.0951214 -0.024224024 -0.062386464 -0.06737821 0.008285003 0.13396583 0.18964665 0.12305832 -0.1830125 -0.04293728 -0.067214556 0.08903386 0.023284048 0.12048832 0.111342855 0.041198615 -0.22308013 0.020783095 0.01082532 -0.14511578 -0.19324902 0.1422993 -0.15255824 -0.12650172 -0.30701897 0.15613881 0.054828256 0.032983217 -0.01716284 -0.043697853 0.09282057 0.0134516535 -0.15123904 -0.046207037 0.0015313859 -0.035353217 0.030098919 0.027015578 0.025538582 0.024402121 -0.014834688 -0.058693722 -0.05616428 -0.14570294 0.010862422 0.16210902 -0.011298357 -0.016488716 -0.10739588 0.0029902502 0.101674765 -0.087269865 0.023011794 -0.024827186 -0.014958328 -0.11181463 -0.013475788 0.024074564 -0.15271592 -0.061431456 0.071765795 -0.12801923 0.03624518 0.18371156 0.18070945 0.012339456 0.16630599 -0.018738778 0.030521171 -0.1962213 0.06996239 -0.020587109 -0.01677826 -0.008459427 -0.1873914 -0.14546171
必现 0.13176095 -0.006587097 -0.106144406 0.1431825 -0.022036556 0.16278635 -0.044607006 0.08033399 0.35588452 -0.029978275 0.004958419 0.06996779 -0.048936162 0.06378182 -0.08460984 0.10022505 0.037162554 -0.055337112 -0.0034099233 -0.028466558 -0.17212175 0.16273843 0.1067649 -0.082727514 -0.13661811 -0.24135411 -0.05506871 0.057444233 0.009300295 0.13057478 0.12012736 0.056678295 0.123313285 -0.021202305 0.02041259 0.008062171 0.20757757 0.19491686 -0.06948291 0.30614266 0.025200648 -0.07656919 0.11754437 0.102765426 -0.01448311 0.10117266 0.18529099 0.16851325 -0.0012903982 0.024886351 0.047069315 -0.08847255 0.0075143618 0.018518489 -0.011037398 0.08179912 0.08886086 0.1309974 0.12098503 -0.1477354 -0.08626486 -0.08251778 0.12376088 0.01961377 0.20864223 0.16765726 0.19468234 -0.051637128 -0.08081894 0.2704009 0.023586472 0.016884176 -0.29523832 0.18404646 -0.123417206 0.12636846 0.06425888 0.018975692 0.20636162 0.10853809 -0.089935035 0.08099068 -0.059290987 0.22465478 0.28516075 0.05212597 0.09473127 0.025146306 -0.016652923 -0.066508256 0.16227081 0.16881813 0.15799347 0.08464311 -0.044378266 0.013388948 0.06221063 0.20667705 0.22124921 0.013465469 -0.08047637 0.08025118 -0.06365159 -0.10611541 0.2969739 -0.0019882966 0.13963662 -0.09989376 0.15950522 -0.11283715 0.077251926 0.048782784 -0.07084376 0.18098734 0.060446396 -0.2587218 0.042088203 -0.092175655 -0.04113022 -0.12892625 0.05476948 -0.16595092 -0.332743 -0.0016636936 -0.05405185 0.18173641 -0.09088585 0.14728922 -0.18876292 -0.045335893 0.06476286 -0.013763466 0.13021219 -0.008649684 -0.010960459 0.18629257 -0.14043082 -0.12476412 -0.027249783 -0.050172586 -0.12881154 -0.16203542 0.14760678 -0.042786073 -0.0030689805 0.15400594 0.047915928 0.010787901 0.004901133 -0.22041324 -0.1956386 0.035531 -0.113242306 0.13960846 -0.1110671 -0.34379622 0.06376969 0.08865805 0.18108049 0.11642599 0.05505585 0.050933063 0.14506428 0.18572004 -0.18899103 -0.18498935 0.010182136 -0.0548429 -0.013375884 -0.08790414 0.024633951 -0.034427617 -0.050565407 -0.14017683 -0.17073505 -0.030443517 0.1663239 -0.25366455 0.032197457 0.10927478 -0.012012273 0.04691445 0.10364473 0.17975575 0.09344793 -0.046300292 -0.16348606 0.059373997 0.066092245 -0.006591282 -0.043264676 -0.17364928 0.12584172 -0.08872677 -0.047746688 0.16823561 0.04008837 -0.25509202 -0.21611263 -0.022515029 0.011153723 -0.1761411 0.2290722 0.18844858 -0.18030125 -0.110466376 0.2027511 -0.20676422 -0.10621255 -0.030242583 0.019870922 -0.15738015 0.150002 0.043392953 0.0008480179 0.023766588 -0.1875427 0.044039816 -0.11697773 -0.34124526 0.040977836 -0.11284434 0.25800508 0.17317702 -0.09910074 -0.022074386 -0.06341923 -0.06499688 0.0076524457 0.13322511 0.19519386 0.12663001 -0.18931212 -0.03912813 -0.067624204 0.09429007 0.022516856 0.120492004 0.10976955 0.040665846 -0.22497149 0.023734855 0.013931878 -0.15009513 -0.1981949 0.14487733 -0.16025682 -0.12792757 -0.31198093 0.15594551 0.057975005 0.033207223 -0.018927176 -0.046971213 0.08966862 0.013523175 -0.15253356 -0.048173524 0.00089773454 -0.033727404 0.03161747 0.02816729 0.028186431 0.028261859 -0.017110832 -0.05993276 -0.055835836 -0.15139262 0.011638171 0.1647683 -0.016712561 -0.016597474 -0.108218245 0.0038031165 0.10587353 -0.08933807 0.025464823 -0.027240492 -0.013050715 -0.11555255 -0.013432974 0.024805274 -0.15605344 -0.060346965 0.07348867 -0.12817672 0.03059957 0.18526067 0.18797733 0.008733443 0.16917317 -0.016286684 0.029633 -0.20540373 0.07148742 -0.015332413 -0.022603417 -0.0090483455 -0.18948779 -0.14513092
点击 0.1259983 -0.010333204 -0.10268067 0.14627255 -0.010813162 0.16186525 -0.055585634 0.0852255 0.3543758 -0.036393598 0.011076191 0.08722146 -0.049496435 0.06267098 -0.0769981 0.09075212 0.033637572 -0.05944535 -0.017421588 -0.036974628 -0.17227024 0.17689651 0.10178381 -0.08779155 -0.13636969 -0.24858399 -0.05285061 0.056330997 -0.0006268471 0.13725209 0.1178511 0.05821658 0.13048506 -0.010810808 0.035237074 0.009073238 0.20544288 0.1811817 -0.066212036 0.31282052 0.026458466 -0.08196036 0.11597288 0.09935395 -0.006329253 0.1134867 0.17752643 0.16794153 0.008885978 0.026135487 0.062353954 -0.08334753 -0.00817774 0.011683631 -0.028766496 0.07027481 0.09417127 0.13486446 0.11821879 -0.14467198 -0.06659372 -0.054758634 0.12316619 0.028456276 0.20489953 0.18499982 0.1874375 -0.04661192 -0.07432893 0.26918584 0.029746424 0.027887898 -0.3042006 0.16687037 -0.126555 0.12592706 0.0556772 0.0029800232 0.20132092 0.105625674 -0.0927634 0.08496129 -0.06421237 0.21264258 0.2861442 0.044161163 0.10335965 0.027711773 -0.016861567 -0.055875037 0.17824069 0.16100688 0.17788988 0.10268345 -0.04506655 0.014903362 0.07285577 0.22003104 0.22784165 0.016442576 -0.0801886 0.07758905 -0.0654968 -0.1152781 0.29522803 0.012057978 0.13413057 -0.0923881 0.17697881 -0.122055285 0.09409582 0.05149623 -0.080388315 0.18907112 0.05164559 -0.25242746 0.049901076 -0.09251216 -0.043209895 -0.14507473 0.04909985 -0.17863652 -0.33836362 -0.0074906535 -0.05846344 0.17979924 -0.10781426 0.14916714 -0.16713877 -0.04903104 0.08220394 -0.014786529 0.13983558 0.0012639562 -0.0168258 0.19724166 -0.15162687 -0.14279553 -0.033604242 -0.0690508 -0.13928275 -0.16768202 0.15974957 -0.03174944 -0.003184861 0.15490621 0.048939552 -4.6906316e-05 -0.005466139 -0.2211317 -0.19618392 0.039814092 -0.113999136 0.14261068 -0.11949081 -0.3478931 0.07452558 0.078145385 0.19786742 0.11133956 0.05345526 0.051054493 0.14259195 0.18688445 -0.18797667 -0.18179804 0.011171076 -0.055042047 0.0013155324 -0.08974445 0.026511462 -0.019234773 -0.057558134 -0.14221212 -0.16901381 -0.010900133 0.18112871 -0.25684243 0.027887486 0.091124155 -0.009892102 0.060018472 0.11391113 0.187848 0.085757285 -0.053276908 -0.15351525 0.055479083 0.056164753 -0.0028262753 -0.039120257 -0.17802155 0.13112618 -0.068341255 -0.054199837 0.17269939 0.0343865 -0.25182295 -0.2228687 -0.03466517 0.023795098 -0.15463363 0.24228407 0.19813628 -0.1629265 -0.0980843 0.2007448 -0.20712963 -0.117510386 -0.032019235 0.010613216 -0.16440952 0.15519898 0.04242407 -0.0035464878 0.004407837 -0.1852867 0.038775902 -0.118952 -0.3328887 0.046127692 -0.12072399 0.25356653 0.17020631 -0.0869715 -0.025363501 -0.07633072 -0.07245054 0.010689315 0.1183432 0.18590711 0.112275094 -0.18254097 -0.03907681 -0.069712676 0.10687845 0.013790878 0.12778813 0.1057329 0.044161703 -0.21208522 0.020556502 0.00019534706 -0.15920307 -0.19551678 0.13693759 -0.1606073 -0.120650046 -0.30179486 0.15567687 0.05174285 0.027767265 -0.006642291 -0.05247119 0.08739504 0.021504076 -0.1481966 -0.0499441 0.014360957 -0.04066296 0.02615236 0.031502116 0.03396326 0.021790376 -0.010722962 -0.05123144 -0.067914546 -0.14496467 0.011293682 0.14893673 -0.025383674 -0.022653805 -0.11415069 0.005069545 0.0969549 -0.08558375 0.025961969 -0.022453982 -0.01971386 -0.12441939 -0.013932622 0.033433598 -0.15213874 -0.06346939 0.06705003 -0.11568955 0.038726 0.18262365 0.17983975 0.007872558 0.17043312 -0.022022085 0.030507915 -0.21031986 0.06480609 -0.010860567 -0.019042715 0.005027058 -0.18592653 -0.15230991
输入 0.13974865 -0.012676714 -0.11455969 0.14258905 -0.030755125 0.17074965 -0.034353513 0.08393948 0.36298248 -0.022985319 -0.004418704 0.055565543 -0.046456356 0.06537612 -0.1008598 0.113139845 0.035309494 -0.05202918 -0.0011181781 -0.020305337 -0.18331334 0.15813452 0.11395991 -0.07574286 -0.14115913 -0.2380581 -0.05474437 0.061348632 0.01866926 0.12554963 0.12542342 0.06473199 0.11905208 -0.03200164 0.010935379 0.0053277127 0.21927844 0.20835148 -0.07741725 0.31787497 0.031514697 -0.08145631 0.11596182 0.11060229 -0.026196232 0.08987045 0.19507892 0.1748798 -0.010342054 0.022132237 0.036784828 -0.09459574 0.016624795 0.015014905 0.0031531244 0.09452946 0.09549605 0.13832042 0.12550327 -0.15307994 -0.10797738 -0.1070818 0.123638935 0.017812217 0.2274125 0.15265538 0.21177596 -0.062325392 -0.08821428 0.28538692 0.017474288 0.010839349 -0.29461664 0.21176459 -0.1322935 0.13557208 0.07601106 0.031266596 0.22585957 0.11744145 -0.09857885 0.08492526 -0.05425129 0.2466993 0.29944175 0.066034794 0.08982167 0.013971849 -0.02047211 -0.08503158 0.15455815 0.18108198 0.15082449 0.06942186 -0.038798675 0.005591754 0.05507008 0.20283853 0.22486663 0.014111582 -0.087689124 0.09355014 -0.07256988 -0.10464474 0.3096965 -0.0051194043 0.14901748 -0.10753044 0.1524483 -0.109609686 0.07035962 0.060085166 -0.060488988 0.18027288 0.07728861 -0.2774912 0.0314038 -0.08920228 -0.049803916 -0.122328505 0.06507093 -0.15943463 -0.33747068 -0.0012095267 -0.05678262 0.19125299 -0.078126535 0.14682186 -0.21558352 -0.050809585 0.04921168 -0.005986299 0.1278469 -0.020395927 -0.003045735 0.18586183 -0.13934289 -0.1156535 -0.020682111 -0.03432104 -0.12215088 -0.16533911 0.14848019 -0.05076007 -0.003337538 0.1606091 0.048778765 0.011388331 0.0070552235 -0.23317848 -0.20279542 0.027643451 -0.12229395 0.14149517 -0.10910102 -0.36005175 0.05348296 0.10236318 0.17369793 0.13402596 0.058644198 0.047698587 0.15348063 0.19048128 -0.1995367 -0.18935432 0.012559659 -0.056258813 -0.01999102 -0.08713404 0.023509508 -0.050151214 -0.047559265 -0.13263588 -0.18067285 -0.047752853 0.15715191 -0.2591583 0.042535614 0.12960692 -0.012115474 0.04531304 0.09896947 0.17778364 0.09886886 -0.041776273 -0.18578486 0.070693105 0.0815354 -0.006445376 -0.04822917 -0.1736291 0.13374305 -0.122462615 -0.04063086 0.17867656 0.04391129 -0.27408415 -0.2369915 -0.01508759 0.00011778578 -0.20796585 0.2391761 0.19867358 -0.20838381 -0.1324221 0.21630442 -0.21836805 -0.1080076 -0.035623282 0.022431957 -0.16254194 0.14046642 0.0473029 0.011815791 0.03696113 -0.19673395 0.04846176 -0.12203824 -0.37526456 0.030653821 -0.107982576 0.28612536 0.19422466 -0.11360467 -0.029996734 -0.058537055 -0.06838036 0.018108156 0.16645402 0.22363852 0.146095 -0.21101384 -0.05618116 -0.07088388 0.09023134 0.040334295 0.12733923 0.11280097 0.042547155 -0.24980757 0.02229591 0.024370808 -0.14563109 -0.20757087 0.16441415 -0.16920902 -0.13996917 -0.34220546 0.16945454 0.069168 0.03818257 -0.03204245 -0.049225036 0.10312753 0.0122692445 -0.17710175 -0.04106236 -0.0053717974 -0.036050074 0.038746994 0.033617113 0.021428714 0.025944795 -0.019377543 -0.06677171 -0.052550655 -0.1675154 0.014868419 0.18775871 -0.014696412 -0.0067845113 -0.11297774 0.006576154 0.12268837 -0.09208297 0.022068407 -0.028494392 -0.0005181906 -0.10616822 -0.021011535 0.027379055 -0.17371237 -0.06424505 0.081088364 -0.15369312 0.031193033 0.20156433 0.20966396 0.0045033176 0.18609777 -0.011220916 0.034121163 -0.2124971 0.08511345 -0.031482916 -0.019244628 -0.02455426 -0.21450393 -0.14781156
单词 0.117152974 0.003679734 -0.09246773 0.16589323 0.006259749 0.16901 -0.08524268 0.09057956 0.38402337 -0.060435068 0.032981984 0.13313001 -0.0577221 0.062104616 -0.05096933 0.07327427 0.03935726 -0.07005301 -0.032469366 -0.056714244 -0.17475605 0.21422857 0.097712755 -0.12017294 -0.13644826 -0.28784204 -0.05487885 0.049570363 -0.022969656 0.16098827 0.1158256 0.047757164 0.16519749 0.01449656 0.07053111 0.011767 0.20621213 0.17272615 -0.060235035 0.32865596 0.014707047 -0.08592048 0.1326206 0.09339429 0.019421674 0.1530851 0.17419063 0.18071672 0.03370531 0.030743068 0.10129625 -0.08275577 -0.032261465 0.015510816 -0.061231423 0.04360187 0.100585125 0.14823663 0.12416406 -0.14473982 -0.02903253 0.0005528169 0.14080696 0.040047545 0.19265507 0.2407359 0.18282185 -0.031493247 -0.06590882 0.2783092 0.04977702 0.04460615 -0.35584953 0.13020311 -0.12600358 0.12758377 0.034033045 -0.03446735 0.19244222 0.10837695 -0.08983416 0.09282401 -0.080053076 0.19166394 0.29757047 0.027589828 0.12808831 0.05397476 -0.022890517 -0.024921404 0.22046015 0.15278523 0.22430669 0.15117176 -0.06619197 0.034789313 0.098930396 0.26388273 0.25114632 0.018712359 -0.07471746 0.06078906 -0.05966326 -0.13883182 0.30546352 0.022560636 0.1334356 -0.09174809 0.21528976 -0.14212857 0.12567256 0.04274606 -0.11562262 0.21827564 0.018984491 -0.25101963 0.08336345 -0.10925386 -0.03701103 -0.18166092 0.03663856 -0.22016142 -0.37517044 -0.013106498 -0.05880995 0.18754804 -0.15720136 0.16631857 -0.12485351 -0.05085132 0.13540691 -0.027263343 0.17196274 0.030357484 -0.029739065 0.23063718 -0.18503095 -0.1839519 -0.050305545 -0.11749791 -0.17707695 -0.1888337 0.18725373 -0.019131111 -0.002742107 0.17098206 0.055013765 -0.011211962 -0.016325423 -0.23036484 -0.21254297 0.060596935 -0.11906811 0.15291665 -0.14866921 -0.3684003 0.10476042 0.051579636 0.24958411 0.094866246 0.056839023 0.06581737 0.13679512 0.19864228 -0.1980844 -0.19887082 0.0058199055 -0.05784484 0.02464489 -0.10800465 0.027699994 0.012833672 -0.06749388 -0.18229309 -0.17306367 0.029647117 0.23468031 -0.2872738 0.02010013 0.055097435 -0.011021588 0.084182985 0.14529234 0.21399568 0.08860807 -0.078558564 -0.13272391 0.032205492 0.031030018 -0.0037564272 -0.032182727 -0.20398514 0.12993656 -0.0074790292 -0.07522222 0.17268439 0.023241717 -0.25622714 -0.22197571 -0.061875276 0.047857996 -0.11040929 0.26632902 0.21317455 -0.124953255 -0.059549484 0.20126821 -0.21202643 -0.13653141 -0.025033774 -0.0036713611 -0.18543816 0.19528536 0.036814954 -0.0235267 -0.028564507 -0.19272426 0.023305438 -0.12399701 -0.30816534 0.07325881 -0.15439594 0.22679865 0.15257575 -0.06813704 -0.018234205 -0.10300139 -0.07360235 -0.006150811 0.06552487 0.1522739 0.08140135 -0.16093811 -0.014913625 -0.0788323 0.13263322 -0.019447248 0.14576782 0.11166155 0.045950845 -0.19455533 0.031985387 -0.025729686 -0.19885226 -0.20407416 0.11958549 -0.16153474 -0.11200841 -0.28218684 0.15552486 0.036419865 0.02196406 0.023895182 -0.061297495 0.08063655 0.03465494 -0.121821225 -0.0713268 0.032022215 -0.045783494 0.0062087914 0.023946896 0.051682178 0.02356102 0.0017946376 -0.038349625 -0.09273557 -0.13428797 0.008918244 0.119563825 -0.03185493 -0.049442466 -0.13207078 0.00028942875 0.077243716 -0.092469424 0.028835783 -0.021999871 -0.04779141 -0.16689564 0.0014785435 0.04234395 -0.13957559 -0.066396594 0.05172 -0.07445378 0.04588505 0.18134934 0.15463957 0.02029993 0.16291277 -0.043490615 0.019488959 -0.22488455 0.042467006 0.01750433 -0.02626263 0.04442942 -0.16387188 -0.17565082
选择 0.12239028 -0.013201062 -0.1005638 0.12637047 -0.021277301 0.14535797 -0.033629853 0.07599125 0.31987542 -0.023505138 0.0013773738 0.057013005 -0.041104957 0.059246164 -0.08735203 0.09675621 0.03087967 -0.049019057 -0.007989243 -0.020732427 -0.16150948 0.14173041 0.099520236 -0.067933716 -0.12385004 -0.21158957 -0.048002835 0.057220418 0.012983554 0.1135249 0.11218275 0.057661496 0.108231634 -0.023554178 0.014381114 0.0060975235 0.18923038 0.17783628 -0.0667834 0.27881795 0.025420716 -0.07053933 0.10130998 0.09695244 -0.018002084 0.08244795 0.16627248 0.15087655 -0.0012599964 0.02195622 0.036145497 -0.08194539 0.010131468 0.012807558 -0.0068257707 0.07887076 0.083199486 0.122628644 0.10958796 -0.13185474 -0.08285052 -0.08305788 0.10297845 0.01816312 0.19530651 0.14205231 0.18176802 -0.053814683 -0.07319143 0.24668275 0.015985413 0.017501274 -0.25752637 0.17749803 -0.11175169 0.11684362 0.06542314 0.023368767 0.19189009 0.10120049 -0.08571045 0.07140235 -0.0495005 0.21089071 0.25882146 0.054598723 0.07830062 0.016545441 -0.015222129 -0.071784936 0.14021358 0.15435067 0.13770808 0.068366304 -0.036587745 0.0032095837 0.04935196 0.18206458 0.19838825 0.016048722 -0.07624672 0.0802686 -0.06383661 -0.094916746 0.26738334 0.00015465911 0.12465273 -0.08952843 0.13867927 -0.0994646 0.06820921 0.051039737 -0.054321837 0.15978956 0.06147536 -0.23903708 0.028903766 -0.082995616 -0.0427871 -0.10838509 0.054511532 -0.13896458 -0.29625645 -0.006290151 -0.0485861 0.16767661 -0.0737653 0.12867394 -0.17935091 -0.04565465 0.04662184 -0.006757086 0.116454706 -0.011484711 -0.0085181305 0.16410194 -0.123954765 -0.10745368 -0.022030042 -0.039009705 -0.11003118 -0.14483307 0.12882039 -0.039315276 -0.004149789 0.13855448 0.043058693 0.008696288 0.0016950009 -0.20065735 -0.17486325 0.026465269 -0.104396276 0.1259753 -0.09717573 -0.30998367 0.05179692 0.08337798 0.15399085 0.11411336 0.051671278 0.04438566 0.13170522 0.16641091 -0.16907305 -0.16511054 0.013533901 -0.050802276 -0.016506033 -0.0796911 0.020034598 -0.037899476 -0.040894013 -0.11470048 -0.15305047 -0.038550023 0.1429558 -0.22235496 0.037238043 0.10527828 -0.010507785 0.04113791 0.08672848 0.15744285 0.07786129 -0.035527337 -0.15666537 0.061003868 0.062578715 -0.006177405 -0.041653838 -0.14605574 0.118441455 -0.09756939 -0.035784237 0.1559118 0.035076566 -0.23694633 -0.20759471 -0.012973905 0.0057816072 -0.17432937 0.21096282 0.17484021 -0.17313565 -0.1142269 0.18986979 -0.19022469 -0.0995249 -0.031217653 0.016681127 -0.1433232 0.1270749 0.04295479 0.010508834 0.025228295 -0.17254356 0.0396358 -0.11041278 -0.32717884 0.031084217 -0.09794621 0.24788128 0.17060281 -0.09416423 -0.026835483 -0.057749003 -0.0631719 0.015159073 0.13563797 0.19290826 0.123732276 -0.18797794 -0.045510206 -0.06306629 0.08659744 0.030562252 0.11300191 0.09669205 0.03997872 -0.21253301 0.019140622 0.012252548 -0.13117518 -0.18149458 0.14194006 -0.15138997 -0.11950362 -0.29899904 0.14445017 0.056662932 0.03091119 -0.023958826 -0.045719 0.08874956 0.01648909 -0.15213022 -0.040040836 -0.0027174081 -0.031891562 0.032477938 0.03041893 0.021745926 0.024892563 -0.01587561 -0.05462354 -0.049859136 -0.14586909 0.013289968 0.1585487 -0.020088546 -0.009541647 -0.10242452 0.0054746643 0.10492941 -0.08419669 0.0218321 -0.026074693 -0.0038012185 -0.09641997 -0.01762349 0.025839407 -0.1509019 -0.057546098 0.071064964 -0.12862772 0.025985453 0.17909028 0.18542415 0.0031305815 0.16460203 -0.012155567 0.02783997 -0.19246772 0.07284383 -0.020406377 -0.020414004 -0.014445538 -0.1882288 -0.13197039
金山 0.13264588 -0.014155889 -0.11252718 0.1309897 -0.023697656 0.1577561 -0.030937653 0.07590754 0.33513346 -0.02349676 -0.00549378 0.045420934 -0.03982152 0.0620521 -0.08846153 0.10174071 0.029000746 -0.049818628 0.0032640914 -0.01940865 -0.16919746 0.13968378 0.10611457 -0.065190665 -0.13388918 -0.21491775 -0.059007484 0.057470042 0.018878266 0.119022585 0.11481012 0.06047596 0.112237744 -0.033211604 0.009541776 0.0027478389 0.20522325 0.18729497 -0.06880819 0.2944994 0.03214562 -0.07801106 0.10474001 0.09752502 -0.020064628 0.085435 0.18122037 0.1554754 -0.012182111 0.019951921 0.029136766 -0.0874681 0.015383365 0.01994174 0.00024649716 0.08803316 0.085224934 0.12831822 0.11705312 -0.13976763 -0.09277669 -0.100924924 0.112535164 0.020273061 0.21125278 0.14478463 0.19447324 -0.054274134 -0.08753276 0.2580163 0.012764551 0.011215645 -0.26722586 0.1883314 -0.11934702 0.12609917 0.07122847 0.033709057 0.20534228 0.111176856 -0.09112741 0.07063795 -0.052991502 0.2277088 0.27489153 0.06314994 0.07445944 0.01034855 -0.010860646 -0.08373291 0.14074126 0.16499235 0.13904111 0.05920886 -0.029600462 0.0051385164 0.049720094 0.19166046 0.20503728 0.01716073 -0.08330721 0.08763054 -0.06488648 -0.10504434 0.27578163 -0.004144209 0.13451754 -0.09016136 0.14287113 -0.09485616 0.06865024 0.05945669 -0.051076755 0.16187286 0.072464794 -0.24705367 0.031025216 -0.08306085 -0.040276498 -0.115983374 0.050933655 -0.14037535 -0.30909246 -0.0036163582 -0.05743232 0.17055853 -0.072096944 0.13705023 -0.20042616 -0.043046836 0.037960462 -0.0055905874 0.12331298 -0.023545668 -0.0006730668 0.17005295 -0.12609476 -0.10422157 -0.021901391 -0.030279443 -0.108409785 -0.15165664 0.13128008 -0.04250334 -0.008254656 0.14452954 0.040038723 0.006498237 0.0061814548 -0.21267849 -0.19246466 0.020648018 -0.107764594 0.12957117 -0.09451501 -0.32963893 0.048315145 0.094885565 0.15447555 0.120683685 0.049399287 0.049730573 0.14258486 0.17619605 -0.18232167 -0.17385615 0.019753162 -0.055125166 -0.017973071 -0.07934496 0.024784628 -0.049513977 -0.041309092 -0.123791695 -0.16700453 -0.041283697 0.14414673 -0.23565139 0.040638916 0.12163849 -0.011323209 0.042938877 0.0877646 0.16354223 0.08654066 -0.029640693 -0.16520955 0.064784855 0.07401446 -0.009596701 -0.03850206 -0.16044474 0.12864655 -0.11511257 -0.03966031 0.17080978 0.036716793 -0.25415874 -0.21888332 -0.013546015 0.002286074 -0.19863799 0.22125039 0.18599862 -0.19060318 -0.12559657 0.20295554 -0.20414488 -0.0974719 -0.030856326 0.020055048 -0.15095109 0.13253489 0.048735175 0.009437377 0.03183485 -0.17787904 0.05028176 -0.11763386 -0.35091454 0.03239771 -0.10297127 0.26900274 0.18364571 -0.10354607 -0.023011686 -0.050791647 -0.06484738 0.019291041 0.15462239 0.20959707 0.13214268 -0.2001014 -0.054660097 -0.06689271 0.08489583 0.04040237 0.117118225 0.1069076 0.040075973 -0.23072585 0.018727439 0.020690653 -0.13691317 -0.18897408 0.15244001 -0.15262955 -0.13362198 -0.31846857 0.15560529 0.059941147 0.031644452 -0.03269776 -0.043974545 0.093645714 0.011438382 -0.1569394 -0.041750316 -0.0070715537 -0.03094883 0.04060649 0.029604323 0.01537334 0.028551888 -0.022792751 -0.057608504 -0.055781692 -0.15575577 0.014414289 0.1722924 -0.014640492 -0.0056984117 -0.10478233 0.0016940206 0.11097321 -0.08613061 0.025979469 -0.022803338 0.0035298036 -0.09725505 -0.02147973 0.025891425 -0.1589226 -0.06334049 0.076729506 -0.14593363 0.030236797 0.18411405 0.197423 0.006737958 0.17336264 -0.009587436 0.034886666 -0.19749388 0.0831305 -0.029004773 -0.011270714 -0.020842396 -0.20262495 -0.13841605
百度 0.11247331 -0.008354376 -0.08968197 0.10534945 -0.027952665 0.12831423 -0.024667569 0.065451935 0.27708364 -0.01122085 -0.0047845505 0.038806953 -0.03384494 0.054714773 -0.085450135 0.09569962 0.03014472 -0.034291063 -0.0034192281 -0.01544946 -0.14710562 0.12039006 0.09211993 -0.051428974 -0.11118271 -0.17686889 -0.043707643 0.046972413 0.019582245 0.09259078 0.09901469 0.051352542 0.083595395 -0.030465133 -0.0001230806 0.008191022 0.16416565 0.17160468 -0.06405183 0.24059142 0.027581833 -0.06258911 0.08632237 0.09085385 -0.026552966 0.05845398 0.14762592 0.13200174 -0.011960279 0.01861129 0.01840689 -0.075886585 0.021835668 0.008367762 0.011658373 0.08142238 0.06920989 0.10200839 0.09685095 -0.120485395 -0.09744933 -0.098644964 0.086604804 0.010277361 0.18192673 0.09872932 0.16668439 -0.05598837 -0.06986452 0.21689312 0.0075008012 0.009443487 -0.21498129 0.1718074 -0.10297418 0.101354666 0.06571286 0.032512814 0.17568405 0.090299584 -0.078231126 0.06473367 -0.03568212 0.1944823 0.22696784 0.05035241 0.064575806 0.006541529 -0.021105787 -0.0721606 0.10824575 0.13845615 0.10404289 0.03991695 -0.024733195 -0.006726282 0.032416184 0.14303489 0.16727836 0.0068736696 -0.07009648 0.07116382 -0.05810533 -0.071768016 0.24087055 -0.0098392805 0.110865526 -0.08860946 0.10528841 -0.07981382 0.04401534 0.04320929 -0.034419265 0.13210419 0.066582516 -0.21077876 0.006929956 -0.070408106 -0.044222146 -0.07907107 0.05805483 -0.11362053 -0.24902242 0.00074027077 -0.036698602 0.14897332 -0.047002643 0.10826641 -0.17410827 -0.036806088 0.022432063 0.0005818772 0.09198933 -0.02143515 -0.0025584039 0.13352333 -0.1006209 -0.081114836 -0.008753318 -0.013859599 -0.08853256 -0.1243232 0.10731517 -0.04188958 -0.0018478065 0.12165368 0.03589584 0.01199709 0.0063860426 -0.17697738 -0.14364316 0.019965313 -0.09515205 0.107690975 -0.07913585 -0.26786464 0.039020766 0.08517578 0.11916409 0.10950038 0.04761178 0.032196313 0.11664979 0.14288108 -0.14520434 -0.14343588 0.008767019 -0.040894207 -0.024770036 -0.06694311 0.020491453 -0.048386645 -0.035232686 -0.08745721 -0.13636814 -0.048593592 0.10912112 -0.19253817 0.036280543 0.10819849 -0.0064088535 0.024124257 0.07051385 0.12971565 0.07715297 -0.025937838 -0.15356356 0.063226245 0.06869047 0.00022298675 -0.041778464 -0.12382175 0.1048046 -0.11104984 -0.026214782 0.14015692 0.035558917 -0.21812636 -0.18888107 0.00015002381 -0.008975328 -0.17998609 0.18384187 0.15551385 -0.17792241 -0.117308535 0.17822212 -0.17757459 -0.08386752 -0.031704657 0.02057295 -0.12777445 0.099950284 0.039394353 0.016719554 0.034957517 -0.15993313 0.03839512 -0.09606966 -0.30854246 0.01590329 -0.07760237 0.2314092 0.16357848 -0.09732514 -0.029374521 -0.04711563 -0.055744242 0.016426194 0.14456375 0.1875843 0.12956198 -0.17845924 -0.043294627 -0.054250974 0.06632584 0.03858216 0.09936611 0.085931 0.034892183 -0.20848994 0.014722278 0.019993698 -0.10568722 -0.16669662 0.13949214 -0.14512728 -0.117080756 -0.28109422 0.13532275 0.055886623 0.033517063 -0.03383149 -0.041772734 0.08234853 0.009265299 -0.15487994 -0.027637865 -0.012580792 -0.026451709 0.034059044 0.029635863 0.013723536 0.02386291 -0.019060982 -0.056092896 -0.031600498 -0.14091694 0.01422016 0.15777537 -0.0072447355 0.0016669768 -0.09086584 0.012027546 0.1010473 -0.074895285 0.013974413 -0.026510809 0.0053296136 -0.074563555 -0.016510058 0.014894073 -0.14321189 -0.045215268 0.06859552 -0.13147284 0.021252798 0.16863908 0.17747433 0.003158288 0.15297261 -0.0044450695 0.02767642 -0.16947165 0.07638166 -0.028027413 -0.023941234 -0.0287553 -0.1803259 -0.11196012
显示 0.1263478 -0.00512899 -0.10103511 0.13790235 -0.019374076 0.15632737 -0.046366177 0.08073744 0.3400939 -0.03165168 0.0057632555 0.07403106 -0.04578801 0.061368767 -0.07853189 0.095704645 0.037358046 -0.053828184 -0.0077141495 -0.03158504 -0.16437984 0.16115148 0.09892681 -0.07804159 -0.13185945 -0.23383218 -0.052079346 0.05225435 0.007575677 0.1238327 0.11306851 0.052852638 0.11952452 -0.016582048 0.021852378 0.0070203566 0.19432893 0.18391004 -0.064753756 0.2942376 0.025121965 -0.074007705 0.11111996 0.098873235 -0.010211923 0.10091941 0.17330167 0.16129579 0.0010816385 0.02309184 0.047380198 -0.08465483 0.0020678744 0.016495606 -0.012774626 0.07493041 0.08632859 0.12623775 0.115060285 -0.13937801 -0.07971782 -0.07409546 0.12139759 0.021807792 0.19929469 0.16298226 0.18658847 -0.047183663 -0.07651812 0.26132765 0.02277694 0.018473944 -0.28774428 0.17406577 -0.12278429 0.11973203 0.059580814 0.013853274 0.19507627 0.10587075 -0.087159105 0.077029996 -0.053751916 0.21105404 0.27509913 0.050621837 0.088796005 0.020053199 -0.018081393 -0.06332659 0.1610361 0.16120669 0.15497822 0.08442429 -0.04031982 0.012524519 0.06237953 0.20206048 0.21185513 0.013604449 -0.077321365 0.07810893 -0.064840615 -0.10532641 0.2867327 0.002552191 0.13358495 -0.09588698 0.1567487 -0.11054457 0.07630363 0.04782562 -0.07074898 0.17535098 0.053944297 -0.24585076 0.038677346 -0.087683074 -0.043240782 -0.1257328 0.053509023 -0.16236056 -0.32072923 -0.0017527767 -0.054638453 0.17155766 -0.0915048 0.14153671 -0.17794536 -0.043695923 0.06435182 -0.011292325 0.12574686 -0.005501501 -0.008533725 0.18270566 -0.13892809 -0.12489891 -0.024251021 -0.056165125 -0.124657534 -0.15785909 0.14660795 -0.035777617 -0.0036625979 0.14875928 0.046836488 0.007985367 0.00029521834 -0.21538743 -0.1918721 0.033172973 -0.10959112 0.13276522 -0.111403 -0.33313778 0.062057994 0.083881 0.1748188 0.11058472 0.05435973 0.04939989 0.13971993 0.17886801 -0.18116494 -0.17769586 0.010893754 -0.05311756 -0.007626346 -0.085886575 0.026684431 -0.030757245 -0.050275557 -0.13586634 -0.16594872 -0.023421587 0.16106158 -0.24488357 0.032595705 0.10168545 -0.008235048 0.048582412 0.10059416 0.17746757 0.08732408 -0.04452315 -0.15747012 0.05559356 0.062478337 -0.0053950837 -0.039878152 -0.16665077 0.12451306 -0.082808316 -0.04640465 0.1645122 0.03601334 -0.25275204 -0.21451963 -0.025175251 0.009242074 -0.1704446 0.22715123 0.1862779 -0.1748484 -0.10595928 0.19834523 -0.2044543 -0.105924785 -0.028679004 0.014775671 -0.1584913 0.14712322 0.043020412 -0.0006988318 0.019499904 -0.18233834 0.04313189 -0.1157858 -0.3348979 0.043309502 -0.11371727 0.25275606 0.16860707 -0.09231563 -0.023569638 -0.065929145 -0.06796712 0.01143308 0.13260633 0.19188324 0.12297783 -0.18619448 -0.0373635 -0.06882669 0.095422864 0.019365417 0.12088209 0.10721618 0.04096409 -0.21656592 0.021290015 0.010891846 -0.14854728 -0.19374302 0.14371713 -0.15421078 -0.124051616 -0.3055657 0.1546768 0.05402275 0.03005972 -0.01476279 -0.045978487 0.0902541 0.015704066 -0.14783393 -0.04817398 0.0020456326 -0.034842998 0.027266612 0.028366422 0.025948001 0.026086066 -0.014197241 -0.054736406 -0.059567425 -0.14691348 0.009076742 0.1577865 -0.016432798 -0.01593748 -0.111438274 0.0028664607 0.09897991 -0.08535217 0.024144558 -0.028267328 -0.018096762 -0.11564304 -0.013703084 0.024022507 -0.15392785 -0.062751494 0.067081004 -0.12398957 0.035133053 0.18302986 0.18194476 0.010080551 0.1671971 -0.017817397 0.030815287 -0.20067866 0.067896366 -0.018894276 -0.023054633 -0.004882768 -0.18859567 -0.14895429
按钮 0.11953955 -0.009942011 -0.09938508 0.14258249 -0.01050961 0.1520799 -0.050467283 0.08072567 0.3398475 -0.03470955 0.009830918 0.080678314 -0.047974337 0.059907004 -0.07545997 0.08608911 0.031135863 -0.05619193 -0.0211327 -0.029193824 -0.16216397 0.16739403 0.097016856 -0.0851005 -0.12734693 -0.23718637 -0.052315693 0.053927034 -0.0023597747 0.1312172 0.11316057 0.058711194 0.12537728 -0.0097747985 0.033758957 0.0077332365 0.19850965 0.17286943 -0.06570962 0.29840165 0.023607876 -0.08082786 0.11062631 0.09590528 -0.0050660647 0.10697923 0.16871142 0.16210613 0.011462404 0.022001863 0.059270084 -0.08110665 -0.00593495 0.011331751 -0.02789546 0.07003905 0.09090998 0.12836738 0.112577334 -0.13399208 -0.060961667 -0.052602705 0.11651155 0.029496538 0.19489107 0.17846893 0.18091385 -0.04359359 -0.07180682 0.25674126 0.023853127 0.027762981 -0.29005057 0.16088572 -0.11568052 0.11977799 0.052776128 0.00012158547 0.19437525 0.101012826 -0.08868095 0.07884587 -0.0613123 0.20360495 0.27017444 0.043437265 0.09929239 0.027919848 -0.016357007 -0.055443887 0.16989765 0.15044819 0.17091842 0.0956497 -0.04252306 0.012742453 0.06830693 0.20740989 0.21810567 0.018991487 -0.07413097 0.07599015 -0.062789544 -0.10740146 0.2782138 0.00757247 0.1297769 -0.08572919 0.16650626 -0.113898076 0.0919689 0.05161107 -0.077251144 0.18122159 0.04803522 -0.23972858 0.050523594 -0.09053603 -0.03965789 -0.13526002 0.047282964 -0.1682514 -0.32381606 -0.008793246 -0.05302653 0.17460486 -0.10625081 0.14024241 -0.16159236 -0.0474012 0.08186723 -0.010792899 0.13723698 0.001042401 -0.014604728 0.18543601 -0.1461331 -0.1332365 -0.033714183 -0.06615083 -0.13347532 -0.16066907 0.15050991 -0.028610494 -0.0024605044 0.15082546 0.04633861 -0.00055320933 -0.003940159 -0.2098649 -0.18468995 0.03985411 -0.11040287 0.14046872 -0.11623777 -0.33049142 0.071384095 0.07378265 0.18676922 0.11000463 0.054787528 0.05011343 0.13427182 0.17846538 -0.1824903 -0.17533815 0.010203122 -0.051415075 0.001720281 -0.0880143 0.021264004 -0.021010505 -0.054117095 -0.13361597 -0.16318779 -0.015203045 0.17176655 -0.24383305 0.029470243 0.089283034 -0.008285816 0.059451062 0.11000335 0.17887239 0.0784741 -0.05035277 -0.14648649 0.05277043 0.051321212 -0.003855325 -0.038973607 -0.16533317 0.12677063 -0.068474166 -0.05238785 0.16578697 0.030466538 -0.23997472 -0.2123545 -0.032285977 0.02134748 -0.15291053 0.23422103 0.19123012 -0.1545421 -0.09423042 0.18647115 -0.20063806 -0.111999005 -0.0321283 0.0095065255 -0.15726282 0.14611776 0.038785085 -0.0028268073 0.0063272174 -0.1790155 0.036192834 -0.11605121 -0.320096 0.04191975 -0.11642632 0.2414382 0.15988213 -0.08254961 -0.025357068 -0.07349247 -0.065879315 0.01228875 0.1136656 0.1792021 0.11075972 -0.17917255 -0.03887998 -0.07016966 0.10449637 0.01296648 0.12541215 0.09751964 0.04454604 -0.20189427 0.02083646 -0.002150432 -0.15669502 -0.19022955 0.13569725 -0.15399326 -0.11747206 -0.29230055 0.14467813 0.049218245 0.022495864 -0.009936858 -0.050515827 0.08131465 0.02124017 -0.1422289 -0.050854422 0.009226582 -0.040725674 0.02607116 0.028674161 0.03205658 0.022445172 -0.010082775 -0.050150577 -0.06221302 -0.1391905 0.0129075255 0.14499934 -0.028544528 -0.023585634 -0.11495786 0.0062922346 0.09602665 -0.08651912 0.02246275 -0.024599183 -0.018130856 -0.117909804 -0.01307364 0.033442687 -0.14586161 -0.060626797 0.06349513 -0.10770298 0.0362919 0.17802508 0.1767659 0.007441793 0.16624694 -0.023607586 0.029034626 -0.20199303 0.06477844 -0.0071776155 -0.020642674 0.0051671118 -0.17865098 -0.14690328
设置 0.14304188 0.02210355 -0.12413406 0.1711559 -0.019869633 0.1967987 -0.06725303 0.088238 0.438309 -0.05250464 0.01058669 0.12146495 -0.06588604 0.064312704 -0.066483624 0.10989491 0.06156611 -0.08425356 0.008662462 -0.06012566 -0.19714125 0.2112059 0.10679544 -0.11363396 -0.16300155 -0.3124335 -0.0633355 0.04788802 0.007870959 0.16319972 0.13700838 0.038421065 0.16496673 -0.0077923504 0.038982786 0.00062311837 0.23452438 0.22247297 -0.06823647 0.35807082 0.029092524 -0.07307285 0.14611204 0.120928325 0.00625834 0.1509646 0.22999135 0.2080391 -0.004532275 0.034952708 0.07630195 -0.09350241 -0.0069871685 0.020220129 -0.020986099 0.07480609 0.10563192 0.15915148 0.14176966 -0.18050529 -0.08940531 -0.0706515 0.17701569 0.028173879 0.23003384 0.22867753 0.22343847 -0.033308953 -0.10235153 0.32055557 0.046349704 0.0086149145 -0.38991356 0.19371141 -0.15620875 0.14989258 0.06231819 0.005268917 0.23267096 0.12860467 -0.08150699 0.10266229 -0.07444314 0.2486991 0.34574443 0.049389884 0.119974636 0.038831968 -0.016432235 -0.04451603 0.21593884 0.2101788 0.19811907 0.14596285 -0.06460884 0.04541952 0.10654098 0.26588896 0.271238 0.008746931 -0.09488229 0.07838462 -0.068942204 -0.14286456 0.35945535 0.010003106 0.17151508 -0.12154844 0.22314535 -0.15711373 0.106698066 0.048998665 -0.11002166 0.2354587 0.051061276 -0.3060799 0.07198018 -0.109314516 -0.034476876 -0.18223533 0.048996147 -0.22844194 -0.42283887 0.0107633965 -0.07509521 0.21203122 -0.13687225 0.18400282 -0.20763017 -0.04748418 0.10445284 -0.041923475 0.15635729 -0.004931045 -0.004923005 0.24563098 -0.1715297 -0.17353027 -0.024436584 -0.10036142 -0.17588824 -0.20573103 0.20350365 -0.042578004 -0.0021963853 0.1885651 0.05458935 0.015741171 0.007811985 -0.2626226 -0.26893583 0.052832015 -0.12224111 0.16335858 -0.14696471 -0.42815846 0.081749454 0.09830673 0.24441066 0.11949292 0.060834944 0.069333605 0.16550623 0.22543554 -0.24024147 -0.23207276 0.0016405077 -0.06889303 -0.0014338238 -0.11608798 0.03274353 -0.031147411 -0.0715616 -0.21062055 -0.21232124 0.007967556 0.23235987 -0.32318345 0.014215887 0.10911119 -0.0073868437 0.064435415 0.13515252 0.24943928 0.13087548 -0.07180418 -0.1791166 0.057750836 0.08120803 -0.0093309125 -0.041751873 -0.23268522 0.13343251 -0.060212225 -0.0770661 0.20562647 0.055009384 -0.31969854 -0.2502122 -0.05230575 0.02085828 -0.17470916 0.28359944 0.22464733 -0.19605097 -0.09732192 0.2550394 -0.24276532 -0.13677894 -0.03227467 0.03118995 -0.20495835 0.22187762 0.048484076 -0.022136109 0.024938382 -0.23353773 0.0642024 -0.13969988 -0.39229923 0.080074325 -0.15767048 0.29789716 0.19243994 -0.11109198 -0.02285753 -0.08320229 -0.0807422 -0.009620147 0.13098323 0.20276614 0.13169412 -0.19501448 -0.030644618 -0.0826115 0.113787 0.005058604 0.14347084 0.15765066 0.04076924 -0.25993508 0.037354503 0.020618368 -0.19873127 -0.24202831 0.15529218 -0.17826241 -0.14669484 -0.3660573 0.20640318 0.064512946 0.041284654 0.011867115 -0.037645724 0.11903438 -0.00053350383 -0.1468137 -0.07465209 0.017745735 -0.038742278 0.029999541 0.023888161 0.05205025 0.029983073 -0.026239885 -0.07501693 -0.089552276 -0.16500656 -0.0066907047 0.18339884 0.0006993066 -0.039113447 -0.11705529 -0.013572232 0.10983669 -0.095876485 0.037519846 -0.028450273 -0.0576714 -0.17042895 -0.0038228696 0.033154096 -0.17625839 -0.087016694 0.076624855 -0.13290688 0.061195266 0.20495462 0.20150979 0.023752868 0.18798265 -0.023511762 0.035615854 -0.2436387 0.05883472 -0.009842528 -0.010708297 0.0029152334 -0.20622046 -0.20056346
关键字 0.1287256 -0.0068571446 -0.10803857 0.13621892 -0.023913579 0.15791306 -0.03742329 0.07917133 0.34214705 -0.028430609 -0.0002925574 0.064943 -0.042909138 0.06154047 -0.085816294 0.1018011 0.03368254 -0.052940007 -0.0036781467 -0.0241311 -0.1671793 0.15161408 0.10156874 -0.0720174 -0.13227686 -0.22832556 -0.05346642 0.055925038 0.014760383 0.12281482 0.11716776 0.053913914 0.11525397 -0.02178771 0.015648762 0.007517595 0.19763929 0.1906048 -0.06611455 0.2923011 0.028979478 -0.070654064 0.10713521 0.102038324 -0.015636755 0.0912592 0.17942542 0.15892687 -0.0063696187 0.023516038 0.03832312 -0.08156574 0.007998753 0.015116779 -0.0060056504 0.0848121 0.08557721 0.1285117 0.11720794 -0.14105484 -0.08695661 -0.087587655 0.11805712 0.019290393 0.20706238 0.15020601 0.18823303 -0.049570348 -0.077991985 0.25999242 0.017182652 0.012984237 -0.27812216 0.18572702 -0.12154281 0.122224644 0.06405371 0.02336937 0.20244348 0.10913946 -0.08607753 0.07631831 -0.051918354 0.22182812 0.276142 0.054823093 0.08797111 0.019168202 -0.017087417 -0.07062897 0.15055175 0.164885 0.14788574 0.07744749 -0.041294288 0.0076450077 0.05949875 0.19184488 0.2097907 0.0113788275 -0.08121784 0.07945525 -0.061935857 -0.10030834 0.2881283 -0.0016399637 0.13724081 -0.094475545 0.14943667 -0.10722147 0.07164209 0.050676532 -0.06283345 0.1725481 0.064842306 -0.25360873 0.035527453 -0.08466664 -0.041809052 -0.118754566 0.05464481 -0.15391667 -0.31610125 -0.0006575359 -0.052475717 0.17805794 -0.08099966 0.13912182 -0.18805869 -0.043546394 0.052434288 -0.009727181 0.11946263 -0.012581165 -0.005607928 0.17622563 -0.1284153 -0.115592375 -0.022104887 -0.04389021 -0.11686757 -0.15696205 0.14347652 -0.040748186 -0.00382082 0.1474 0.04311515 0.01012031 0.006823494 -0.21613869 -0.19022948 0.0322787 -0.108201824 0.13368163 -0.1024405 -0.33412647 0.055710692 0.08783715 0.1690731 0.114495896 0.05352068 0.044876684 0.13888441 0.17688921 -0.18612845 -0.17455322 0.01231507 -0.053595114 -0.01342394 -0.08641364 0.023561914 -0.040715326 -0.047862 -0.13009275 -0.16614729 -0.034016043 0.15372552 -0.24174756 0.034093417 0.11170691 -0.01129651 0.044421654 0.094773084 0.17115815 0.09016196 -0.042279974 -0.16348222 0.060023736 0.06949585 -0.0059367735 -0.041193523 -0.16325839 0.1263069 -0.09871062 -0.042238027 0.17165111 0.04142046 -0.25603235 -0.21788245 -0.01784825 0.0058478056 -0.18328217 0.22588594 0.18615474 -0.18473424 -0.11575363 0.20658885 -0.20537153 -0.10611926 -0.032369435 0.020658236 -0.15470944 0.14368281 0.04569502 0.0057894173 0.029764142 -0.18596852 0.048171178 -0.11736769 -0.34638298 0.0373885 -0.10892695 0.26263562 0.18015556 -0.10236531 -0.025628187 -0.05959649 -0.06655298 0.009966927 0.14677933 0.20015547 0.1310867 -0.1918738 -0.045893498 -0.06798328 0.091037765 0.030840406 0.11988054 0.110424325 0.041321307 -0.22943078 0.020802133 0.01917556 -0.14274895 -0.19863468 0.15009598 -0.157858 -0.12709771 -0.31931114 0.16224223 0.061670825 0.031699713 -0.022016294 -0.04402005 0.09387397 0.008438463 -0.15549679 -0.046012674 -0.00089633913 -0.033431467 0.03365633 0.030291434 0.022011269 0.027045341 -0.020809347 -0.06002541 -0.05471899 -0.15358396 0.008452003 0.16721539 -0.013949144 -0.010116203 -0.107516326 0.0041531757 0.11023291 -0.089203715 0.026841482 -0.02594074 -0.009046308 -0.10945121 -0.0179835 0.027415244 -0.16042139 -0.06301286 0.07391181 -0.13658942 0.034360312 0.18430704 0.19435692 0.006185276 0.17294249 -0.012507163 0.033203878 -0.20440824 0.07344102 -0.023319218 -0.016041236 -0.01792173 -0.19778392 -0.1463599
异常 0.113282576 -0.007675863 -0.08972009 0.10902635 -0.026100993 0.12885146 -0.025005471 0.06655112 0.28679863 -0.015521095 -0.004923619 0.042411394 -0.03533596 0.05465616 -0.08345422 0.093515776 0.026394928 -0.0362013 -0.006454978 -0.016263539 -0.14941725 0.12551142 0.089878276 -0.057790127 -0.111961655 -0.18216106 -0.041884545 0.046363484 0.01621649 0.096704505 0.10166586 0.051819295 0.08798343 -0.027626906 0.0026057542 0.0050614644 0.17022805 0.17122646 -0.06060089 0.25123453 0.024977978 -0.06432032 0.089744024 0.09047897 -0.026514946 0.065493055 0.14778933 0.1382658 -0.009960623 0.01623738 0.022442548 -0.07819196 0.018114315 0.011186525 0.007303702 0.07746408 0.07211876 0.10801126 0.09730414 -0.120913684 -0.09259366 -0.091305554 0.08979446 0.014828556 0.18126243 0.111061946 0.16887082 -0.053811908 -0.06843268 0.22140294 0.0116474535 0.009671463 -0.22445376 0.1693104 -0.10263086 0.106176354 0.062441856 0.026988247 0.1765415 0.091592245 -0.07800646 0.06653706 -0.04089371 0.19611128 0.2296762 0.05174779 0.06726132 0.010400663 -0.01822326 -0.06804549 0.11682846 0.14122275 0.111209854 0.051757697 -0.028844787 -0.004613076 0.041194543 0.15194881 0.17302322 0.010674647 -0.06834814 0.073474534 -0.05731731 -0.07590686 0.24582498 -0.0070191775 0.1170851 -0.08628247 0.11077973 -0.08490803 0.050833926 0.046199366 -0.040575143 0.14062089 0.064883746 -0.21799926 0.0144871995 -0.06829301 -0.041880343 -0.08896964 0.05966346 -0.12047244 -0.25737473 0.00034610584 -0.041070677 0.1533376 -0.057602406 0.11703658 -0.17247438 -0.03608383 0.03282053 -0.0008118534 0.098260626 -0.018445816 -0.0018488705 0.14010265 -0.10502791 -0.08872622 -0.010870273 -0.01911743 -0.09544845 -0.12744819 0.11509101 -0.04195661 -0.002572069 0.12435398 0.03949499 0.01264693 0.0027784945 -0.18141842 -0.15093477 0.022537308 -0.09848578 0.11186784 -0.08394622 -0.27540472 0.040801384 0.08505473 0.12616684 0.10882238 0.04895831 0.035728537 0.120021075 0.1470511 -0.15313852 -0.14779264 0.0070096143 -0.044060633 -0.021280989 -0.07233635 0.022171577 -0.044068143 -0.034836315 -0.09400266 -0.13583437 -0.045044713 0.12002843 -0.20090652 0.035931002 0.10702327 -0.006262475 0.02699003 0.07620742 0.13827527 0.078820385 -0.030414486 -0.15112759 0.06192041 0.06618854 -0.0037872382 -0.03969153 -0.12783343 0.11090639 -0.10618893 -0.029847175 0.14320847 0.03723766 -0.21923444 -0.18980907 -0.0071893428 -0.004163578 -0.17309554 0.18565954 0.15898876 -0.1698622 -0.1159412 0.17783794 -0.17874421 -0.084035 -0.030462055 0.020855319 -0.12675886 0.10447498 0.04064732 0.01602346 0.02895646 -0.1598229 0.035520203 -0.09860917 -0.3065611 0.019968158 -0.08353865 0.22908331 0.160564 -0.094462134 -0.02546746 -0.047463074 -0.05818396 0.012751465 0.141217 0.1858579 0.12617463 -0.17546064 -0.040802795 -0.054776695 0.070701234 0.035138868 0.10259821 0.087291844 0.03872003 -0.20549579 0.014290855 0.01726263 -0.1123887 -0.16584349 0.13733032 -0.144145 -0.11507755 -0.2795182 0.13496904 0.05684498 0.029763818 -0.032714583 -0.043320388 0.08010404 0.011458216 -0.14876965 -0.03048061 -0.009154694 -0.03022046 0.034525126 0.03186993 0.01646566 0.02240737 -0.01343899 -0.0544581 -0.03677865 -0.13636218 0.015805652 0.15593386 -0.008417678 -0.0021109262 -0.09484381 0.010060915 0.0994933 -0.07610371 0.014048305 -0.027489625 0.0030555557 -0.07618591 -0.013641567 0.01840003 -0.14142728 -0.046596847 0.06741444 -0.13021393 0.023011947 0.16502953 0.1740867 0.0040149507 0.15188685 -0.006809792 0.029137136 -0.1729287 0.06988292 -0.024336094 -0.024369247 -0.026453156 -0.17889176 -0.11622043
谷歌 0.13233292 -0.0058274153 -0.109830044 0.14075612 -0.022654615 0.1627765 -0.041157328 0.08138302 0.35297075 -0.03145625 0.0011918815 0.069936104 -0.047085647 0.061622657 -0.087676995 0.104836196 0.035303403 -0.05478205 -0.0024760691 -0.026823688 -0.17626615 0.16494705 0.10376341 -0.07997334 -0.13786103 -0.24209596 -0.054699134 0.055653736 0.009772653 0.1277998 0.12055532 0.05848868 0.12278583 -0.019915922 0.019156663 0.0074971663 0.20605306 0.19516924 -0.07302045 0.308653 0.02587508 -0.0754331 0.11304646 0.10674056 -0.01804342 0.09516729 0.18466488 0.16723563 -0.0051943 0.025148809 0.043853987 -0.08449368 0.00850131 0.015542625 -0.008014116 0.084795885 0.09189885 0.1364329 0.12241266 -0.14753756 -0.088003576 -0.08958637 0.1242503 0.020428812 0.21418619 0.15933134 0.19840676 -0.05358648 -0.08146619 0.2725277 0.023903027 0.01788782 -0.2915104 0.18807133 -0.12814637 0.12906736 0.06482212 0.020760095 0.20784119 0.113360584 -0.091142066 0.08385864 -0.0540169 0.22838628 0.2865982 0.053699605 0.09351048 0.021178449 -0.018879725 -0.0719498 0.15966013 0.1706703 0.15558103 0.0823844 -0.045119036 0.011557727 0.06344542 0.20149086 0.22010246 0.012342959 -0.083969295 0.08052822 -0.063269086 -0.106394894 0.2972794 0.002302761 0.13753901 -0.09935237 0.15878263 -0.115418874 0.07798318 0.052039318 -0.069484524 0.18317056 0.06145549 -0.26279753 0.036034305 -0.08751048 -0.044066485 -0.124864355 0.056039743 -0.16425149 -0.33189356 -0.002563732 -0.055413324 0.18437152 -0.08845874 0.14567399 -0.19180082 -0.0468393 0.056542497 -0.011036356 0.12564015 -0.012007728 -0.0060420306 0.18758722 -0.14011449 -0.12112203 -0.024962258 -0.05002648 -0.124374755 -0.15972763 0.1515068 -0.044003487 -0.0056035295 0.15371603 0.046270527 0.010183684 0.00680864 -0.22626401 -0.20061731 0.032762617 -0.114711024 0.13903421 -0.10849172 -0.34831956 0.05884165 0.092079885 0.17846794 0.12167212 0.054868136 0.044737164 0.14561911 0.18575889 -0.19343236 -0.18285955 0.011755833 -0.054723375 -0.010745062 -0.08825392 0.02645244 -0.03666523 -0.05220408 -0.13576779 -0.17375772 -0.03129902 0.16460449 -0.25441486 0.032499555 0.1120135 -0.009570891 0.046135526 0.102760606 0.17716534 0.09273697 -0.044896003 -0.1707766 0.061989196 0.07076761 -0.006883199 -0.043429065 -0.16994749 0.12808144 -0.099004276 -0.04878521 0.1742606 0.03983039 -0.26433876 -0.22771864 -0.021366466 0.0074373106 -0.18492879 0.23553497 0.19515559 -0.18746799 -0.11817792 0.20848525 -0.21044329 -0.112184204 -0.032282304 0.021465728 -0.16188447 0.14951585 0.048005566 0.0038015465 0.029615775 -0.1893603 0.04932705 -0.12101034 -0.35369992 0.037496027 -0.11474083 0.26851627 0.18225521 -0.10266632 -0.030146744 -0.06077468 -0.06814598 0.010381516 0.14609905 0.20192553 0.1298151 -0.19579557 -0.048845448 -0.06789314 0.09072298 0.026564382 0.1244276 0.11477325 0.04162074 -0.23348533 0.022237238 0.01832372 -0.14977778 -0.20178525 0.15130907 -0.16299403 -0.1294904 -0.3215362 0.1663325 0.064300604 0.034404214 -0.020546706 -0.04498426 0.09707102 0.008856874 -0.16221197 -0.043919496 0.004183566 -0.034426138 0.03415642 0.0321232 0.0246023 0.026384842 -0.015393231 -0.0639867 -0.05599475 -0.1578275 0.010513135 0.16906388 -0.01528697 -0.013359944 -0.108259656 0.0029794846 0.11172791 -0.08773196 0.024060357 -0.025188636 -0.0127716055 -0.112423986 -0.018081287 0.02718907 -0.16205606 -0.063116886 0.07429304 -0.13569826 0.03825757 0.19177103 0.1947886 0.008418201 0.17831989 -0.013317436 0.030072525 -0.21019343 0.07568054 -0.021527816 -0.016487347 -0.01670322 -0.20084703 -0.15018122
未知 0.11261224 -0.007378114 -0.08956248 0.11077471 -0.025273018 0.1317708 -0.0254293 0.066114455 0.2815886 -0.014515885 -0.0025761048 0.041752145 -0.036778256 0.050383642 -0.08686532 0.090434454 0.03141511 -0.037061747 -0.003858607 -0.015930057 -0.14836165 0.123240955 0.09372678 -0.05786138 -0.1132418 -0.18334506 -0.043912802 0.047808573 0.0141099375 0.09462262 0.10258338 0.052734584 0.087268725 -0.028946422 0.0026480705 0.009337743 0.16846995 0.16984108 -0.06309005 0.24553505 0.026027784 -0.060717236 0.08955617 0.08678659 -0.024272023 0.061272576 0.14773186 0.13576278 -0.0072603733 0.017860847 0.026838284 -0.07269217 0.015417744 0.008713671 0.005680306 0.07892713 0.07095747 0.10310258 0.0951446 -0.12093465 -0.09109326 -0.090971544 0.088795766 0.013408921 0.181257 0.106861696 0.16302364 -0.05427834 -0.06933571 0.21900125 0.009709234 0.008571111 -0.22435936 0.16997932 -0.1025152 0.101102695 0.065570034 0.027690338 0.17789796 0.089101166 -0.07890351 0.0638595 -0.035825633 0.19311799 0.232016 0.049193088 0.06599372 0.010693156 -0.020933162 -0.06758727 0.114932984 0.14255017 0.113237716 0.05067215 -0.03182177 -0.002335521 0.037351064 0.14955153 0.1703267 0.0077290107 -0.069149435 0.07394499 -0.06003715 -0.0730446 0.24575333 -0.00887256 0.11167764 -0.08848245 0.112560146 -0.08641029 0.04659625 0.042871587 -0.03965604 0.13586596 0.060464934 -0.21486278 0.01052293 -0.07340669 -0.042729314 -0.08433776 0.05980529 -0.11954931 -0.2586993 0.0008392244 -0.03946532 0.14725003 -0.0558411 0.11296618 -0.17205352 -0.040192246 0.031602167 -0.0015037128 0.09434901 -0.015771827 -0.0030940967 0.13884798 -0.104489334 -0.087652154 -0.010695544 -0.021318723 -0.09291242 -0.1285778 0.11452068 -0.039162226 -0.003284221 0.12655047 0.036956716 0.013626172 0.0052102106 -0.18330999 -0.15074112 0.022719476 -0.09536457 0.10926574 -0.081904806 -0.2779357 0.042504005 0.08531889 0.1274465 0.107973695 0.046520554 0.036373135 0.11881371 0.14954846 -0.1514525 -0.14464311 0.011262736 -0.041532166 -0.023499575 -0.0689683 0.019490706 -0.043633327 -0.0363869 -0.094353124 -0.13846028 -0.047184892 0.114269935 -0.20049687 0.03675476 0.10101155 -0.005980037 0.027990794 0.07451673 0.13544059 0.07630864 -0.030620452 -0.1521457 0.061729684 0.06642383 0.00065622106 -0.042682227 -0.12639774 0.10430546 -0.103419036 -0.02588049 0.13720782 0.036925673 -0.21433973 -0.18633248 -0.001937277 -0.007282486 -0.1693213 0.18564403 0.15669788 -0.17181094 -0.11068851 0.17434847 -0.1745343 -0.08239936 -0.029256715 0.017672544 -0.12926434 0.10720794 0.038229063 0.016293624 0.029872635 -0.15856351 0.039161976 -0.098835036 -0.29917485 0.020119477 -0.079928234 0.22502473 0.15809016 -0.09264036 -0.028822025 -0.0483401 -0.053805254 0.013572408 0.13663875 0.18107557 0.12608741 -0.17195575 -0.04014875 -0.054442838 0.06894769 0.03197755 0.09859079 0.0861985 0.033481084 -0.2007429 0.017251132 0.01718401 -0.109985866 -0.16395834 0.13337393 -0.14254332 -0.11425219 -0.27535784 0.13174216 0.054040045 0.033439428 -0.031107796 -0.03918076 0.08257725 0.012772731 -0.15033768 -0.030590579 -0.0072356057 -0.02634423 0.031158453 0.028345767 0.0128158545 0.023856353 -0.017435674 -0.0546808 -0.03375491 -0.13441023 0.012672393 0.15423162 -0.012482313 -0.0015178843 -0.09164023 0.010136235 0.095301844 -0.077130094 0.013147428 -0.025655927 0.0028472855 -0.08033269 -0.015449784 0.017174117 -0.14054762 -0.046475735 0.065682076 -0.12826252 0.022639982 0.16513063 0.16941367 0.0047333534 0.14919795 -0.006517772 0.026607653 -0.16972019 0.070196874 -0.023472853 -0.023248032 -0.025074383 -0.17594798 -0.1138977
有道 0.12353229 -0.0061697243 -0.10069166 0.12928316 -0.024344701 0.14980546 -0.039246578 0.076335594 0.3296784 -0.025719976 0.0035236613 0.0616084 -0.04356661 0.055799633 -0.08741763 0.09839533 0.03203803 -0.05142439 -0.0074362974 -0.023316097 -0.16470592 0.14896932 0.10165469 -0.0717049 -0.12748076 -0.21878728 -0.051638663 0.052862402 0.010519152 0.11723345 0.1112446 0.05598123 0.112604044 -0.0230382 0.013156202 0.007774289 0.19466563 0.18414994 -0.06663493 0.28588423 0.026705379 -0.069374874 0.106586315 0.09998505 -0.018175727 0.08837146 0.16967493 0.15750393 -0.005758334 0.022312958 0.038969174 -0.079464875 0.010478346 0.012834072 -0.00550958 0.08293226 0.08505517 0.12439962 0.11329538 -0.13823286 -0.085528105 -0.08403576 0.11368147 0.016461724 0.19902693 0.14379172 0.18382904 -0.051680468 -0.07552785 0.25493917 0.015663883 0.013647316 -0.2692845 0.1811465 -0.11904399 0.11711205 0.063625544 0.021134285 0.19530097 0.10179291 -0.08753347 0.077872075 -0.048014887 0.21566094 0.26536855 0.05025321 0.08608774 0.019213935 -0.018869752 -0.06820707 0.14593123 0.1589358 0.14068611 0.0722345 -0.039074503 0.0058813835 0.05327818 0.1854001 0.20376216 0.013325092 -0.07700145 0.07997945 -0.06111855 -0.09614987 0.2787533 0.00045755517 0.13153239 -0.09507547 0.1430159 -0.10300091 0.069719724 0.050493583 -0.05860077 0.16823404 0.059795395 -0.2454569 0.028986575 -0.083321385 -0.04164303 -0.113670066 0.05712663 -0.14937419 -0.30681023 -0.00035585646 -0.049497325 0.17337957 -0.07832739 0.13571613 -0.18238974 -0.04447055 0.054710615 -0.0072477213 0.11650207 -0.012429977 -0.006880511 0.17235439 -0.12855901 -0.11337944 -0.022571797 -0.041058265 -0.11621935 -0.14874245 0.1378134 -0.040977865 -0.0040564626 0.1456936 0.04530917 0.011761202 0.0035620301 -0.20949346 -0.1814663 0.03284761 -0.10661998 0.12982136 -0.10202908 -0.32226193 0.054870274 0.08633975 0.16281512 0.11359401 0.052727263 0.045412686 0.13765244 0.17057067 -0.177515 -0.1675667 0.010203934 -0.04948265 -0.014682777 -0.08215888 0.024458062 -0.038288034 -0.04693327 -0.121166006 -0.15894303 -0.035175256 0.14712854 -0.23286523 0.032424714 0.10766968 -0.0072434684 0.040718835 0.09575297 0.16648506 0.08481528 -0.03988827 -0.16301619 0.06051095 0.06644378 -0.0047833845 -0.042083986 -0.15709493 0.123273805 -0.09670683 -0.040587567 0.16166215 0.040562764 -0.24635231 -0.21286139 -0.019196428 0.0043745157 -0.17728756 0.21925022 0.18154076 -0.18084523 -0.11230306 0.19812824 -0.19730622 -0.10221629 -0.032947093 0.01935202 -0.15141298 0.1354003 0.042249814 0.00895343 0.0276084 -0.17989914 0.044067115 -0.11345523 -0.33677608 0.034137115 -0.10311577 0.25248945 0.17156382 -0.098665774 -0.027743317 -0.059122194 -0.06599776 0.012232938 0.13987881 0.19429143 0.13006797 -0.18609424 -0.04471265 -0.06350752 0.085621305 0.026118008 0.11654783 0.10606633 0.042427886 -0.22173364 0.022466643 0.016717354 -0.1387896 -0.19263269 0.14450076 -0.15717553 -0.12481318 -0.3065637 0.15372318 0.05878545 0.03287972 -0.022087963 -0.045376595 0.090607665 0.011282421 -0.15501629 -0.040208984 0.0002897363 -0.03468514 0.034581367 0.03205072 0.021057522 0.026287593 -0.017539687 -0.058288135 -0.05120964 -0.14976962 0.009537686 0.16409382 -0.013014766 -0.008055451 -0.10798469 0.00533542 0.10588759 -0.08570839 0.020496896 -0.025168948 -0.010690345 -0.10155194 -0.017943919 0.023633441 -0.15645252 -0.057340052 0.07275986 -0.13151795 0.030573474 0.18288523 0.18823114 0.005183876 0.16838841 -0.014501262 0.028430415 -0.1981586 0.07174221 -0.019648192 -0.020165838 -0.016563173 -0.19205078 -0.13768895
导出 0.104565166 -0.0105350735 -0.071175024 0.1609732 0.014682235 0.1426096 -0.0815072 0.084150575 0.3366449 -0.054781232 0.036961865 0.11687566 -0.059586745 0.058564186 -0.043542795 0.054431476 0.022951307 -0.053697087 -0.054026023 -0.039492104 -0.15152137 0.20405285 0.08526338 -0.120509714 -0.11228016 -0.25216246 -0.053778727 0.060116734 -0.026599213 0.15941864 0.10646338 0.05495399 0.15216573 0.012196939 0.07469714 0.024056936 0.1863094 0.14033255 -0.056864455 0.29774395 0.007924511 -0.087489896 0.12217569 0.085743256 0.027071174 0.13594948 0.13540813 0.16971172 0.043988828 0.023891514 0.10487238 -0.081376046 -0.0296072 0.015584341 -0.061948903 0.031046584 0.08376885 0.13225557 0.11163479 -0.1219675 -0.0044425856 0.024137493 0.11049592 0.040494334 0.17249438 0.23034328 0.1571409 -0.03606577 -0.042357963 0.24030071 0.037544854 0.05764413 -0.3164906 0.10215725 -0.0960329 0.118469544 0.028631896 -0.053180672 0.17708665 0.09720673 -0.10086734 0.077713445 -0.08252676 0.15619303 0.25814614 0.018724388 0.12868014 0.0569123 -0.03031193 -0.018228553 0.21236436 0.11335652 0.21736513 0.1360409 -0.060848825 0.016610771 0.07932462 0.23780896 0.22032604 0.028558208 -0.05536689 0.052174624 -0.05291989 -0.11998144 0.26295283 0.010199116 0.112137154 -0.070236295 0.18635398 -0.11712864 0.12893115 0.043807197 -0.10549883 0.19102025 0.0080798445 -0.22090946 0.07965876 -0.10520488 -0.042527176 -0.1564087 0.042513564 -0.18739901 -0.33621737 -0.01809585 -0.034274254 0.1739479 -0.15623751 0.15030868 -0.090053804 -0.056265 0.14884824 -0.011552115 0.16429715 0.03860406 -0.04552949 0.20884788 -0.18465532 -0.16770765 -0.0631331 -0.103401445 -0.17037751 -0.17286296 0.1543908 -0.010664734 0.00031470618 0.14829637 0.057110958 -0.02196712 -0.022412175 -0.20864193 -0.1661338 0.054168914 -0.117247954 0.14494044 -0.14826185 -0.3159361 0.11207907 0.031256597 0.22769488 0.07576554 0.05358256 0.062192187 0.122261465 0.1752672 -0.16853727 -0.1730705 -0.0010221581 -0.03672758 0.02411865 -0.10230318 0.01585735 0.024652358 -0.06338721 -0.15655413 -0.14719488 0.012915578 0.20799616 -0.24615724 0.029855067 0.03972408 -0.015106364 0.08949767 0.1472214 0.18458469 0.05562472 -0.08251261 -0.10233564 0.018968577 -0.006253118 -0.008577855 -0.04124966 -0.16729204 0.12648703 0.003131024 -0.065015614 0.15699601 0.008942363 -0.22336511 -0.20014603 -0.064136356 0.04637033 -0.094460554 0.24900584 0.19980524 -0.09376325 -0.046718918 0.16439264 -0.20001131 -0.13189092 -0.019326894 -0.022600694 -0.17025787 0.16894947 0.028885975 -0.01997773 -0.04675624 -0.17229766 -0.005394689 -0.11925439 -0.26910076 0.058560103 -0.14836353 0.18564801 0.12869182 -0.0490576 -0.009851835 -0.1056372 -0.059088547 -0.0024443371 0.047010176 0.14041857 0.07017537 -0.1560673 -0.01387636 -0.071249194 0.13395019 -0.03459208 0.13967146 0.09201695 0.04893234 -0.1532755 0.03622521 -0.043975282 -0.19328539 -0.19335788 0.11132013 -0.15358949 -0.090745725 -0.25022385 0.11788371 0.019516282 0.0040310803 0.012357513 -0.07659499 0.050679497 0.055118807 -0.11279399 -0.065763585 0.02387532 -0.047853116 0.00066579407 0.020402538 0.043219887 0.025146144 0.011614823 -0.027518703 -0.0803267 -0.1208159 0.024518263 0.09423171 -0.051685642 -0.04983094 -0.13694248 0.0077510355 0.066753134 -0.09327781 0.020360468 -0.023693293 -0.029961124 -0.1519194 -0.004339918 0.04262485 -0.13237245 -0.057140928 0.045326915 -0.040912647 0.018744458 0.17225267 0.14148793 0.024463594 0.15375757 -0.046038065 0.007646921 -0.21647154 0.04213113 0.033406835 -0.050718866 0.06321049 -0.14302707 -0.1535163
打开 0.1564066 0.0077702207 -0.13267243 0.17769006 -0.02589522 0.20366366 -0.06387786 0.09891583 0.45111558 -0.048334595 0.009004869 0.111916855 -0.06279595 0.069052994 -0.08537607 0.11909718 0.05449061 -0.07873827 -0.00096937723 -0.04854922 -0.20848502 0.2151396 0.11957482 -0.11036739 -0.1685434 -0.3163675 -0.065636 0.060432184 0.0066699996 0.1703847 0.14824952 0.053769637 0.16452701 -0.012580278 0.03647482 0.003600399 0.24995603 0.23417188 -0.07860295 0.37845874 0.030810341 -0.083576 0.14732325 0.12989976 -0.0007240662 0.14264786 0.23564619 0.21340628 -0.0005144888 0.03245204 0.072224006 -0.10107955 -0.0031632707 0.01838897 -0.023398316 0.08912838 0.113132805 0.16541423 0.14884058 -0.1833656 -0.09436374 -0.07949572 0.17278679 0.028337747 0.2500986 0.22523703 0.23648614 -0.049592294 -0.102764055 0.33260408 0.04025545 0.020218562 -0.38756958 0.21380903 -0.15806112 0.156849 0.068483956 0.0089629525 0.24757938 0.1362879 -0.09804439 0.10599006 -0.07471629 0.2679265 0.35954306 0.0606015 0.12756047 0.038130786 -0.022130474 -0.058143705 0.21858338 0.21424411 0.2044666 0.13536832 -0.064957075 0.030549182 0.09945706 0.26839948 0.28045002 0.012348889 -0.09867496 0.09120736 -0.07336782 -0.14439309 0.37396318 0.010594288 0.1772411 -0.12579583 0.22254749 -0.1528553 0.11113759 0.05926599 -0.10406931 0.23997185 0.06402615 -0.32177928 0.06729459 -0.11420219 -0.041847263 -0.17958926 0.055144727 -0.22340798 -0.4280298 0.0047294013 -0.07258651 0.22815846 -0.1296562 0.18682003 -0.22213408 -0.05752043 0.10161371 -0.03147562 0.16390786 -0.0075506847 -0.009203883 0.24952516 -0.17845757 -0.17334506 -0.031148458 -0.09100023 -0.17631991 -0.20933393 0.20360045 -0.047117796 -0.00068543345 0.19665882 0.058457058 0.013768139 0.007587376 -0.27607787 -0.2616867 0.0503165 -0.13321511 0.17322834 -0.14770389 -0.4406091 0.08455058 0.10204817 0.24384594 0.1322303 0.06843025 0.068321094 0.17688812 0.23366715 -0.24501465 -0.23656769 0.009492191 -0.0705874 -0.005275191 -0.11728649 0.032799397 -0.03621787 -0.072543375 -0.1995693 -0.21806337 -0.008020979 0.22820069 -0.32559404 0.024163434 0.119539924 -0.008204929 0.067302376 0.14128266 0.2441217 0.12337999 -0.07055371 -0.19465151 0.06719387 0.081671655 -0.00995642 -0.04855486 -0.22878417 0.14804249 -0.08178777 -0.07135567 0.21414872 0.05284563 -0.32614216 -0.2690914 -0.04402089 0.01949675 -0.19441205 0.29461184 0.23577473 -0.20870957 -0.11441213 0.25798506 -0.25713065 -0.14183192 -0.034716267 0.02884864 -0.20572172 0.20730267 0.053272914 -0.012607109 0.022651855 -0.23656271 0.06054355 -0.14334154 -0.41572234 0.067507766 -0.15323606 0.31519336 0.20579687 -0.11822507 -0.025565676 -0.08205595 -0.08575369 -0.0019473247 0.1487866 0.22424687 0.14445634 -0.21686594 -0.04109259 -0.08341986 0.11774206 0.016371356 0.15066877 0.14932154 0.04870866 -0.27390108 0.035037387 0.01600643 -0.199491 -0.25165302 0.1694985 -0.19129173 -0.15213384 -0.38707983 0.20739844 0.069520816 0.039697297 -0.0021518245 -0.049741864 0.118270725 0.006146024 -0.17012346 -0.06974195 0.015259746 -0.043441307 0.032592796 0.030190721 0.04547452 0.030612025 -0.02211799 -0.07612303 -0.08275663 -0.17843124 0.001597557 0.19518937 -0.01013495 -0.031355955 -0.12765002 -0.00480117 0.12319687 -0.10564018 0.037563995 -0.02846824 -0.044234548 -0.16203754 -0.012618026 0.034311723 -0.19065103 -0.082185894 0.08375494 -0.14726086 0.054803133 0.21940428 0.22098713 0.016121972 0.20248653 -0.023608154 0.037679166 -0.2557299 0.07429909 -0.012861534 -0.01542227 -0.00069352315 -0.22627972 -0.1962662
导入 0.10842164 -0.0074861934 -0.07480028 0.15692206 0.011909732 0.14187305 -0.07482234 0.083962955 0.33614948 -0.050159007 0.032301374 0.113091305 -0.05484906 0.058980647 -0.045558568 0.05792609 0.02475319 -0.055076323 -0.05040909 -0.038146183 -0.15219836 0.19519454 0.08242342 -0.11531275 -0.11203011 -0.2501608 -0.052954856 0.05781394 -0.024382217 0.15461129 0.10756778 0.051483944 0.14863306 0.011927068 0.06927651 0.021650331 0.18409248 0.14236543 -0.05591594 0.29667956 0.008321336 -0.08548582 0.12153112 0.08333094 0.023318298 0.13312837 0.13994084 0.1649438 0.037028056 0.023058712 0.09921884 -0.0814913 -0.027213454 0.017380409 -0.05557833 0.035764962 0.08358289 0.1312083 0.109304234 -0.120920315 -0.01244337 0.014634037 0.11302683 0.037129693 0.17229514 0.22236352 0.16092464 -0.03636502 -0.047221527 0.23979327 0.0368143 0.050916445 -0.30889243 0.107262604 -0.097774446 0.115138724 0.032375462 -0.04530661 0.17699055 0.09765716 -0.09815062 0.07969784 -0.078196384 0.16069128 0.25812235 0.021850793 0.12430903 0.050857484 -0.029851502 -0.022711689 0.2054192 0.11747639 0.20662351 0.13063364 -0.060270824 0.018821767 0.08107689 0.23243874 0.21863553 0.028413285 -0.058803473 0.05609116 -0.056427 -0.11885384 0.2664609 0.010609587 0.11399372 -0.070877485 0.18206333 -0.11346741 0.12387255 0.043276783 -0.10228189 0.19094895 0.014129899 -0.21832094 0.07373194 -0.10310899 -0.039246816 -0.15502626 0.042616103 -0.18242978 -0.33272764 -0.01449135 -0.036804143 0.1699281 -0.14818236 0.14971893 -0.0981281 -0.055325937 0.1366286 -0.013472011 0.15687875 0.0313837 -0.040697083 0.2063985 -0.1776103 -0.16226532 -0.056736838 -0.09960017 -0.16500421 -0.17047197 0.153372 -0.013051192 -0.0001367854 0.14528517 0.05653121 -0.018049795 -0.01747111 -0.20340744 -0.16911688 0.053291872 -0.116541214 0.142007 -0.14392221 -0.3184399 0.10687866 0.037914142 0.21814011 0.077316634 0.05366066 0.06091273 0.122720286 0.17413506 -0.16675277 -0.17189148 0.0031310003 -0.038973104 0.022601563 -0.10020957 0.015674321 0.017135661 -0.059525795 -0.15305483 -0.14606732 0.011192817 0.20160763 -0.24673599 0.02949551 0.048108768 -0.015181844 0.08131975 0.14146858 0.18275115 0.059259094 -0.07768839 -0.10571673 0.021582246 0.0018280667 -0.008520897 -0.0373405 -0.16611381 0.12332757 -0.0060339044 -0.06570461 0.15739152 0.011520611 -0.22614525 -0.19866975 -0.056944985 0.04043588 -0.10273886 0.24744761 0.19779022 -0.102113165 -0.054282106 0.16774088 -0.19823076 -0.12944579 -0.022891035 -0.016535128 -0.16769272 0.168193 0.033824693 -0.018933544 -0.037390854 -0.17438227 0.0008701668 -0.117683105 -0.2778088 0.058627654 -0.14457695 0.19478278 0.13425596 -0.051951073 -0.01203623 -0.100293554 -0.061375592 -0.0016699358 0.058739323 0.14623983 0.07579695 -0.15895504 -0.016179815 -0.070026875 0.12764381 -0.028841777 0.13901395 0.09396231 0.04448221 -0.15927695 0.034760755 -0.03849203 -0.18752512 -0.19348247 0.11318908 -0.15162012 -0.095680594 -0.25444534 0.124018565 0.02624542 0.008396516 0.009341879 -0.07256596 0.055014152 0.049997102 -0.11665301 -0.06543084 0.025023341 -0.047901627 0.0011284103 0.024342142 0.043369703 0.02120106 0.010242607 -0.032240864 -0.077495515 -0.12247418 0.022285752 0.102509096 -0.044886567 -0.044924553 -0.12943804 0.0040779565 0.06874762 -0.0940222 0.020379795 -0.025159262 -0.032840185 -0.14774601 -0.0072116354 0.04158828 -0.13436273 -0.057617042 0.045283377 -0.05052397 0.021414315 0.17133383 0.14691727 0.024500646 0.15550636 -0.039963752 0.012140644 -0.21154469 0.04179848 0.027893646 -0.044988375 0.054930612 -0.14944069 -0.15436742
复现 0.12822591 -0.0065782424 -0.105835214 0.14310715 -0.014795663 0.16501023 -0.053997107 0.08306083 0.36259985 -0.035481017 0.011282715 0.08531063 -0.051375426 0.05935314 -0.07923039 0.09198575 0.036131848 -0.059132025 -0.009073395 -0.039388314 -0.17292118 0.17591628 0.10499919 -0.087270014 -0.13321245 -0.2498319 -0.053447284 0.0504397 0.0040300237 0.13554157 0.11782954 0.053207666 0.12808025 -0.011930383 0.02861255 0.009075021 0.2084733 0.18972848 -0.06851821 0.3080253 0.025132228 -0.07623369 0.11965252 0.09874024 -0.0092734955 0.1125136 0.1779983 0.16940947 0.0074741505 0.022113139 0.052909322 -0.08369618 -0.0014779376 0.017971562 -0.020351825 0.07391644 0.09318015 0.13592304 0.12237556 -0.14613415 -0.06925225 -0.061963145 0.13019541 0.028719138 0.20346196 0.17978813 0.1897865 -0.045888145 -0.07879249 0.26982957 0.028723562 0.024882494 -0.30381474 0.17315045 -0.12910521 0.12609442 0.06142946 0.008114938 0.20443998 0.110456236 -0.09084592 0.08093494 -0.063075244 0.21492127 0.29049644 0.049984198 0.0977397 0.024898587 -0.017110111 -0.05818304 0.1779032 0.16317397 0.17303048 0.10438587 -0.04914168 0.016820004 0.07436163 0.22151697 0.23012304 0.012777425 -0.08073505 0.07858177 -0.066097476 -0.11574367 0.2956321 0.0060707824 0.13521871 -0.099690065 0.17574662 -0.121553265 0.08886258 0.04907356 -0.07954292 0.19076061 0.052717533 -0.26012477 0.045765072 -0.093090355 -0.044410534 -0.14081466 0.050634783 -0.17652953 -0.33920127 -0.0063919267 -0.05899772 0.1841713 -0.10348235 0.15340053 -0.17798935 -0.04492624 0.07603177 -0.0151990885 0.13752155 -0.0048794844 -0.015124027 0.19800268 -0.1502685 -0.13880512 -0.030308217 -0.06727875 -0.13782154 -0.16571979 0.15970841 -0.03431675 -0.0030620785 0.15836638 0.046433475 0.0054272925 -0.0021194124 -0.2246269 -0.19970639 0.041802038 -0.1123331 0.14269678 -0.12138085 -0.3509316 0.068652965 0.07836071 0.19490957 0.11259556 0.05848055 0.050344132 0.1456624 0.18931751 -0.19434007 -0.18938684 0.009967088 -0.058493868 -0.001904969 -0.09415128 0.026305554 -0.020992791 -0.057919424 -0.1489208 -0.17151418 -0.014121071 0.18282796 -0.2601693 0.025198167 0.09712403 -0.010930929 0.053748015 0.11049373 0.19093402 0.09085514 -0.048959997 -0.15824766 0.056733765 0.06155288 -0.0044621853 -0.040273 -0.18025023 0.13234253 -0.07478499 -0.056898087 0.1751922 0.039021082 -0.2609063 -0.22417244 -0.03476906 0.019502746 -0.16187191 0.24258102 0.1965355 -0.1741317 -0.10260551 0.20584461 -0.21248515 -0.11909896 -0.03343501 0.018547352 -0.16881844 0.16184449 0.044791777 -0.0014878206 0.012845962 -0.18762136 0.041173246 -0.12121981 -0.3424189 0.052983284 -0.12075663 0.25875312 0.17614484 -0.09583444 -0.027204514 -0.071319565 -0.07143887 0.007974261 0.12094115 0.18686222 0.1193422 -0.1838612 -0.03949109 -0.06961808 0.10262473 0.013460081 0.12908351 0.113650545 0.044955917 -0.22088651 0.02317369 0.0064413208 -0.16374953 -0.20452054 0.14224231 -0.16435234 -0.12382098 -0.30912083 0.16075087 0.052313697 0.028715763 -0.0053993883 -0.050232165 0.09112968 0.013869657 -0.15116008 -0.05105256 0.013617282 -0.03854224 0.028486382 0.030757226 0.030613622 0.02479121 -0.0109454915 -0.052566014 -0.06734808 -0.15205584 0.0059160166 0.1599565 -0.019178586 -0.019672351 -0.11798354 0.0020787593 0.103183165 -0.09031717 0.026883194 -0.02778106 -0.021454236 -0.12826249 -0.015983352 0.027842315 -0.1585224 -0.06381737 0.07038663 -0.12318301 0.035891343 0.18530051 0.18833531 0.009862319 0.17231922 -0.024465948 0.027241139 -0.21178867 0.063510045 -0.0108623095 -0.021786394 0.0029686457 -0.19045387 -0.15929966
提示 0.11565076 -0.011519662 -0.098624974 0.12932813 -0.019196521 0.14743425 -0.039776318 0.07227898 0.3197468 -0.025250753 0.0026176614 0.060007267 -0.039386284 0.056916162 -0.07639002 0.09017233 0.03358777 -0.050679155 -0.0052035027 -0.027236542 -0.15638503 0.1475829 0.09807427 -0.06976633 -0.122246906 -0.21357085 -0.05085038 0.05023682 0.009635177 0.116775505 0.10877239 0.053291567 0.10933484 -0.021149546 0.016175834 0.007203045 0.18710187 0.17402409 -0.06180766 0.27633527 0.026439205 -0.07222112 0.103710525 0.09446979 -0.013561017 0.09049382 0.16508785 0.15077527 -0.0038278906 0.019596487 0.041688025 -0.07831714 0.0071368297 0.01377222 -0.008851918 0.07479797 0.08181512 0.11599604 0.10906199 -0.1291804 -0.075051166 -0.073696606 0.10969938 0.019720178 0.19201514 0.15095428 0.17534012 -0.04826774 -0.07165114 0.24305929 0.017441243 0.016747626 -0.26413447 0.16763476 -0.11386806 0.115100995 0.060700584 0.016610727 0.1893284 0.10016936 -0.08224841 0.07120421 -0.052023847 0.20216155 0.2550474 0.050098754 0.08262269 0.018862586 -0.01612377 -0.061696414 0.14748673 0.15230937 0.14251149 0.071868695 -0.03401604 0.009035371 0.054188166 0.18670747 0.19820108 0.014156483 -0.07406274 0.07509142 -0.059707694 -0.09757733 0.26693472 -0.0019422537 0.128288 -0.08641219 0.14470512 -0.09843398 0.07130956 0.04707173 -0.05965601 0.1612143 0.056926098 -0.23111218 0.03503082 -0.08196038 -0.037236266 -0.11713424 0.051313136 -0.14780726 -0.29805684 0.00040941712 -0.048952553 0.16195813 -0.08166819 0.13125844 -0.1731263 -0.04281776 0.058830824 -0.0079496335 0.11852572 -0.011444439 -0.009138351 0.16925853 -0.12544891 -0.109664895 -0.025822451 -0.043656047 -0.11360154 -0.14663589 0.13363527 -0.03553289 -0.0035378668 0.13862292 0.04225436 0.005975985 0.004211635 -0.19769189 -0.17506756 0.028342726 -0.10033852 0.12628457 -0.098281935 -0.3118895 0.055571847 0.08089738 0.16184434 0.104853235 0.050252553 0.04700429 0.13246554 0.16536798 -0.17189974 -0.16322705 0.011221834 -0.047884695 -0.01122058 -0.07710279 0.022659376 -0.03157381 -0.04684451 -0.122454 -0.15609497 -0.030171728 0.14758877 -0.2249585 0.030601647 0.10031907 -0.0074841185 0.044856563 0.093963124 0.16450906 0.07987913 -0.039851446 -0.14870724 0.056721132 0.06214782 -0.0036688088 -0.040415768 -0.15534918 0.1166572 -0.08597285 -0.040296104 0.15671279 0.03548011 -0.23448125 -0.2018763 -0.021901438 0.007894088 -0.16399837 0.21382537 0.17640069 -0.16830477 -0.10475035 0.1855289 -0.19203904 -0.09706452 -0.026972286 0.015499271 -0.14480346 0.13039307 0.0404789 0.0031711322 0.020578941 -0.17291977 0.040012673 -0.106685035 -0.31862453 0.03483354 -0.10303779 0.24290107 0.16082108 -0.091602944 -0.021458747 -0.059342176 -0.06282794 0.0122075835 0.1291487 0.18592453 0.119939424 -0.17800595 -0.037942406 -0.06401547 0.08724177 0.024985934 0.1120808 0.09945101 0.03610173 -0.20782702 0.019750085 0.009780699 -0.13552906 -0.18205388 0.13586214 -0.14712338 -0.120038025 -0.2919746 0.1426294 0.052016143 0.027021974 -0.018142466 -0.042261433 0.08215566 0.012703186 -0.14297298 -0.042929824 0.0021634558 -0.03164112 0.031566165 0.02461884 0.022985192 0.024680842 -0.016944794 -0.05435949 -0.053827755 -0.14060915 0.010066824 0.1525603 -0.017425913 -0.011975757 -0.103644 0.004442869 0.098441884 -0.08185124 0.023602776 -0.02329253 -0.011202013 -0.10157358 -0.0146517465 0.024153015 -0.14609613 -0.05462429 0.06617893 -0.11894629 0.029418202 0.17127477 0.17791173 0.0062595876 0.15761812 -0.017029257 0.03189293 -0.18888186 0.0684812 -0.018179746 -0.021009404 -0.007370499 -0.17760332 -0.13430801
概率 0.12022239 -0.007403122 -0.09902323 0.13469891 -0.01339665 0.15326837 -0.0510082 0.075270966 0.3336666 -0.033709064 0.0077389595 0.07793913 -0.043743595 0.05909136 -0.071232036 0.0870133 0.03407036 -0.0554983 -0.008714943 -0.033669163 -0.15969789 0.16662198 0.0969616 -0.07973574 -0.124861 -0.23536885 -0.048185628 0.04543457 0.0015315557 0.12636825 0.10760065 0.05061246 0.122651964 -0.011979729 0.027991097 0.005286053 0.19320974 0.17693233 -0.060015727 0.2894143 0.02583492 -0.07068052 0.11085235 0.09738809 -0.008631673 0.09753064 0.16655459 0.15542345 0.0016639609 0.02380113 0.05202326 -0.07913224 -0.0025220758 0.014451409 -0.021240607 0.06924194 0.081336 0.12827216 0.11101133 -0.13789052 -0.068621054 -0.064748585 0.12244856 0.023250561 0.18982008 0.16749205 0.1794194 -0.04538312 -0.07361656 0.25386652 0.025427183 0.025094055 -0.2863937 0.16014512 -0.11950168 0.116608016 0.051717646 0.007294342 0.19093625 0.104316026 -0.082871675 0.07928076 -0.056606837 0.20288011 0.26870543 0.045806497 0.09070516 0.021687573 -0.019628702 -0.05147208 0.16401279 0.15186559 0.15546417 0.094448544 -0.04376633 0.018398 0.06374519 0.20336397 0.20993353 0.015024148 -0.07316844 0.07230412 -0.057619005 -0.10601435 0.2803804 0.0041452264 0.12773769 -0.08844191 0.16196318 -0.11391005 0.07626214 0.043552812 -0.07284314 0.17628855 0.04753761 -0.2375737 0.04251143 -0.08743709 -0.039645065 -0.12645058 0.048465017 -0.16573246 -0.31787845 -0.0053806594 -0.050236147 0.1724647 -0.0945751 0.13995102 -0.16470596 -0.040708825 0.06929301 -0.017401041 0.12789418 -0.0036479514 -0.009157315 0.1803136 -0.1391898 -0.12568946 -0.028234573 -0.06421691 -0.123440124 -0.15427499 0.14954458 -0.03578773 -0.0025331515 0.14828466 0.044429768 0.008337785 0.0025774522 -0.21053064 -0.18314998 0.039540693 -0.101606384 0.13292062 -0.10955798 -0.3241788 0.06368043 0.072909944 0.17999157 0.103211224 0.051723104 0.045656078 0.1345963 0.17169745 -0.17942987 -0.17192174 0.013706928 -0.04973775 -0.0034895234 -0.08649299 0.025488472 -0.021145737 -0.052674577 -0.13313003 -0.16053459 -0.016599618 0.16759585 -0.23964302 0.024962425 0.09035377 -0.0076909875 0.047704007 0.10269775 0.17760988 0.08552077 -0.048307803 -0.14961593 0.051183134 0.05920706 -0.003397865 -0.038580284 -0.16276146 0.12040136 -0.07117276 -0.047435597 0.1621243 0.031971876 -0.23525994 -0.2026233 -0.02964694 0.01432142 -0.14992179 0.2227869 0.18049039 -0.15761681 -0.09104591 0.18866065 -0.19397749 -0.10844583 -0.027293336 0.01700646 -0.15392502 0.1471048 0.042200856 -0.0017282913 0.0117154755 -0.17254019 0.038174618 -0.1101717 -0.31475335 0.04276948 -0.11110529 0.2374127 0.15838549 -0.08505535 -0.026945274 -0.061791718 -0.06808379 0.004756478 0.114331655 0.17518133 0.109786384 -0.16927631 -0.035046212 -0.06604113 0.092289165 0.01195661 0.11853071 0.10608608 0.041534398 -0.20516653 0.020037118 0.0041015064 -0.14896642 -0.18670306 0.13455337 -0.15039968 -0.11679072 -0.28462422 0.15128884 0.051081594 0.026088499 -0.007933558 -0.04460589 0.08724259 0.011645087 -0.13934158 -0.04482702 0.010572375 -0.03192047 0.02783093 0.027130103 0.02728156 0.022036955 -0.007200531 -0.054978322 -0.06214239 -0.14029318 0.006450477 0.14551614 -0.021103058 -0.02006208 -0.10543762 0.004820392 0.09021389 -0.08443634 0.021093488 -0.019969849 -0.022902226 -0.11549577 -0.017672982 0.02468082 -0.1464585 -0.05535115 0.06451171 -0.10781669 0.03327599 0.17276622 0.1710954 0.008739083 0.15855321 -0.01978047 0.023655163 -0.19395506 0.06286607 -0.010809954 -0.016133998 0.001702475 -0.17464682 -0.14247766
页面 0.13551833 -0.00513929 -0.11427254 0.1535847 -0.01814107 0.17548358 -0.053202033 0.09026662 0.38316056 -0.036326084 0.008791015 0.09120943 -0.052506957 0.06333099 -0.081942625 0.1044964 0.04278145 -0.0658752 -0.009693101 -0.035349738 -0.18360485 0.18231498 0.10562177 -0.09352538 -0.14585304 -0.26906845 -0.055099472 0.056590572 0.0034912068 0.14333719 0.12875074 0.05861093 0.13971013 -0.01428401 0.030682262 0.00881287 0.21810858 0.2005187 -0.069570154 0.3284376 0.02690596 -0.07815545 0.12567529 0.10949311 -0.010331206 0.11490836 0.19638151 0.18266277 0.0004203179 0.029357174 0.056458194 -0.08858951 -0.0050729373 0.012980584 -0.02091864 0.08040554 0.09445004 0.14462534 0.12876195 -0.15602076 -0.081632815 -0.07365103 0.13488369 0.027707128 0.22077435 0.18983367 0.20260082 -0.045846693 -0.08508684 0.28991893 0.030287363 0.023243476 -0.3243399 0.18874028 -0.1377593 0.13400303 0.06353291 0.009956543 0.22009118 0.11886319 -0.09440638 0.09076038 -0.06582338 0.23472485 0.3070579 0.050671358 0.1028223 0.02995868 -0.019967312 -0.0626678 0.18230373 0.17761758 0.17558944 0.1046017 -0.048451375 0.01659738 0.07561528 0.22697027 0.24214298 0.012643321 -0.082784 0.078122675 -0.0676358 -0.12021286 0.31487182 0.0110097965 0.14579558 -0.10593458 0.18064637 -0.13120475 0.091697566 0.055000614 -0.08079808 0.20051892 0.059390653 -0.27687037 0.051261686 -0.09712838 -0.042616732 -0.1503223 0.05461689 -0.18701486 -0.3629481 -0.005165903 -0.05997288 0.1968717 -0.10681515 0.15642749 -0.19353205 -0.051864542 0.077084385 -0.016508738 0.14061685 -0.0059594605 -0.012108596 0.20652151 -0.15577662 -0.14161414 -0.029233664 -0.06828279 -0.14179654 -0.17830212 0.16980371 -0.04207896 -0.0028744303 0.16457407 0.049447566 0.00738797 0.002646416 -0.23780519 -0.2167656 0.040540513 -0.11953939 0.15003596 -0.12483516 -0.37484768 0.069782436 0.09013865 0.20356895 0.12127438 0.05905737 0.05241558 0.15250973 0.20288688 -0.207381 -0.20048948 0.007631859 -0.06223463 -0.0047298335 -0.0951771 0.023557132 -0.03072018 -0.060751494 -0.15611513 -0.18249464 -0.017124841 0.18777755 -0.27433813 0.029998928 0.10337334 -0.00759572 0.054806948 0.11796034 0.20189613 0.099142864 -0.055621114 -0.16937938 0.05955528 0.06746366 -0.008270849 -0.044336732 -0.18691233 0.13385883 -0.080415286 -0.056671992 0.18178199 0.04234153 -0.2757975 -0.2383798 -0.029565616 0.01759117 -0.17751522 0.25450844 0.20733732 -0.18448721 -0.10794115 0.21783075 -0.21985415 -0.122197635 -0.03688293 0.021520453 -0.17585187 0.17108224 0.04741684 -0.0038962783 0.018739693 -0.20489936 0.049374245 -0.12719443 -0.36581045 0.050084367 -0.12582137 0.2769538 0.18657055 -0.10218927 -0.029365014 -0.071255006 -0.075220674 0.0048710136 0.13581777 0.20443073 0.12695245 -0.20067596 -0.044777688 -0.07288891 0.106894895 0.016643425 0.13297337 0.120467894 0.045831326 -0.23831756 0.026805088 0.01250652 -0.17004919 -0.21396197 0.15556405 -0.1736685 -0.134008 -0.33469513 0.17217605 0.061693687 0.032822754 -0.010251233 -0.049777757 0.10016027 0.012497996 -0.16028233 -0.05260922 0.011245414 -0.037183166 0.030401161 0.029792354 0.036198415 0.027836135 -0.013862048 -0.060463846 -0.06626847 -0.15834388 0.006009774 0.16946834 -0.014513784 -0.0243281 -0.11671346 0.0030173934 0.10686542 -0.09194785 0.029418655 -0.024232775 -0.025708491 -0.13072488 -0.012478829 0.032518573 -0.16545677 -0.06812195 0.07525304 -0.13177112 0.042591475 0.19672039 0.19708204 0.010779576 0.18246152 -0.020181406 0.032309722 -0.22336699 0.06981624 -0.01437076 -0.016030699 -0.0044888486 -0.2036061 -0.16236621
复制 0.1297893 -0.002954755 -0.10995684 0.15886466 -0.02142135 0.17223251 -0.052502338 0.08246152 0.37216282 -0.039445188 0.012604432 0.08853888 -0.05162909 0.05398438 -0.08100269 0.095453314 0.034496438 -0.060124427 -0.011483521 -0.038476355 -0.17519823 0.17951636 0.106496684 -0.09804112 -0.1343693 -0.2610394 -0.055817258 0.0512941 0.0048491857 0.14489521 0.12360058 0.059274685 0.13543363 -0.014537224 0.031149115 0.009324137 0.2154544 0.18820548 -0.06517694 0.32093197 0.022163399 -0.076683775 0.12056148 0.11039544 -0.0035228904 0.114706576 0.19443075 0.18088882 0.00459684 0.024021426 0.06947071 -0.081008725 -0.0027164635 0.018211002 -0.01789518 0.07990985 0.10071194 0.13745348 0.1265331 -0.14690797 -0.0697238 -0.062509716 0.13885617 0.021860732 0.21267277 0.19045195 0.19899575 -0.0529475 -0.081890166 0.28442022 0.023089988 0.016750664 -0.32169443 0.18311702 -0.1273241 0.13483988 0.05479432 0.0012080928 0.20946778 0.1098204 -0.086909086 0.090819955 -0.06723064 0.22606593 0.29413834 0.049701385 0.11468186 0.0285432 -0.016133705 -0.052917358 0.18155792 0.17458853 0.17817287 0.104194924 -0.0568714 0.018812882 0.075513 0.22245157 0.23702933 0.016542764 -0.08001427 0.08203459 -0.060256112 -0.11705094 0.31294414 0.0009671791 0.15096703 -0.09668278 0.17912345 -0.121582314 0.093594655 0.050905317 -0.086743854 0.1965171 0.050242305 -0.26746085 0.057082973 -0.09334846 -0.03497513 -0.14986187 0.050304312 -0.18624891 -0.35813072 0.001204128 -0.05893816 0.18938154 -0.10867389 0.15159355 -0.1777046 -0.053621244 0.09213719 -0.020230826 0.14350148 -0.0049085766 -0.009447402 0.2068262 -0.1520681 -0.13965592 -0.036021132 -0.07023526 -0.15224116 -0.18101625 0.1641453 -0.03636917 -0.0012796142 0.1667294 0.05206233 0.006266067 -0.0011798072 -0.22417603 -0.20911853 0.043092676 -0.11709236 0.15184867 -0.12809333 -0.36912766 0.07585405 0.076579 0.20692836 0.105981596 0.056553144 0.057360634 0.1438652 0.19080256 -0.20321567 -0.19225343 0.0031509094 -0.057706248 -0.00020342856 -0.103562295 0.024672478 -0.028666481 -0.06553628 -0.15807815 -0.17557013 -0.0215351 0.18980666 -0.27177304 0.029470561 0.09803609 -0.009183559 0.06224843 0.124407664 0.19889238 0.092569 -0.054714948 -0.1612641 0.050517865 0.05817795 -0.006803492 -0.041471735 -0.19149372 0.13512577 -0.0708489 -0.05602334 0.1828071 0.03967766 -0.26970154 -0.23149459 -0.042043705 0.020433608 -0.16298579 0.25531593 0.20928018 -0.17178133 -0.09912712 0.2071315 -0.22229856 -0.116772346 -0.027230946 0.015524933 -0.17259438 0.16608272 0.04289347 -0.006468169 0.009918985 -0.19983962 0.043585375 -0.12661228 -0.35431862 0.052652746 -0.1294243 0.2708112 0.16974509 -0.09727301 -0.024411555 -0.07124019 -0.068963565 0.004423968 0.13041386 0.1960264 0.12388073 -0.19169779 -0.03694079 -0.07542791 0.1049869 0.011290992 0.13308887 0.11916806 0.043133628 -0.23347692 0.030349467 0.0040453286 -0.17052124 -0.21795814 0.15000293 -0.17032625 -0.12794064 -0.33254895 0.16551122 0.058954056 0.027621528 -0.004177852 -0.047459546 0.08945373 0.00893937 -0.14811477 -0.06099294 0.012235974 -0.04468813 0.031069396 0.022623435 0.034715757 0.022366393 -0.015620012 -0.06918369 -0.06270764 -0.15098213 0.010714484 0.16065794 -0.016980214 -0.022564566 -0.123015426 -0.0003094327 0.107634604 -0.096363045 0.029305989 -0.02257137 -0.02471991 -0.12997179 -0.011449233 0.03530457 -0.1591062 -0.065471366 0.0769114 -0.12224926 0.04182132 0.18519294 0.19345626 0.016207758 0.1795543 -0.027297884 0.03322549 -0.21735336 0.0705502 -0.006722192 -0.020995092 0.006747494 -0.1973776 -0.16569209
界面 0.14608912 0.005638926 -0.12356415 0.17453977 -0.02038328 0.19752322 -0.06690665 0.09775065 0.43720207 -0.049565718 0.013933882 0.114114545 -0.060658906 0.06555541 -0.075939454 0.106890745 0.05163897 -0.07888728 -0.004280864 -0.051028587 -0.20022853 0.21284908 0.11716251 -0.111234464 -0.15977772 -0.31074294 -0.06314095 0.05445038 0.00019234058 0.1686523 0.1402014 0.050051723 0.16208622 -0.01058554 0.043409567 0.005188004 0.24103943 0.22116448 -0.07176109 0.36532146 0.031378016 -0.081972934 0.14629078 0.12559772 0.005319726 0.14249864 0.22073433 0.20312205 0.0063335565 0.031795546 0.073782556 -0.0949708 -0.010055598 0.018368637 -0.027255349 0.07801248 0.10523258 0.15701029 0.13930413 -0.17508674 -0.077400915 -0.06646777 0.16797015 0.029984616 0.23523942 0.22899571 0.22276199 -0.042346776 -0.09477526 0.32241207 0.040669475 0.022693714 -0.38126925 0.199246 -0.1577222 0.1492203 0.0633908 0.0036143742 0.23770726 0.13178311 -0.096557215 0.09911591 -0.07750594 0.25314486 0.3469042 0.053661145 0.12465239 0.037911862 -0.019587027 -0.048172448 0.22129315 0.2021537 0.20539567 0.13909787 -0.061766874 0.0339898 0.099641226 0.26774943 0.27374336 0.014337313 -0.09262237 0.08364117 -0.072566494 -0.14140211 0.3626548 0.0131610865 0.17148653 -0.11691687 0.22313958 -0.15180467 0.110807836 0.052115697 -0.10580352 0.23443125 0.057416417 -0.30663398 0.069193564 -0.111187406 -0.041248295 -0.18150155 0.051293343 -0.22329353 -0.41980404 0.003305074 -0.06984653 0.21938847 -0.13525788 0.18410398 -0.2037853 -0.053160507 0.10615945 -0.030278884 0.15988262 4.900649e-05 -0.014877895 0.24557717 -0.17868069 -0.17469952 -0.03540574 -0.09498332 -0.17181958 -0.20588675 0.19804943 -0.04026204 -0.0032117406 0.18783255 0.05640862 0.010900046 0.004653426 -0.26362783 -0.25584996 0.05282876 -0.12654537 0.16953559 -0.14972599 -0.42445132 0.08524222 0.09192849 0.23863164 0.12310311 0.06662807 0.06847595 0.16999298 0.2254508 -0.23732571 -0.22969651 0.011040734 -0.065158986 0.0009241073 -0.112469405 0.030475616 -0.02306263 -0.069494545 -0.19704983 -0.20985997 -0.0022919944 0.22545394 -0.31474888 0.018889077 0.10965281 -0.00850186 0.06641209 0.14143303 0.24022889 0.11709621 -0.07024592 -0.18212825 0.06140376 0.07506912 -0.0062529943 -0.045471158 -0.22488658 0.14242075 -0.06635319 -0.07131043 0.20823789 0.045926582 -0.31264272 -0.2571017 -0.04957924 0.024810154 -0.17592438 0.28759572 0.2293322 -0.19498816 -0.10295898 0.24520259 -0.24452104 -0.13843359 -0.03340879 0.025049891 -0.20021549 0.20768473 0.050818175 -0.01807139 0.016630782 -0.23162884 0.05450601 -0.13617095 -0.3950107 0.07105268 -0.15185598 0.29868707 0.19325413 -0.10521247 -0.024529517 -0.08798739 -0.08594583 -0.0006721813 0.13170125 0.21244106 0.13333285 -0.20570192 -0.032123834 -0.085713916 0.12061624 0.004474824 0.14521092 0.14603032 0.04630106 -0.25403765 0.033511553 0.010207814 -0.19932215 -0.24260657 0.16092944 -0.1884877 -0.14602897 -0.36362958 0.19586705 0.058290083 0.0338834 0.0035717082 -0.049435806 0.11117073 0.011176079 -0.15753247 -0.07123937 0.016979195 -0.04411131 0.027961094 0.023850795 0.04507214 0.027895458 -0.016772741 -0.067814246 -0.08339382 -0.17280532 0.0016818752 0.18005249 -0.014227358 -0.03394716 -0.12629236 -0.002280167 0.10841358 -0.103638165 0.03645909 -0.030668572 -0.048377 -0.16424984 -0.0121571785 0.029655455 -0.18153377 -0.08325823 0.080128156 -0.13248946 0.0509623 0.2104012 0.2096799 0.020762844 0.1925804 -0.027374322 0.037242144 -0.24958423 0.065867655 -0.0092121 -0.017942812 0.007058436 -0.21182263 -0.19196555
中文 0.12428048 -0.011690959 -0.10296109 0.12720005 -0.027160577 0.1502046 -0.032293297 0.076899305 0.32688853 -0.021242484 -1.9708796e-05 0.053391345 -0.04171405 0.06028695 -0.08924972 0.09895221 0.031211298 -0.050619893 -0.0004835329 -0.019602299 -0.16495478 0.14334147 0.10040795 -0.068043895 -0.1290586 -0.21648824 -0.051905315 0.053971026 0.015337688 0.11418555 0.11356825 0.055286366 0.10865714 -0.028147787 0.010699375 0.0062154243 0.19328871 0.18644138 -0.06631664 0.28252375 0.026455004 -0.070917614 0.102428496 0.09954818 -0.021655004 0.08481891 0.17046626 0.15499666 -0.008101256 0.022083845 0.031729616 -0.08290777 0.014412299 0.013671386 0.00034065463 0.084233925 0.083350204 0.12309385 0.11363084 -0.13725705 -0.09306666 -0.09418192 0.11036864 0.016931722 0.20173407 0.14014086 0.1839845 -0.051374406 -0.07819468 0.25343233 0.014917679 0.010936992 -0.26346487 0.18254542 -0.11795647 0.11673975 0.068430595 0.026058557 0.19997944 0.106234655 -0.08693095 0.07546491 -0.05081081 0.21724819 0.26716527 0.056465954 0.08049732 0.0142976055 -0.017337663 -0.07246932 0.13931149 0.16110064 0.13682261 0.06424822 -0.03337736 0.0044886917 0.051933687 0.18301928 0.2016121 0.011848472 -0.0771578 0.078441575 -0.06253183 -0.096292906 0.27415255 -0.0011084139 0.13211307 -0.092500865 0.13893598 -0.101519585 0.06589703 0.0527668 -0.053339794 0.16333121 0.0667465 -0.24583592 0.02569578 -0.08114166 -0.04369509 -0.10807315 0.05761841 -0.14372523 -0.3033922 -0.0017497292 -0.05186506 0.1710767 -0.070940934 0.13384639 -0.1884859 -0.04432368 0.04227434 -0.0060487767 0.11445686 -0.016712574 -0.0054104202 0.16704991 -0.12359518 -0.10308891 -0.020191588 -0.033611644 -0.108322196 -0.1471473 0.13214792 -0.042877413 -0.0015350595 0.14150621 0.041608058 0.011570524 0.0074437778 -0.2079403 -0.18207608 0.025486497 -0.10625566 0.1290776 -0.09581013 -0.32088518 0.05141998 0.09100306 0.15290968 0.11770377 0.050688818 0.042543452 0.13834879 0.17349337 -0.17821218 -0.16816573 0.010464921 -0.050366107 -0.017366085 -0.080730826 0.023500632 -0.04186892 -0.045083705 -0.11827229 -0.15986274 -0.041051358 0.14070717 -0.22869428 0.03454631 0.11209607 -0.010952138 0.038533848 0.08799579 0.16037187 0.08524441 -0.037075453 -0.16259013 0.06197127 0.0699958 -0.00560351 -0.041133422 -0.15324913 0.12311853 -0.10722776 -0.040965687 0.1650531 0.041735135 -0.24722639 -0.2119032 -0.0133410655 0.00087132014 -0.18645167 0.21741378 0.180776 -0.18736467 -0.11688571 0.19988146 -0.19785431 -0.10018405 -0.034414858 0.021129662 -0.14945005 0.13350913 0.045936402 0.0119053805 0.031444844 -0.17682049 0.046118878 -0.1112772 -0.3415633 0.033660367 -0.10188514 0.2586457 0.1758882 -0.09912067 -0.028649589 -0.05420356 -0.06264255 0.01394103 0.14839458 0.19926475 0.13155939 -0.19410737 -0.048281837 -0.063352995 0.08591002 0.031455785 0.11710925 0.104315855 0.041013688 -0.22436717 0.020436825 0.021513786 -0.13540328 -0.18959191 0.14924711 -0.15459259 -0.12514296 -0.3114884 0.1545129 0.06229245 0.033056393 -0.024943482 -0.045562845 0.09429743 0.009133569 -0.15796067 -0.039427523 -0.004711494 -0.03401641 0.037312154 0.03272375 0.018806826 0.02676596 -0.016020646 -0.05679881 -0.050573237 -0.15030321 0.011817389 0.16901474 -0.0154371755 -0.0061031417 -0.10256357 0.005207431 0.109305784 -0.08603235 0.020775838 -0.024449835 -0.0033961409 -0.09854627 -0.02048867 0.023370007 -0.15451275 -0.05848103 0.07459865 -0.13746138 0.0316215 0.18432106 0.19241473 0.0043781768 0.1688246 -0.011601284 0.030582545 -0.19755644 0.07543439 -0.025271833 -0.018188361 -0.020883666 -0.19348285 -0.13672279
用户 0.12692398 -0.0024445332 -0.10304081 0.15186988 -0.016923012 0.16890398 -0.055791132 0.08498314 0.37434468 -0.03898652 0.012745545 0.09297992 -0.054081332 0.059455607 -0.074844316 0.09481321 0.036980473 -0.06087258 -0.014353175 -0.03975452 -0.17347515 0.18260385 0.103417225 -0.09535296 -0.13602318 -0.26510328 -0.058364417 0.053276293 0.00088389905 0.14347492 0.121120974 0.05236568 0.13982293 -0.0109138945 0.0347933 0.005363213 0.2114987 0.18815283 -0.067352645 0.31941006 0.02462561 -0.07516906 0.12648562 0.1087094 0.0005937194 0.11643136 0.1828382 0.17866167 0.009054323 0.027767235 0.066304065 -0.08628532 -0.0038936147 0.018313022 -0.023163281 0.07128358 0.08995534 0.13831207 0.12636651 -0.1487618 -0.06889881 -0.05902176 0.13975282 0.024332378 0.21053968 0.19371521 0.19795616 -0.045452297 -0.07851545 0.28225148 0.031516165 0.024506968 -0.32199943 0.1744157 -0.13297331 0.1323579 0.059538014 -0.00055040023 0.20750941 0.11570674 -0.09425468 0.08827641 -0.06898666 0.21869703 0.30056262 0.04700956 0.11023359 0.030768752 -0.019651152 -0.050344665 0.19019543 0.16915718 0.18020973 0.112368144 -0.053474087 0.022377271 0.07816476 0.23055 0.23685965 0.015014202 -0.07683803 0.07705832 -0.06653208 -0.1197927 0.31195992 0.004178062 0.14732276 -0.09874097 0.18665895 -0.12418054 0.09474726 0.04920853 -0.090580545 0.19841677 0.050134953 -0.2686529 0.05429984 -0.09681408 -0.041580245 -0.15150748 0.047591433 -0.1888166 -0.3608673 -0.00018931385 -0.05737854 0.19430599 -0.1151159 0.15767613 -0.17483446 -0.049328685 0.09334507 -0.016677085 0.140456 0.0019156926 -0.016524555 0.20808837 -0.15696359 -0.14374179 -0.035774373 -0.077000014 -0.14813633 -0.17705052 0.16449976 -0.03392919 -0.003744792 0.16513243 0.052206635 0.0067517334 0.0016078817 -0.23060185 -0.21048804 0.040334687 -0.11553898 0.14703462 -0.12949847 -0.36560673 0.07471959 0.076998346 0.20319036 0.107363455 0.059172735 0.057471313 0.15083687 0.19238988 -0.20247796 -0.1964079 0.0086673405 -0.054424547 -0.0030652408 -0.0997536 0.026703626 -0.022479266 -0.05943101 -0.1575425 -0.18083543 -0.011819353 0.19107251 -0.26946992 0.027215315 0.09358701 -0.00972805 0.061490227 0.12179435 0.20099209 0.09265878 -0.060305975 -0.15671742 0.05488449 0.06007283 -0.008072777 -0.04362729 -0.18589489 0.1308247 -0.06385532 -0.054906193 0.18182927 0.03543023 -0.27053487 -0.22995076 -0.03994908 0.01764993 -0.16017969 0.2540303 0.20331843 -0.17292492 -0.09606518 0.20805483 -0.21620117 -0.12411069 -0.02938913 0.013432093 -0.17353152 0.17321242 0.045440562 -0.009867225 0.007314042 -0.20063847 0.03876471 -0.121101655 -0.35156178 0.05272136 -0.12942272 0.26222077 0.1743045 -0.093090735 -0.020641182 -0.07522274 -0.073632 0.0019767939 0.11958722 0.19445829 0.12132927 -0.1886462 -0.033400834 -0.071652025 0.10830619 0.007752267 0.13433953 0.122968815 0.04497824 -0.2229161 0.027893484 0.002534158 -0.17646314 -0.21569884 0.14766036 -0.16906202 -0.12727559 -0.3224985 0.16796178 0.050577078 0.025598938 -0.00429334 -0.04987828 0.093878046 0.015738495 -0.14963411 -0.058826562 0.013649159 -0.043256998 0.022868427 0.023056028 0.03424901 0.027089318 -0.014137318 -0.05923542 -0.06651898 -0.15344141 0.009668281 0.15653773 -0.018856898 -0.027146397 -0.119068295 0.0037114518 0.0990139 -0.09641301 0.025866156 -0.025122683 -0.028670883 -0.13698122 -0.013965076 0.027560275 -0.16419983 -0.06992616 0.06898541 -0.11509491 0.038737584 0.19129375 0.19083096 0.019518474 0.17423986 -0.02502717 0.02726841 -0.22550173 0.06612884 -0.008716205 -0.024333348 0.010250947 -0.19300716 -0.16299734
