357 300
点击 -0.2468745 -0.24225105 -0.04330809 0.09522906 0.14172876 -0.052096315 -0.20447223 0.052900538 -0.17754872 0.119914204 0.23935069 -0.019047242 -0.1901342 0.034509037 0.17363617 0.032819092 -0.3403123 -0.19589691 -0.005466706 0.21643682 0.1735252 -0.032133095 0.08860422 0.004298717 0.04461539 -0.08359399 0.23374592 0.09063866 -0.044240866 -0.007393358 0.03980228 -0.034336966 -0.09593338 0.16317855 0.09437016 -0.24514775 -0.103236206 0.06938404 -0.08423274 -0.27963617 0.31469995 -0.116286136 -0.06428583 0.03348643 -0.21384662 0.13514201 0.16317604 -0.13376194 0.030083602 0.08642068 -0.021291265 -0.19597392 -0.02809633 0.10227092 0.24203667 0.30729795 -0.122515395 -0.20486513 -0.060045112 -0.04133359 0.113876514 -0.100553975 0.0082584 0.116994075 0.059250552 -0.11769544 0.10373226 -0.16341105 -0.036990583 -0.0520343 -0.051288363 -0.11502874 0.12263922 0.10745354 0.14900321 0.1934782 -0.17363991 -0.007657158 -0.08870399 0.153783 0.012288079 -0.024549311 -0.28521326 0.10795333 -0.014992362 0.17141137 -0.09793162 -0.07703053 0.06435285 -0.13550135 -0.20488173 -0.038348936 0.054526106 0.025739277 -0.097356305 -0.11202537 0.039479837 0.21170115 0.17759734 0.15685764 0.05240059 0.08409358 0.060374532 -0.115486875 0.038677275 0.09701671 0.1383579 0.067795016 0.06002945 -0.13588649 0.064150706 0.05000379 -0.08065825 0.076034404 0.03082554 0.20640306 0.16452782 0.22592632 -0.1405796 0.06720765 -0.049941353 -0.054739583 -0.27422035 -0.115369655 -0.043828964 -0.06829324 -0.09270396 0.04517973 0.10911983 0.034284342 0.039859243 -0.28439432 -0.21509528 -0.18106753 0.06728469 -0.012243248 -0.17024954 -0.11560637 0.17227808 -0.00716786 0.32610807 0.15419373 0.014146811 0.086648904 0.12282326 0.15190685 -0.079941444 0.014713354 -0.16134042 -0.005522756 0.022247247 0.035915058 0.0048757596 0.09500252 0.13831547 0.09802013 -0.0083645 0.106945984 0.015381488 -0.0007402536 0.016629066 0.27782175 -0.17530468 0.068091236 -0.05259758 -0.03600291 -0.04937124 0.26109576 -0.0098392395 -0.03243836 0.012098318 0.010679766 0.009579309 -0.1951853 -0.12379986 0.051125843 -0.17141297 0.054100424 -0.22414733 0.017644957 -0.1677211 -0.17050374 0.110427365 0.112866126 -0.2171025 0.1546979 0.14256684 0.30633578 0.04159887 -0.16179702 -0.03637171 -0.0067355605 0.02269942 0.0042086914 0.122456424 0.17202652 -0.00470598 -0.07950482 0.25120077 -0.20236725 0.066407464 0.040334456 -0.1945833 0.0034314946 -0.049087178 -0.06612113 -0.0028188073 -0.23305456 -0.058956604 0.020251341 0.21289553 0.07243558 -0.13297878 0.23228021 -0.078107156 0.19780448 -0.22522298 0.064615056 -0.12815616 0.1292586 -0.19761637 0.043711245 -0.09588067 0.08322083 0.1663609 0.042100854 0.0018559763 -0.08765106 -0.16509745 0.18534811 0.053454965 0.15632132 0.10884523 0.054164663 0.016965687 0.1372675 0.036313094 0.0113299275 0.1359359 -0.16322733 0.12389084 -0.12133594 0.082591 -0.16560517 0.05096114 -0.08878134 0.145051 0.10004554 -0.21567665 -0.060364727 0.18714188 -0.26686513 0.0011816851 -0.017315479 0.072561 -0.2450255 -0.13870734 -0.012929595 0.13437071 0.068470724 0.40134764 0.08154379 -0.1925325 0.03096099 0.0719846 0.081099026 0.20498587 -0.038031932 -0.11698459 0.0016998668 -0.008653857 0.01169125 0.11988597 0.26861295 -0.25632253 -0.22033668 0.17010757 0.06680143 0.08070205 -0.07661121 -0.004109056 -0.14320701 -0.08695552 -0.13303378 0.0068183998 0.05847952 0.18601814 -0.013130968 0.0054863836 -0.033534233 0.03082996 0.2765853 0.15230654 -0.17441814 -0.1758312 -0.2216655 0.108975746 -0.08906115 0.20520553 -0.019996392
视频 -0.17209403 -0.21933466 -0.093024105 0.054007288 0.16448048 -0.022202017 -0.2145808 0.06051564 -0.18722779 0.11653153 0.18018547 -0.020926135 -0.09947212 0.13014919 0.14496243 0.044316955 -0.33405235 -0.13896896 -0.018237688 0.15068057 0.26022324 -0.012181154 0.13847388 -0.05802247 0.082064554 0.05095589 0.19684608 0.057347294 -0.031786855 0.04698538 0.0266229 -0.042526636 -0.20731518 0.2558426 0.15207376 -0.15996382 -0.095807716 0.05990776 -0.08765425 -0.32250854 0.24193789 -0.07836364 -0.11299875 -0.010171176 -0.19558497 0.20017645 0.12299303 -0.08819065 -0.0020638206 -0.017853457 0.0728979 -0.25306672 -0.13690844 0.09500809 0.28665668 0.37146935 -0.057568993 -0.19647062 -0.11242741 -0.012268314 0.1338639 -0.06927092 0.025742406 0.08651588 0.021981442 -0.108752035 0.08056322 -0.16278726 -0.06894283 -0.052567545 0.015627488 -0.11807619 0.10937709 0.09998459 0.13205141 0.24434836 -0.14462665 -0.01790967 -0.053951204 0.08513972 0.04944227 -0.046743095 -0.18209109 0.14931382 0.0057099676 0.2245553 -0.08417152 -0.07537034 0.10125762 -0.18242778 -0.19767167 0.037594188 0.07799686 0.029609945 -0.095398836 -0.12543029 0.020175468 0.2255803 0.16132899 0.09167209 0.06908854 0.075823836 0.05058745 -0.117064334 0.032108903 0.056018755 0.174011 0.11375726 0.053137958 -0.14123031 0.021777881 0.053955466 -0.056592062 0.083349034 -0.0651531 0.24734071 0.26513022 0.221415 -0.10694422 0.12800337 -0.07792766 -0.018748013 -0.296664 -0.063421674 -0.068839535 -0.08179289 -0.13866095 0.016801871 0.03668006 -0.0028472496 -0.015078751 -0.27932915 -0.20234782 -0.27001804 0.018880298 -0.051388416 -0.14576004 -0.10771315 0.17131856 -0.070960306 0.26943153 0.26268828 0.061680514 0.06554935 0.07711829 0.1108216 -0.09890031 0.07083057 -0.10463289 0.12646386 0.028726773 0.039243475 0.0399809 0.036818307 0.15567838 0.07147084 -0.0034646897 0.08135008 0.0125051895 -0.005737579 0.032590974 0.19810382 -0.10850015 0.047708057 -0.09016236 -0.003456062 0.00980604 0.2634641 0.012529974 -0.1177242 0.030720925 0.03921432 0.005674874 -0.23679063 -0.047976162 0.08855996 -0.25522617 0.018555764 -0.19158718 -0.01307904 -0.16513714 -0.12260211 0.08397621 0.1622824 -0.21419114 0.1344872 0.06422946 0.33807138 0.07606984 -0.23142387 -0.07599114 0.039641257 -0.021754947 0.028000046 0.14310578 0.20631962 0.018463612 -0.060308795 0.24146779 -0.16744995 0.12190999 0.07230592 -0.2295603 0.026852688 -0.014516625 -0.07141213 0.023508487 -0.2841177 0.021610906 -0.012996604 0.25778985 0.023671009 -0.13762583 0.124133304 -0.102090344 0.16822812 -0.2527523 0.15102954 -0.16338125 0.17660597 -0.23352736 0.05755741 -0.114891075 0.034434084 0.14100382 0.113399595 -0.0636926 -0.07052899 -0.14898847 0.24105865 0.031085657 0.20320512 0.08753337 0.035525873 -0.019268334 0.03353994 -0.012071003 0.010485287 0.16220306 -0.100914784 0.20831832 -0.19968621 0.1383679 -0.21367393 0.064061634 -0.06530411 0.2024043 0.11651615 -0.20039515 -0.040161703 0.10187121 -0.3102343 -0.016678713 -0.09086308 0.16034736 -0.25628743 -0.19513997 -0.10783535 0.076110646 0.12374631 0.4524042 0.017595064 -0.21669067 0.07392466 0.028206931 0.03989413 0.24095015 0.08366129 -0.12566076 -0.035041053 -0.050152153 -0.07597372 0.11187843 0.24478936 -0.14425948 -0.23320374 0.19335179 0.09601905 0.07984491 -0.09771042 -0.0050957897 -0.101183124 -0.10361635 -0.1985364 0.027532091 0.0045412555 0.23132357 -0.07851665 -0.00688601 -0.0075547746 -0.028539212 0.19981787 0.1873831 -0.123084806 -0.09708593 -0.24299285 0.14487351 -0.108464904 0.2124787 -0.04309613
按钮 -0.25009206 -0.22878776 -0.02671615 0.09374277 0.14001282 -0.03225605 -0.19216636 0.06368865 -0.18223788 0.12812246 0.22602446 -0.013104745 -0.19414398 0.014173514 0.15338238 0.022599978 -0.32595268 -0.16709565 0.005401666 0.1880824 0.14047739 -0.033371925 0.101977065 0.006333369 0.03879996 -0.091633454 0.2120371 0.07830131 -0.045743413 -0.001285737 0.039100066 -0.048978932 -0.09672926 0.149465 0.087600425 -0.25510618 -0.10175386 0.07147386 -0.045803756 -0.26652566 0.30480596 -0.111019395 -0.06597845 0.048446827 -0.21238261 0.12133031 0.14105564 -0.10516614 0.030589497 0.061322395 -0.030059543 -0.18292199 -0.03781207 0.0914659 0.23335953 0.29611143 -0.11004307 -0.20946513 -0.064775236 -0.037978686 0.094671294 -0.06878104 0.021692589 0.13089491 0.06306655 -0.12099924 0.096547395 -0.13336147 -0.014449497 -0.011743805 -0.07572787 -0.117248416 0.106254965 0.11816551 0.1504781 0.20198897 -0.16698277 -0.011941711 -0.06993522 0.15467204 0.024119124 -0.0175224 -0.29536682 0.08852592 -0.0060155164 0.1844026 -0.12069281 -0.05313659 0.063012086 -0.13648453 -0.19416387 -0.051616933 0.052652247 0.0070396583 -0.10445662 -0.10220885 0.031221833 0.20468332 0.16606031 0.14886776 0.035559542 0.08011788 0.044700447 -0.1130227 0.03590633 0.0843551 0.12841527 0.075752094 0.07294171 -0.12754469 0.07760637 0.061320752 -0.09307226 0.09122655 0.021415995 0.19739516 0.15491953 0.22591642 -0.14168142 0.059680387 -0.031680364 -0.055768885 -0.27477437 -0.115934394 -0.038061496 -0.050361294 -0.084335916 0.026976578 0.09128056 0.03746097 0.050634455 -0.30826536 -0.21540152 -0.17968476 0.06994914 -0.018564653 -0.17847273 -0.11430088 0.17871524 0.0044960734 0.32112208 0.15420237 0.012236016 0.08962473 0.12518705 0.15043682 -0.07764943 0.013074531 -0.14697869 0.002833162 0.019162897 0.03169943 0.023274334 0.092493325 0.1631914 0.09888193 -0.0084128305 0.0989538 0.028179316 -0.0015926627 0.01673833 0.27579227 -0.17270291 0.059741452 -0.05550062 -0.028927464 -0.0441067 0.25509977 -0.008999291 -0.051782317 0.0020553765 0.03199733 0.0009711237 -0.20803146 -0.11174658 0.037739825 -0.16787182 0.05963885 -0.22162619 0.007346833 -0.164523 -0.17701526 0.100081846 0.13064602 -0.2129501 0.15547635 0.12158975 0.3007917 0.041572783 -0.16466445 -0.027699614 -0.006552729 0.046769377 0.008199952 0.11999984 0.17755707 -0.017603872 -0.08994587 0.2644477 -0.21502985 0.073186785 0.026714016 -0.20648639 0.012753578 -0.05670142 -0.05718578 -0.02628276 -0.23910525 -0.053777955 0.01682618 0.20344049 0.081850834 -0.13438632 0.22537017 -0.09242798 0.19180143 -0.203925 0.05967402 -0.1426199 0.11396207 -0.20285787 0.044483803 -0.09451399 0.069638856 0.16740589 0.027589556 0.0019942473 -0.09880824 -0.18360737 0.18164618 0.057584386 0.15935247 0.10452495 0.019746497 0.0154984165 0.117550015 0.03653753 0.010671268 0.108586796 -0.16689208 0.12350959 -0.1037131 0.08428867 -0.1661084 0.065912284 -0.06753669 0.14581014 0.100892514 -0.19817698 -0.05226188 0.16815992 -0.24298011 -0.0046787392 -0.017817551 0.06992815 -0.20673193 -0.14334151 -0.0005430057 0.1365271 0.058693532 0.41378936 0.06145247 -0.18407519 0.031958513 0.07923994 0.077183686 0.19818895 -0.048237763 -0.10183712 0.0068558487 -0.005659604 0.025715392 0.12180082 0.26541993 -0.25165647 -0.22492571 0.14762075 0.058848683 0.07644428 -0.070549846 0.0011548055 -0.11708101 -0.081043504 -0.13333558 0.011834522 0.033236813 0.2020085 -0.012281852 -0.008207032 -0.01381853 0.022202037 0.24649873 0.14563854 -0.1733459 -0.1910823 -0.212976 0.10854177 -0.08488752 0.20824291 -0.03090049
播放 -0.18311892 -0.22613615 -0.094895184 0.043290347 0.16451754 -0.008267729 -0.22660162 0.07021593 -0.19368827 0.13105015 0.19119553 -0.0109028155 -0.09990651 0.1403728 0.13668112 0.03680143 -0.33798993 -0.13555592 -0.019525409 0.14467558 0.28593615 -0.013345698 0.14313112 -0.05719753 0.080110066 0.046704818 0.19334804 0.06712645 -0.029762434 0.06091281 0.026032487 -0.04561823 -0.21519592 0.27928302 0.15827136 -0.16334184 -0.11039721 0.06141963 -0.06878023 -0.3550272 0.2677161 -0.076043725 -0.11238 0.005047952 -0.1928844 0.19797575 0.11415766 -0.06436312 -0.0038787436 -0.02162534 0.07402279 -0.26417527 -0.14628047 0.093113236 0.29454547 0.38142708 -0.04626796 -0.21128196 -0.12946342 -0.002187107 0.11334138 -0.06879493 0.03761374 0.088804916 0.024323396 -0.11626579 0.07557431 -0.15985209 -0.04754749 -0.04416292 0.0035476612 -0.12299321 0.107095964 0.10450325 0.13544212 0.2812133 -0.15625149 -0.02207394 -0.052666564 0.085527666 0.057980657 -0.042525902 -0.18014501 0.14163409 0.020914922 0.2564544 -0.100231834 -0.068758436 0.09742031 -0.18431221 -0.20592019 0.04012919 0.08931702 0.012492258 -0.10221391 -0.110650785 0.0040506367 0.24844271 0.16107568 0.07958559 0.04954723 0.0764776 0.04349461 -0.116164505 0.043543957 0.06379353 0.18666321 0.12571315 0.04775812 -0.14787406 0.032698438 0.061831176 -0.05884754 0.10219479 -0.059517596 0.2679887 0.28406322 0.23411788 -0.0947967 0.12963966 -0.071884535 -0.007390386 -0.31318164 -0.06320973 -0.058714837 -0.083125174 -0.14478868 0.0026107535 0.027885005 -0.025223674 -0.014736477 -0.29223764 -0.20355694 -0.29001155 0.020048013 -0.056240436 -0.1591213 -0.1155088 0.18445548 -0.05946579 0.27897352 0.27861455 0.06008429 0.07513048 0.076123536 0.106590234 -0.10452205 0.06491344 -0.107379004 0.13539463 0.035347484 0.03631123 0.057963096 0.042909976 0.16608472 0.06703015 -0.00641536 0.09116507 0.02664056 0.0009124465 0.037515868 0.20862973 -0.12138045 0.034636565 -0.11163896 -0.012383017 0.016273202 0.26160663 0.020241406 -0.13210806 0.0349905 0.026471257 0.0028787677 -0.2730426 -0.052558344 0.10689977 -0.2506518 0.013901147 -0.20480075 -0.032371894 -0.16637808 -0.13665034 0.08765991 0.18803242 -0.22947758 0.14900915 0.058115162 0.35579506 0.084513664 -0.2482453 -0.06648832 0.032961216 -0.009253074 0.03932113 0.15569425 0.22808011 0.008837838 -0.062613875 0.2662419 -0.17332861 0.13090028 0.07448378 -0.24036434 0.009984306 -0.0103201065 -0.06956532 0.018499542 -0.3071764 0.033258446 -0.018806722 0.2685598 0.035269085 -0.15063292 0.13969234 -0.10894786 0.16602778 -0.25457653 0.16068214 -0.18775333 0.18710603 -0.26113662 0.072283365 -0.118213356 0.03485005 0.14798893 0.115540884 -0.07694629 -0.07834399 -0.1673369 0.2648407 0.032742966 0.23842926 0.09350039 0.030552821 -0.024951352 0.025448415 -0.015682781 0.010155507 0.16498488 -0.10668148 0.2305547 -0.20158117 0.13151215 -0.2209738 0.08326687 -0.0712243 0.22165439 0.12374966 -0.19306798 -0.03517968 0.1037344 -0.32324678 -0.01865779 -0.08532281 0.17693017 -0.23166962 -0.21096878 -0.12062323 0.07393033 0.1319937 0.49652565 -0.0010145361 -0.21078381 0.07903106 0.023863893 0.034503296 0.24776408 0.08734227 -0.12293176 -0.04684001 -0.05481909 -0.07212876 0.10480697 0.23600094 -0.13697253 -0.2470008 0.19888283 0.09467964 0.06931869 -0.09486307 -0.00074998825 -0.07984135 -0.103016034 -0.20538776 0.02337497 -0.016625809 0.25632787 -0.09175264 0.0021204227 0.013127262 -0.04826194 0.18467154 0.17811267 -0.12497567 -0.110133775 -0.24801123 0.1467171 -0.12479743 0.23308036 -0.04189957
演讲 -0.20390923 -0.25244433 -0.07924126 0.048779607 0.17291172 -0.09603399 -0.23680001 0.03261951 -0.14667125 0.11129265 0.2717577 -0.01583697 -0.1702376 0.15415101 0.22014388 0.029114487 -0.35681963 -0.17871882 -0.043040495 0.20035435 0.27294102 -0.009770914 0.08830019 -0.03515729 0.10617726 0.005845978 0.24362369 0.067097224 -0.044999447 0.04963927 0.029010737 -0.017335622 -0.14306496 0.23635991 0.12381098 -0.20362884 -0.07649371 0.05214086 -0.13984832 -0.3197032 0.3408886 -0.06712851 -0.07282302 -0.0015757536 -0.19487174 0.18017791 0.12957917 -0.14348859 0.0366663 0.08557252 0.05229328 -0.23915894 -0.12048638 0.12687238 0.2975236 0.34820884 -0.116473556 -0.21801336 -0.10490493 -0.026608843 0.15403111 -0.16514982 0.0038010385 0.091836736 0.022962535 -0.11211222 0.11610024 -0.20959409 -0.07456533 -0.10378994 -0.025456978 -0.085530885 0.17889646 0.11368384 0.16783506 0.23012115 -0.18406937 0.034659866 -0.0948684 0.13222873 0.007652486 -0.018000871 -0.22272286 0.1380081 -0.032966442 0.21964449 -0.097494714 -0.11745993 0.039230686 -0.16167876 -0.20767507 -0.004665887 0.09403479 0.05565278 -0.10639373 -0.10262542 0.004712869 0.2506372 0.15554881 0.14995122 0.076212674 0.106719896 0.09243135 -0.10484577 0.027396169 0.0815889 0.15872736 0.11256838 0.06562315 -0.16688147 0.021084748 0.03171584 -0.036506787 0.074131995 0.016834723 0.30026272 0.2335408 0.2270593 -0.09426802 0.11458316 -0.11202045 -0.037328128 -0.27233654 -0.073182836 -0.031766158 -0.10236432 -0.13134946 0.08052177 0.101452544 0.010191411 -0.013285445 -0.22842325 -0.19225846 -0.22538923 0.038259234 -0.006729609 -0.1251945 -0.09520958 0.17901494 -0.0075734095 0.3215946 0.23058887 0.066925794 0.088915616 0.11685178 0.14644508 -0.09117995 0.02187351 -0.1481606 0.05021268 0.061740898 0.07794879 -0.0068871207 0.07052829 0.06729129 0.073634736 -0.022199139 0.13908947 -0.008721989 0.01786487 0.020146843 0.26142135 -0.15253872 0.07610846 -0.046860456 -0.0116249565 -0.0040617837 0.2870067 -0.007044727 -0.05149037 0.048521042 -0.031182908 0.03975918 -0.20450969 -0.11523668 0.07071227 -0.1903433 0.05355891 -0.23007245 0.008573252 -0.15323849 -0.14331925 0.1245789 0.13378033 -0.23962048 0.15826544 0.105842754 0.31412098 0.075893335 -0.20605858 -0.09153837 -0.00045219724 0.0034172523 0.0056010806 0.113452934 0.16982217 0.060152166 -0.0493728 0.21399388 -0.20190407 0.06376807 0.060765468 -0.19787732 -0.015560742 -0.029625438 -0.06481138 0.038608436 -0.2416179 -0.047134895 0.030208528 0.23320869 0.028517386 -0.15943973 0.19114573 -0.0489568 0.17417532 -0.2963926 0.07177257 -0.17243159 0.17722645 -0.26014948 0.0770331 -0.09155911 0.05732839 0.1212141 0.09225597 -0.027482273 -0.0750878 -0.1709062 0.24116041 0.023252621 0.19012827 0.14759421 0.12525025 -0.02505881 0.11295345 0.02183123 -0.03677281 0.15920907 -0.118424684 0.18632503 -0.16253836 0.09042196 -0.19114977 0.045355577 -0.12033457 0.13771547 0.12524128 -0.22428764 -0.036158018 0.16848737 -0.31119388 0.016592406 -0.0409308 0.10958798 -0.27164775 -0.14706685 -0.0866564 0.10180449 0.15051898 0.44212675 0.07262985 -0.20423374 0.06365127 0.05650255 0.043957707 0.22613296 0.039059896 -0.12327507 -0.005063642 -0.028131057 -0.055063397 0.10121691 0.2712243 -0.19565102 -0.22526309 0.18581729 0.0708605 0.07845903 -0.05076303 -0.012921794 -0.19337113 -0.1163427 -0.14083152 -0.02586077 0.025545541 0.16989847 -0.020234626 -0.0054848767 -0.027298344 -0.007894636 0.26456836 0.16787559 -0.1575425 -0.09744362 -0.25770396 0.099757716 -0.100062214 0.19011746 0.03857549
测试 -0.2422428 -0.25512353 -0.05844611 0.0832833 0.15178092 -0.07266711 -0.22905819 0.053505234 -0.17008838 0.12180042 0.2619191 -0.02004125 -0.19267835 0.09177813 0.19379638 0.044809587 -0.35551733 -0.2081426 -0.011488929 0.23698111 0.2262854 -0.030157423 0.090077765 -0.014792433 0.080642395 -0.051746737 0.2458278 0.08838779 -0.046923142 0.021467132 0.032361515 -0.03344157 -0.113341756 0.20534894 0.09833646 -0.23223497 -0.10956861 0.06950025 -0.11078153 -0.31086287 0.36541247 -0.10494261 -0.061150257 0.015367793 -0.20896313 0.15085828 0.15955187 -0.14107552 0.033346858 0.087197855 0.0026227068 -0.23179698 -0.050671294 0.10413927 0.27370447 0.33822224 -0.112096615 -0.20659418 -0.07323659 -0.03386184 0.12566696 -0.12960087 0.018130181 0.099308744 0.04946004 -0.14256625 0.110280626 -0.1860185 -0.045950152 -0.09296262 -0.042262156 -0.108987555 0.1636202 0.11907482 0.16478813 0.22107658 -0.18442538 0.0077139977 -0.10211229 0.14843148 0.013360273 -0.008661153 -0.27485123 0.12208035 -0.012625788 0.2183653 -0.10557119 -0.10283382 0.051671293 -0.15840185 -0.22598523 -0.0242402 0.08230766 0.020449968 -0.107877284 -0.109326184 0.025803639 0.2358192 0.16427077 0.15369213 0.055057827 0.09964172 0.06277618 -0.113594286 0.04802769 0.08842331 0.17162 0.087394364 0.064175665 -0.1529226 0.050316896 0.048396222 -0.07464804 0.083881766 0.04507466 0.26035583 0.19520101 0.23805991 -0.12197231 0.071529105 -0.06607898 -0.04289218 -0.2922759 -0.10308266 -0.035634767 -0.093982704 -0.117815815 0.051275864 0.100916244 0.027755136 0.0125104105 -0.2639135 -0.22688684 -0.22281656 0.07037744 -0.02133985 -0.16098584 -0.12654386 0.17607698 -0.010527953 0.34009945 0.19484289 0.03079376 0.09911881 0.12701605 0.16095455 -0.087359175 0.023665546 -0.15756397 0.015917176 0.032604884 0.05854598 0.004067171 0.102085575 0.12052797 0.10180042 -0.016205277 0.13260797 0.019623382 0.006393887 0.020163901 0.3078279 -0.18842371 0.057733316 -0.06743129 -0.035526387 -0.029588152 0.26727268 -0.011308457 -0.038919017 0.031648315 -0.024194932 0.018272202 -0.21289834 -0.12315173 0.083864264 -0.18434566 0.05100618 -0.24702126 0.011862001 -0.17373317 -0.18414786 0.124567494 0.14008164 -0.24116042 0.18598858 0.14302406 0.3246719 0.06486822 -0.19752105 -0.042797714 0.0034774886 0.008111645 0.011377507 0.11619523 0.18057658 0.017284347 -0.07156185 0.24774982 -0.21199766 0.07630185 0.059114873 -0.19078477 -0.027848512 -0.04219172 -0.078950725 0.019131836 -0.253597 -0.052577827 0.018539058 0.24120927 0.079444446 -0.15798308 0.23230216 -0.06806666 0.209912 -0.26104277 0.08316765 -0.14942655 0.15978171 -0.22342418 0.07525652 -0.107526526 0.09528528 0.1704223 0.050651286 -0.014487669 -0.088853866 -0.19340394 0.23155141 0.047284607 0.1868892 0.123988874 0.08411346 -0.0016981682 0.13395835 0.025309563 -0.0010280085 0.16336887 -0.15933931 0.17260651 -0.14898011 0.10057204 -0.18587835 0.06974345 -0.11582759 0.15973248 0.11307031 -0.21963571 -0.05080987 0.20867248 -0.30680606 0.0023024043 -0.01965747 0.09543918 -0.27489763 -0.16173068 -0.039629295 0.148298 0.092569634 0.45232934 0.08914288 -0.19276303 0.05368576 0.06577889 0.08200606 0.2276379 -0.019034129 -0.1373671 -0.014732094 -0.026168477 -0.018976012 0.121502414 0.2790081 -0.24574749 -0.2615807 0.20828159 0.06293331 0.101389 -0.06503761 -7.0514914e-05 -0.15384938 -0.113926575 -0.14329213 -0.001707303 0.041637372 0.19731633 -0.021603653 0.0272372 -0.032150876 0.019987293 0.28285015 0.15549429 -0.19034262 -0.16216542 -0.24923497 0.11271206 -0.11050794 0.23782624 -0.010609029
搜索 -0.23062274 -0.29046375 -0.056718294 0.019660497 0.16172513 -0.18197769 -0.22191647 -0.021120682 -0.07385338 0.07753383 0.42141384 0.049745474 -0.26290855 0.2513343 0.3255844 -0.05661559 -0.32885203 -0.23988025 -0.08985249 0.25939167 0.30515835 0.011161438 0.023800392 0.037593033 0.10412911 -0.011998429 0.23610473 0.06765322 -0.07783416 0.07312013 0.01633981 0.01160358 0.0013658211 0.2511232 0.074844085 -0.23976365 -0.025460422 0.008238885 -0.2392125 -0.3039508 0.4566681 -0.05233876 0.0062131262 0.014348512 -0.17570685 0.13449432 0.07107555 -0.19435829 0.1398794 0.2331891 0.015952488 -0.2149087 -0.06866858 0.20804547 0.28219378 0.2596335 -0.20917338 -0.23437464 -0.14674807 -0.057203755 0.15794155 -0.31855312 -0.0236597 0.0682803 0.017139448 -0.04419939 0.19466221 -0.24703082 -0.08839994 -0.18051244 -0.11737299 -0.04145968 0.26523766 0.12970494 0.23151572 0.19054727 -0.22885184 0.1600563 -0.15914318 0.15097512 -0.022147113 -0.004398896 -0.20702423 0.12486467 -0.06674913 0.18244232 -0.048794344 -0.16733946 -0.0748146 -0.11518931 -0.15521671 -0.06711323 0.12949657 0.1011092 -0.118053146 0.008320073 -0.051459868 0.26839098 0.13790628 0.18367901 0.058499765 0.14780997 0.14492185 -0.0760517 0.048181273 0.10087331 0.10878378 0.11394635 0.1040561 -0.1911224 -0.04544962 -0.024571955 0.07056893 0.051665805 0.18412657 0.37132204 0.19100478 0.1656778 -0.020645736 0.13296267 -0.18419534 -0.0551639 -0.15623318 -0.078148425 0.022847392 -0.07975277 -0.10837029 0.15314987 0.18611851 0.0050231167 -0.059354115 -0.044966396 -0.09518154 -0.13059725 0.01906436 0.11226014 -0.057457313 -0.037218116 0.16826704 0.14824381 0.32704106 0.18347466 0.08935492 0.14755693 0.1679758 0.12045143 -0.031997226 -0.061331123 -0.25514203 -0.114218615 0.12539262 0.084571995 -0.105870925 0.096349195 -0.10732236 0.0076883337 -0.037901357 0.19224036 -0.08542743 0.079531014 0.021118587 0.26836917 -0.15868738 0.11756403 -0.00031866197 -0.04034061 0.04984522 0.29617321 0.0066509214 0.09232112 0.07748432 -0.18228509 0.076672405 -0.1917389 -0.20780213 0.043638065 -0.052035484 0.0909675 -0.23206662 0.021636914 -0.07397509 -0.118494615 0.15873235 0.0804056 -0.29230008 0.16491733 0.12688325 0.24595454 0.09729702 -0.1967924 -0.11358101 -0.09283075 0.042692836 0.009991338 0.056822393 0.094308816 0.13570935 -0.032191724 0.116630584 -0.17476735 -0.04895916 0.011035732 -0.11714686 -0.12645262 -0.009591383 -0.03334127 0.064374894 -0.13656203 -0.13069469 0.12240158 0.15211345 0.016747367 -0.18126896 0.26621765 0.058014147 0.13062748 -0.33610123 -0.073600136 -0.17092101 0.18830308 -0.3136256 0.08419668 -0.034889244 0.061439514 0.07980623 0.057318803 0.028097162 -0.08945808 -0.1793367 0.22875477 -0.017492875 0.14365797 0.25454292 0.27484044 -0.037189834 0.18229139 0.044087376 -0.13884781 0.10165111 -0.10215583 0.10086187 -0.08759684 -0.055791263 -0.09579322 -0.036822177 -0.20301628 -0.0040821643 0.1741088 -0.20691633 -0.037538953 0.20205243 -0.25510073 0.07976485 0.04982407 0.05151294 -0.19842285 0.00400636 -0.09810759 0.03547511 0.23054032 0.34198785 0.13094212 -0.09466087 0.03713536 0.05612989 -0.008227773 0.15149495 0.04543788 -0.100465454 0.06578945 0.029270943 -0.019076556 0.08102125 0.24353011 -0.15283535 -0.17214233 0.09118297 0.011453539 0.008872849 0.01943316 -0.014670112 -0.3285725 -0.08558852 -0.03220295 -0.1401426 -0.009559983 0.06648806 0.082952484 0.014229321 -0.06981152 -0.005239907 0.27927294 0.10336447 -0.15598205 -0.037525833 -0.16139013 0.02946068 -0.06399985 0.0929058 0.19417803
首页 -0.17986904 -0.2106905 -0.071786985 0.06303097 0.14124389 -0.042339675 -0.20682083 0.057996277 -0.16607356 0.10939987 0.17453858 -0.03712056 -0.12491993 0.0854517 0.14272521 0.058509126 -0.31702772 -0.14546819 -0.008545446 0.16448873 0.21239379 -0.021670414 0.097474866 -0.0509618 0.07746303 0.00070702477 0.20573436 0.06146052 -0.025015626 0.031769194 0.03045674 -0.031964306 -0.15837012 0.19875684 0.11565346 -0.16598363 -0.09877835 0.06360624 -0.07593867 -0.2848887 0.2641677 -0.080598064 -0.08441355 0.0043836543 -0.17267242 0.16019517 0.13748512 -0.1045865 -0.00539465 0.021464255 0.04010348 -0.21027507 -0.09261611 0.075695515 0.26172864 0.33099076 -0.06559529 -0.17657265 -0.071378194 -0.01576973 0.115850076 -0.080847055 0.01648262 0.09028199 0.028732816 -0.1289519 0.07065406 -0.15638834 -0.049946323 -0.065861315 0.0074661463 -0.108288616 0.11946949 0.093596414 0.12766258 0.20768513 -0.14050111 -0.021697544 -0.06801391 0.10516225 0.026676783 -0.014237959 -0.20982032 0.12441643 0.00085123215 0.20428573 -0.100674026 -0.07533098 0.07775159 -0.15450025 -0.20874761 0.01587306 0.06651133 0.017065125 -0.085172065 -0.12529302 0.02753539 0.21021864 0.14165525 0.11525691 0.060884293 0.07639058 0.04945847 -0.10734344 0.03215714 0.056356262 0.16173744 0.083543725 0.03806491 -0.13422431 0.04904887 0.055175066 -0.07418009 0.07454432 -0.028841514 0.22551264 0.20435959 0.21885173 -0.11860798 0.07915744 -0.050546203 -0.025934808 -0.28269836 -0.07096829 -0.044740293 -0.089466915 -0.12401805 0.030377576 0.050663218 0.016803851 0.011462864 -0.26648945 -0.21177398 -0.23187067 0.046549723 -0.049102742 -0.14636819 -0.117795296 0.15786138 -0.060609624 0.27863222 0.20709671 0.03427383 0.060133338 0.07980392 0.13279457 -0.09175452 0.05608193 -0.095513366 0.09703111 0.016247218 0.05793497 0.034491107 0.05937022 0.1388692 0.090545356 -0.009655107 0.09018914 0.030507421 -0.0068447446 0.023210652 0.23764263 -0.13827635 0.037742652 -0.073339395 -0.011940704 -0.025060488 0.23829241 -0.014184778 -0.09466825 0.03404417 0.021930294 0.007940255 -0.19113062 -0.07174196 0.080938205 -0.21018879 0.023071144 -0.19638419 0.0013289591 -0.16094455 -0.15657641 0.10006429 0.13981457 -0.18943578 0.14961906 0.09618066 0.30580893 0.058264982 -0.18087754 -0.051800646 0.028898565 -0.014096316 0.0065966123 0.116731234 0.179035 0.011365259 -0.056750163 0.22277476 -0.18073125 0.10193681 0.0764465 -0.19635077 0.01157506 -0.030903306 -0.0750708 0.02082059 -0.25188968 -0.014019087 -0.013576469 0.23565644 0.050973333 -0.12712659 0.1503907 -0.08520127 0.18218233 -0.22768904 0.12455111 -0.13819736 0.146132 -0.19304563 0.06571781 -0.106545985 0.06385258 0.14230019 0.075614505 -0.043720026 -0.071820684 -0.15234715 0.21526973 0.03786765 0.17672843 0.08094816 0.044640593 -0.0030024685 0.076465346 0.010661765 0.019204222 0.16070844 -0.12184888 0.18827032 -0.16136584 0.12768331 -0.19331697 0.078139044 -0.071406916 0.17989361 0.088263564 -0.1924802 -0.03928835 0.1473215 -0.28820094 -0.017151762 -0.060172316 0.11023238 -0.25792098 -0.18626323 -0.058605503 0.12575074 0.07973172 0.4153072 0.04823018 -0.2087146 0.06383923 0.041844234 0.0600325 0.22197315 0.020145841 -0.12037346 -0.03428162 -0.04605482 -0.04652917 0.10287499 0.24417754 -0.19543555 -0.2346223 0.2022503 0.08221308 0.100195944 -0.06920041 0.005379116 -0.101073846 -0.11240828 -0.16644111 0.027153708 0.034033787 0.19597739 -0.06439916 0.008614368 -0.012869152 -0.00307218 0.21841557 0.16565149 -0.15055221 -0.12072795 -0.25074655 0.11926419 -0.10275823 0.21832289 -0.03804626
模块 -0.21776552 -0.25218803 -0.060013086 0.071050525 0.14618266 -0.09331194 -0.21759683 0.02627319 -0.14785978 0.10842168 0.2724604 -0.014739709 -0.18064967 0.11710021 0.20740828 0.035809655 -0.34631595 -0.209195 -0.01781362 0.23771796 0.24315645 -0.017681837 0.06548484 -0.020869805 0.088090666 -0.02897082 0.24664682 0.07990719 -0.04069201 0.02464562 0.03393798 -0.02170209 -0.10721948 0.19761135 0.09834131 -0.21454705 -0.098537795 0.06850896 -0.1450811 -0.29837206 0.35760868 -0.099870056 -0.05307792 -0.00041188675 -0.19777115 0.14247441 0.16067861 -0.15184404 0.03518679 0.10055926 0.019458992 -0.2304404 -0.050181396 0.110060446 0.27489734 0.32989612 -0.12496023 -0.1925787 -0.07045242 -0.04362557 0.14035986 -0.15419035 0.009920326 0.08508653 0.042701423 -0.12262121 0.11962177 -0.19983473 -0.061870933 -0.118981585 -0.024178343 -0.09609784 0.17610563 0.10879287 0.16348436 0.20364608 -0.17738868 0.024343815 -0.10418246 0.1420972 -0.000801066 -0.018393861 -0.25127897 0.13885176 -0.033222407 0.19497693 -0.08041183 -0.12019138 0.041900583 -0.14743163 -0.21632527 -0.019615103 0.08762639 0.041323803 -0.0960328 -0.1056376 0.021776173 0.2200754 0.15888985 0.16019063 0.06656338 0.10244038 0.08290915 -0.108972766 0.038355988 0.08686285 0.16149074 0.081964254 0.060346775 -0.14659767 0.038954385 0.037856184 -0.048035037 0.062263485 0.057893295 0.26138508 0.18761788 0.22044115 -0.10933329 0.077429645 -0.091966 -0.03126289 -0.27035064 -0.09257492 -0.030800967 -0.102841236 -0.11497857 0.07500691 0.11689772 0.031362046 0.0010726119 -0.22095779 -0.214694 -0.20198251 0.06521637 -0.0011502961 -0.13048753 -0.11136588 0.16935605 -0.010106914 0.32844046 0.19258602 0.034782268 0.09491698 0.11168501 0.15479998 -0.07135192 0.028628273 -0.16467586 0.0016855313 0.04024707 0.0716651 -0.021578293 0.09371411 0.078815594 0.092388995 -0.013978789 0.13523893 0.006240575 0.0112057105 0.010920687 0.28267738 -0.18060431 0.06682941 -0.050257508 -0.03756366 -0.023422653 0.25514957 -0.018386588 -0.015326059 0.042689946 -0.036034115 0.027988382 -0.19207333 -0.1303196 0.07185541 -0.16902058 0.0506107 -0.2360681 0.017860731 -0.16297778 -0.16645038 0.12231593 0.114759825 -0.2367206 0.17396478 0.14006026 0.30463332 0.06357475 -0.18885924 -0.06495718 -0.0055047683 -0.003536294 0.0021564234 0.0975053 0.15743051 0.04070559 -0.059389472 0.21093312 -0.20116091 0.05769431 0.06350561 -0.17033075 -0.029368363 -0.030024344 -0.08200972 0.042683695 -0.22546561 -0.052613568 0.03722979 0.23053052 0.06481521 -0.14735052 0.21648207 -0.05130104 0.18581389 -0.27448788 0.06458642 -0.13143972 0.16142745 -0.21286292 0.072368376 -0.101361714 0.092430495 0.15390651 0.059889276 -0.008432016 -0.07979295 -0.17704368 0.22304311 0.034227185 0.16732928 0.12627672 0.11635507 0.0022365297 0.14297217 0.03206387 -0.008659492 0.16936052 -0.14501496 0.1619944 -0.14866203 0.09609701 -0.1750374 0.038838338 -0.12316113 0.13901716 0.1095385 -0.22028692 -0.051358763 0.20277078 -0.2968086 0.013574451 -0.014807495 0.08056583 -0.28806612 -0.14585258 -0.051674776 0.14002414 0.104222655 0.4061485 0.10094889 -0.19252272 0.054471336 0.06063576 0.07592092 0.22618076 -0.011661959 -0.14241178 -0.012869738 -0.019249713 -0.026082061 0.11086174 0.2703493 -0.22967526 -0.23239724 0.20052427 0.062847294 0.09762695 -0.052109994 -0.002402837 -0.17807928 -0.12262988 -0.13031134 -0.011022848 0.051473122 0.16189475 -0.01367282 0.024430845 -0.047339812 0.02316191 0.29160362 0.15478708 -0.17630704 -0.13049558 -0.23875655 0.10003063 -0.10387778 0.21019371 0.015307207
界面 -0.23897712 -0.25615966 -0.058105238 0.08726908 0.15616846 -0.07382761 -0.2344955 0.051257122 -0.17102721 0.120839156 0.25795484 -0.024126163 -0.19019797 0.09561542 0.19385393 0.04501805 -0.3574771 -0.20677476 -0.008561363 0.22882688 0.2279106 -0.020849053 0.07806877 -0.022093093 0.07871264 -0.046802085 0.24151352 0.08923316 -0.043634508 0.020557905 0.03790865 -0.033852562 -0.11882495 0.21024661 0.101924956 -0.22886916 -0.111803345 0.07147888 -0.104854025 -0.3055272 0.35500768 -0.109921925 -0.059708282 0.0052030063 -0.19918858 0.15612547 0.16876206 -0.13719028 0.028439522 0.0859368 0.00041336322 -0.22524858 -0.04676302 0.105780646 0.28594184 0.34603506 -0.111464396 -0.20184802 -0.0715963 -0.032820523 0.12290984 -0.14043012 0.021734385 0.09171871 0.05151174 -0.13569854 0.11044571 -0.19400041 -0.044947173 -0.095874734 -0.03554162 -0.11238214 0.16757682 0.111221224 0.16607963 0.21762253 -0.1788789 0.008090703 -0.1104547 0.15119311 0.01658117 -0.008252912 -0.27386805 0.1309358 -0.017572036 0.20741281 -0.09968969 -0.105698146 0.066968426 -0.1486532 -0.23293139 -0.016256412 0.08155816 0.022784814 -0.104591794 -0.11374888 0.031640757 0.23922397 0.16361491 0.15804659 0.05374026 0.09526213 0.07833625 -0.11722829 0.05252023 0.08775174 0.17727216 0.090324014 0.061774574 -0.15608466 0.051822312 0.054343116 -0.073104315 0.08153757 0.041124713 0.26282802 0.19311647 0.23657957 -0.121019855 0.073115274 -0.06514824 -0.03938728 -0.29979992 -0.10014079 -0.033791754 -0.09860871 -0.119238965 0.05289661 0.10655732 0.028779998 0.012033014 -0.26658458 -0.22730416 -0.21835129 0.071490236 -0.020538624 -0.16123196 -0.1209089 0.178328 -0.008628021 0.34610814 0.19755644 0.026305731 0.092107974 0.121295065 0.15903476 -0.08965147 0.027990444 -0.16067606 0.030731773 0.031284157 0.06320707 0.009437466 0.099150084 0.12052414 0.10480927 -0.017956125 0.13159424 0.02422441 0.0013665217 0.026654737 0.30501068 -0.19055296 0.057799257 -0.06969722 -0.039621692 -0.037520863 0.26937252 -0.017890848 -0.049580343 0.03602401 -0.021276997 0.023414917 -0.20472702 -0.128136 0.0761735 -0.18333004 0.052048743 -0.23796873 0.01581558 -0.16897325 -0.18776992 0.13445906 0.13637748 -0.23948964 0.18698937 0.14413048 0.3323711 0.06034291 -0.19913661 -0.048949778 0.0053520715 -0.0023195962 0.01496489 0.114237614 0.18612647 0.01773183 -0.06850933 0.24713102 -0.21280257 0.08019621 0.062992744 -0.19532666 -0.02788979 -0.040269095 -0.0808133 0.02269446 -0.2504615 -0.05833604 0.014094401 0.2427672 0.078395836 -0.15700443 0.22944918 -0.073097244 0.2126128 -0.2689525 0.09527739 -0.13516511 0.1592208 -0.21760435 0.0777552 -0.10768497 0.10260596 0.17461704 0.05376778 -0.012706531 -0.08329196 -0.18322453 0.2247045 0.053186093 0.1833745 0.119817145 0.092367575 0.0058550127 0.13551594 0.029544292 0.015187036 0.16856585 -0.16288674 0.17590642 -0.15355116 0.09918335 -0.19316451 0.06254832 -0.111974806 0.15860194 0.109424576 -0.23058468 -0.05327172 0.21174507 -0.3171396 -0.0013001991 -0.029378599 0.10211637 -0.27989677 -0.1703216 -0.03584104 0.15178835 0.09584758 0.44966006 0.09195279 -0.20797105 0.05737989 0.062202025 0.08218158 0.22797035 -0.013423541 -0.13806042 -0.017589843 -0.026602326 -0.018300889 0.122297995 0.27748537 -0.2489786 -0.26499712 0.21599741 0.07097266 0.09767558 -0.0616726 0.0078730015 -0.15700914 -0.11512735 -0.14889862 0.0022090958 0.05309619 0.19497047 -0.027367376 0.035121113 -0.037665088 0.020334607 0.28494993 0.16602477 -0.18512413 -0.16972966 -0.25613734 0.11553582 -0.10239214 0.24062578 -0.009296873
页面 -0.24165642 -0.24244672 -0.055155862 0.090012915 0.14240947 -0.07124123 -0.21076946 0.048876025 -0.17067306 0.11230116 0.24829654 -0.029839704 -0.18755403 0.06686463 0.18521711 0.04276846 -0.35071528 -0.20794234 -0.00019063946 0.23451531 0.20392983 -0.03057422 0.0852366 -0.011983683 0.0689102 -0.06252968 0.24919751 0.092342004 -0.044034407 0.0063244705 0.029269936 -0.031732325 -0.109901845 0.18464355 0.099931836 -0.2365041 -0.10556864 0.06800437 -0.10467937 -0.29614648 0.3377216 -0.11307922 -0.060150355 0.013265238 -0.2023974 0.1388918 0.16562286 -0.14081432 0.028315902 0.09112452 -0.012445067 -0.21104558 -0.039280955 0.09983624 0.25609183 0.32863352 -0.11417387 -0.20019881 -0.05976091 -0.039142855 0.123062484 -0.12599608 0.014624301 0.103771605 0.04873059 -0.13606387 0.10649631 -0.17726317 -0.044665344 -0.081803836 -0.035369866 -0.11967411 0.15061793 0.10529733 0.15948284 0.20114301 -0.17569245 -0.0008203412 -0.09909283 0.15339287 0.0078311125 -0.01092926 -0.2753665 0.11439927 -0.02004609 0.19434465 -0.10223604 -0.09352454 0.06259293 -0.14591596 -0.2215885 -0.021003477 0.06583539 0.019562718 -0.09675379 -0.11610263 0.038079754 0.22412182 0.16116515 0.15927468 0.05814838 0.08808202 0.065604426 -0.117424026 0.046389665 0.08660703 0.16251288 0.07283752 0.057938565 -0.13954265 0.054960955 0.04723201 -0.07779762 0.07898633 0.04017082 0.23645547 0.17172103 0.22338949 -0.13446338 0.060502876 -0.054675233 -0.041832298 -0.29010677 -0.11281159 -0.036577236 -0.08913848 -0.10846839 0.046410132 0.09920034 0.036498073 0.01877144 -0.26261833 -0.22851332 -0.19887052 0.073967926 -0.021668792 -0.16978186 -0.12126441 0.17075652 -0.017138869 0.3270745 0.17699547 0.021101052 0.08973501 0.12769887 0.16685882 -0.080299355 0.02585621 -0.15133896 0.0099800015 0.02100809 0.052047957 0.0070110476 0.10787649 0.11832515 0.09704223 -0.01482048 0.12532711 0.024642829 -0.006306689 0.017644618 0.2962471 -0.1859738 0.058216743 -0.061153684 -0.038338102 -0.038308077 0.261353 -0.01905151 -0.03741211 0.030209739 -0.008255515 0.016585851 -0.18878639 -0.12406748 0.07311545 -0.17420864 0.044779062 -0.22909327 0.02065669 -0.17040402 -0.17555013 0.1264228 0.12056664 -0.22776784 0.17980817 0.15287443 0.31783992 0.052859902 -0.1786103 -0.045000345 -0.0027711538 0.007629593 0.008839169 0.10989449 0.17752285 0.01130152 -0.07052229 0.24385224 -0.20335154 0.06575404 0.05707963 -0.19116294 -0.019464822 -0.039883003 -0.074042544 0.01296675 -0.24671999 -0.049944256 0.019114245 0.23419951 0.07652612 -0.1442594 0.23331581 -0.07539851 0.21719578 -0.24411187 0.089403644 -0.12770267 0.14398558 -0.19885306 0.06353503 -0.09823994 0.10035307 0.17778769 0.0408329 -0.0014044516 -0.083598666 -0.18122801 0.20500855 0.049851965 0.16997734 0.11027927 0.07262845 0.006659565 0.14622687 0.0325987 0.007498011 0.15901153 -0.15984675 0.16110086 -0.13846554 0.099470735 -0.18424839 0.062099393 -0.103123434 0.14862984 0.10358607 -0.22157168 -0.054106746 0.20753115 -0.29197267 0.0048258756 -0.021359123 0.08591216 -0.2807796 -0.16517137 -0.026290707 0.15225963 0.078088656 0.42544216 0.100017 -0.19470628 0.044262704 0.06545451 0.08350701 0.2221118 -0.023147149 -0.13760176 -0.014254973 -0.02226716 -0.0061379075 0.122264475 0.28487456 -0.25391456 -0.2500271 0.20170772 0.075262874 0.102563545 -0.06713732 0.000654369 -0.15602474 -0.10498561 -0.13743924 0.0062055695 0.061808668 0.19105692 -0.025479304 0.024582824 -0.036826026 0.03701464 0.2836264 0.15350723 -0.18717167 -0.17573638 -0.23677592 0.10954642 -0.10138851 0.23464996 -0.015786322
登录 -0.25234222 -0.24295548 -0.051334225 0.09750491 0.08736299 -0.080479115 -0.1909011 0.06643072 -0.15626155 0.10494803 0.23186815 -0.05420959 -0.22069596 0.026462814 0.18037784 0.06344806 -0.31431085 -0.22973849 0.02885864 0.2781939 0.15522452 -0.06920571 0.07910916 0.00072192395 0.06668485 -0.11950052 0.2666536 0.07974648 -0.040977225 0.0066950843 0.0031246436 -0.032301776 -0.037696827 0.11902423 0.049580947 -0.24948545 -0.102924064 0.063994005 -0.10017557 -0.28269055 0.3957263 -0.10745878 -0.025844898 0.052716225 -0.18106565 0.0750307 0.16013901 -0.15779933 0.041217837 0.120255925 -0.053133138 -0.1831592 -0.0016558031 0.070794135 0.19742493 0.25900334 -0.105420515 -0.17337021 -0.022139596 -0.0599129 0.1019822 -0.099685594 0.00023243332 0.12185788 0.028572544 -0.18166213 0.09284361 -0.1375641 -0.0252506 -0.112450615 -0.03577126 -0.13742158 0.15169567 0.10287878 0.14998734 0.18132831 -0.179324 -0.002618226 -0.10402139 0.14932516 -0.0066664326 0.019281536 -0.27591306 0.06472419 0.014228253 0.20668125 -0.1303687 -0.100541845 0.002261035 -0.15028724 -0.22969978 -0.059881676 0.05824442 -0.029589541 -0.07841736 -0.09405586 0.026440343 0.21126921 0.13052128 0.14897235 0.04369978 0.094723545 0.02487425 -0.11434902 0.044336956 0.06616644 0.15290086 0.03175601 0.042561077 -0.11462296 0.08014721 0.041431256 -0.09914018 0.095477276 0.10389561 0.2217712 0.10342914 0.20337221 -0.13008161 -0.005378454 -0.0021096575 -0.042552825 -0.2665702 -0.13634366 -0.020822443 -0.076181576 -0.112620726 0.04488433 0.07460175 0.060132697 0.037227657 -0.22261024 -0.23276225 -0.19228259 0.106565796 -0.032163505 -0.1936597 -0.16306555 0.14575145 -0.0143837305 0.29596567 0.12990823 -0.014434054 0.09958179 0.13714352 0.19660665 -0.04970712 0.025316201 -0.120227866 -0.0405598 -0.0066677793 0.05246706 0.010721931 0.16409127 0.10225025 0.10723521 -0.012875782 0.12590836 0.053928968 -0.013169344 -0.0023743294 0.3474704 -0.20565154 0.036901902 -0.06392213 -0.045852516 -0.04896207 0.21732216 -0.03396378 -0.0003322972 0.030923871 -0.04008333 -0.019641919 -0.17154652 -0.12282851 0.11365721 -0.11607405 0.032099716 -0.23928446 0.01935854 -0.17327043 -0.21415709 0.120359145 0.11483518 -0.21548267 0.21173164 0.20439608 0.27909666 0.053286344 -0.14388685 0.009621246 -0.01751232 0.03597801 -0.0113074025 0.078631796 0.13223472 -0.014252957 -0.0737303 0.22311619 -0.20149177 0.0430872 0.0661706 -0.1388894 -0.060006734 -0.049997874 -0.08776254 0.0024775732 -0.22193794 -0.05548939 0.01712978 0.23587671 0.12196939 -0.12329093 0.26059684 -0.04047574 0.24762675 -0.17408182 0.06702883 -0.11540078 0.11467738 -0.1476623 0.07655329 -0.09151454 0.1256738 0.18625948 -0.013907153 0.006168814 -0.11254007 -0.20053367 0.1918855 0.053507403 0.15036142 0.10518848 0.03920977 -0.008254906 0.17588276 0.026590796 -0.017217958 0.14830934 -0.18027018 0.16064759 -0.099034056 0.09173988 -0.15909636 0.10644253 -0.11027242 0.13965324 0.085640706 -0.17139387 -0.052487504 0.250661 -0.24531758 0.010459701 0.03371938 0.038597636 -0.27391532 -0.13926011 0.01692899 0.20658971 0.016493442 0.39647275 0.14047259 -0.13595948 0.042459343 0.05107736 0.10422382 0.20229219 -0.09114994 -0.14923324 -0.020860082 -0.0371452 0.028535424 0.11240588 0.28109676 -0.29428852 -0.2812714 0.2127516 0.051601555 0.1418626 -0.048679404 0.01298549 -0.12903523 -0.12015903 -0.106842965 0.004239291 0.052252386 0.1891218 -0.015042853 0.051600028 -0.02953369 0.06494642 0.27865198 0.10839158 -0.23473042 -0.20414941 -0.20886238 0.088359535 -0.14023075 0.2513817 -0.03144768
中 -0.22985655 -0.26128483 -0.05919055 0.07538082 0.15718733 -0.08679232 -0.22943868 0.035613745 -0.16326301 0.12090387 0.2838983 -0.009656245 -0.19856736 0.11976664 0.2154523 0.031241717 -0.36097714 -0.20766774 -0.017792743 0.23817585 0.24249916 -0.021053625 0.08353741 -0.016331729 0.08671439 -0.032793857 0.24610734 0.080305874 -0.049949568 0.021135122 0.035064474 -0.025982717 -0.113758236 0.20254743 0.1001188 -0.23877081 -0.09875084 0.06521346 -0.13836655 -0.30490354 0.3706993 -0.09225179 -0.056391474 0.012400194 -0.21816477 0.15173244 0.15161146 -0.14863381 0.0447244 0.10174889 0.016526882 -0.23745207 -0.06142789 0.11759302 0.28278434 0.3335739 -0.12450821 -0.21174416 -0.07610652 -0.04440545 0.14279938 -0.1476639 0.02355466 0.09832332 0.052765675 -0.1281391 0.122919336 -0.19796675 -0.053680543 -0.1040249 -0.0435935 -0.102297075 0.17977421 0.11836107 0.17462757 0.22232498 -0.18701373 0.028389154 -0.10078642 0.14379205 0.009167675 -0.021558603 -0.262193 0.1293509 -0.02817071 0.20726767 -0.09668022 -0.11055082 0.034699917 -0.15745384 -0.2191082 -0.028858256 0.09324659 0.038188025 -0.10466625 -0.105106205 0.017978964 0.23549385 0.16892454 0.15935524 0.06525735 0.11092254 0.08296235 -0.107417084 0.039685868 0.090761326 0.16075212 0.09554877 0.07036918 -0.156426 0.043629892 0.03807623 -0.055997767 0.079522856 0.04962311 0.27511537 0.20121422 0.23296149 -0.11083382 0.08162656 -0.08541223 -0.043679807 -0.28159162 -0.09503912 -0.036831655 -0.09391807 -0.11805495 0.07074186 0.11262438 0.031669196 -0.00198155 -0.24071199 -0.22112817 -0.21899468 0.060978297 -0.00451258 -0.13679741 -0.11763155 0.1772478 0.0013763095 0.33975014 0.20095938 0.042761225 0.10490155 0.121332616 0.1579461 -0.078415796 0.025644472 -0.16650783 -0.00026638084 0.046915904 0.06773898 -0.011639895 0.09744363 0.10053321 0.092064865 -0.005305272 0.13756892 0.0040188585 0.02091829 0.012772589 0.29894987 -0.17857425 0.069194965 -0.051402494 -0.033259332 -0.018431336 0.27800936 -0.012546263 -0.023420632 0.032002836 -0.031964783 0.019725263 -0.21726371 -0.12986866 0.07071935 -0.17882882 0.057087056 -0.24947402 0.012008249 -0.17233165 -0.17807798 0.117946826 0.1280626 -0.2495463 0.17804442 0.13672316 0.3155646 0.07200631 -0.20535663 -0.06294272 -0.009544385 0.014504277 -0.00061218085 0.10904784 0.17075779 0.035191167 -0.06789845 0.22617333 -0.21064459 0.0686731 0.059456415 -0.18803173 -0.027289964 -0.033339135 -0.07742496 0.02904403 -0.24474806 -0.061168037 0.03656446 0.2335627 0.064847164 -0.1562341 0.22482193 -0.05709746 0.19194093 -0.2814267 0.06340038 -0.15592909 0.16995713 -0.23253831 0.07624062 -0.10364427 0.08857478 0.15815918 0.061117563 -0.007980006 -0.08470379 -0.18974596 0.23254578 0.04232644 0.18152417 0.13673317 0.10591807 -0.012427492 0.13518895 0.024476435 -0.015399346 0.16243365 -0.15509665 0.16640836 -0.1543713 0.094045974 -0.18278149 0.052202556 -0.12210956 0.1406385 0.12734935 -0.22272217 -0.04954978 0.19889563 -0.30576667 0.00866479 -0.016808514 0.089332916 -0.27484468 -0.14597462 -0.052921772 0.13526899 0.114569955 0.44186285 0.09463055 -0.18892968 0.05670694 0.060797 0.07268086 0.22738904 -0.0067436635 -0.1443236 -0.0077290586 -0.016098468 -0.026689278 0.12347231 0.27826276 -0.22911264 -0.24543081 0.20124665 0.058416057 0.08660135 -0.06334174 -0.0020483483 -0.17481369 -0.116486065 -0.1367932 -0.020707509 0.03630434 0.18569264 -0.0044247075 0.019066013 -0.0368157 0.012257904 0.29419956 0.15863822 -0.18749076 -0.13869338 -0.24283926 0.1082366 -0.1079677 0.21661751 0.012046375
输入 -0.30619466 -0.30453825 -0.03856635 0.11240948 0.13921462 -0.12017643 -0.24537095 0.047104675 -0.1669057 0.14065383 0.3452261 -0.01741844 -0.27820024 0.07958063 0.25654763 0.029361088 -0.37923557 -0.26535782 -0.008969588 0.30663297 0.21907443 -0.037916396 0.06682677 0.020069875 0.07903741 -0.12077318 0.29026484 0.10715058 -0.07025697 0.009312719 0.03302796 -0.029301597 -0.044589743 0.17192233 0.07695576 -0.31576142 -0.11285408 0.06713278 -0.13405345 -0.32953802 0.48295727 -0.12012725 -0.01458054 0.055121273 -0.24126178 0.11405187 0.1691026 -0.1877864 0.078340754 0.1793741 -0.04020113 -0.22588119 -0.013307027 0.13006067 0.2725016 0.3137846 -0.15797618 -0.24076898 -0.060752243 -0.07600139 0.12987266 -0.17325604 0.010846541 0.130216 0.06087857 -0.15601079 0.14727738 -0.20489413 -0.03186583 -0.122620426 -0.09225059 -0.11459963 0.19866934 0.13381095 0.20717697 0.2351577 -0.23099503 0.04316324 -0.13215758 0.19570178 -0.009589063 0.0027871823 -0.33824417 0.1053311 -0.023909006 0.22053991 -0.12980603 -0.12732312 -0.01388028 -0.15161403 -0.2429043 -0.08397111 0.09439551 0.01609639 -0.10736931 -0.07968459 0.011012429 0.2577993 0.17737469 0.2007703 0.04858607 0.12389643 0.08726979 -0.11772812 0.05771971 0.1168603 0.15723573 0.07784845 0.07952803 -0.16535787 0.07855398 0.03780113 -0.07264401 0.096415445 0.14528497 0.29882532 0.14966048 0.24439964 -0.12706363 0.040523157 -0.06366842 -0.064088754 -0.28821746 -0.13937958 -0.012849113 -0.08566605 -0.111221395 0.08696669 0.15134838 0.05254641 0.021522189 -0.25008035 -0.23967078 -0.20411138 0.09445788 0.021705875 -0.18442056 -0.14319368 0.19019374 0.0607327 0.3888218 0.15567817 0.00896913 0.13485283 0.16607645 0.20932911 -0.06592823 -0.011330605 -0.21030112 -0.08205899 0.05220838 0.06646356 -0.026592877 0.15574943 0.08931827 0.104431614 -0.011103071 0.17449723 0.018810198 0.02941491 0.0029468522 0.38560635 -0.23401566 0.08117351 -0.041018404 -0.05741855 -0.043201115 0.29524472 -0.01998371 0.024298614 0.029360633 -0.07399899 0.018185021 -0.22322331 -0.1900252 0.077615336 -0.116346635 0.08356138 -0.29396138 0.018040715 -0.1875885 -0.2323094 0.14459683 0.12744589 -0.28808942 0.2336165 0.20413977 0.3243033 0.06754267 -0.18613093 -0.033029042 -0.04781234 0.05766496 -0.008961764 0.10090066 0.1604464 0.017778832 -0.0850161 0.24780563 -0.25100547 0.032749318 0.041962594 -0.17068061 -0.0705195 -0.05456709 -0.07389489 0.009030912 -0.23955011 -0.09889813 0.06170056 0.23483287 0.114274226 -0.17096576 0.322395 -0.033812355 0.24218011 -0.2782787 0.01628145 -0.15924354 0.15716477 -0.2348596 0.07984281 -0.09470176 0.13241613 0.18219672 0.012881534 0.024475213 -0.11505017 -0.23023283 0.2296636 0.05562648 0.18397945 0.1715282 0.12267819 -0.0030996338 0.20979056 0.053632554 -0.029435065 0.15296099 -0.20523603 0.15233679 -0.1106377 0.055566303 -0.16731398 0.068023294 -0.15601708 0.115903504 0.12978828 -0.22871181 -0.062339347 0.27900875 -0.30273244 0.021235136 0.045741938 0.04328989 -0.27731845 -0.1179537 -0.0022878672 0.18761992 0.09245145 0.4618197 0.15209584 -0.16710402 0.040012244 0.081660524 0.0974649 0.22167581 -0.078489386 -0.15424733 0.012715603 -0.004181129 0.032658953 0.13246536 0.31277853 -0.30755123 -0.28216836 0.20509744 0.036131717 0.09443678 -0.043543346 -4.419482e-05 -0.21305972 -0.11271482 -0.10164774 -0.037987374 0.054556403 0.18782543 0.030438883 0.044436242 -0.049860597 0.05243516 0.34671474 0.14225434 -0.24412876 -0.20947029 -0.24748288 0.08853662 -0.12794629 0.2421889 0.025355477
显示 -0.26138997 -0.26346913 -0.055282313 0.100617275 0.15467794 -0.074541315 -0.24205051 0.062025666 -0.18595712 0.13238344 0.26041096 -0.03460518 -0.19630006 0.081337176 0.19698931 0.048315965 -0.38384625 -0.21462727 -0.0063474816 0.24782765 0.2248087 -0.03499099 0.08802534 -0.02732238 0.0836764 -0.06145693 0.26176932 0.096226305 -0.0479547 0.01583404 0.03958074 -0.03435629 -0.13258675 0.2083005 0.105318114 -0.24684234 -0.12337837 0.07443869 -0.09961817 -0.32854882 0.3764963 -0.11012448 -0.06492532 0.020930974 -0.21741848 0.15540957 0.17630303 -0.14985025 0.027059192 0.09135046 -0.0056657544 -0.24008486 -0.052787386 0.10219742 0.28712302 0.36162734 -0.11174023 -0.21675001 -0.06620762 -0.04134248 0.12502345 -0.12739414 0.022217466 0.10880254 0.050255667 -0.16009007 0.108728305 -0.19057263 -0.043076247 -0.0869509 -0.04324202 -0.12342073 0.16505611 0.12004696 0.17532068 0.23008326 -0.19583659 -0.001577698 -0.107672 0.16502734 0.021284502 -0.0051015923 -0.2974658 0.12415588 -0.012848603 0.22639844 -0.11513563 -0.10174594 0.05982229 -0.16695093 -0.24737747 -0.024086291 0.083028935 0.015041191 -0.10935276 -0.12663895 0.035143983 0.24784498 0.17312121 0.16730586 0.06022873 0.09631499 0.07047459 -0.12087231 0.05306056 0.09738671 0.18575835 0.08751852 0.06203951 -0.16171531 0.06923116 0.05185985 -0.09315324 0.09138378 0.03767822 0.27360615 0.20530108 0.25891054 -0.1393621 0.06362829 -0.054308042 -0.04212546 -0.3235001 -0.11455912 -0.043057177 -0.10479035 -0.12781665 0.051647864 0.1052498 0.03540096 0.016980603 -0.2934506 -0.24941222 -0.23703448 0.07969503 -0.03101989 -0.17704798 -0.1428943 0.18812037 -0.013680792 0.36431745 0.19526456 0.025702557 0.0988485 0.12795821 0.17955936 -0.099018894 0.025619652 -0.15580446 0.03263798 0.029573731 0.062358413 0.013518075 0.10999232 0.14510575 0.11380632 -0.015484441 0.13556293 0.030865304 0.003129371 0.023483127 0.3375323 -0.20646319 0.060709365 -0.06976754 -0.033815615 -0.040913787 0.2820754 -0.019709865 -0.05356657 0.029765464 -0.015297633 0.021322789 -0.21770379 -0.1327941 0.08972569 -0.19919841 0.052526083 -0.26121053 0.014324759 -0.1902817 -0.2053339 0.13694328 0.15315717 -0.25094774 0.20461315 0.16137569 0.34642205 0.06143686 -0.20098107 -0.03854561 0.007998873 0.0040833545 0.0066383434 0.12500271 0.19794184 0.01154004 -0.077695414 0.26405635 -0.2281948 0.088426806 0.065575816 -0.20284127 -0.02536409 -0.046955504 -0.074607536 0.013968354 -0.27293354 -0.058366407 0.008329229 0.2628426 0.089113235 -0.16533935 0.2515762 -0.08281656 0.23484139 -0.2719608 0.09839346 -0.15608129 0.16327034 -0.22112851 0.07893459 -0.11554027 0.10797153 0.18489073 0.05073888 -0.013837461 -0.091265835 -0.21104524 0.24283156 0.05531708 0.20373471 0.12005081 0.078125015 0.0013457858 0.14071433 0.0339973 0.0084328605 0.17614506 -0.1750025 0.19187187 -0.15883322 0.11160393 -0.20438185 0.08542209 -0.1183166 0.1709778 0.111110926 -0.23148319 -0.053639513 0.22665602 -0.33478567 -0.007205317 -0.026185777 0.10082524 -0.29417753 -0.19099501 -0.03741237 0.16907775 0.08326411 0.48466662 0.09447831 -0.21788788 0.054112893 0.068399124 0.090606056 0.24326172 -0.027364762 -0.15089609 -0.020496896 -0.034883883 -0.016131662 0.13202156 0.29827008 -0.2725795 -0.28017923 0.23011164 0.06937552 0.10952222 -0.06517279 0.0064482284 -0.15671404 -0.12049094 -0.1616019 0.0089089805 0.05564668 0.21463214 -0.028491559 0.033841163 -0.0317694 0.023546834 0.30764988 0.17206313 -0.2140887 -0.1916662 -0.2841947 0.124721095 -0.11939152 0.26324347 -0.024256764
打开 -0.25872535 -0.27483496 -0.06353455 0.09804937 0.15290837 -0.07356151 -0.24824364 0.06861331 -0.19562761 0.13293444 0.263125 -0.030404935 -0.21131766 0.08637801 0.1964103 0.05990599 -0.3813245 -0.22660477 -0.0013054551 0.26089975 0.23255076 -0.03774473 0.0956805 -0.024621762 0.07717429 -0.06611017 0.26570737 0.09632464 -0.04864839 0.020679561 0.029322209 -0.034861807 -0.1165185 0.21189782 0.102020465 -0.25297084 -0.12738273 0.077273674 -0.11007265 -0.33695662 0.4015647 -0.11629793 -0.06466419 0.028234303 -0.21654965 0.15061429 0.17974967 -0.151259 0.028068729 0.09380415 -0.0069391746 -0.23680423 -0.046631165 0.10071604 0.29177043 0.3670693 -0.11959822 -0.2205131 -0.06750121 -0.039613664 0.12575763 -0.13507394 0.023547675 0.10628827 0.05844198 -0.16597776 0.109658785 -0.18895817 -0.042280454 -0.10212479 -0.0424838 -0.13427223 0.16935891 0.1237617 0.17994732 0.23430835 -0.19160786 -0.003123955 -0.11210113 0.15919147 0.016173474 -0.006430202 -0.3003201 0.12693349 -0.009444138 0.23684362 -0.12789063 -0.10059145 0.059578713 -0.16888754 -0.26228622 -0.024022654 0.08439508 0.011968603 -0.107591435 -0.11612217 0.026088977 0.254666 0.16919942 0.16467164 0.06256133 0.10227942 0.062505916 -0.1267065 0.049474 0.08723353 0.19232386 0.087575205 0.05901206 -0.16544142 0.066359006 0.060255375 -0.090639636 0.09820516 0.048218545 0.27734154 0.20094495 0.2614841 -0.14275707 0.06390895 -0.05194066 -0.051385306 -0.32577914 -0.116406806 -0.03170275 -0.098570965 -0.1299963 0.046370164 0.09591845 0.040196348 0.019817593 -0.29675573 -0.25727105 -0.24806526 0.08165839 -0.03377496 -0.18444881 -0.15493616 0.18571445 -0.016264742 0.36517784 0.20459703 0.017571226 0.105559506 0.13544299 0.17953357 -0.09503116 0.033607304 -0.15376525 0.031026995 0.020370707 0.062109888 0.019172508 0.122017354 0.14358841 0.114445865 -0.009805557 0.13933659 0.041510146 0.0020108505 0.021594735 0.34670871 -0.20993303 0.051665116 -0.076912284 -0.042495623 -0.041849595 0.28396896 -0.025891723 -0.04879506 0.040942527 -0.020695694 0.008375001 -0.22753023 -0.13691652 0.10056931 -0.19281764 0.049742926 -0.26763847 0.010352608 -0.19838889 -0.21825492 0.13734911 0.15254861 -0.2515665 0.21153493 0.16797258 0.35944766 0.06439805 -0.20963712 -0.036728114 -0.00058975845 0.004048557 0.001760013 0.12297463 0.20014784 0.008197104 -0.07529425 0.26671913 -0.23643474 0.08285405 0.08459375 -0.21177378 -0.027128775 -0.041949883 -0.09276695 0.014025195 -0.2841796 -0.057073656 0.01168882 0.2720656 0.09598921 -0.1634912 0.25209585 -0.070842005 0.24290882 -0.2705886 0.108447246 -0.15927808 0.16292633 -0.22499785 0.08562926 -0.11929432 0.118481755 0.19450054 0.047106437 -0.015926555 -0.10318351 -0.21250291 0.24624872 0.05336973 0.20052189 0.12306537 0.07474683 0.0016011681 0.15042321 0.02555813 0.0063759135 0.18307503 -0.18522662 0.19503857 -0.16099691 0.118107684 -0.20534237 0.09029615 -0.118878536 0.17622288 0.11735085 -0.23078012 -0.06239644 0.23700501 -0.3290068 -0.004170188 -0.016749766 0.10048442 -0.304297 -0.19695394 -0.030016383 0.18430722 0.081383474 0.49648872 0.09458928 -0.21609236 0.063343056 0.060861584 0.09611506 0.25430372 -0.02892118 -0.15659823 -0.029892894 -0.030218692 -0.012505002 0.13558291 0.30835497 -0.2817764 -0.30140054 0.24389106 0.074819334 0.119979 -0.06971795 0.016289705 -0.15032917 -0.13232094 -0.15531743 0.00869725 0.049102336 0.21847725 -0.038161222 0.039356574 -0.030602613 0.030207956 0.30523252 0.16912341 -0.21972208 -0.18576111 -0.28076485 0.1288038 -0.12583078 0.27253535 -0.023353199
活动 -0.2611628 -0.2500911 -0.041519564 0.12782948 0.139058 -0.07016563 -0.22521055 0.06205387 -0.18734522 0.11378079 0.21594925 -0.05665794 -0.19515169 0.010170296 0.18699025 0.062358994 -0.38018274 -0.20765127 0.02194542 0.2500447 0.14694396 -0.042701848 0.08499118 -0.025488814 0.053148206 -0.09180683 0.26561797 0.0765231 -0.043238275 -0.01729626 0.0375222 -0.036997285 -0.10996925 0.15650213 0.091352664 -0.25134417 -0.09810538 0.08368702 -0.11155523 -0.27500212 0.31813768 -0.14356123 -0.07642349 0.02141604 -0.22282013 0.16228236 0.20228781 -0.18293081 -0.010073648 0.08749823 -0.025808062 -0.20059772 -0.02187468 0.10694982 0.27550054 0.3414511 -0.13443013 -0.18904912 -0.016970407 -0.04859451 0.1584657 -0.10829787 -0.0090122735 0.14409716 0.054436557 -0.15643944 0.094777524 -0.17635319 -0.05311664 -0.07082533 2.3287828e-05 -0.13437127 0.1354608 0.10914479 0.16410497 0.15822987 -0.17506523 -0.016575871 -0.10802227 0.1633173 0.008377726 -0.015827404 -0.3356522 0.13801177 -0.019049864 0.176283 -0.10742183 -0.090161845 0.09365577 -0.1595933 -0.25241253 -0.028174404 0.031316422 0.038045198 -0.10986614 -0.16566764 0.05946137 0.20529275 0.17024331 0.19384003 0.09296784 0.07772137 0.079197 -0.1478365 0.03739337 0.081554435 0.16726676 0.05324109 0.06433452 -0.1538732 0.07366918 0.04717526 -0.09114779 0.05663525 0.016848268 0.19897296 0.15774857 0.24445081 -0.19589728 0.050648924 -0.05091201 -0.053375695 -0.31048217 -0.12966605 -0.061898876 -0.11150631 -0.10892278 0.049651783 0.10783133 0.07419342 0.04334218 -0.31646028 -0.25455484 -0.19387317 0.07784397 -0.032158058 -0.18843663 -0.13025153 0.18120071 -0.061791215 0.35759234 0.14522825 0.013691606 0.06348022 0.114205554 0.17641103 -0.09080065 0.03909255 -0.14115399 0.03400927 -0.009833198 0.06518852 0.0005912854 0.090920605 0.15043177 0.1185188 -0.010016982 0.10159064 0.020921012 -0.031177929 0.023163736 0.322591 -0.19119684 0.07334112 -0.051694978 -0.029062659 -0.060325477 0.28312695 -0.029600063 -0.05182392 0.021907274 0.043291025 0.028483234 -0.15172233 -0.12066255 0.03991172 -0.22396041 0.051452402 -0.22065298 0.051326506 -0.20453501 -0.19924319 0.12451243 0.109036416 -0.20603417 0.1587484 0.16780846 0.32912558 0.025229413 -0.14735599 -0.04079621 0.016284935 -0.022744194 0.0028866038 0.10304469 0.16602421 0.013355506 -0.07553172 0.23877393 -0.23061447 0.08209038 0.06259959 -0.19381091 0.01581996 -0.075361595 -0.09713274 0.013215074 -0.22949532 -0.08659088 0.009469929 0.24587643 0.0736362 -0.13229623 0.23310581 -0.09297432 0.26162168 -0.24580982 0.09618529 -0.09852745 0.13059725 -0.15399383 0.04890412 -0.113248676 0.11433634 0.18210547 0.03744181 0.0032566257 -0.084486075 -0.18617307 0.19545558 0.05047333 0.136673 0.092928186 0.056609258 0.040398847 0.15650086 0.049604416 0.029520774 0.17595829 -0.1675604 0.14686583 -0.12443177 0.12818412 -0.19681491 0.064574964 -0.08940701 0.1577525 0.07613398 -0.26699725 -0.08637217 0.22679088 -0.3114501 -0.013782463 -0.034601368 0.05718735 -0.33663294 -0.17757317 0.009582871 0.18790907 0.0399995 0.42135274 0.11754934 -0.2600276 0.041374285 0.08693487 0.11563851 0.2406466 -0.052338224 -0.14663963 -0.01380118 -0.025135048 -0.006042911 0.13778032 0.33348277 -0.31087583 -0.26908007 0.21712478 0.07954107 0.13941745 -0.06870044 0.0102298735 -0.17361844 -0.11932385 -0.17706463 0.059084203 0.105380505 0.18756361 -0.028355516 0.015371213 -0.06793316 0.06026449 0.33937585 0.19715123 -0.1991555 -0.20686801 -0.2777735 0.12361453 -0.09170498 0.23940194 -0.033990253
分享 -0.2399377 -0.255653 -0.062438514 0.12786129 0.16387093 -0.054547112 -0.24435575 0.080626145 -0.21243946 0.1114336 0.16698232 -0.08692885 -0.17814898 -0.0030133207 0.18511242 0.07838005 -0.4111707 -0.18783925 0.014890582 0.23168929 0.13477513 -0.040671702 0.12785327 -0.04952559 0.052353043 -0.06112524 0.2860716 0.043268688 -0.044321902 -0.019633057 0.03304931 -0.04045201 -0.1667586 0.16834168 0.11654282 -0.22971097 -0.07051055 0.08288821 -0.12554368 -0.2816351 0.25333947 -0.14820161 -0.13235226 0.016234439 -0.24070537 0.21880598 0.2077215 -0.19656977 -0.03825593 0.032512397 0.0061813607 -0.20784095 -0.08787188 0.1132815 0.2929979 0.38293487 -0.14197834 -0.20275432 -0.033656754 -0.048625145 0.20000651 -0.06732979 -0.036776338 0.17222735 0.024870222 -0.1517043 0.080837294 -0.17209715 -0.08801945 -0.043295298 0.047765937 -0.15733585 0.111402296 0.12348861 0.16107154 0.14295696 -0.16489212 -0.034638174 -0.08862125 0.14533107 0.015521941 -0.0355456 -0.33996525 0.16939496 -0.012724985 0.1714747 -0.118783735 -0.07858348 0.13299936 -0.19182442 -0.25092041 0.0005283761 0.013734336 0.07434835 -0.107668795 -0.2162296 0.07905957 0.21108991 0.18419607 0.20490284 0.13846658 0.07397333 0.07137133 -0.1743119 0.003303433 0.065538175 0.16934432 0.056285266 0.0661567 -0.17710258 0.06512798 0.05286908 -0.09919576 0.04877097 -0.06705573 0.19548117 0.19381939 0.2583053 -0.23733193 0.093433544 -0.05756376 -0.068084925 -0.3357353 -0.12939611 -0.084761366 -0.106153905 -0.1424907 0.033369426 0.089226 0.08783197 0.055082146 -0.37667167 -0.2689666 -0.23084441 0.056592256 -0.05516688 -0.20497836 -0.13027187 0.19631079 -0.11972459 0.35340866 0.17402127 0.027415974 0.037249643 0.10203534 0.17798316 -0.11350809 0.0761133 -0.124304354 0.09538773 -0.026222983 0.07111008 0.020482155 0.051994376 0.17146747 0.12848578 -0.0133633455 0.06794141 0.002577272 -0.057920236 0.030167915 0.30690974 -0.1454769 0.10793425 -0.045369722 0.011291055 -0.05547259 0.31450158 -0.022245668 -0.1000793 0.021773951 0.11333263 0.023593538 -0.14171799 -0.08254965 0.025495876 -0.30564073 0.048616175 -0.20301038 0.073677786 -0.22914164 -0.1773519 0.11496243 0.10667792 -0.20010519 0.12011505 0.1522542 0.36166066 0.020153457 -0.14980535 -0.05770485 0.02885065 -0.04277528 -0.0067129643 0.12420536 0.17559175 0.025261518 -0.07401755 0.24763757 -0.24631713 0.11132646 0.06883473 -0.23607385 0.0798149 -0.09125661 -0.106444545 0.0018739278 -0.25263304 -0.08262875 -0.01439977 0.26022503 0.029126903 -0.10952514 0.18215059 -0.117753945 0.26516205 -0.24752294 0.1284474 -0.10646297 0.12748772 -0.15626435 0.025996363 -0.119398855 0.07107022 0.16154993 0.07353176 -0.01444089 -0.08330773 -0.16286993 0.200448 0.039722484 0.12357856 0.0854524 0.016107216 0.046691626 0.12641864 0.036299985 0.026935043 0.17675735 -0.1399451 0.15718718 -0.14491001 0.17087656 -0.23522682 0.060728066 -0.05738416 0.18690756 0.07616931 -0.29269925 -0.1007253 0.1896752 -0.3208811 -0.021164376 -0.09544894 0.0656148 -0.3851923 -0.18877444 -0.007682925 0.16514489 0.03131946 0.43408167 0.0950802 -0.30818352 0.045765903 0.09195559 0.10443814 0.26480174 -0.022498308 -0.1340373 -0.0012692526 -0.03190146 -0.031129591 0.1454972 0.36719188 -0.3098498 -0.265755 0.20993564 0.104732245 0.16545855 -0.10243191 -0.0032979664 -0.18592046 -0.11974121 -0.22527196 0.08691513 0.11609028 0.20231047 -0.05179899 -0.034995306 -0.06813388 0.062404934 0.33295414 0.25240156 -0.18476182 -0.18237996 -0.31011137 0.15116318 -0.08492058 0.22177917 -0.0597362
功能 -0.2508411 -0.26905718 -0.055776265 0.08948122 0.15201508 -0.0874093 -0.23297244 0.051198725 -0.1717969 0.12072996 0.28368223 -0.021572692 -0.22452639 0.08988948 0.2117671 0.046486568 -0.3635111 -0.2311775 -0.008248397 0.2644728 0.21610914 -0.031526804 0.083380654 -0.004958299 0.0751883 -0.07443866 0.25749204 0.08713349 -0.05381063 0.013739066 0.03220211 -0.023330081 -0.08368575 0.18962368 0.08760303 -0.2580435 -0.10928939 0.07186326 -0.12917028 -0.3043719 0.3956315 -0.11254644 -0.05074745 0.023236591 -0.21757908 0.13881056 0.1714036 -0.16210209 0.045526575 0.11995538 -0.013000601 -0.22067435 -0.027928548 0.11506437 0.27242374 0.33137533 -0.13773586 -0.2067089 -0.06244733 -0.0486391 0.13653424 -0.14725684 0.018910771 0.10515162 0.057527233 -0.147938 0.12221514 -0.19447576 -0.046389505 -0.106722094 -0.053700797 -0.11435986 0.17734589 0.120078474 0.17660145 0.20824978 -0.19211572 0.018113565 -0.116072975 0.15963182 0.006979501 -0.010742816 -0.2972405 0.11922724 -0.02334253 0.20850234 -0.10529977 -0.10594941 0.034863904 -0.15507613 -0.23600364 -0.041711144 0.08461081 0.02550601 -0.10497262 -0.10107813 0.027070142 0.23474175 0.1704965 0.17239553 0.06235506 0.11103042 0.07387367 -0.11887209 0.041613203 0.08796662 0.1679759 0.08155228 0.06714205 -0.15950412 0.050551936 0.049476948 -0.07332194 0.08467262 0.070763886 0.26360565 0.1801766 0.24115075 -0.12815316 0.06260381 -0.06472861 -0.058147334 -0.28530174 -0.11531067 -0.032961573 -0.093384944 -0.11037267 0.065978125 0.114130355 0.04123197 0.014245902 -0.25566792 -0.23315904 -0.21127453 0.07453378 -0.011237781 -0.16297935 -0.13496691 0.17808586 0.0052501787 0.35406014 0.1800651 0.022854347 0.11102146 0.13648783 0.1661469 -0.077833705 0.0156074315 -0.17039904 -0.014933401 0.029813185 0.065041654 -0.011365967 0.120655045 0.10834581 0.10585652 -0.011543449 0.1405677 0.01635498 0.01096148 0.016031241 0.32804564 -0.19955495 0.06553229 -0.05470835 -0.047374025 -0.040337212 0.2804978 -0.022288114 -0.009320097 0.03183588 -0.03901886 0.008808651 -0.2068788 -0.14483126 0.08098634 -0.16670242 0.056998536 -0.25994498 0.019937443 -0.17777793 -0.19721536 0.13293386 0.124211475 -0.24590813 0.1942946 0.1656314 0.32248357 0.06294722 -0.19019607 -0.044949215 -0.014312911 0.016212279 -0.002434059 0.10793205 0.17294876 0.021077078 -0.0734024 0.2382162 -0.22155316 0.061672267 0.06826807 -0.18496291 -0.035936538 -0.044665445 -0.08661552 0.023000821 -0.24377935 -0.07773982 0.032832142 0.24164242 0.08960481 -0.15464148 0.25169453 -0.05466421 0.22520551 -0.26841685 0.06927662 -0.14564878 0.15642613 -0.21631362 0.077898435 -0.108897515 0.11103509 0.17817464 0.039280478 0.00046409314 -0.0952939 -0.19579315 0.22594872 0.05151111 0.1713063 0.1339742 0.095984146 -0.0037418187 0.16095898 0.02769491 -0.0050021843 0.16366947 -0.17823857 0.15757129 -0.14162686 0.092356674 -0.17985734 0.06567409 -0.12068246 0.14160082 0.12080912 -0.2236791 -0.06213558 0.23372757 -0.30242142 0.011090805 -0.000947564 0.07970943 -0.2844081 -0.15024099 -0.02203358 0.16629396 0.09067138 0.4454281 0.11025299 -0.19064274 0.057410985 0.069337614 0.08702391 0.22730334 -0.03842841 -0.14802308 -0.009324047 -0.014918262 -0.003325216 0.13360986 0.29342794 -0.26973763 -0.2699924 0.214823 0.055423725 0.10554256 -0.06397003 0.006733154 -0.17096454 -0.12070912 -0.12990654 -0.010150424 0.0528831 0.18799652 -0.0038074953 0.036317218 -0.043149795 0.036726844 0.30943877 0.15478028 -0.20972277 -0.16545975 -0.24743748 0.10824224 -0.11212377 0.23659189 0.004531683
探索 -0.19605727 -0.239492 -0.05695367 0.039267372 0.14151824 -0.12047349 -0.1963955 0.0024380716 -0.10191699 0.0884505 0.30083698 0.017228099 -0.19405317 0.17289963 0.23806557 -0.015321594 -0.3029463 -0.1965059 -0.04717895 0.21224883 0.25336158 -0.00266418 0.047516502 0.0008433664 0.088458896 -0.00433172 0.21149091 0.06443139 -0.05994747 0.046274 0.020428948 -0.0069333087 -0.059204422 0.21237014 0.08263171 -0.20047143 -0.0535444 0.028035972 -0.1677534 -0.27317175 0.35830238 -0.05910465 -0.023641491 0.004469005 -0.16493215 0.13126458 0.091626234 -0.1439932 0.07802514 0.1383264 0.019909693 -0.20078212 -0.06852989 0.1432352 0.2514693 0.26731423 -0.1402779 -0.19256796 -0.10147552 -0.042541742 0.13171315 -0.20679171 -0.0008465017 0.06704661 0.020667316 -0.07362503 0.13645764 -0.19604987 -0.068830326 -0.12814623 -0.061111253 -0.062293224 0.19618553 0.10770722 0.17951594 0.18370667 -0.18027075 0.08808762 -0.11263218 0.12244792 -0.0024651173 -0.010309272 -0.18975006 0.113111176 -0.039727222 0.17567797 -0.062090836 -0.12464007 -0.016931988 -0.12086236 -0.16577215 -0.030570757 0.102794215 0.06407452 -0.095493086 -0.042552434 -0.019101312 0.22131395 0.12614992 0.14731562 0.050542437 0.109714195 0.10284834 -0.07963696 0.040848136 0.07490987 0.12454305 0.09629814 0.076672345 -0.14748774 -0.008071956 0.0023313859 0.010874372 0.05807697 0.09938371 0.29313907 0.17835958 0.16678345 -0.05512526 0.09844121 -0.12306392 -0.037791185 -0.19253553 -0.068505675 -0.00355103 -0.08207217 -0.10409418 0.097289875 0.12786867 0.014489317 -0.036398035 -0.1162569 -0.13423309 -0.15665774 0.028915092 0.048251785 -0.0826759 -0.061876465 0.15046011 0.062454723 0.2844272 0.1762109 0.06501728 0.11026158 0.12440884 0.11968139 -0.0485586 -0.009842572 -0.17980616 -0.036273763 0.0744385 0.06781885 -0.045992088 0.07892429 -0.011131123 0.04192919 -0.020192472 0.14368367 -0.036252085 0.03898186 0.017962316 0.24288794 -0.1376198 0.082827084 -0.026812589 -0.027584083 0.023416407 0.24967188 -0.0028066286 0.024344884 0.056935247 -0.098350644 0.048639163 -0.17969063 -0.14144619 0.054894656 -0.0995672 0.0636691 -0.20137887 0.012713088 -0.10348809 -0.12255367 0.12314352 0.09111277 -0.23893565 0.15094398 0.10794947 0.24962094 0.07751532 -0.17999527 -0.08128203 -0.042476717 0.017913694 0.005624918 0.07402898 0.118120566 0.07871321 -0.042356614 0.14518441 -0.16538191 0.009145203 0.030069226 -0.13431542 -0.07247933 -0.017460726 -0.0475449 0.04162799 -0.16984095 -0.07692915 0.06541951 0.17191808 0.027168829 -0.14851627 0.20847471 0.002506385 0.13736501 -0.27628198 0.0067878393 -0.14186499 0.16306722 -0.23963766 0.06921611 -0.056063354 0.06019038 0.09915299 0.057385344 0.0020728924 -0.07207255 -0.15984115 0.20480888 0.006442092 0.14637989 0.17206264 0.16505066 -0.025748208 0.1340011 0.024392849 -0.06933821 0.11971209 -0.10123394 0.12764986 -0.11228728 0.018201161 -0.121746205 0.0036327634 -0.14546311 0.06331417 0.13321386 -0.18644463 -0.037806265 0.1704748 -0.25160384 0.03781549 0.01030996 0.07166677 -0.20783158 -0.06767168 -0.07536385 0.0663107 0.1590019 0.3463073 0.09494465 -0.12637745 0.04332479 0.046231754 0.019906715 0.16808482 0.030996393 -0.103797905 0.022866908 0.00088334084 -0.027276946 0.081616096 0.22551025 -0.15405692 -0.18523455 0.12661648 0.035295084 0.041645657 -0.015113599 -0.003776031 -0.22504981 -0.087760404 -0.07692612 -0.07122673 0.009215898 0.11401774 0.031650994 0.018558403 -0.044642936 -0.0010282029 0.2394606 0.114236295 -0.14194731 -0.073225595 -0.17723389 0.060832117 -0.07642175 0.13426726 0.09197635
提示 -0.27059698 -0.2655096 -0.059580423 0.104101926 0.1444148 -0.07214489 -0.22473568 0.06456234 -0.19248524 0.12441457 0.27095357 -0.027836835 -0.22330695 0.059512205 0.19378793 0.059320476 -0.36409917 -0.23386998 0.007245096 0.27524105 0.20556298 -0.041808795 0.103085876 -0.0008674706 0.0683966 -0.09232041 0.26250842 0.09993972 -0.060536113 0.0072862743 0.024709845 -0.040160388 -0.09895019 0.19233356 0.09183652 -0.26562485 -0.1284671 0.07307316 -0.11194171 -0.322989 0.40203613 -0.12119582 -0.060290825 0.03201799 -0.22602354 0.13729632 0.18086557 -0.1640303 0.04410541 0.100439094 -0.024026098 -0.24010742 -0.01900947 0.102528706 0.26696807 0.34261608 -0.12332927 -0.21835196 -0.06365264 -0.04974513 0.121769115 -0.11517534 0.021472368 0.115973644 0.06644835 -0.1735442 0.12223609 -0.18038858 -0.0450487 -0.08849007 -0.061503343 -0.1341984 0.15821573 0.1232788 0.17652452 0.21925406 -0.19247942 -0.014132637 -0.10582652 0.16888987 0.015046459 -0.007700612 -0.31017783 0.106331564 -0.00711378 0.2267244 -0.110196024 -0.10420175 0.053589586 -0.16529892 -0.24137896 -0.042033684 0.07406493 0.0047824457 -0.10854575 -0.106979325 0.03717989 0.23617828 0.1754904 0.16331956 0.060231805 0.10085307 0.05816645 -0.12525162 0.045414604 0.09101816 0.18083577 0.08089133 0.06487742 -0.15125914 0.06664083 0.057254996 -0.094553694 0.09389898 0.06666495 0.2542857 0.17757112 0.25093383 -0.14405893 0.0521714 -0.037462868 -0.05868608 -0.3040369 -0.1331011 -0.04227747 -0.09020625 -0.103205234 0.055734858 0.10200312 0.04219223 0.030756362 -0.28609148 -0.25323063 -0.23064984 0.08397658 -0.025417645 -0.19473925 -0.15853883 0.17894758 -0.009542515 0.35665852 0.19254604 0.011181408 0.110073335 0.14649954 0.17768744 -0.08526378 0.024075625 -0.16396748 -0.011468706 0.017002981 0.04884015 0.0019941037 0.13411504 0.14290684 0.11131072 -0.009401443 0.13557053 0.031909365 0.0029200565 0.018508242 0.34538054 -0.21354125 0.053479295 -0.06035397 -0.050254166 -0.049730986 0.28101972 -0.020799706 -0.023412298 0.026977114 -0.02660959 -0.0007038438 -0.21932843 -0.13919745 0.098409005 -0.17867051 0.056479894 -0.2655234 0.009383391 -0.19821589 -0.20725156 0.13551591 0.14293073 -0.24771781 0.21106566 0.17561607 0.3394416 0.067925766 -0.20251574 -0.030461293 0.0007181404 0.01878866 0.0031253032 0.12471652 0.19048437 -0.0018514806 -0.09103943 0.27426007 -0.2225238 0.07166319 0.06691953 -0.20418061 -0.036490466 -0.054974955 -0.09054454 0.0041815727 -0.27054796 -0.057859186 0.014511158 0.2665519 0.10602327 -0.1619268 0.26389632 -0.07151784 0.2504974 -0.24709387 0.08709317 -0.15292299 0.1521634 -0.20906714 0.07371372 -0.11167914 0.11926159 0.20390904 0.026026418 -0.007368805 -0.11222775 -0.213145 0.23357818 0.05598445 0.18687251 0.11902469 0.06439596 0.0032378803 0.15963556 0.030524788 0.006123291 0.16579494 -0.18973023 0.18121158 -0.14370589 0.10202234 -0.19149669 0.088251844 -0.11746769 0.16718936 0.116671935 -0.22607154 -0.063560575 0.2385309 -0.30389592 0.0011941938 -0.00025604357 0.08937127 -0.29020435 -0.17971177 -0.016757123 0.18551315 0.072408795 0.47134745 0.10518759 -0.20028715 0.048865587 0.06846256 0.09639865 0.23809376 -0.051078655 -0.15271074 -0.018292768 -0.024998456 0.014275209 0.14015178 0.3111094 -0.296613 -0.2932019 0.22598554 0.06186961 0.11168127 -0.072325565 0.010388495 -0.15065159 -0.12460588 -0.14445613 0.005932863 0.05769892 0.21884926 -0.016538728 0.03809005 -0.03600649 0.045073356 0.31105116 0.14974788 -0.22261572 -0.200686 -0.25637293 0.120677024 -0.12817004 0.26687396 -0.02288867
返回 -0.22650385 -0.23651907 -0.06316041 0.07290281 0.14622894 -0.039066695 -0.22934055 0.06985368 -0.18432006 0.13643306 0.21386746 -0.02527855 -0.15354942 0.073363364 0.1512678 0.049781073 -0.34588575 -0.17634223 -0.011532353 0.18773147 0.22771147 -0.026322931 0.1003392 -0.03239261 0.06891841 -0.036363687 0.22904497 0.09023675 -0.026977237 0.02274246 0.03341117 -0.03875937 -0.14808834 0.21097085 0.12169059 -0.20792517 -0.11185735 0.07065132 -0.062674165 -0.32373762 0.3141987 -0.10255808 -0.08029973 0.0200212 -0.19327858 0.15834528 0.1571682 -0.10118035 0.0041381055 0.04411852 0.013830181 -0.21886553 -0.07818498 0.08154612 0.27354538 0.3529367 -0.08539463 -0.19909368 -0.08235749 -0.011095494 0.11136231 -0.09747708 0.018444985 0.100088306 0.042399336 -0.12945488 0.086021826 -0.1682192 -0.030792344 -0.05836773 -0.019092666 -0.11828148 0.12153874 0.10475762 0.13937739 0.24235468 -0.16679102 -0.021023879 -0.08305922 0.1298148 0.02417364 -0.01593429 -0.2538639 0.12705529 0.0071843686 0.22398193 -0.118803054 -0.07746019 0.08511272 -0.15018171 -0.2286692 0.0016943 0.072146714 0.0050967056 -0.10018395 -0.122547425 0.02467963 0.24134552 0.15738736 0.13140884 0.042205073 0.074331455 0.047840174 -0.11621091 0.05116866 0.08830954 0.17593989 0.08583596 0.043230224 -0.14511293 0.0702766 0.06694123 -0.08666922 0.0947542 -0.0018189979 0.2426562 0.20779917 0.23836474 -0.1172424 0.07635118 -0.04724327 -0.028230485 -0.31522852 -0.09610432 -0.03638881 -0.080395155 -0.12599176 0.018241175 0.07365568 0.008497956 0.022855137 -0.30158505 -0.22792362 -0.24008071 0.0643549 -0.04226897 -0.18159448 -0.123451345 0.17621072 -0.03353083 0.31980252 0.203209 0.020298185 0.07947485 0.10629646 0.14772503 -0.09796217 0.03601116 -0.13191068 0.07269943 0.022447322 0.05038603 0.041206203 0.08645569 0.15481196 0.097347364 -0.012505592 0.11007922 0.041307185 -0.0059657292 0.02894916 0.27359548 -0.17611778 0.042405356 -0.09235507 -0.03448171 -0.034048125 0.25335753 -0.0045044897 -0.08639071 0.031588297 0.015389769 0.007843605 -0.2253388 -0.10653371 0.08945062 -0.20667553 0.029646752 -0.22556397 -0.0035092381 -0.17267697 -0.18053673 0.11290622 0.16027656 -0.22541532 0.17561942 0.123167716 0.3414353 0.054895498 -0.19914174 -0.035570297 0.01311321 -0.000114487564 0.020725304 0.13301447 0.20460543 -0.0028102268 -0.06768458 0.26882628 -0.2040014 0.10386778 0.06502332 -0.20917295 -0.0013059445 -0.02609864 -0.07274236 0.0071595893 -0.27668878 -0.01858631 -0.0045099338 0.24787356 0.07223814 -0.149438 0.20460129 -0.09578733 0.19695298 -0.24141362 0.12485571 -0.1458235 0.1559433 -0.22453453 0.07505897 -0.11014654 0.083841175 0.1685413 0.07031089 -0.03327164 -0.084670804 -0.17574811 0.22745411 0.05605737 0.20607781 0.09912956 0.04792806 6.1120268e-06 0.103957504 0.016894456 0.021042218 0.16667427 -0.15258102 0.18349019 -0.16221425 0.116900995 -0.2015552 0.08460227 -0.09168636 0.19176206 0.09891909 -0.20718497 -0.044464707 0.17336595 -0.30915862 -0.0069091385 -0.044639584 0.12137555 -0.25928667 -0.19390506 -0.04749072 0.13591905 0.08551755 0.4648531 0.048171088 -0.20811927 0.058471724 0.05285886 0.07415222 0.23288219 0.0044569047 -0.12692225 -0.035437945 -0.03285479 -0.03327277 0.11326016 0.2577745 -0.2241847 -0.25422063 0.20510504 0.085894294 0.09571096 -0.07752687 0.0025937147 -0.10518124 -0.10566701 -0.16118214 0.020949788 0.029513253 0.21834475 -0.0661517 0.0191368 -0.008092823 0.0023193054 0.24460481 0.16326085 -0.16160631 -0.16840017 -0.25661013 0.12733404 -0.11142518 0.24551658 -0.04046231
用户 -0.26286334 -0.27823874 -0.06899117 0.09441793 0.15751114 -0.0666579 -0.25207567 0.06853703 -0.19802387 0.13909173 0.26843718 -0.03263147 -0.20383206 0.08273203 0.20310889 0.054675072 -0.3913984 -0.22579612 -0.0007351211 0.2576269 0.2383029 -0.03991447 0.1045408 -0.023384677 0.07899855 -0.060031112 0.27431667 0.094521284 -0.042022016 0.020245774 0.030394664 -0.041963376 -0.12932654 0.21488954 0.10679691 -0.25975254 -0.12156297 0.08186786 -0.109360754 -0.34672755 0.3929412 -0.11676001 -0.071944945 0.026760047 -0.22938144 0.15983059 0.18031454 -0.14807174 0.021909688 0.08606168 0.00011128141 -0.25068462 -0.061151825 0.102183215 0.2958182 0.37337968 -0.11912321 -0.2287403 -0.074296676 -0.040341284 0.137207 -0.12341742 0.021521505 0.11853433 0.050560404 -0.1623109 0.108209096 -0.19223456 -0.045087103 -0.09587728 -0.035172082 -0.13298352 0.16850013 0.12328426 0.17196724 0.24966937 -0.19587213 -0.00537006 -0.109059215 0.1612848 0.018057613 -0.010824598 -0.30246502 0.12963912 -0.007076801 0.24227402 -0.13016902 -0.09903856 0.06072313 -0.17331126 -0.25599635 -0.025799753 0.082549974 0.009652461 -0.110171385 -0.12624079 0.033168025 0.26175705 0.18335299 0.16416146 0.05809174 0.10323068 0.059116587 -0.13033397 0.049732596 0.09407767 0.19030276 0.08709228 0.06176676 -0.16661742 0.07248848 0.05960693 -0.093321085 0.100120924 0.038033694 0.2744087 0.20798044 0.26155373 -0.14516164 0.06904467 -0.057549663 -0.045932397 -0.33832806 -0.11781087 -0.040411815 -0.0951768 -0.13503273 0.043076385 0.09482833 0.037584648 0.021988653 -0.31031343 -0.26308304 -0.25467676 0.08501557 -0.036471933 -0.1905554 -0.15300328 0.19383961 -0.029091947 0.3679671 0.21669184 0.02448547 0.10390886 0.1323604 0.1850949 -0.09240438 0.038935054 -0.15625542 0.02892656 0.022108277 0.06426281 0.022842452 0.121183924 0.14967114 0.11230816 -0.0102263205 0.13431679 0.040603936 -0.00401029 0.016652945 0.34010524 -0.21201865 0.056354202 -0.08375684 -0.04011094 -0.035253193 0.29181376 -0.018430142 -0.05720002 0.031541623 -0.00845246 0.0045095123 -0.23989111 -0.12784916 0.10129693 -0.21187185 0.04366887 -0.27327937 0.01030802 -0.2008828 -0.20983602 0.13019046 0.1610481 -0.26173615 0.20599476 0.16379887 0.36964333 0.06812106 -0.21603554 -0.040523283 0.0020091587 0.010768296 0.009522758 0.130186 0.20463164 0.00915122 -0.07848631 0.28208372 -0.2369733 0.09367025 0.07745358 -0.22152142 -0.022024458 -0.041798487 -0.08773445 0.014532075 -0.2896255 -0.047469202 0.01507674 0.27658594 0.09120654 -0.1633086 0.25332463 -0.08664503 0.24220054 -0.2738517 0.113097705 -0.16249429 0.17062192 -0.23644046 0.08532455 -0.12522669 0.11170639 0.19688147 0.055300057 -0.018275525 -0.103624776 -0.21385247 0.25316715 0.058962036 0.20581153 0.12126181 0.06929354 -0.0029692892 0.1486834 0.025400639 0.008074874 0.18211775 -0.18314098 0.19493076 -0.17206757 0.12892362 -0.21212651 0.08791875 -0.1168929 0.189341 0.11970492 -0.24004589 -0.060239002 0.22732198 -0.3339573 0.00089375686 -0.026343403 0.105475515 -0.31053478 -0.19221808 -0.039590955 0.17635891 0.0874801 0.506727 0.09863597 -0.22043256 0.062525146 0.06696282 0.095177 0.26050407 -0.021374641 -0.15814947 -0.027388157 -0.03391144 -0.016012406 0.13996994 0.312529 -0.27654326 -0.29827645 0.24111262 0.08383333 0.12373599 -0.07638189 0.0023205427 -0.1469467 -0.12813285 -0.16739367 0.013232794 0.04872812 0.22930649 -0.04208986 0.027272364 -0.026511254 0.023771113 0.31019226 0.17487624 -0.21484739 -0.19072226 -0.27519473 0.13786647 -0.12859145 0.27795127 -0.031936422
选择 -0.25514066 -0.26230964 -0.05792363 0.09783352 0.15514831 -0.055540387 -0.23465282 0.072727494 -0.19352287 0.12647893 0.26184842 -0.029527934 -0.20706266 0.0680911 0.19293047 0.05382567 -0.37026098 -0.21283384 0.0057172035 0.24602196 0.20336065 -0.024229687 0.11272074 -0.0078626955 0.06928923 -0.06749503 0.24884678 0.0856872 -0.050196983 0.008109224 0.03499497 -0.041894715 -0.11809255 0.18921258 0.10687077 -0.27543083 -0.11794456 0.08122515 -0.09208721 -0.3059909 0.36139333 -0.12323627 -0.0673248 0.022008268 -0.23564233 0.15162684 0.17345615 -0.14450014 0.030655356 0.080121845 -0.010606175 -0.23446938 -0.03935665 0.100330725 0.28732264 0.34742174 -0.11704728 -0.21222289 -0.0634575 -0.03664925 0.13126473 -0.105529755 0.037193604 0.11228826 0.0700175 -0.15561518 0.10575652 -0.1819971 -0.04418151 -0.0777831 -0.055237975 -0.12991947 0.15043269 0.12214637 0.17012425 0.2244738 -0.1816126 -0.00605143 -0.1015451 0.16091888 0.028943628 -0.017448392 -0.30560714 0.11767405 -0.013769804 0.21614023 -0.120693676 -0.093252026 0.06666202 -0.1675977 -0.23609096 -0.038744688 0.07358431 0.01223575 -0.10781342 -0.1233746 0.042892806 0.23226921 0.18528426 0.15986672 0.06254833 0.10775325 0.057666454 -0.13328591 0.044243637 0.08308008 0.17361543 0.092548154 0.07324848 -0.1500565 0.06649987 0.065051846 -0.09010206 0.09483978 0.032107662 0.24457015 0.19144824 0.25237495 -0.14826328 0.06890063 -0.048573885 -0.058116138 -0.31775966 -0.124468796 -0.04860681 -0.08295122 -0.10900777 0.04019628 0.09078411 0.048609946 0.0199077 -0.30911866 -0.25263563 -0.23099448 0.07368398 -0.035689387 -0.17683977 -0.14661786 0.18730581 -0.017060215 0.364205 0.19697239 0.020712063 0.098521836 0.1336482 0.16978174 -0.09043481 0.028723279 -0.16007814 0.009491772 0.01712481 0.050854895 0.012828265 0.1082728 0.16466151 0.11707407 -0.004643326 0.12283629 0.025910532 0.003144782 0.02006111 0.31906793 -0.19785668 0.06161664 -0.06541859 -0.040720683 -0.04280534 0.29188922 -0.010468899 -0.052358177 0.015559086 0.00093850127 0.0069564083 -0.22762339 -0.11915094 0.07394 -0.20332345 0.056075454 -0.25548688 0.020023055 -0.18994308 -0.20030245 0.121507905 0.14491893 -0.23704106 0.19413322 0.1557106 0.34619516 0.06326527 -0.20711556 -0.038598966 0.0038245975 0.019909548 0.013586958 0.121379286 0.20356053 0.007799188 -0.086522646 0.27862927 -0.22612025 0.085985236 0.06187896 -0.21954787 -0.010054038 -0.04905732 -0.08740002 0.0069102747 -0.27659127 -0.053936336 0.016179236 0.25984934 0.09209168 -0.15610276 0.2468675 -0.09259535 0.23424567 -0.2580731 0.09714473 -0.14687458 0.15449347 -0.22453031 0.065262675 -0.12588078 0.10929819 0.19347198 0.046206404 0.0015556078 -0.09826587 -0.20157707 0.22342122 0.066854 0.18465549 0.11246977 0.052583605 0.0046795965 0.14091368 0.025432926 0.015989965 0.1586865 -0.18955797 0.16540533 -0.15112361 0.117065094 -0.20643628 0.07488233 -0.097291 0.1728579 0.11616907 -0.23558626 -0.06042574 0.22124474 -0.3087705 -0.0026252035 -0.026204845 0.10194879 -0.2831984 -0.18052755 -0.025076594 0.17032343 0.07778484 0.4808002 0.091369055 -0.20958236 0.060809426 0.06920715 0.0915207 0.23706727 -0.034401014 -0.15598504 -0.014186776 -0.02436271 -0.00030051227 0.15135047 0.29706994 -0.2705974 -0.2800914 0.22164659 0.07109393 0.11301228 -0.08240209 0.013674358 -0.1330657 -0.11391533 -0.15369254 0.012015166 0.0487493 0.22969122 -0.028987074 0.022981107 -0.03472849 0.022574106 0.30419022 0.17343305 -0.21313503 -0.19116053 -0.25350815 0.13318557 -0.11492759 0.25817427 -0.03095392
悬浮 -0.2600074 -0.25019082 -0.053960547 0.053321373 0.15455204 -0.017380193 -0.25401127 0.10753333 -0.20084894 0.17723835 0.19807848 -0.027978394 -0.14584287 0.058484122 0.12925082 0.018329693 -0.36510903 -0.1345169 -0.022284146 0.14799796 0.22800016 -0.046594452 0.12005591 -0.05604398 0.060025215 -0.0437808 0.2375473 0.08580325 -0.024690097 0.06575136 0.026957603 -0.060356595 -0.18151441 0.26166716 0.13103908 -0.19507831 -0.109161444 0.068260625 -0.0112547465 -0.39802212 0.34414527 -0.082123905 -0.10619203 0.0812182 -0.17681506 0.17314892 0.11238679 -0.05612095 -0.01787938 -0.0064250715 0.021859128 -0.2231409 -0.15467408 0.06853932 0.28851268 0.38724998 -0.07861533 -0.23973149 -0.13656177 0.0087949345 0.08762822 -0.07461719 0.0013871598 0.15344788 0.015824687 -0.14994375 0.068749785 -0.13449042 0.010029733 -0.0029624463 -0.03724743 -0.11683859 0.08366174 0.13325797 0.14379926 0.3012294 -0.18882175 -0.016410982 -0.058635388 0.12443135 0.04112425 0.00017841296 -0.2668583 0.1115943 0.045848742 0.30759454 -0.18524724 -0.04328698 0.08290126 -0.17446883 -0.2298848 0.0038271577 0.08248497 -0.02121768 -0.14234564 -0.10153343 -0.03070506 0.28682128 0.12812084 0.11507248 0.009956205 0.056728195 0.0056740707 -0.12486337 0.049335934 0.078473106 0.17147006 0.10020277 0.04665812 -0.17217067 0.09791751 0.07751069 -0.096465364 0.13090037 -0.025412671 0.28353605 0.246759 0.26094276 -0.11780669 0.089767285 -0.040630504 -0.012051814 -0.35619748 -0.09199337 -0.008004309 -0.07550272 -0.15213041 -0.023124969 0.050486628 -0.01834571 0.03818583 -0.36145905 -0.20886603 -0.2782012 0.06910963 -0.05363027 -0.2286772 -0.13013077 0.20738864 -0.029930871 0.32577613 0.23255162 0.03568899 0.09932096 0.10734219 0.14874867 -0.12017372 0.0351806 -0.102540866 0.14046748 0.028967712 0.046464168 0.10405915 0.06652375 0.16442056 0.09135968 -0.028681185 0.116723716 0.0641599 -0.0014672588 0.03662278 0.2936149 -0.17308122 0.029471204 -0.12180272 -0.012855756 -0.0037326773 0.24593711 0.0071441387 -0.15051721 0.04059185 0.043568887 0.016485298 -0.2802845 -0.10947644 0.10750065 -0.22692525 0.029525654 -0.24118929 -0.04172712 -0.18258388 -0.19827808 0.10660252 0.22451533 -0.2510974 0.17880367 0.08249139 0.38188732 0.046005815 -0.20603123 -0.022627223 0.003755698 0.023895474 0.04545371 0.15980498 0.2322094 -0.010391788 -0.07479136 0.30480382 -0.24264385 0.123615906 0.052208997 -0.24482208 0.012553074 -0.039892912 -0.0561159 -0.03701795 -0.3105061 -0.004834083 -0.019890439 0.24744006 0.07310696 -0.16333966 0.1938902 -0.114021264 0.19070338 -0.23357585 0.1377017 -0.20358936 0.16469035 -0.2829642 0.08632698 -0.103252344 0.04180378 0.1499123 0.07673343 -0.078004 -0.12105391 -0.2316352 0.27428117 0.031850394 0.2582422 0.1262705 0.0011072524 -0.008355364 0.057863522 0.016993461 -0.009463361 0.14335212 -0.12491749 0.23176394 -0.14884605 0.11680061 -0.21988174 0.12283736 -0.097039066 0.2255576 0.10126978 -0.1941965 -0.03019749 0.14247927 -0.3037803 -0.0094451355 -0.048811886 0.13525485 -0.21284746 -0.21402623 -0.06523601 0.12064338 0.08880855 0.54403967 -0.020167459 -0.21100534 0.048491675 0.06365856 0.06377853 0.25033826 0.021501914 -0.0712297 -0.033379007 -0.04727095 -0.033426974 0.08062371 0.2606557 -0.2108503 -0.27683446 0.16191421 0.08714229 0.097349435 -0.057805937 -0.0072755837 -0.08285484 -0.09283619 -0.1777728 0.03851366 -0.029826883 0.2468811 -0.101412766 -0.018047476 0.052593086 -0.03455952 0.18785425 0.14846884 -0.15065943 -0.18711793 -0.28508142 0.13269907 -0.124300435 0.26436815 -0.043206748
app -0.21812622 -0.24630998 -0.059931286 0.085132085 0.13702099 -0.064323895 -0.22009191 0.05816746 -0.18073705 0.11471701 0.22728218 -0.022057427 -0.20195085 0.077302225 0.17018078 0.06035043 -0.33832344 -0.20754507 0.0077592954 0.23951419 0.20297793 -0.04066135 0.09194319 -0.019439913 0.069254935 -0.05558111 0.23156323 0.07439342 -0.046340104 0.024333805 0.024614666 -0.027693171 -0.09755128 0.18452036 0.084185295 -0.22688252 -0.11670935 0.06491658 -0.10930222 -0.29526812 0.368324 -0.10094801 -0.06646533 0.026384545 -0.19926682 0.12775558 0.16333908 -0.13900666 0.021410318 0.078600444 0.0011746984 -0.21733625 -0.032892194 0.08204858 0.26008454 0.32515174 -0.10858756 -0.18594502 -0.059283156 -0.035400447 0.119359836 -0.11042652 0.022560708 0.0934483 0.058775816 -0.16217221 0.10024091 -0.16221766 -0.04259878 -0.09961574 -0.03380214 -0.13033669 0.15542072 0.11149641 0.15817451 0.20134757 -0.16291837 -0.002418064 -0.09839078 0.12875704 0.017090058 -0.006125602 -0.26851517 0.113944255 0.0018843148 0.2115726 -0.11494822 -0.090748936 0.046191733 -0.15769301 -0.23882504 -0.026532471 0.075860664 0.013365748 -0.09813833 -0.0995168 0.017639777 0.21846873 0.14909184 0.14455044 0.06220013 0.10252544 0.04861526 -0.11692973 0.037300054 0.06262174 0.17160529 0.0783518 0.05197604 -0.14473262 0.05299257 0.060262285 -0.0871101 0.086887255 0.04259912 0.24225685 0.17404528 0.23570783 -0.13314669 0.055339288 -0.041672774 -0.051180378 -0.28513333 -0.10693953 -0.030001245 -0.09098941 -0.11397572 0.0421152 0.06787002 0.045817412 0.024040177 -0.26615307 -0.23659414 -0.23329666 0.07444719 -0.036495127 -0.16116233 -0.15387204 0.16363183 -0.02978347 0.3245102 0.18328671 0.016059253 0.0958293 0.11444753 0.15049699 -0.076700106 0.041745983 -0.13078737 0.024812082 0.011275803 0.060361926 0.011825118 0.10999754 0.13932578 0.105916105 0.0041535045 0.117826805 0.03780302 0.0009972341 0.01610033 0.3102609 -0.18303362 0.039702754 -0.06713032 -0.041957173 -0.03093322 0.2544164 -0.030222792 -0.03251218 0.040072702 -0.027022913 -0.011365539 -0.2123286 -0.11383839 0.099247254 -0.17747295 0.04062262 -0.24103418 0.008595301 -0.18549238 -0.2049492 0.11466188 0.13108121 -0.216139 0.18736784 0.15425374 0.31841272 0.06165649 -0.19173037 -0.025791591 -0.00084412866 -0.0001900117 -0.010090604 0.10980472 0.17329347 0.001961209 -0.06681616 0.22701867 -0.20469825 0.083915934 0.08899363 -0.18507825 -0.030408774 -0.04309521 -0.09901636 0.01639424 -0.26068714 -0.053473588 0.005203647 0.24981047 0.09062954 -0.1432032 0.21615335 -0.056287806 0.22085261 -0.23202784 0.10062686 -0.14889008 0.14904766 -0.19209254 0.0851769 -0.11348891 0.10801409 0.17955734 0.0350601 -0.016679203 -0.101659425 -0.19313121 0.22340682 0.041210804 0.16990939 0.101824515 0.055201165 -0.0023672536 0.13078263 0.012846789 0.0074327374 0.16891137 -0.1706279 0.17586412 -0.14494382 0.11852408 -0.18123794 0.0876273 -0.09701032 0.16758299 0.10905184 -0.19532487 -0.056122497 0.20666161 -0.28755295 -0.0041159443 -0.0054879966 0.08951253 -0.28217202 -0.18072884 -0.025190452 0.17152177 0.06014607 0.44035456 0.08131346 -0.19061455 0.07358632 0.04406641 0.08304832 0.23097847 -0.035323597 -0.14916594 -0.034361295 -0.025144415 -0.014379753 0.13172138 0.27685967 -0.25544336 -0.2826777 0.22856282 0.0610253 0.117384866 -0.064526856 0.023864912 -0.11841756 -0.12900986 -0.14034066 0.00903267 0.03740767 0.19648871 -0.03364169 0.039210286 -0.027364245 0.023907732 0.27260804 0.15140985 -0.20442851 -0.14656934 -0.25183055 0.11523213 -0.11892767 0.2523079 -0.022553379
音频 -0.21452002 -0.24760291 -0.08429751 0.05532284 0.16523501 -0.020614155 -0.21579646 0.07130842 -0.19915283 0.11393699 0.2349531 -0.0015779315 -0.15148668 0.1231351 0.1601957 0.039008677 -0.33662403 -0.18207638 -0.013698991 0.20794803 0.25650257 -0.019443303 0.14079127 -0.01816774 0.06337928 -0.01586111 0.20809895 0.071862504 -0.045049075 0.03734159 0.025385577 -0.046201777 -0.14848995 0.2541823 0.12746058 -0.21325487 -0.1165541 0.0653109 -0.09746983 -0.33622268 0.31162304 -0.10518603 -0.0982881 0.01920088 -0.21815558 0.17660931 0.14541075 -0.108638875 0.040879726 0.028835863 0.028503513 -0.26352158 -0.066655286 0.11971561 0.27863818 0.36390004 -0.09069569 -0.20991787 -0.12056547 -0.017643884 0.12186137 -0.098725 0.03484235 0.08974703 0.058938734 -0.13360436 0.104529314 -0.16925938 -0.058434878 -0.06309748 -0.042497095 -0.12411542 0.123548515 0.11143028 0.153487 0.24665937 -0.1680179 -0.0144978305 -0.07588161 0.112596765 0.05242281 -0.051380362 -0.23296635 0.12799765 0.0069751004 0.23227923 -0.072264336 -0.08693098 0.09017369 -0.1741557 -0.19618113 0.0052499725 0.0820781 0.0199067 -0.11475346 -0.08884659 0.024268819 0.22415455 0.19092323 0.10414249 0.060830303 0.10420631 0.043631736 -0.1291306 0.042011652 0.06899308 0.18034601 0.108233854 0.06844182 -0.15124355 0.010554273 0.06461114 -0.05495357 0.09212317 -0.0064952807 0.24000639 0.25218704 0.23772405 -0.11023487 0.121073246 -0.07469546 -0.040265683 -0.2893539 -0.10500177 -0.070216 -0.07389802 -0.11000942 0.030383565 0.062843904 -0.0074540637 -0.0029337215 -0.27938104 -0.20755567 -0.25627622 0.035321016 -0.03821362 -0.16392396 -0.13084939 0.17586905 -0.028968683 0.30895483 0.25681737 0.046894297 0.09488325 0.115778096 0.10759583 -0.08725846 0.03519556 -0.15498553 0.043001458 0.027708849 0.021490347 0.008662314 0.07741977 0.1584465 0.081856586 -0.00840149 0.10509892 0.0103974 0.009572345 0.034776345 0.24326648 -0.15293929 0.047400933 -0.08488447 -0.043259468 -0.0031486743 0.27935356 0.017417727 -0.061360057 0.02187908 -0.0034281523 -0.0065541645 -0.26641178 -0.08311136 0.094713025 -0.22625495 0.03009904 -0.22664645 -0.006889251 -0.1626141 -0.13912562 0.0994515 0.16804081 -0.2431777 0.15935221 0.10107225 0.3464257 0.083583005 -0.24668442 -0.05811225 0.021891939 0.009962076 0.041023415 0.15063283 0.22210176 0.009735608 -0.08150621 0.28031144 -0.17451991 0.0895342 0.06425461 -0.23578411 -0.006639254 -0.027269235 -0.0806378 0.015673423 -0.29043692 0.0015075575 0.011154739 0.26726422 0.064831 -0.16010319 0.19182245 -0.098594755 0.19488457 -0.2518558 0.11812279 -0.16844393 0.17532517 -0.25503165 0.058140203 -0.12032349 0.059660498 0.18223591 0.07642733 -0.038951516 -0.10245075 -0.17182085 0.24428882 0.0384139 0.20177701 0.10528079 0.044753186 -0.010071482 0.08123439 -0.0032710717 0.0048373253 0.15416962 -0.14336453 0.18008849 -0.17893085 0.10280713 -0.19520806 0.06115921 -0.08534128 0.19639859 0.13416827 -0.20601156 -0.049235485 0.14974427 -0.29683712 -0.002256171 -0.053143058 0.15349844 -0.24009714 -0.17102996 -0.08958452 0.10308539 0.11563454 0.47285363 0.034479424 -0.19220373 0.068448216 0.039452385 0.052472014 0.22879821 0.031751234 -0.13380297 -0.023256978 -0.03242619 -0.036131483 0.13077636 0.2580538 -0.1920135 -0.24703655 0.18765482 0.072181426 0.07328771 -0.101296395 0.0061859624 -0.1055002 -0.104365505 -0.1813299 0.0038415415 0.0033055737 0.2473684 -0.056752767 0.010612549 -0.01449194 -0.009538677 0.23914586 0.16466069 -0.15634967 -0.12892534 -0.21938796 0.14434715 -0.11954707 0.2314764 -0.026135994
设置 -0.2777268 -0.2677847 -0.058196437 0.100842275 0.15266141 -0.06809562 -0.24381374 0.0709872 -0.18826145 0.1379812 0.29591265 -0.021789277 -0.2190236 0.060080644 0.1819008 0.074258775 -0.36830166 -0.26007587 -0.017365867 0.28523183 0.22397287 -0.033807926 0.0862082 0.013260516 0.065628126 -0.10301148 0.26279083 0.11797355 -0.052069478 -0.013661916 0.029834455 -0.023043737 -0.08361013 0.18142368 0.08417852 -0.26213205 -0.13822848 0.09362022 -0.11340168 -0.32154873 0.40900835 -0.13651265 -0.044882417 0.024400774 -0.22387812 0.13730209 0.2057704 -0.16397154 0.037571445 0.12794878 -0.033025436 -0.22343901 0.011358125 0.1076832 0.26701814 0.34379432 -0.12920108 -0.21009628 -0.053420063 -0.03660625 0.122374885 -0.14924552 0.04017514 0.08575621 0.085739076 -0.15896422 0.11330548 -0.2046546 -0.023005571 -0.10304344 -0.06631594 -0.117034145 0.17215455 0.11454521 0.16654412 0.22785278 -0.19793098 -0.008749506 -0.122311175 0.17203544 -0.0005507809 -0.0131590655 -0.33805674 0.13245998 -0.015391906 0.2182763 -0.10744147 -0.10182889 0.06076564 -0.14826433 -0.23734675 -0.033386823 0.08467708 0.012134223 -0.1082806 -0.121973716 0.046590984 0.2486241 0.19170822 0.17642766 0.048688367 0.10737328 0.058617406 -0.117652915 0.05866387 0.12485289 0.19182329 0.06854693 0.05144566 -0.16484497 0.0768146 0.07002869 -0.095756635 0.08885009 0.078211926 0.24128321 0.18584114 0.2588464 -0.12946479 0.04643252 -0.04172663 -0.054866996 -0.3152095 -0.1302159 -0.032590427 -0.082073785 -0.10402527 0.05051905 0.12612154 0.021707587 0.022055084 -0.29474485 -0.25655913 -0.22777863 0.09956599 -0.026550068 -0.18556805 -0.16324054 0.16929801 0.004503552 0.38125387 0.17997505 -0.011998099 0.12338324 0.14925504 0.18245982 -0.09151098 0.008776503 -0.18449672 -0.03306669 0.016286904 0.050292287 0.0025105246 0.14059919 0.14744642 0.12709606 -0.0011229569 0.1483682 0.040725768 0.008287024 0.02108874 0.35849088 -0.24898642 0.05205495 -0.07837339 -0.0770222 -0.0706297 0.27354312 -0.014398289 -0.010685467 0.017069036 -0.031545196 0.0037530772 -0.22245735 -0.1610665 0.101512365 -0.1883764 0.04432953 -0.2858109 0.016329832 -0.20208135 -0.22046915 0.13629127 0.14795703 -0.2583224 0.21574123 0.18629527 0.34509337 0.05977707 -0.19877134 -0.024413323 -0.0071833185 0.00300773 0.009586155 0.1321104 0.20936346 -0.0014922656 -0.07922744 0.29221624 -0.2345479 0.070834935 0.08117616 -0.19851218 -0.03575923 -0.034473196 -0.09308618 0.015551759 -0.27311215 -0.07214549 0.022345155 0.25591102 0.121707015 -0.17002247 0.27984244 -0.07725414 0.24305537 -0.27339625 0.09095409 -0.12550886 0.15783215 -0.21577464 0.08747447 -0.12894894 0.14929512 0.22242293 0.03913515 0.011970378 -0.0921443 -0.19995517 0.23298538 0.085543916 0.19237311 0.11232021 0.09753792 0.010552049 0.18802842 0.023638198 0.032675847 0.18760993 -0.20978042 0.16608387 -0.15903006 0.10096237 -0.19228272 0.08638962 -0.13155003 0.16857311 0.11319392 -0.2371588 -0.062268294 0.261567 -0.32884946 0.0070199375 -0.011673837 0.09955591 -0.29909134 -0.18067619 -0.000652283 0.20135123 0.0761279 0.47837758 0.107621565 -0.18827172 0.0485385 0.07822145 0.12341871 0.24152052 -0.058562327 -0.16162457 -0.023628796 -0.008579338 0.0018613914 0.1574379 0.2868583 -0.29620346 -0.28366336 0.2510189 0.07041857 0.10439007 -0.09546686 0.0010509541 -0.13409817 -0.11770459 -0.14243269 -0.0020934877 0.0673543 0.20964018 -0.016713662 0.06251792 -0.03377485 0.055406585 0.334446 0.15286824 -0.2195812 -0.21302557 -0.2566952 0.13573849 -0.11865772 0.2803261 -0.032805834
