388 300
点击 -0.1770343 -0.107572965 -0.17886317 -0.04940134 0.11803934 0.10219911 -0.2070611 -0.107599236 -0.0744817 0.08394462 0.2383112 -0.0782817 -0.15845905 -0.08798976 -0.009914376 -0.20518619 0.009159229 -0.16941239 -0.065488756 0.06161433 0.2038973 0.07367767 0.1783793 -0.054431513 -0.10396565 -0.09971452 0.21165027 0.018215744 0.05166194 -0.22959948 0.35958067 -0.17897372 0.10424239 0.071725406 -0.26174986 -0.06056397 -0.23778124 0.09724673 0.039101966 0.153182 -0.013542189 -0.049126945 -0.033257924 0.16989408 -0.3076367 -0.008217687 0.3185176 -0.1455338 -0.0059302463 0.016509617 0.06685817 -0.03998262 0.105746575 -0.046646144 0.09647451 0.19509684 0.0779964 -0.14684373 0.10557415 0.039202616 -0.0918355 0.052620567 -0.15783767 0.036629926 -0.0136891985 0.091663316 -0.035855636 -0.07887146 0.07895537 -0.24665847 -0.055814676 -0.06339405 -0.037977066 0.05891489 0.3582017 0.17623354 -0.14688644 -0.04273689 -0.064580664 0.04802213 -0.120498165 -0.16461629 -0.07978825 -0.029413108 0.11517172 0.20129944 -0.24615088 -0.09715625 -0.019262996 -0.033318218 0.115047 0.18067594 -0.019586856 0.049151663 0.08101545 -0.017618425 0.027807774 0.21110673 0.19500762 0.18751703 0.02538993 0.11689646 -0.055970892 0.018325804 -0.029876648 0.16387065 0.22758983 0.027546864 0.16540986 0.094536625 0.062287044 -0.054333504 0.18807541 0.014472853 0.14947575 0.22513084 -0.016342644 0.04519264 -0.057837114 0.027880551 -0.019471884 -0.094276235 -0.14489761 0.10940751 -0.12796652 -0.08514577 -0.046014484 -0.18694246 0.15046236 0.030859442 0.07262953 -0.13088734 -0.12215872 -0.094913185 -0.057055946 0.011858889 -0.06221146 -0.17188457 -0.03523303 0.10410565 0.21124505 -0.19310375 -0.035643954 0.35531482 0.15547496 0.09731369 0.12988168 -0.0059876516 -0.12046053 -0.09525687 0.30940822 0.059465073 -0.026351454 0.20124857 0.040245395 0.048266564 0.060483407 0.024967073 0.1771926 -0.14343558 -0.014344812 0.18261233 -0.13819404 0.18824403 -0.13330406 0.102501154 0.051436782 0.1337027 0.10633859 -0.102433786 -0.046742592 -0.17578244 -0.0063246526 -0.08105476 -0.07912879 -0.2526622 0.16934483 0.120830394 0.11891415 -0.06702568 -0.0129555855 -0.22822808 -0.0115274135 0.25523946 -0.053853482 0.11706127 0.0010889152 0.2449885 0.20893675 0.0016370082 0.21016279 -0.22462699 0.14938945 -0.057170793 0.035222653 0.0965139 0.28156987 -0.088516936 0.017913068 -0.178485 0.01401977 -0.049000256 -0.055974416 -0.05891555 -0.06601454 0.121494204 -0.38600987 -0.24153528 0.14199471 0.15607305 -0.019673804 0.12928167 0.1347233 -0.016097939 0.08878778 0.09078384 -0.00756874 0.15181485 -0.20429547 0.11817074 -0.3802847 0.13644004 -0.027248144 0.3025686 0.043322276 -0.1709812 0.09234702 -0.028120752 -0.09115162 -0.13657613 0.1488319 0.019311823 -0.10221232 0.20910808 0.15021993 0.10290308 0.096752845 0.17855637 0.17207518 -0.22944702 0.01240462 -0.092566416 -0.14509472 0.038623884 0.07887983 0.03191285 -0.113695085 0.055988275 0.27026746 0.15841796 0.03780123 0.019243944 -0.00271776 -0.03912698 -0.07870029 0.007649081 0.029256562 0.06281402 0.13900009 0.08241896 0.1456346 0.13131279 -0.10046543 -0.1741546 -0.119338594 0.1818753 0.18543187 0.06990048 -0.029237455 0.11619704 -0.06381817 0.04769355 0.02821686 0.1046912 -0.14275399 -0.19097485 0.32193297 0.11253417 0.0026227122 0.09302029 -0.10676551 -0.038356807 0.30136648 0.10433181 -0.10489441 0.31479695 0.021360818 0.109542064 -0.016252981 -0.06454524 0.13274854 0.11440393 0.18969755 -0.023887813 -0.20386058 0.24733275 0.084727354 0.039982278 0.30632365 -0.27141142
页面 -0.21774347 -0.2346566 0.029619135 0.018323658 0.095610365 -0.118328795 -0.005073161 -0.014576252 -0.11929473 0.084915236 0.1377164 -0.1397277 -0.09580798 -0.013188468 -0.0015752199 -0.063589536 -0.18716818 -0.05932529 0.10346721 0.11324323 0.062802255 0.029888198 0.08154176 0.063538246 0.060554516 -0.12861843 0.24832782 0.024049466 0.014758466 0.015080832 0.13735655 -0.08775989 0.032807477 0.11583647 -0.18666017 -0.17660534 -0.13563107 0.088484086 -0.024513217 -0.08580877 0.06328045 -0.05517019 -0.0773947 -0.020388532 -0.060992714 -0.026017327 0.13799098 -0.12205122 0.15548135 0.08975942 0.099140935 -0.1000099 0.12791035 0.01732309 0.057562374 -0.03668746 0.043707263 -0.13929294 -0.088753335 -0.07589879 0.015429681 0.09569413 -0.058171153 0.17628045 0.099889494 0.04836245 0.115579195 -0.17755064 0.013705894 -0.30628103 -0.037625566 -0.079223126 0.1005812 -0.0662166 0.19272755 0.103267774 0.008097411 0.0048364215 -0.09248152 -0.00065879757 -0.08850522 -0.100853845 0.030141676 0.010792783 -0.08481296 0.12242365 -0.11334669 -0.18783608 0.04665345 -0.1013055 0.07218904 0.08654256 0.09655228 0.11501273 0.053923894 0.042716123 -0.107860155 0.05920905 0.11264984 0.12939195 -0.029956697 0.07626196 0.03995402 -0.086577915 0.007009651 0.17120592 0.13643005 0.104098305 0.13397853 0.09180909 0.090948544 -0.10063385 0.07121293 0.061590217 0.16588971 0.11411835 -0.048874084 0.0033472201 -0.014712064 0.005571876 0.023287192 -0.06360976 -0.24226488 0.036684033 -0.10250486 -0.10001016 -0.11559363 -0.09409341 0.121223636 0.038906988 -0.045679018 -0.082050785 -0.26822 0.05652648 0.31505147 0.080320634 -0.11341825 -0.027655745 0.053013355 0.13677073 0.14006034 -0.05681839 0.039355706 0.15750204 0.0036098515 0.14980106 -0.02336629 0.033333957 0.012141143 -0.11487023 0.17872037 0.04505101 0.12752269 0.18487799 -0.029064834 0.13635847 -0.07542967 0.23620035 0.05178519 -0.07700553 0.049080044 0.1406593 -0.16611041 0.18590684 -0.07104887 0.15575781 0.03616584 0.15895352 0.10942979 -0.0780531 -0.077325456 -0.032787018 0.07371379 -0.030692713 -0.17380852 0.04495982 0.07346063 0.016695486 -0.008720175 0.17266631 -0.22824036 0.011825777 -0.045900006 0.20866105 -0.16686249 0.03332809 0.0436194 0.20879821 -0.014443481 0.06698608 0.06419482 0.04032147 0.09854921 0.085571714 0.08597158 0.105202176 0.19127093 -0.040386513 0.010323401 -0.15478066 0.1360934 -0.1521614 0.11639533 -0.023092905 -0.013511381 0.0983799 -0.06545141 0.07713169 0.10105117 0.1523465 -0.07073087 0.058277074 0.069914535 0.074665345 0.053273216 0.1443937 0.028774824 0.21011396 -0.16969386 0.21262513 -0.30631056 0.09079683 -0.124255486 0.17407358 0.24718747 -0.09800761 -0.026200606 0.015838256 -0.10516654 -0.10437157 0.10718659 0.1821553 -0.18144776 0.055896323 0.06662565 0.0144656915 0.046261966 0.09515392 0.13519424 -0.14768316 0.01768307 0.11504586 -0.16321322 -0.085023925 0.08778646 -0.24457622 -0.03125999 0.01798739 0.017716058 -0.08072967 0.011360882 0.028440705 -0.1231619 -0.034446746 -0.20482671 -0.08649466 -0.042695686 -0.08071216 0.077204034 -0.01987974 0.18293943 0.18308981 0.041685216 -0.04617432 -0.018966148 0.122004114 0.18486583 0.079973444 -0.18700612 0.06378733 -0.099017456 -0.004436802 -0.03052169 0.09227414 -0.11529669 -0.22715624 0.190965 0.15522744 0.18027715 0.101837836 0.07437633 -0.06631223 0.088229395 0.015710462 -0.17412548 0.057986032 0.0007428884 0.06393653 0.05091015 -0.067409016 0.06988274 0.07483088 0.02321775 -0.08856529 -0.2049494 0.07439711 -0.0023359712 -0.12882815 0.29718375 -0.13441595
测试 -0.28933313 -0.31104645 -0.026235262 -0.15928924 0.17239536 -0.17675225 0.15140738 -0.030526338 -0.08603477 0.008459797 0.18938182 -0.041092694 0.039571133 0.011559345 -0.025463039 -0.25472534 -0.3033708 -0.21493466 0.09469106 0.112813644 0.31928578 0.06722584 0.23843701 -0.022491757 -0.01156778 0.024214128 0.31376037 -0.13240118 0.18674256 0.07839046 0.17552878 -0.12106499 0.13249815 0.37745866 -0.22391315 -0.16143331 -0.14934549 0.053198095 0.10566252 -0.07967596 0.025887411 -0.09296318 -0.18089275 -0.11031639 -0.04016742 -0.07232454 0.32610413 -0.21039842 0.2814855 -0.05567502 -0.10366924 -0.09189116 0.2622292 0.010380723 0.045552254 -0.0057934793 -0.03930146 -0.114017196 -0.06820586 0.10399303 0.05954311 0.20054466 -0.13554862 0.11166875 0.23537454 0.19365562 0.122432694 -0.20445687 0.074518494 -0.3335347 -0.10069299 -0.009404315 0.0725172 -0.07900577 0.27493337 0.06735259 0.00053552224 -0.08411146 -0.20102453 -0.062233374 0.068033844 -0.057235442 0.07242587 0.028282883 -0.016644942 0.14167883 -0.047178157 -0.17078006 0.2762191 -0.13308582 0.15502517 0.19678086 0.069540575 0.040733308 0.089462526 -0.11130309 -0.11560541 0.064136915 0.25763077 0.24433073 -0.04369396 -0.039149415 -0.017542422 -0.07604464 -0.039101083 0.10150733 0.15912065 0.24576923 0.19100241 0.21733278 0.025270287 -0.155825 0.110474885 0.053480163 0.10452822 0.0749615 0.08750353 0.056263827 0.054917075 0.1411432 -0.033069562 -0.08143328 -0.23122202 0.12391253 -0.30606574 -0.18584724 0.061937887 0.008479919 0.2196583 -0.051191602 -0.122143924 -0.0073313396 -0.4767661 0.0989368 0.4006505 -0.025376651 0.09563684 -0.0052670524 0.23845232 0.18998419 0.3282908 0.062064227 0.1058433 0.23791295 0.04781282 0.033027396 -0.14407507 -0.16485766 -0.023567375 -0.03273904 0.23289055 0.022184892 0.062134977 0.1829329 -0.0107380925 0.20644858 -0.10210279 0.2568779 0.005759635 0.007322356 0.024559626 0.12284676 -0.18973823 0.35393906 -0.13733082 0.25481662 0.015360778 0.21536197 0.40687346 -0.074937195 -0.055745337 -0.097531825 0.07390229 -0.1943851 -0.21016955 0.070817575 0.121953696 0.116099596 0.05969477 0.31645936 -0.24405229 0.20876378 0.044305503 0.38908213 -0.12305751 -0.07158441 0.048492752 0.24169484 -0.062038895 0.05321784 -0.0109793525 -0.023243913 0.012840068 0.3100483 0.15729506 0.22138548 0.25443998 0.009661727 0.11325166 -0.0796248 0.2079071 -0.08872087 0.052495148 0.18647179 0.10917125 0.19690973 -0.09853104 -0.007682492 0.23545848 0.16833846 -0.13722675 -0.004531 0.25998503 0.097500876 0.10631464 0.121660866 -0.12963149 0.27531916 -0.31071076 0.27055562 -0.5900928 0.036966875 -0.14023867 0.17890844 0.3813659 -0.20880577 -0.018434064 0.0063911127 -0.13737756 -0.16872504 0.21845303 0.3277749 -0.26890388 0.044510268 0.086311534 -0.10217273 -0.053717718 0.11697375 0.17827883 -0.09052719 0.066237375 0.1458647 -0.1955866 -0.27803063 0.09956869 -0.29122517 -0.022147637 0.0028759467 -0.030765941 -0.09856432 0.03512706 -0.017243538 -0.05077781 -0.047713395 -0.026240744 -0.0013085293 -0.0842328 -0.03554972 0.13214394 0.14427032 0.26830268 -0.042586513 -0.10051438 -0.018987603 0.06626675 0.0541954 0.2879613 0.09831501 -0.15729286 0.073578395 -0.038821705 -0.002846386 -0.11868628 -0.07397257 -0.16901529 -0.025793137 0.1562903 0.12554365 0.15502338 0.13557395 0.008607037 -0.018857608 0.14802703 0.04093214 -0.21762992 0.09526846 0.02978827 0.0799444 -0.06154964 -0.10454347 0.03927796 -0.0386243 0.03400852 -0.15469714 -0.17706017 0.17838103 -0.009456704 -0.028167376 0.46155965 -0.26331922
信息 -0.14922965 -0.24521393 0.09148462 0.3164125 0.014976803 0.13798143 -0.38801968 0.026210945 -0.20091343 0.25019342 0.12976728 -0.45186302 -0.5593691 -0.10427469 0.036707483 0.2640011 0.19357952 0.075405106 0.05387001 0.21777873 -0.26210955 0.06406625 -0.037688557 0.277152 0.14533827 -0.63999003 0.23692976 0.40252104 -0.28291348 -0.23747282 0.35792696 -0.07006673 -0.11230476 -0.38039058 -0.25151032 -0.25993356 -0.2867269 0.2213807 -0.28385717 0.0006071848 0.19970012 -0.06739852 0.12525205 0.25814274 -0.32796338 0.03895363 -0.008307101 -0.040582173 -0.11071873 0.38075933 0.565199 -0.13911629 -0.0358326 0.02508135 0.16808997 -0.05025381 0.35960627 -0.23983246 -0.09148756 -0.34628177 -0.07346857 -0.016432649 -0.053787723 0.2805251 -0.02880994 -0.15863921 0.09518721 -0.18411702 -0.057777405 -0.40968996 0.034510776 -0.1989432 0.10886214 0.024230404 0.2535766 0.28300387 -0.13355519 0.15769304 0.18715125 0.18736367 -0.5335897 -0.3076675 -0.18663982 -0.008115986 -0.12574165 0.21173958 -0.3698108 -0.29238933 -0.4895211 -0.17696041 0.005514589 -0.05104988 0.08386348 0.31011236 0.12655023 0.36991358 -0.15700579 0.21062407 -0.052885804 0.048705146 0.123875864 0.35550502 0.04718472 -0.17699963 0.031275332 0.5136635 0.3704311 -0.17226744 0.23778223 -0.09556052 0.22855711 -0.0023901141 0.121651776 0.038566787 0.40236956 0.30009282 -0.28438136 -0.14471082 -0.20471108 -0.22306253 0.047836255 -0.104257375 -0.24952728 -0.04547773 0.24102949 -0.06139489 -0.52723914 -0.4600431 0.060271822 0.24305148 0.12467408 -0.4137291 0.09533374 -0.13920413 0.08172945 0.25434566 -0.6048787 -0.21033257 -0.37652797 0.0949819 -0.035316203 -0.49916613 -0.16122618 0.20431584 0.066611744 0.46651685 0.2509526 0.3567365 -0.15099707 -0.4436504 0.28264207 0.13347463 0.18745594 0.37574032 -0.005379073 0.13350424 0.095539965 0.31578475 0.26710638 -0.32737023 0.09420408 0.3047728 -0.2530353 0.09537865 -0.015920645 0.038680088 0.17481387 0.21176352 -0.45998153 -0.07597015 -0.09858246 -0.034500364 0.09769828 0.25599983 -0.13775995 -0.16897559 0.08302147 -0.16767597 -0.100848965 -0.15511487 -0.21808384 -0.5642819 -0.30304736 -0.06181868 -0.3187696 0.4180559 0.0063964534 0.31171077 0.21516114 0.05058197 0.37084982 0.043875568 0.31678185 -0.39157727 -0.086789116 -0.09020633 0.30086073 -0.17150122 -0.09767692 -0.45715752 -0.036909413 -0.38373476 0.2954697 -0.43931124 -0.33845693 -0.03846421 -0.20640554 0.073141955 -0.051980413 0.31781974 0.057390455 0.3162679 -0.28968552 0.019281909 -0.027939988 0.20557754 0.44220144 0.18603654 -0.11090862 0.13968112 0.050239902 0.36584646 -0.1567033 0.40498668 -0.05241516 0.10214504 0.07988109 0.045108724 -0.1552479 -0.05418596 0.05102015 -0.09843037 -0.05325001 0.20183101 0.15621452 0.3530676 0.24309754 0.22946686 0.22333376 -0.41218737 -0.08920384 -0.011073444 -0.29254657 0.36767995 0.1836923 -0.18895991 -0.051659435 0.04980243 0.2567795 0.021885743 0.014884076 0.12657356 -0.2875444 0.0151740685 -0.5781802 -0.26909184 0.12748371 -0.02479861 0.028745504 -0.3217433 0.21649575 0.6597852 0.39726457 -0.17678066 -0.23688975 0.47063252 0.10623558 0.083104126 -0.307161 0.094474666 -0.2563241 0.1291762 0.19966085 0.44787216 -0.082981035 -0.71598923 0.5716639 0.2779944 0.16449675 0.0738516 0.14496723 -0.1528121 0.18191734 -0.007740353 -0.1887957 0.22440284 -0.075843915 0.15454857 0.30081898 -0.10568891 0.23798046 0.38953212 0.09625288 0.068920225 -0.41878465 0.036884405 0.07003775 -0.32031587 0.23671731 -0.08794113
输入 -0.15552692 -0.2620587 -0.07677754 0.36105132 0.004018007 0.31971863 -0.59659594 -0.061526243 -0.20472102 0.3632317 0.32083353 -0.49052727 -0.72659945 -0.2035561 0.111263484 0.21721795 0.34258163 -0.0045900852 -0.0278451 0.29576212 -0.13848986 0.15352522 0.06277124 0.15161651 0.0015356563 -0.7319306 0.3881861 0.3868165 -0.2624769 -0.4299343 0.58663344 -0.21532583 -0.07720708 -0.48606023 -0.43945614 -0.2880377 -0.4516365 0.24687463 -0.28141832 0.14948359 0.2225247 -0.09636202 0.16926749 0.4907634 -0.6256724 0.07647555 0.12326376 -0.09833321 -0.24326986 0.39928904 0.6915559 -0.12611109 -0.056743294 0.05766745 0.15004353 0.09305892 0.41929588 -0.24670273 0.004903584 -0.3710322 -0.13697074 -0.015451028 -0.1239498 0.29196593 -0.08745989 -0.15433528 0.0324783 -0.13367759 -0.015077258 -0.55343455 -0.06305374 -0.2215655 0.047049467 0.10350287 0.50259453 0.4461727 -0.30435562 0.19094552 0.17342344 0.273344 -0.70590633 -0.43443945 -0.31289053 -0.021046335 -0.01071209 0.3674547 -0.6302066 -0.3427515 -0.65370923 -0.20316508 0.031837475 0.052332345 0.032564163 0.35122326 0.26468918 0.41161838 -0.12672283 0.39712384 -0.011148831 0.0932783 0.19353443 0.43097982 0.017534554 -0.16064583 0.0018450381 0.56987935 0.56767493 -0.25817126 0.28432006 -0.12629727 0.29602814 0.00039623276 0.24305828 0.08608126 0.4857429 0.5215703 -0.33222246 -0.097892575 -0.31679296 -0.26213518 0.1202512 -0.19316366 -0.2923216 0.07417806 0.19566095 0.028124284 -0.61147755 -0.61001146 0.06439054 0.2715689 0.24487944 -0.5294345 0.24760659 -0.36034355 -0.15080622 0.26606613 -0.74188954 -0.38774726 -0.55437195 0.11182553 -0.028498385 -0.6789855 -0.33296514 0.44204557 0.13813682 0.55071014 0.43579385 0.31064624 -0.2527372 -0.5698511 0.48842195 0.22028881 0.13076812 0.5307465 0.049191743 0.11773237 0.24970305 0.26811436 0.411276 -0.4019585 0.07025332 0.4404324 -0.31592026 0.115545884 -0.08268474 0.005130976 0.32681167 0.22614402 -0.5563918 -0.16867474 -0.111439995 -0.16658092 0.0052729985 0.15673167 -0.127678 -0.43917164 0.29038912 -0.13839068 -0.16017812 -0.32649547 -0.18325418 -0.85080135 -0.30545485 0.09187246 -0.3717328 0.60294557 0.018743923 0.3867974 0.37906924 0.012792587 0.56519794 -0.19498272 0.51632446 -0.5843368 -0.17441788 -0.08764643 0.46726707 -0.26622435 -0.123209015 -0.6298325 -0.08931887 -0.39592463 0.23564266 -0.53587955 -0.4959517 0.010966685 -0.5191807 -0.1581328 -0.052823126 0.43655017 0.13098511 0.5125002 -0.16388395 -0.05305769 0.05665753 0.20986588 0.535509 0.16836004 -0.25091392 0.1377149 -0.10408089 0.44140917 -0.08068316 0.67605484 -0.10032863 0.03549554 0.2193182 0.031725727 -0.17781144 -0.027706452 0.09877375 -0.28331795 -0.06415985 0.3173907 0.29366192 0.6056272 0.33232632 0.29504785 0.33036536 -0.6441769 -0.057705056 -0.09955836 -0.383584 0.49848524 0.2729303 -0.0064382656 -0.110029645 0.13375643 0.5510887 0.18266943 0.03317367 0.18994196 -0.28292137 0.08529329 -0.7166178 -0.28500992 0.2682225 0.07100712 0.12849247 -0.2511093 0.27618375 0.85844684 0.36379197 -0.24616061 -0.3647634 0.63578683 0.22110838 0.12102047 -0.28655592 0.20040771 -0.2860562 0.23495781 0.2443864 0.574036 -0.13559583 -0.92327917 0.8216024 0.34064835 0.08260423 0.09006851 0.072101675 -0.056455027 0.43380246 0.09702817 -0.26510265 0.535372 -0.06770425 0.15423101 0.33704808 -0.07679461 0.32916492 0.48775837 0.28988212 0.10719917 -0.50000894 0.20796998 0.14866644 -0.3057599 0.32773238 -0.2570461
按钮 -0.20603694 -0.10407248 -0.23444991 -0.09299634 0.1449013 0.08234018 -0.23471266 -0.14052694 -0.07892316 0.111612625 0.3136026 -0.06887016 -0.15245588 -0.09792732 -0.01080693 -0.27898782 -0.057263944 -0.20199908 -0.029486304 0.07182973 0.24603796 0.04627204 0.20680837 -0.09756221 -0.1285137 -0.05436323 0.28349015 -0.06656743 0.065824494 -0.25017223 0.38582686 -0.23104829 0.13859755 0.09461872 -0.32745618 -0.066790216 -0.2596306 0.10653674 0.05856995 0.17466643 -0.025297813 -0.04343648 -0.060941666 0.20758966 -0.3431638 0.027801214 0.35136288 -0.19801325 0.040531132 0.014431599 0.045073077 -0.058746893 0.13947156 -0.062233422 0.07737303 0.237951 0.049678843 -0.18368314 0.10044119 0.041609883 -0.12361412 0.063006654 -0.16548607 0.061621565 -0.029928394 0.118864335 -0.055731256 -0.090625644 0.109595746 -0.2789709 -0.10735789 -0.054456364 -0.010524406 0.04324236 0.4451932 0.22667715 -0.14689659 -0.07048289 -0.15290886 0.018234394 -0.10219176 -0.16352282 -0.07007465 -0.056778982 0.13887633 0.23908724 -0.30335838 -0.13668299 0.02731817 -0.01298195 0.10451109 0.2200068 -0.0022733395 0.03499922 0.08713595 -0.0392641 0.0495767 0.22929165 0.24352622 0.21363723 -0.014171582 0.13276547 -0.018001001 0.044185378 -0.0135653755 0.123744205 0.22532171 0.080968924 0.15215409 0.123233795 0.12124408 -0.0865246 0.1973403 0.057824556 0.15709531 0.269908 -0.004234412 0.091226 -0.05539418 0.0134589225 -0.0023759992 -0.1041225 -0.22644496 0.15779701 -0.19499849 -0.051481746 -0.030354891 -0.20152947 0.15589084 -0.007598259 0.06449543 -0.111964464 -0.19680391 -0.091521464 -0.048456512 0.019644551 -0.038931843 -0.17079535 -0.023888996 0.14482678 0.22624119 -0.15721036 -0.031240422 0.4258329 0.1224332 0.10375354 0.1639774 -0.028435668 -0.09122974 -0.06596454 0.3521267 0.06432148 -0.026712334 0.24194503 0.04121432 0.03136781 0.03696375 0.0028720621 0.2179715 -0.14024597 0.004926261 0.22335228 -0.16412398 0.19555831 -0.17628357 0.10183825 0.06764866 0.11803114 0.17442738 -0.16487974 -0.058503233 -0.17845708 -0.013679995 -0.1488348 -0.0888471 -0.26517725 0.19784886 0.15386297 0.1458746 -0.04526743 -0.019355576 -0.23203547 0.02051016 0.35837612 -0.10979866 0.06191486 0.029476695 0.27414674 0.23416437 -0.02261208 0.23252971 -0.25468808 0.1916953 -0.052772067 0.057446793 0.14092004 0.31999478 -0.0853912 0.0035538168 -0.20045772 0.03774957 -0.03450242 -0.0750029 -0.054475646 -0.05763291 0.14552999 -0.43226004 -0.27882427 0.17181168 0.1409116 -0.030963942 0.13827305 0.20404983 0.002078118 0.107075736 0.09502749 -0.037216235 0.13229282 -0.24663131 0.14553232 -0.48677707 0.12823987 -0.042168472 0.34763816 0.09592176 -0.25326347 0.08191668 -0.03826098 -0.11588884 -0.1143661 0.17097671 0.021278951 -0.14222859 0.21832398 0.1786587 0.10581629 0.081831 0.14075075 0.14800438 -0.28596 0.014533253 -0.10045439 -0.12755674 -0.040171664 0.09611384 0.027987989 -0.11015626 0.07356157 0.31204534 0.17370746 0.045440763 0.019638937 0.014284403 -0.06979697 -0.10719466 0.029742742 0.022891613 0.027101887 0.22520131 0.10960307 0.15688308 0.17342971 -0.16314286 -0.15841635 -0.11643001 0.16017012 0.22435343 0.062312283 -0.063763574 0.122824535 -0.053707805 0.032868624 -0.0032661592 0.10117637 -0.1779482 -0.21678057 0.3279028 0.09129803 0.036110323 0.115427524 -0.08957579 -0.0067531797 0.32726032 0.12266413 -0.11915571 0.32372102 0.071930416 0.123650335 -0.040114302 -0.049605437 0.14041919 0.07255668 0.20853716 -0.069891095 -0.19660333 0.2792736 0.07760981 0.029544538 0.3096259 -0.26914123
修改 -0.112785526 -0.16184804 -0.24550018 0.27885112 0.049968977 0.43754917 -0.7459534 -0.15734154 -0.13540083 0.33335876 0.49642822 -0.43634897 -0.74903595 -0.20576216 0.109999605 -0.042852174 0.6061378 -0.12739079 -0.16144258 0.2458856 0.0061513497 0.1459796 0.06048839 0.13306893 -0.14620899 -0.7030278 0.23471753 0.49302608 -0.26063815 -0.6592627 0.8531026 -0.25660184 -0.0018979257 -0.36075684 -0.54439664 -0.16791576 -0.6440712 0.18782358 -0.31502762 0.38208228 0.1546094 0.011965873 0.20365143 0.5703837 -0.80743474 0.06739809 0.22677836 -0.22432283 -0.3134757 0.33426788 0.6042229 -0.19137122 0.119708255 -0.044895653 0.22420701 0.31843594 0.3804526 -0.38783726 0.21168794 -0.21783842 -0.28333634 0.010516419 -0.2445237 0.08038969 -0.18882976 -0.16452415 -0.09923932 -0.120596245 0.13076863 -0.5434334 -0.06657358 -0.15036362 -0.12271878 0.26190788 0.6782324 0.52377605 -0.37097234 0.08358627 0.18802676 0.26117337 -0.69953054 -0.48517653 -0.39331034 -0.14081973 0.09417156 0.48782748 -0.6721528 -0.38931757 -0.6283361 -0.117998905 0.18619482 0.1590897 -0.091502026 0.21746767 0.28477687 0.432409 0.007153282 0.43735525 0.14376795 0.11831341 0.23458113 0.52618176 -0.018919302 0.043304317 0.029793179 0.62170553 0.5854247 -0.2991296 0.42366576 -0.104676835 0.41581973 -0.054688144 0.41271514 0.02688945 0.5587833 0.65363675 -0.3665038 -0.1905384 -0.25283387 -0.19633372 0.047231365 -0.24346615 -0.24725285 0.099633284 0.14050932 -0.06027128 -0.41445774 -0.7686863 0.09641945 0.27771512 0.30752203 -0.5164893 0.30054757 -0.28547302 -0.44540045 0.18314734 -0.56191623 -0.532968 -0.5230906 0.19471028 0.21263367 -0.8408144 -0.31541917 0.67405576 0.30170447 0.47999182 0.58285475 0.28915164 -0.4932464 -0.544086 0.719071 0.097178705 -0.004954276 0.56181794 0.07016846 0.013047603 0.30545947 0.11063383 0.53383285 -0.41978526 0.023072217 0.5458327 -0.29692253 0.17325394 -0.15839992 -0.0001874257 0.27955815 0.2761525 -0.49566287 -0.10705493 -0.060841206 -0.3423915 -0.052935746 0.18771996 -0.102135904 -0.6632163 0.3154284 0.0142135015 0.07484638 -0.5997091 0.012207439 -1.015368 -0.2721959 0.17031531 -0.26816657 0.5371009 0.036180057 0.43097532 0.669741 -0.02081831 0.7470322 -0.32026848 0.5170557 -0.6797566 -0.16749117 -0.10622482 0.5588773 -0.2549483 -0.16796751 -0.54293114 -0.189066 -0.3280965 0.17873076 -0.6544471 -0.43379918 0.028841047 -0.7180185 -0.404819 0.07842719 0.41022483 0.16643058 0.48424178 -0.19149466 -0.057414807 0.045410257 0.15504365 0.4632582 0.15666899 -0.20718262 0.08962566 -0.2172542 0.56373554 -0.07319005 0.90225285 -0.32860768 -0.09970826 0.22294651 0.0063441824 -0.25541943 -0.13981469 0.1323522 -0.33932143 -0.025627427 0.5608013 0.39730856 0.5557479 0.41153947 0.32030037 0.30627277 -0.63319033 -0.12170948 -0.34161603 -0.3887709 0.5343818 0.24936512 0.07110819 -0.17034647 0.15001692 0.7202616 0.41910386 0.0702446 0.13581192 -0.17009005 0.03623994 -0.53481287 -0.16781475 0.21059683 0.13264337 0.19289197 -0.15630414 0.2788263 0.78971213 0.34281948 -0.33499882 -0.45579007 0.64270747 0.1551421 0.05839613 -0.19630864 0.20002274 -0.24702924 0.3065026 0.2401875 0.52104396 -0.12716 -0.88134414 0.94412476 0.19660442 -0.05496836 0.13822246 -0.10621475 -0.10790735 0.55284554 0.29402703 -0.2683709 0.78172475 -0.18342046 0.29309016 0.33798873 -0.16521317 0.36736807 0.55705017 0.3444602 0.061826095 -0.471403 0.37976858 0.13735245 -0.16617271 0.3464402 -0.28010964
注册 -0.09876972 -0.37948284 0.2913709 0.47096238 -0.123253524 0.016836973 -0.12514704 0.09916464 -0.21484825 0.31726775 0.08769706 -0.48777294 -0.5236121 -0.08242 0.16250193 0.534184 0.07288624 0.22769912 0.22238494 0.35314417 -0.31076154 0.11051789 -0.08968785 0.21825422 0.21088448 -0.6715989 0.40650222 0.28844544 -0.23958069 0.0518865 0.06592912 -0.020727966 -0.23534986 -0.38576892 -0.22551025 -0.4130044 -0.19950604 0.10263323 -0.32424292 -0.27397683 0.3154341 -0.0257543 0.05801185 0.14389747 -0.09994256 0.08238595 -0.29392704 -0.029948056 -0.05632253 0.39211625 0.6893034 -0.21053825 -0.06704799 0.26863357 0.026053503 -0.34451893 0.299533 -0.103150114 -0.30998033 -0.42317945 0.12480734 0.0799049 0.107576326 0.46330202 0.18233171 -0.2828093 0.2728652 -0.20888469 -0.088869505 -0.49490452 -0.13294777 -0.17880149 0.25167218 -0.07181584 0.11974364 0.22837408 -0.03664448 0.27168158 0.1478247 0.20874256 -0.5934403 -0.28636485 -0.14660136 0.08727342 -0.32279158 0.1770638 -0.3592777 -0.42538488 -0.5173988 -0.3557175 -0.108071476 -0.15037456 0.20842935 0.41765755 0.28712535 0.46178865 -0.36908245 0.12355163 -0.24368045 -0.08995877 0.16056798 0.3156807 0.19444959 -0.3578392 0.07597068 0.43593174 0.33451837 -0.21338306 0.12071611 -0.14835186 0.28802463 -0.026213564 -0.053927302 0.2131612 0.36518434 0.27317417 -0.2705138 -0.15148318 -0.21440035 -0.26215544 0.2252785 -0.15080053 -0.3612714 -0.026389131 0.2297963 0.08747905 -0.66150254 -0.36624393 -0.02216353 0.22383769 0.08228091 -0.3448536 0.1430739 -0.13747214 0.3989167 0.31836003 -0.71766263 -0.15924877 -0.4219523 0.070842244 -0.22339329 -0.4155901 -0.22462744 0.027047565 -0.17664003 0.52981555 0.17904627 0.25747627 -0.011353938 -0.5773713 0.2140254 0.22321892 0.31527174 0.46863225 0.019850489 0.25974426 0.12238737 0.5725899 0.18958974 -0.15454018 0.15825616 0.24480349 -0.32995504 0.015733678 0.038199257 0.027215086 0.35250342 0.17362551 -0.56262124 -0.06233634 -0.1321345 0.07544224 0.07530061 0.16652158 -0.2123728 0.14592181 0.15451148 -0.38224882 -0.4753159 0.09187172 -0.5084662 -0.35239908 -0.28125036 -0.021904605 -0.4998072 0.46281072 0.072669335 0.15615882 -0.11465584 0.123105675 0.23071717 0.18331811 0.37813604 -0.37261027 -0.19607139 -0.058517713 0.21429627 -0.13654481 -0.076199576 -0.5497153 0.11694072 -0.46944705 0.5204718 -0.338021 -0.45639026 -0.08261889 0.10447529 0.42075297 -0.15525617 0.4147062 0.11700939 0.35969758 -0.21330102 0.072367415 -0.04621133 0.16079672 0.58376586 0.13424498 -0.17078109 0.18631057 0.11885956 0.2325456 -0.18983118 0.4285088 0.22657311 0.21166418 0.07868857 0.12235553 -0.10427703 0.0766501 -0.02169958 -0.08025604 -0.21379292 -0.089167506 0.12586412 0.54589343 0.20370048 0.06305672 0.21366747 -0.42342708 -0.005481057 0.2537927 -0.3797074 0.25537193 0.28684822 -0.34923178 0.11222298 0.065582246 0.12261951 -0.25258058 -0.07132684 0.23227005 -0.4208669 0.15705374 -0.8576132 -0.4047067 0.17131138 -0.14345494 -0.019532785 -0.36816615 0.2774065 0.76747394 0.6274094 0.07973188 -0.15805632 0.4435063 0.22423136 0.056445032 -0.47424966 0.12878366 -0.22757196 0.17432651 0.11429158 0.4167951 -0.046707015 -0.8203517 0.49618062 0.348535 0.26466992 0.07167364 0.363053 0.05932034 0.012494448 -0.06796005 -0.39934376 0.020064382 -0.12485856 0.015011759 0.4436014 0.04738115 0.11017978 0.35251194 -0.046642773 -0.036876835 -0.34412885 -0.11939387 -0.011503187 -0.5826829 0.20173845 0.060431518
登录 -0.19912063 -0.3231281 0.21940391 0.18172887 0.018279443 -0.14472991 -0.051447295 0.0676202 -0.17182653 0.20323198 0.04578509 -0.37928042 -0.31487176 -0.027415609 0.014604925 0.18888728 -0.14904243 0.060613293 0.21586004 0.21289074 -0.22620647 0.0055165556 -0.040776085 0.27540776 0.20943452 -0.3830101 0.27265686 0.17558603 -0.15641117 0.05256688 0.10911759 -0.020021431 -0.0415621 -0.1529674 -0.17730512 -0.30681017 -0.09665625 0.1517169 -0.2105252 -0.21494843 0.19592643 -0.06347805 -0.001332288 -0.0016064757 -0.052469753 -0.0041769315 -0.07273962 -0.07737648 0.16052553 0.3068389 0.32272673 -0.15889667 0.037762064 0.022467088 0.078879155 -0.22275162 0.15540592 -0.19359322 -0.23091516 -0.33304843 0.0722695 0.08147572 -0.008496011 0.35491577 0.09438739 -0.06422909 0.18577132 -0.25111905 -0.09919154 -0.41919643 0.052771375 -0.15701337 0.23486306 -0.15306093 0.111467496 0.15671329 0.05910305 0.12588456 0.010744203 0.054953303 -0.26959062 -0.09689178 0.02895174 -0.019422257 -0.2170101 0.09755187 -0.14843568 -0.3551745 -0.16793327 -0.18852292 -0.010742678 -0.08263956 0.16736121 0.252793 0.04509573 0.25241354 -0.20917508 0.029904416 -0.040802617 0.039778206 -0.05122089 0.14012715 0.122638464 -0.22288342 0.031695582 0.33456126 0.20280117 0.07872147 0.1823432 0.020792577 0.22433615 -0.094077416 0.025112145 0.052633192 0.33112273 0.121565856 -0.17875722 -0.08838755 -0.08025172 -0.13825744 0.06549311 -0.030538337 -0.31921434 -0.015734538 0.040355865 -0.07193519 -0.36063427 -0.21024871 0.06587391 0.11825212 -0.08546444 -0.21473508 -0.20738974 0.06259153 0.47358063 0.2119132 -0.418699 -0.027946012 -0.07956311 0.14390355 -0.04610377 -0.12966907 -0.016468948 0.03582354 -0.05288157 0.37761277 -0.015169142 0.22019042 0.06661654 -0.28913456 0.065938696 0.057665434 0.22958283 0.27530655 -0.0785779 0.20127459 -0.09610099 0.42098773 0.056604188 -0.19522694 0.119655676 0.19906873 -0.23245527 0.16509567 0.015053214 0.11338347 0.08661897 0.19286038 -0.18113077 -0.09606477 -0.09716111 0.064793535 0.15540254 0.1726354 -0.20131388 0.18542844 -0.0075144675 -0.14865871 -0.130536 0.18129137 -0.37067184 -0.11504836 -0.20161395 0.037958406 -0.34732983 0.11471596 0.09853729 0.27869168 -0.044572916 0.08443916 0.14516684 0.27173764 0.17081092 -0.03848238 0.07720837 0.0049195127 0.17977099 -0.05277656 -0.036540408 -0.26507065 0.10772737 -0.35193625 0.32022783 -0.23328069 -0.111632 0.04364224 0.111653574 0.29449192 -0.010381955 0.18931703 -0.056480616 0.14182536 -0.1377985 0.14951916 -0.01825927 0.22804652 0.28357902 0.20754956 -0.123944506 0.256947 -0.06766536 0.19395052 -0.24035767 0.16185631 0.2599547 0.014788007 -0.06628324 0.0416294 -0.15499347 -0.041986566 0.07833303 0.14033553 -0.14383182 0.025571719 0.042734258 0.09066506 0.08279767 0.06361402 0.118080705 -0.24217284 -0.0018886846 0.18023807 -0.21505451 0.019656548 0.17165387 -0.44344538 0.027360361 -0.013641418 -0.08151689 -0.22038862 0.012781895 0.08489007 -0.2641656 -0.02942092 -0.45890376 -0.25039887 -0.0034532938 -0.15881976 0.06517659 -0.2654799 0.20977044 0.49623945 0.29302728 -0.0024985038 -0.0330055 0.25312832 0.11136029 0.10177509 -0.38060597 0.010707401 -0.24387756 0.0208544 0.01931031 0.27251008 -0.11219117 -0.5470107 0.24731547 0.24444792 0.34166107 0.09430094 0.28007826 -0.12149349 -0.018894931 -0.1085622 -0.20133755 -0.028070617 -0.0034143645 0.086889364 0.21798593 -0.083364904 0.10997667 0.15158272 -0.052980218 -0.064709224 -0.33835283 -0.081580535 -0.06269191 -0.37625957 0.26702696 -0.009787272
密码 -0.08460404 -0.2095293 -0.20782049 0.31721926 -0.0070500346 0.43562654 -0.68731767 -0.14418139 -0.1260527 0.3531661 0.5216491 -0.4756793 -0.7838462 -0.20825937 0.15642856 0.027491169 0.6355163 -0.1212985 -0.11681459 0.31098625 -0.015150308 0.17754035 0.06465224 0.1270388 -0.14924477 -0.74976254 0.3048306 0.47738412 -0.26072618 -0.61548257 0.8187775 -0.24508508 -0.015892291 -0.40838894 -0.5599993 -0.21607307 -0.6367038 0.16535804 -0.3536355 0.339962 0.20956704 0.011472246 0.21181822 0.5812561 -0.8073205 0.07679218 0.14565651 -0.24675414 -0.29804838 0.36444482 0.6450775 -0.21060656 0.108533256 0.0011824941 0.17565696 0.24586886 0.37838653 -0.35358706 0.16471069 -0.2622997 -0.24581245 0.04909491 -0.22177629 0.1323654 -0.13807258 -0.18469408 -0.06468696 -0.121096514 0.12007629 -0.5879454 -0.10811535 -0.13934119 -0.101582475 0.242872 0.67313164 0.54732794 -0.36450872 0.1218122 0.18324974 0.28018764 -0.74278593 -0.48289877 -0.40839854 -0.13571535 0.060622614 0.48927057 -0.70033 -0.45947358 -0.6796345 -0.19067109 0.1656069 0.13465041 -0.07900502 0.2454776 0.35205567 0.4781386 -0.04788975 0.4349637 0.0800773 0.08016481 0.2602959 0.5219793 0.0042831246 -0.0032958502 0.02888173 0.6066703 0.62005615 -0.29320663 0.42595604 -0.12049919 0.4542074 -0.076198116 0.39539427 0.059401758 0.5886334 0.67869914 -0.39358902 -0.20246156 -0.27333403 -0.23296937 0.09871224 -0.24944437 -0.27328733 0.1293379 0.112598695 -0.014209726 -0.4597876 -0.7744158 0.064362824 0.28075024 0.28384852 -0.5226362 0.3477614 -0.30977347 -0.39847374 0.19737725 -0.6189754 -0.5465727 -0.5544712 0.21420826 0.14672244 -0.8473498 -0.36910984 0.6596633 0.24060501 0.5332756 0.58692026 0.25928304 -0.48892865 -0.6105331 0.71972585 0.12113264 0.011715464 0.61205316 0.075933434 0.043449882 0.3459353 0.1896044 0.5279099 -0.39040136 0.033608705 0.5734317 -0.3337903 0.18078828 -0.13810655 -0.015466658 0.36239934 0.28376848 -0.5623537 -0.11213754 -0.050482254 -0.34154433 -0.05760272 0.1693743 -0.10690726 -0.59441173 0.38039348 -0.050469022 -0.04621119 -0.5704668 -0.05174323 -1.0122333 -0.28191337 0.17099985 -0.33362487 0.57307094 0.07768992 0.40745643 0.6180457 -0.0251386 0.762147 -0.2851653 0.5777651 -0.6958949 -0.21261689 -0.09990964 0.57018805 -0.2463406 -0.16395007 -0.58303195 -0.17458072 -0.3682607 0.2467048 -0.6719689 -0.47789463 0.025402315 -0.66403186 -0.3630374 0.057707507 0.4637824 0.20188756 0.5373886 -0.16239707 -0.04805164 0.062489588 0.15163133 0.54062426 0.1349705 -0.24494214 0.0901012 -0.22211471 0.56018573 -0.08935001 0.9422723 -0.26641497 -0.08993111 0.2391932 0.022648504 -0.26957157 -0.09735008 0.12881331 -0.36672112 -0.052790992 0.5059437 0.42244878 0.64490134 0.4105302 0.25998405 0.30693242 -0.6863082 -0.08736366 -0.29187605 -0.4402289 0.50925624 0.30805382 0.024825387 -0.111595266 0.16833635 0.72159016 0.35504603 0.07094089 0.17535721 -0.20790708 0.09548188 -0.64374954 -0.22323343 0.26621783 0.116391435 0.20947456 -0.16804019 0.30472398 0.87926096 0.42294198 -0.26495188 -0.4371961 0.67381203 0.19912899 0.06044299 -0.25901675 0.21593271 -0.25337264 0.359188 0.22006115 0.53910464 -0.12096646 -0.9637016 0.9694763 0.2186621 -0.024431182 0.13756405 -0.047971778 -0.035796944 0.5450598 0.28951478 -0.334073 0.7958257 -0.18602565 0.25798565 0.39839295 -0.12376773 0.3656718 0.5524468 0.32861933 0.03744107 -0.4656717 0.36170617 0.11196328 -0.2524693 0.36008018 -0.24062257
显示 -0.33028474 -0.4045353 0.18901956 -0.014484888 0.103663184 -0.35952008 0.3035168 0.0357615 -0.14226475 0.045479823 0.12920557 -0.12007244 0.0705461 0.06355635 0.015405775 -0.12635995 -0.40783074 -0.05851974 0.20994529 0.13179283 0.15248215 0.03564134 0.0860084 0.1057728 0.14645898 -0.010070014 0.27630553 -0.005611105 0.13305362 0.26268265 0.018484542 -0.03051974 0.071931705 0.4597412 -0.17938854 -0.28274623 -0.12779303 -0.0036710568 0.0012536453 -0.30846724 0.09596671 -0.025544053 -0.2138643 -0.30219415 0.17468295 -0.10414399 0.1238184 -0.21116494 0.37723562 0.025477331 -0.02414852 -0.19790797 0.29702792 0.07837382 0.06958953 -0.20316093 -0.08468272 -0.1646128 -0.19957662 -0.019402731 0.16540185 0.26100278 -0.03742547 0.23291013 0.29256937 0.08889633 0.27912825 -0.3205635 0.041752707 -0.41836715 -0.056401573 -0.07307436 0.14634259 -0.1436381 0.12379569 -0.0075402698 0.1597604 -0.01605738 -0.17768465 -0.0676166 0.05570649 -0.039855458 0.17968129 0.040003564 -0.23888285 0.10140814 0.07047412 -0.3333267 0.3033034 -0.21030132 0.17508976 0.095837064 0.19704965 0.11191544 0.06955321 0.008329368 -0.24033666 -0.07142759 0.15491036 0.16637367 -0.069818884 -0.023781618 0.10537216 -0.14527719 0.008837575 0.18040037 0.0646961 0.24807009 0.2044628 0.2092289 0.090773135 -0.21816505 0.03126113 0.0913843 0.18428552 0.045254514 0.0031286392 -0.06165111 0.12650484 0.15512963 0.04690653 -0.07168361 -0.3591019 0.006845575 -0.24800631 -0.22505394 -0.006440096 0.043329023 0.19151147 0.012861327 -0.19877002 0.0489825 -0.53346103 0.31259868 0.75708836 0.06858175 0.034265134 0.05148622 0.32612363 0.23626737 0.289755 0.09421505 0.1811771 0.10481384 -0.053773064 0.08997883 -0.25613564 -0.045370996 0.07025939 -0.09019792 0.17266117 -0.020023497 0.21757609 0.17364267 -0.06762092 0.28952166 -0.2148218 0.46612972 -0.08576535 0.03851043 0.072102435 0.11036901 -0.23791799 0.33167532 -0.06731642 0.3132821 -0.01951052 0.27069125 0.3548322 0.0042190035 -0.110156044 -0.030956756 0.14695513 -0.05007296 -0.34932873 0.3455899 0.037344724 -0.006023608 -0.057986304 0.47032782 -0.46290088 0.38603374 0.0023926906 0.33001417 -0.16953631 -0.11963975 0.090978175 0.22092587 -0.22121167 0.17193982 -0.07585945 0.24705583 -0.018699916 0.38795656 0.20311232 0.20527562 0.16242526 0.037986822 0.08584441 -0.062097657 0.33510935 -0.19550636 0.26418355 0.1287335 0.14001207 0.17057411 0.18167119 0.32177007 0.1935642 0.1770066 -0.1499301 -0.07597397 0.16014908 0.19579218 0.06739964 0.20494713 -0.0671696 0.37915674 -0.20662218 0.37500453 -0.5173811 0.026462007 -0.23068991 0.14642002 0.5478111 -0.14923714 -0.1379252 0.047452707 -0.1372854 -0.22102293 0.1505694 0.48759195 -0.36228955 -0.027826585 0.019311782 -0.18150629 -0.00040541988 0.05936295 0.1676441 -0.0057968614 0.070799366 0.30850714 -0.2770668 -0.3206756 0.10208515 -0.56511396 0.0069166142 -0.017526075 -0.23572907 -0.29696512 -0.010647664 0.0034078287 -0.18601865 -0.035183027 -0.16472839 -0.102581 -0.21393275 -0.18099615 -0.0028378146 0.034215212 0.29704177 0.023949368 0.11536393 0.039166104 0.11236985 0.034850836 0.2788337 0.09237062 -0.27772897 0.06579169 -0.09305748 -0.052622296 -0.15081236 -0.05666804 -0.13305674 -0.13457233 0.08121086 0.19669728 0.30468494 0.17982376 0.1583302 -0.09741299 -0.052364465 0.013996848 -0.34374693 -0.09903511 -0.09693801 0.06499763 0.08826798 -0.092800245 -0.023166794 0.024007753 -0.12517066 -0.24205181 -0.21785289 0.015816052 -0.119905904 -0.19489655 0.48103693 -0.12218543
评测 -0.5906487 -0.5110768 -0.050119206 -0.35224152 0.3073975 -0.47613353 0.41400188 -0.10692899 -0.15800554 -0.018081529 0.3447733 0.059592534 0.32482442 0.06476669 -0.040804826 -0.6087746 -0.7392095 -0.36402485 0.17189658 0.1061622 0.6083758 0.08957554 0.39498717 -0.14206195 -0.039471615 0.31752142 0.53534085 -0.34136754 0.4428222 0.23576517 0.1801008 -0.25555333 0.30172348 0.91809696 -0.3807587 -0.2888361 -0.21214704 0.015809258 0.2901019 -0.2075654 -0.035157517 -0.09290786 -0.4026245 -0.36585546 0.083510496 -0.18438089 0.6108892 -0.39595026 0.5951068 -0.23326449 -0.36604542 -0.16117962 0.48861706 0.011657983 0.054811217 -0.007896996 -0.26562276 -0.18078545 -0.108328745 0.22305243 0.13586833 0.40883446 -0.21601713 0.19533132 0.37505886 0.37352136 0.24006446 -0.3640824 0.15787373 -0.56790453 -0.14897048 -0.051696163 0.09729552 -0.19135424 0.39856964 0.022191994 0.118177734 -0.17518438 -0.48522764 -0.16707838 0.31185463 -0.01375411 0.27886555 0.022515023 -0.06262398 0.20258538 0.028713612 -0.29966047 0.73536843 -0.16920914 0.3482103 0.39621118 0.17900798 0.005740493 0.092179045 -0.30147162 -0.16634808 0.025996815 0.49451646 0.42132428 -0.18853791 -0.17147765 0.004472415 -0.055337943 -0.045899373 0.05399027 0.103964 0.5238805 0.29073307 0.46191126 0.015418457 -0.33834484 0.17136146 0.11365263 0.11721342 0.0908153 0.19156325 0.15088788 0.22682938 0.37698767 0.0008919477 -0.1165819 -0.46744606 0.20442112 -0.67451483 -0.35116068 0.2672737 0.18775244 0.40611106 -0.13972901 -0.2841577 0.17859781 -0.9488827 0.31746715 0.8810966 -0.08178267 0.36664152 0.0462536 0.6609198 0.35613754 0.6343466 0.30053148 0.2987126 0.40484995 0.038973015 -0.059997633 -0.3509979 -0.34464228 0.11588416 0.10894543 0.3682442 0.0036667644 0.15278958 0.1848335 -0.053477418 0.32598767 -0.30325386 0.41342956 -0.10761147 0.10623394 -0.0102332095 0.12570919 -0.28336444 0.61097723 -0.2356617 0.5277278 -0.09150492 0.3537095 0.96167266 -0.11706821 -0.14743465 -0.18310528 0.11456925 -0.38610607 -0.4347025 0.25829872 0.20060502 0.29368782 0.12914322 0.68165255 -0.4720946 0.65389764 0.1985019 0.79653287 -0.09864711 -0.2985777 0.13342927 0.39774156 -0.22545214 0.16285583 -0.14031729 -0.026738316 -0.041738797 0.7493282 0.3804022 0.4821115 0.36118028 0.055904306 0.19359769 0.006577979 0.50865614 -0.042277753 0.0029432804 0.44717714 0.3430881 0.4224354 -0.119684 0.08962688 0.47170794 0.21974139 -0.30312446 -0.1417018 0.62898105 0.21253788 0.25584778 0.2333603 -0.43447295 0.5398391 -0.46816862 0.541754 -1.1944481 -0.0693758 -0.22620004 0.19457544 0.8586628 -0.490292 -0.13492078 -0.039820023 -0.1903068 -0.3715505 0.3731309 0.7742741 -0.55342484 0.044214886 0.104251266 -0.36226812 -0.07996628 0.14462702 0.28268978 -0.03476403 0.1782114 0.3334674 -0.29331902 -0.67985207 0.10347109 -0.5474467 -0.09826017 -0.0026733514 -0.16545857 -0.22024427 0.02246929 -0.0674706 -0.03894434 -0.1210479 0.054579526 0.07093478 -0.28622806 -0.13943934 0.19495794 0.37197155 0.39149302 -0.2518179 -0.33674037 -0.011381765 0.1710082 -0.053439148 0.5374182 0.18596949 -0.19831748 0.15219617 -0.044426017 -0.11661818 -0.30290738 -0.25159663 -0.29717657 0.09165039 0.08556935 0.21127434 0.3318342 0.30647612 -0.04540007 -0.040683646 0.20533007 0.09376933 -0.4110423 0.09440612 0.03785986 0.08616447 -0.19474833 -0.12954219 -0.035366282 -0.14881623 0.026164122 -0.35527736 -0.26631674 0.32364196 -0.051266152 0.025482718 0.843557 -0.46120143
时间 -0.28219998 -0.56799597 0.5745716 0.21049318 0.015853064 -0.4951317 0.36259356 0.2213826 -0.21865521 0.09596104 -0.05730902 -0.5049836 -0.18643695 0.16537249 0.018489905 0.307192 -0.29432884 0.15817511 0.46104547 0.31053203 -0.34693 -0.043953616 -0.17149395 0.5280695 0.4438616 -0.4708632 0.25641787 0.28713143 -0.19349845 0.4247693 -0.1370884 0.17612098 -0.14608052 0.13005355 -0.08051865 -0.4814303 -0.04049317 0.054750405 -0.33606252 -0.54973847 0.30612826 0.024676116 -0.11647073 -0.40555638 0.38451943 -0.06427688 -0.3310589 -0.1500507 0.44568557 0.33342418 0.30896914 -0.35236982 0.2583017 0.115341395 0.09282212 -0.61692905 0.09586913 -0.27177334 -0.49851602 -0.350609 0.23388945 0.27650633 0.07564918 0.46267405 0.41177553 -0.14008527 0.43722278 -0.47720557 -0.07835489 -0.51180637 0.045056615 -0.11531351 0.36413404 -0.28524646 -0.13477492 0.030459857 0.33659607 0.11417983 0.008180497 -0.03220879 -0.21478254 -0.048032362 0.15611567 0.02963126 -0.55165803 -0.0034047342 0.13036652 -0.57925403 0.02123614 -0.36539698 0.056976806 -0.20701833 0.30245146 0.31205514 0.07574469 0.38080534 -0.4602782 -0.25897807 -0.100782774 -0.018559448 -0.038107123 0.1386103 0.26095545 -0.35323676 0.12073043 0.4412349 0.050701406 0.20677957 0.29929954 0.08466016 0.32964844 -0.22631784 -0.10832732 0.1061298 0.413614 -0.069136426 -0.20018737 -0.3071538 0.113941565 -0.06695863 0.05328951 -0.025291847 -0.45176196 -0.14551255 0.021351473 -0.28992718 -0.3545139 -0.14883332 0.10237603 0.12483313 -0.32053584 -0.12592962 -0.505606 0.45582828 1.0810724 0.25147668 -0.3279584 0.13311487 0.18570286 0.28204456 0.06456037 -0.054361306 0.18689576 -0.19633237 -0.24335004 0.42474318 -0.26230466 0.24088477 0.069830604 -0.38097298 0.031638842 -0.04310299 0.4384405 0.3003279 -0.13982421 0.39191988 -0.2798664 0.847098 -0.10217862 -0.027444342 0.21196054 0.1373402 -0.3279553 0.32375374 0.08507705 0.2654901 0.03209658 0.35849002 -0.07064559 0.08566063 -0.1015556 0.19162057 0.3091791 0.29775548 -0.37042338 0.7282803 -0.182584 -0.29112446 -0.22767042 0.55323195 -0.7195722 0.32935807 -0.272472 -0.046439555 -0.5030941 -0.04832534 0.17405818 0.239165 -0.3547359 0.21453026 -0.06508972 0.7189983 0.02458968 0.23114875 0.15387124 0.06557914 0.10552013 0.10158493 -0.008246249 -0.17645657 0.33099836 -0.5297449 0.71331775 -0.15702678 -0.00059559185 -0.005214616 0.66266465 0.8116225 0.074377954 0.27724728 -0.14789951 -0.033682436 -0.3150175 0.32817233 -0.12744467 0.2524249 0.32122597 0.3706991 -0.060071338 0.4039382 -0.03999048 0.20608503 -0.48993766 0.10236573 0.5307705 0.09542788 -0.2838531 0.12364326 -0.25452644 -0.14747044 0.08071345 0.53892356 -0.3556108 -0.1694673 -0.018871218 -0.10823258 0.025079781 -0.04424817 0.06837051 -0.037305098 -0.029098384 0.4696418 -0.3478312 -0.26179034 0.21240947 -1.0188445 0.21250902 -0.124551944 -0.49891132 -0.60546887 -0.036763117 0.06723195 -0.434078 -0.041751534 -0.5684462 -0.35401732 -0.1887017 -0.3685189 -0.05282962 -0.41981822 0.3600358 0.43048984 0.68146193 0.23147161 0.122575134 0.16259539 0.11966215 0.0513056 -0.6677102 -0.08278464 -0.2301066 0.019669842 -0.097056314 0.097440876 -0.04401943 -0.53051466 0.15009688 0.22603227 0.5653991 0.19078918 0.4801805 -0.18619955 -0.36005327 -0.17027475 -0.42619032 -0.39372885 -0.17244911 0.14691699 0.36011782 -0.16190496 -0.01568201 0.13054104 -0.42676154 -0.26158336 -0.32981583 -0.2858221 -0.24623688 -0.64545876 0.3883486 0.2629376
保存 -0.11778807 -0.15202698 -0.20016268 0.23956496 0.04534887 0.3621836 -0.6148328 -0.13528484 -0.12766765 0.288077 0.42213833 -0.36914265 -0.6328697 -0.18151729 0.08955668 -0.027471507 0.4741901 -0.10398101 -0.12793198 0.21190323 0.014714919 0.13215111 0.06933265 0.10207966 -0.11617724 -0.5913774 0.2301493 0.40372887 -0.2060938 -0.5428331 0.71235645 -0.22140172 0.0026556533 -0.2981298 -0.4644434 -0.15600158 -0.53946954 0.1662607 -0.25554174 0.3043699 0.13059382 0.0008305345 0.15732832 0.4780028 -0.6779154 0.05546499 0.20695487 -0.18879937 -0.25545478 0.28254685 0.5223015 -0.16147561 0.0947146 -0.023239503 0.19421239 0.26241976 0.32519084 -0.3218065 0.16622433 -0.18008427 -0.22354855 0.015366117 -0.19870275 0.0896602 -0.1429261 -0.1305817 -0.06441585 -0.10835876 0.10274304 -0.4734247 -0.06434703 -0.14158724 -0.087763466 0.21343254 0.5808494 0.43724728 -0.31345075 0.0780095 0.14996639 0.22402029 -0.59004825 -0.41773143 -0.31955332 -0.1081351 0.075347565 0.4140319 -0.57631254 -0.3325149 -0.52391404 -0.11813309 0.15114205 0.14010927 -0.058508635 0.19970234 0.24023853 0.35075343 -0.011441967 0.38014305 0.11720454 0.11590257 0.19800934 0.44272307 -0.012842435 0.015745811 0.01731799 0.52647144 0.5035555 -0.24344401 0.348955 -0.07618778 0.33074164 -0.043982774 0.33895907 0.03408959 0.46931958 0.5554264 -0.30335763 -0.14747255 -0.21711855 -0.16005298 0.048889235 -0.20795575 -0.22849044 0.08927801 0.10991834 -0.04599135 -0.36766136 -0.63875675 0.094298206 0.23547345 0.26015037 -0.43385264 0.2339032 -0.24870427 -0.3362688 0.16295773 -0.48592284 -0.44759455 -0.43975815 0.1606439 0.17346086 -0.704724 -0.2653785 0.57119673 0.24466696 0.41298285 0.4787906 0.24198161 -0.39348042 -0.46434003 0.60944617 0.1025672 0.003657307 0.48863026 0.06216418 0.033346307 0.25615126 0.11351519 0.44855562 -0.35646114 0.023450274 0.45746335 -0.2666675 0.152005 -0.13914113 0.014820991 0.2439178 0.23921876 -0.4082564 -0.09945183 -0.064276256 -0.29034078 -0.03813778 0.14329492 -0.10227979 -0.54865676 0.28027192 0.0039033077 0.04469139 -0.46942705 -0.012166132 -0.8449583 -0.22404458 0.16193217 -0.22890808 0.46542484 0.02145109 0.37372828 0.5449349 -0.0061974865 0.6204204 -0.27302203 0.44064146 -0.5597252 -0.14272544 -0.07240031 0.4804546 -0.22674613 -0.1313013 -0.4801948 -0.14199515 -0.28256258 0.15435378 -0.53226864 -0.37649688 0.031495307 -0.61328137 -0.33319876 0.06336556 0.36261776 0.13971677 0.4133235 -0.14084575 -0.051164884 0.04926654 0.14317311 0.39142257 0.15289004 -0.19941282 0.09056437 -0.20782596 0.46518373 -0.06405418 0.7612767 -0.2418485 -0.0873618 0.19714294 0.007199862 -0.20701623 -0.12549347 0.11782765 -0.27519393 -0.041103445 0.4618278 0.32848045 0.48008028 0.34603596 0.28427762 0.28087506 -0.5456395 -0.09339413 -0.26438037 -0.3420837 0.4464867 0.2189166 0.054954868 -0.14835408 0.13166344 0.611053 0.3369351 0.053300396 0.12316133 -0.15324958 0.03593032 -0.4727258 -0.1528661 0.1764126 0.10985803 0.1614103 -0.12505227 0.2449611 0.6695655 0.27957147 -0.29147613 -0.3804056 0.54626197 0.15853831 0.059690833 -0.16709676 0.185041 -0.21153665 0.25221246 0.20193718 0.44727767 -0.11778452 -0.74831814 0.8023289 0.19381812 -0.03439137 0.11988057 -0.07680135 -0.08606217 0.47693542 0.23538244 -0.238176 0.65311134 -0.14328583 0.23891145 0.28826752 -0.124406666 0.31247082 0.47102705 0.29922011 0.051387552 -0.40803492 0.3203212 0.124194615 -0.14705928 0.31589153 -0.25576335
成功 -0.10990639 -0.23018005 -0.0047797915 0.25747806 -0.008309571 0.15248096 -0.3384548 -0.030549549 -0.13487472 0.25611183 0.2565864 -0.34993774 -0.47933754 -0.1133027 0.10624214 0.14238414 0.22615762 0.010497445 0.030852072 0.23195733 -0.086793035 0.09917271 0.014436897 0.12679459 0.014115788 -0.50535995 0.27733123 0.26945114 -0.17156689 -0.23740672 0.378281 -0.13189882 -0.063569106 -0.25666878 -0.32004258 -0.23483956 -0.3316251 0.11829614 -0.22818366 0.049472086 0.17562577 -0.017061811 0.09550356 0.28243193 -0.37082198 0.052614808 0.017059902 -0.11971214 -0.109546065 0.27517387 0.46562174 -0.14971939 0.03376562 0.06400052 0.08896376 0.013354989 0.24520974 -0.19661751 -0.03606856 -0.2513954 -0.07802719 0.039824262 -0.069768615 0.21722949 -0.009238601 -0.12896223 0.06219636 -0.13116753 0.01704749 -0.43162057 -0.08203422 -0.12665734 0.0450057 0.061088063 0.3446597 0.30445263 -0.16056566 0.12602703 0.08467037 0.16899773 -0.47606367 -0.28664005 -0.20074803 -0.036067303 -0.076336645 0.26907468 -0.4043608 -0.32048795 -0.40594175 -0.17868398 0.045975246 0.027830116 0.045054246 0.23582922 0.21584924 0.32417712 -0.1317837 0.22032186 -0.0018720328 0.03521521 0.13548753 0.29786187 0.06185883 -0.10407437 0.025252284 0.3983657 0.36829618 -0.15144931 0.22520274 -0.076845184 0.27492878 -0.05274963 0.1542788 0.090524994 0.36499667 0.3793611 -0.2458681 -0.10314568 -0.18668057 -0.16497555 0.10605438 -0.15278964 -0.2561543 0.053633716 0.09479674 0.00755099 -0.393423 -0.42342272 0.03724402 0.18830281 0.12921855 -0.32754582 0.124602854 -0.17103072 -0.007720528 0.18506426 -0.48222837 -0.2601865 -0.33160815 0.124464706 0.018618483 -0.45172036 -0.20592372 0.30520785 0.050436296 0.38694525 0.28246498 0.18549088 -0.18548074 -0.40649801 0.37175333 0.12149202 0.13000678 0.39725384 0.024240026 0.103140034 0.14010902 0.2589643 0.26747602 -0.22438501 0.06813625 0.3277169 -0.24493052 0.09914345 -0.06014189 0.030424157 0.23950489 0.18537349 -0.3572312 -0.08995865 -0.074460864 -0.11205908 0.009266555 0.10001521 -0.13278449 -0.21695659 0.19692989 -0.106478974 -0.14210384 -0.18370475 -0.19588172 -0.5149488 -0.20088036 0.100768335 -0.30461705 0.3627584 0.05572973 0.25459546 0.22239898 0.031036885 0.37558854 -0.06320351 0.35939622 -0.3685482 -0.111483485 -0.043386407 0.32452473 -0.15554176 -0.09702581 -0.4204283 -0.015555892 -0.3017565 0.24179363 -0.3648699 -0.3157263 0.007944373 -0.2678937 -0.02468003 -0.012128265 0.313138 0.09272436 0.33324638 -0.113533646 0.014316368 0.026918685 0.13572195 0.3757529 0.13192901 -0.17509049 0.1345099 -0.107524425 0.3108687 -0.09919106 0.51419914 -0.0039560967 0.0073517878 0.104314186 0.037440334 -0.15620148 -0.019910464 0.0621088 -0.14278407 -0.09460556 0.1989138 0.21656372 0.39675575 0.22965819 0.1464242 0.2091068 -0.42361584 -0.044964205 -0.02805439 -0.29653433 0.27082077 0.21261421 -0.11230636 -0.03211887 0.08980705 0.31987453 0.06869107 0.015433679 0.13248703 -0.22134373 0.06976919 -0.5247938 -0.21170403 0.14128733 -0.0008396981 0.098101355 -0.17781553 0.22238532 0.6040531 0.32466075 -0.10492095 -0.2313282 0.41280997 0.16462807 0.06562697 -0.25524077 0.12577792 -0.19150564 0.18460132 0.12810987 0.3645341 -0.07958928 -0.65330845 0.5576492 0.21161476 0.097952 0.09158793 0.09464907 -0.022469848 0.24361385 0.10284723 -0.26271096 0.3353957 -0.09970126 0.11607501 0.2729396 -0.057812892 0.19137175 0.32826978 0.13772407 0.0054398496 -0.3256732 0.13080716 0.046495985 -0.27053776 0.24147496 -0.11812242
邮箱 -0.15972354 -0.2779744 0.00013478266 0.35004213 0.018543592 0.20572905 -0.4637973 0.001625052 -0.22677541 0.30075505 0.19881447 -0.42860964 -0.5910282 -0.14467461 0.08375246 0.31090096 0.18637952 0.05097898 0.024746137 0.27268222 -0.19516236 0.124648355 0.040990975 0.13542807 0.07905413 -0.6800185 0.39339125 0.31745765 -0.23915187 -0.2682589 0.37391356 -0.17630859 -0.130496 -0.43010515 -0.31521848 -0.2909071 -0.33881643 0.25496963 -0.2227625 0.024099048 0.23215719 -0.144586 0.12106639 0.3725754 -0.43315572 0.06949934 0.07621368 -0.008372065 -0.17913415 0.35266152 0.6354511 -0.07377755 -0.12683097 0.11541923 0.08919418 -0.029168855 0.39076257 -0.15196279 -0.0914976 -0.39150912 -0.08429601 -0.02843299 -0.047880545 0.34861425 -0.03616871 -0.13799727 0.082152866 -0.13127787 -0.0600103 -0.48457262 -0.054826185 -0.22297545 0.10208386 0.03233329 0.3333728 0.36149442 -0.2408226 0.19269817 0.16110113 0.24747153 -0.63711405 -0.40120313 -0.24495693 0.05947207 -0.07804714 0.2734627 -0.52953833 -0.24361232 -0.5682171 -0.20146145 -0.018045185 -0.00012609691 0.072294995 0.3552503 0.23951155 0.36824417 -0.17127068 0.32440382 -0.03860721 0.058525257 0.18077184 0.36839077 0.019253971 -0.2086406 0.009188139 0.48831895 0.47474712 -0.23197743 0.19567929 -0.13425376 0.20125856 0.018935446 0.11989586 0.131675 0.36728474 0.37992284 -0.27509603 -0.06750245 -0.29139644 -0.2491344 0.12918983 -0.16952203 -0.25391445 0.016755888 0.21515718 0.026189767 -0.6189274 -0.4566386 0.032622587 0.24391359 0.19369064 -0.47440326 0.1950441 -0.3323204 -0.00095631153 0.27439982 -0.70730466 -0.27221406 -0.48126748 0.056575704 -0.07894508 -0.5354363 -0.27144262 0.2794879 0.040943813 0.48301542 0.32023183 0.29430506 -0.13082191 -0.500377 0.35184738 0.2490114 0.21995081 0.41794518 0.01799036 0.14802435 0.17649601 0.31354374 0.30988467 -0.31550193 0.08501557 0.3319352 -0.26688954 0.083120264 -0.051434323 0.023412647 0.29105407 0.19175151 -0.48740023 -0.15293598 -0.14034371 -0.047788814 0.027987402 0.12720463 -0.13465893 -0.2886643 0.22668378 -0.1762104 -0.23703517 -0.18677832 -0.2469282 -0.6502594 -0.29349008 0.026376598 -0.36453983 0.57553977 0.0010476147 0.3006687 0.18282627 0.027989289 0.3973402 -0.12553535 0.45339766 -0.46740988 -0.16098066 -0.057328895 0.3623877 -0.23762745 -0.094795614 -0.58379614 -0.017853715 -0.36795887 0.2385256 -0.39605427 -0.46164456 -0.019707887 -0.3540975 -0.021643454 -0.08824841 0.41018775 0.0922776 0.45402437 -0.15642966 -0.052854795 0.07048033 0.18050462 0.47278017 0.16519861 -0.20073739 0.13161722 -0.041829687 0.3435537 -0.06553884 0.49140653 0.00988358 0.107004434 0.18239285 0.03895985 -0.112786114 0.022613345 0.077095374 -0.17080152 -0.08390357 0.16275252 0.22581518 0.55080223 0.26289165 0.262062 0.30184776 -0.5455578 -0.03502005 0.020381948 -0.34776476 0.41547346 0.227007 -0.03724265 -0.057761226 0.11894766 0.41295448 0.0589695 0.0046288124 0.18472497 -0.30879128 0.10859792 -0.7272723 -0.28116593 0.25618082 0.0349835 0.04828951 -0.26450592 0.23430769 0.75081694 0.3454656 -0.17015046 -0.30126315 0.55471855 0.22094049 0.120710544 -0.29226074 0.16904397 -0.2528695 0.17335342 0.22016306 0.51130337 -0.09076421 -0.80035394 0.67581457 0.3412414 0.11472405 0.051872388 0.10381588 -0.025363995 0.30143607 0.03132804 -0.22549012 0.33374912 -0.030935353 0.077866994 0.2629641 -0.037694216 0.25205728 0.4235935 0.21439138 0.12941533 -0.45193672 0.117776796 0.15593578 -0.29804012 0.26711527 -0.20397025
成绩 -0.5301851 -0.7597309 0.41382724 -0.015182649 0.15260266 -0.71724707 0.60837734 0.17600691 -0.19548222 0.08233822 0.1948636 -0.12440587 0.17103727 0.15771694 0.106840886 -0.21891518 -0.6506011 -0.017542202 0.31950456 0.12124637 0.24436694 0.04616899 0.08758542 0.29507777 0.3272286 0.07280816 0.27773902 0.11124196 0.24228136 0.57510394 -0.028778445 0.04566737 0.12206095 0.932172 -0.18630412 -0.49736714 -0.21527782 -0.09873747 -0.028440993 -0.61318845 0.19625822 -0.031005882 -0.29456767 -0.6343435 0.38870123 -0.23983851 0.10851381 -0.3474804 0.69625866 0.039368246 -0.15577132 -0.30767176 0.5349958 0.08713526 0.11138248 -0.3546464 -0.21360101 -0.2666311 -0.38501766 -0.06927909 0.24274087 0.44273418 -0.019759832 0.33651868 0.49947652 0.23297416 0.52411246 -0.539038 0.09665237 -0.6847941 -0.049745567 -0.09450766 0.07985217 -0.190313 0.11591072 -0.114692226 0.3222711 0.030042034 -0.29074195 -0.13268618 0.18919252 0.013915937 0.30757782 -0.0022641092 -0.5159356 0.16422255 0.32412946 -0.5972168 0.5936285 -0.38237447 0.40206206 0.124619305 0.33556178 0.14449252 0.08117307 0.06493411 -0.4410807 -0.25895184 0.28265336 0.24221022 -0.08743116 -0.20434779 0.15313736 -0.13291365 -0.092379995 0.31494936 0.06212163 0.4624036 0.4102958 0.3175291 0.07314702 -0.41105148 0.046342906 0.043829035 0.31190944 0.13503617 -0.110879205 -0.14355382 0.20345578 0.36697057 0.069428705 -0.056474566 -0.54248583 -0.08130247 -0.41641435 -0.4377278 0.13305947 0.2163933 0.21961305 0.10505646 -0.42267168 0.13856778 -0.8610183 0.63300633 1.2846119 0.08969099 0.09973753 0.17601171 0.68726397 0.4139399 0.5717591 0.28833508 0.3032931 0.15931346 -0.08838586 0.07237421 -0.5759707 -0.108803146 0.039007314 -0.049560636 0.25345644 -0.13135536 0.48119664 0.14089707 -0.17780396 0.48077646 -0.50154984 0.8008552 -0.31192163 0.14338122 0.09304194 0.22519058 -0.36256245 0.52956456 -0.08797645 0.5849297 -0.09606157 0.5066322 0.6097317 0.14048561 -0.14121476 -0.025356276 0.27386582 -0.083625354 -0.68953794 0.5963993 -0.0034136304 -0.00031045044 -0.19761893 0.76376855 -0.80242926 0.77245975 -0.0069938935 0.4778155 -0.17889185 -0.29018223 0.15927261 0.2989044 -0.38655287 0.29667684 -0.22173807 0.5848994 -0.0802571 0.81526834 0.38837886 0.26818287 0.20161909 0.04756189 0.09581437 -0.01866599 0.60878986 -0.3410327 0.42316094 0.2792777 0.41148332 0.27234995 0.40878922 0.60280436 0.30071107 0.22644801 -0.24845406 -0.15514383 0.23151836 0.38215306 0.1428754 0.37192968 -0.17404303 0.7104945 -0.2620732 0.6879674 -0.8707738 0.091595136 -0.34388626 0.1613081 0.9479498 -0.19485019 -0.32344183 0.059118994 -0.26271087 -0.328844 0.1869194 0.8945497 -0.518579 0.0024225102 0.035480402 -0.5234877 -0.01781572 0.057821244 0.304911 0.105878964 0.050602615 0.5754373 -0.5082613 -0.5289193 0.110372275 -1.0189835 0.015517666 0.02281633 -0.625122 -0.5484701 0.025903665 -0.048044212 -0.3416461 0.03959583 -0.11706453 -0.16064619 -0.48480952 -0.26286575 -0.15793546 0.07408953 0.46913156 -0.09181945 0.254954 0.074810214 0.25053713 0.020789534 0.39511898 0.17302637 -0.36718607 0.06456777 -0.18177055 -0.052427724 -0.21537256 -0.10719803 -0.11787091 -0.10366727 0.055806134 0.31849474 0.4762945 0.27700806 0.2942803 -0.25895518 -0.19428556 0.14340998 -0.6522961 -0.21065196 -0.30279976 0.06796002 0.13871074 -0.25743857 -0.06257295 0.05656273 -0.24777746 -0.39536938 -0.35152546 0.00017496233 -0.2986452 -0.25390327 0.763213 -0.19618683
查看 -0.36184245 -0.4264633 0.22893132 0.004095301 0.10195357 -0.4429952 0.30832604 0.059182227 -0.1531948 0.072126836 0.12853746 -0.1386615 0.102798365 0.08998321 0.035754457 -0.13885795 -0.43946683 -0.021166522 0.2354453 0.1109089 0.081311435 0.0031717357 0.03137013 0.16271366 0.19673206 0.022533057 0.23729256 0.0395238 0.1014245 0.29892448 -0.0139138205 -0.024230504 0.08027557 0.5022381 -0.17803183 -0.32620066 -0.13204803 -0.014581091 -0.0315318 -0.35690916 0.11079759 -0.016502146 -0.20421985 -0.35943258 0.21773902 -0.12453724 0.080391094 -0.21139081 0.42151734 0.0449004 -0.04629025 -0.21267197 0.3019002 0.043260224 0.06338746 -0.23601405 -0.12386608 -0.201302 -0.23337506 -0.10670056 0.14727417 0.26953632 -0.015506133 0.26710325 0.25319222 0.095877334 0.29512882 -0.34586638 0.03788684 -0.45706385 -0.012781645 -0.10357835 0.13516891 -0.17930523 0.08074236 -0.0060226563 0.21737808 0.0046491018 -0.20197289 -0.08132255 0.07133024 -0.019413464 0.21629612 0.0006109029 -0.3025393 0.09863127 0.11464632 -0.39237684 0.34769323 -0.1940778 0.20913872 0.071497984 0.2266204 0.113872126 0.037886452 0.062410146 -0.24772613 -0.13063739 0.16232017 0.13923107 -0.09782048 -0.045742642 0.1386487 -0.11496381 0.019024879 0.20075081 0.018446045 0.28249475 0.22951439 0.20120148 0.1244287 -0.26394546 0.024353875 0.08251846 0.22926804 0.06410646 -0.059561715 -0.080487765 0.15342796 0.17294483 0.06739861 -0.054492712 -0.404302 -0.032174394 -0.25266606 -0.2489803 0.0063301804 0.069991454 0.1607844 0.034924693 -0.25445637 0.07164139 -0.5492381 0.3866748 0.8363776 0.10056988 0.022923788 0.080711514 0.39945677 0.26625314 0.29953215 0.14309812 0.20817906 0.0974854 -0.08107543 0.09651668 -0.2961594 0.0042115264 0.10420541 -0.065446526 0.15302137 -0.06271191 0.29762068 0.12316892 -0.1215926 0.2785337 -0.3056526 0.49374697 -0.14400998 0.03831008 0.07711386 0.12021761 -0.22731768 0.325268 -0.049102847 0.33971843 -0.068505846 0.28664392 0.37140045 0.016156353 -0.12946372 -0.009659068 0.17731233 -0.0037583052 -0.39694592 0.40271813 -0.0033069907 0.008698641 -0.07444294 0.47650734 -0.5121016 0.44130275 -0.0101091545 0.30534428 -0.17371261 -0.17613924 0.12529181 0.23130333 -0.24240874 0.18722221 -0.08823601 0.34285483 -0.009121034 0.43754277 0.25386584 0.1887554 0.12723503 0.04802348 0.038061257 -0.03286756 0.3734257 -0.21728936 0.28220367 0.09882697 0.18935618 0.17695248 0.23627846 0.3997796 0.18303281 0.14279683 -0.18156102 -0.09288166 0.14533299 0.2369811 0.09164975 0.2400245 -0.08571404 0.41465703 -0.1354014 0.42705116 -0.52457094 0.04708903 -0.23560488 0.10863603 0.5932126 -0.15510249 -0.21637109 0.030129462 -0.15187667 -0.2213662 0.1281371 0.55251765 -0.3508107 -0.0060345237 0.028011404 -0.26547307 0.029316075 0.025104221 0.15060526 0.016887095 0.055120166 0.34659946 -0.28332293 -0.35551837 0.08141084 -0.63808286 0.0020247397 -0.020621574 -0.32124102 -0.33633655 -0.0010051335 -0.0108027635 -0.21546102 -0.037453108 -0.18539287 -0.10852323 -0.26957253 -0.21361245 -0.041915607 -0.0029983218 0.26175508 0.058934197 0.14559661 0.052961722 0.121198215 0.022552522 0.24079287 0.10046792 -0.29080173 0.041876905 -0.13484155 -0.07515404 -0.1521925 -0.04570508 -0.109353036 -0.17922217 0.04591844 0.1904458 0.36149615 0.20198466 0.1794037 -0.14813705 -0.10485297 0.040099923 -0.36512026 -0.12977937 -0.13069575 0.06695478 0.09055635 -0.117665775 -0.043540813 0.03005312 -0.16281766 -0.2559313 -0.24745075 -0.002142691 -0.16516568 -0.21297061 0.46668252 -0.09033485
系统 -0.18235506 -0.2293835 0.040200967 0.093913496 0.04523961 -0.06089543 -0.062559076 -0.023425207 -0.11691206 0.15881735 0.1590247 -0.19160655 -0.18832868 -0.059702 0.03678176 -0.0055451323 -0.11457647 -0.031630002 0.096156925 0.14085396 0.023698783 0.050075542 0.05641129 0.063699804 0.047163714 -0.18611322 0.25750846 0.06654959 -0.009824829 -0.02835171 0.18209471 -0.102598034 0.026613792 0.029813541 -0.22549196 -0.19980599 -0.1762172 0.07447833 -0.07552474 -0.09003537 0.10104829 -0.033224408 -0.05049807 0.034014046 -0.13139792 -0.0039774394 0.086077996 -0.13040732 0.100780144 0.13161267 0.18318792 -0.12790482 0.09732108 0.040303685 0.059360735 -0.040753584 0.06143543 -0.15238672 -0.08058959 -0.12532379 0.034108423 0.10024628 -0.047225635 0.2114064 0.071952194 -0.007848288 0.11278832 -0.17421518 0.007500332 -0.3526463 -0.04511616 -0.09665265 0.10591993 -0.050169174 0.22357757 0.14178023 -0.017042825 0.049016967 -0.058045555 0.045148775 -0.17061192 -0.11678817 0.0065353764 -0.016744073 -0.09109304 0.16173968 -0.18118638 -0.26477215 -0.049519703 -0.13053082 0.055643987 0.06029225 0.10262337 0.14323497 0.0958551 0.119049765 -0.11980205 0.10208451 0.069063134 0.08943385 -0.020173606 0.112686045 0.07277171 -0.10477323 0.014862435 0.2179598 0.1938674 0.050544888 0.1512054 0.06411771 0.16471379 -0.10164242 0.08229427 0.07768139 0.22354263 0.1861569 -0.084001094 -0.024600217 -0.047635656 -0.02621228 0.06764699 -0.08410509 -0.2663272 0.0598415 -0.07363063 -0.04907849 -0.17812763 -0.16376218 0.09466704 0.0629742 -0.008927087 -0.12166757 -0.17259288 0.018133221 0.27936235 0.11672777 -0.21334568 -0.096926615 -0.031200588 0.13176577 0.09187015 -0.11816442 -0.022430446 0.19107643 0.011718783 0.21120165 0.030858252 0.06496025 0.0049204 -0.18508932 0.19777417 0.059724655 0.11723223 0.24132729 -0.022004072 0.14226925 -0.027586592 0.25418207 0.10043402 -0.11076526 0.05322813 0.18336876 -0.19577041 0.15697521 -0.064638205 0.120316304 0.09427135 0.15814224 -0.005938237 -0.090218656 -0.08763004 -0.06397338 0.059675112 0.01168244 -0.18238163 0.019891366 0.109254204 -0.029429778 -0.066658646 0.10146597 -0.24599011 -0.09603785 -0.06882101 0.21093023 -0.20362425 0.087249584 0.06275692 0.22510634 0.02189538 0.06629239 0.15139607 0.038589995 0.16166617 -0.01651318 0.047998663 0.070262834 0.20724477 -0.06031053 -0.0041452893 -0.2112876 0.11249107 -0.19138084 0.16643491 -0.11292398 -0.081250034 0.09617254 -0.088074826 0.08330721 0.06308695 0.17475437 -0.024606343 0.118313 0.059311483 0.08549804 0.050147325 0.1528092 0.118234575 0.1805498 -0.16835248 0.21251462 -0.2708459 0.12339159 -0.124790944 0.26201275 0.22618221 -0.09314785 0.0007707929 0.024625523 -0.10406699 -0.07755468 0.09392553 0.10226619 -0.1717851 0.08540754 0.09243562 0.10757383 0.092339255 0.08720226 0.14894725 -0.2164868 0.025487766 0.08764685 -0.20272416 -0.012917118 0.12807778 -0.23250361 -0.028908944 0.036954205 0.06886753 -0.067089476 0.006109536 0.064921856 -0.14437576 -0.0024416593 -0.2895325 -0.12164842 -0.015493786 -0.07859542 0.0844243 -0.052193794 0.18856755 0.2911101 0.11092684 -0.045633484 -0.052551366 0.18682174 0.17983295 0.07498195 -0.2088878 0.07876973 -0.1393237 0.031546295 -0.015089588 0.16040207 -0.120635666 -0.3486865 0.24318045 0.17769678 0.17674634 0.09938807 0.111841254 -0.03889816 0.10314376 0.022386162 -0.21037301 0.11256099 -0.022200799 0.0701875 0.12092057 -0.0347418 0.08020485 0.12266342 0.049191937 -0.08615057 -0.2363474 0.06675437 -0.019953577 -0.18312415 0.27975425 -0.1228122
用户 -0.19551665 -0.26387268 0.051960185 0.09680161 0.049932204 -0.08958057 -0.039755132 -0.008712298 -0.12456324 0.16055246 0.16878228 -0.19175665 -0.17191909 -0.045183606 0.05420365 -0.00035571377 -0.15353516 -0.026134785 0.12002521 0.15293843 0.044789642 0.051478222 0.06105382 0.0630011 0.05411084 -0.18532379 0.28351268 0.0485028 0.0031814422 0.010321094 0.16163512 -0.104804404 0.016924214 0.06560973 -0.23679152 -0.2244451 -0.17554179 0.06488747 -0.07310818 -0.11986507 0.10060855 -0.028140305 -0.06393414 0.015882052 -0.10291681 -0.0026362392 0.07930258 -0.1423362 0.12350737 0.13047393 0.19024156 -0.14517821 0.11936532 0.062106945 0.052050423 -0.0599377 0.059053943 -0.1497661 -0.114100575 -0.12057912 0.043072753 0.11709315 -0.039142005 0.22312908 0.10454114 -0.00074630807 0.1358857 -0.18979937 0.0077076317 -0.37176704 -0.07362612 -0.08452589 0.11766382 -0.056761593 0.2289012 0.13407873 -0.0039125704 0.050818715 -0.08486459 0.03551637 -0.15864478 -0.11684489 0.005838053 -0.005566643 -0.11398766 0.16224845 -0.17366512 -0.2651393 -0.03593488 -0.14446491 0.056762185 0.060709927 0.11912507 0.15170573 0.10831872 0.1135995 -0.14247987 0.090115696 0.074994385 0.09612583 -0.01424958 0.104417615 0.07867638 -0.11791086 0.012657608 0.2173862 0.18722656 0.062132165 0.14435056 0.064911135 0.16459626 -0.111282796 0.06878081 0.08716135 0.21833512 0.1893356 -0.08462523 -0.01431051 -0.0525072 -0.022360723 0.07070106 -0.086842045 -0.29789338 0.056238417 -0.0858597 -0.049117733 -0.1891447 -0.14899926 0.10157183 0.06525674 -0.016792703 -0.114504665 -0.21031643 0.030899888 0.3268337 0.11287096 -0.20329073 -0.07582242 -0.020728644 0.14441903 0.10184721 -0.101795696 -0.013620026 0.18637036 -0.01610465 0.21259546 0.015723336 0.048129477 0.011740447 -0.18699251 0.20997924 0.07037817 0.14724 0.25486618 -0.017633475 0.15590744 -0.043955352 0.2815209 0.089873336 -0.08584214 0.06061561 0.18760234 -0.21231693 0.16099568 -0.07192243 0.14642255 0.105904736 0.17091915 0.011846593 -0.09015092 -0.08991654 -0.049545553 0.058298264 -0.023797985 -0.19914947 0.04381761 0.10981758 -0.039203975 -0.093872905 0.15083602 -0.28602004 -0.055676367 -0.06466479 0.23621748 -0.22765046 0.084360346 0.059005283 0.22204292 -0.0066859704 0.07246486 0.12434487 0.052557506 0.15934204 0.012821505 0.04439381 0.08241051 0.21586372 -0.06440087 -0.0045058792 -0.22775845 0.14945863 -0.19545914 0.1737251 -0.0811273 -0.07687325 0.096163705 -0.07003701 0.121627994 0.06835415 0.18656968 -0.028820518 0.112614684 0.07181156 0.09322792 0.04326478 0.15554741 0.112981066 0.20155634 -0.19542892 0.23512009 -0.29269433 0.115942635 -0.13917142 0.26458737 0.26160565 -0.083128 -0.007872445 0.029287992 -0.12274403 -0.07076985 0.09438293 0.12735201 -0.2037663 0.05331001 0.088167526 0.10520788 0.081185445 0.08545518 0.15568167 -0.21690479 0.021532765 0.12019373 -0.20697275 -0.03904511 0.13528323 -0.26530612 -0.021537391 0.043275062 0.044448823 -0.09506874 0.0037660648 0.06385453 -0.15860866 0.0006228051 -0.30122003 -0.12724209 -0.02176472 -0.09418309 0.08023844 -0.04558033 0.21101055 0.28770444 0.11577328 -0.02445546 -0.038919356 0.17725706 0.2068526 0.080668405 -0.22397786 0.084174186 -0.12764388 0.03838785 -0.020708343 0.1492999 -0.1159227 -0.33568808 0.24615477 0.18473856 0.19517316 0.110072725 0.12790906 -0.029501788 0.09323505 0.024497245 -0.23644906 0.090088956 -0.032256376 0.059392232 0.12583324 -0.036521375 0.0711979 0.11357433 0.03278886 -0.10537772 -0.22809249 0.06423731 -0.019216038 -0.19871797 0.29187667 -0.121791676
功能 -0.2523348 -0.20923388 -0.10468671 -0.018587755 0.1228877 -0.04178797 -0.13062444 -0.07953967 -0.11810858 0.1363179 0.24966419 -0.111207046 -0.12456177 -0.068845704 0.017626852 -0.1783492 -0.18009329 -0.1311293 0.03525278 0.09478585 0.16502017 0.05420368 0.15776226 -0.03479587 -0.027868155 -0.075949445 0.30881178 -0.022327075 0.058054786 -0.10475273 0.27870315 -0.18924376 0.10972956 0.13120545 -0.28574646 -0.1641209 -0.21724334 0.10459917 0.030577067 0.017316496 0.026971389 -0.07678563 -0.079104796 0.0896151 -0.22784871 -0.008897648 0.28271943 -0.16302902 0.1146691 0.06435042 0.080367215 -0.06699886 0.123548836 -0.015604643 0.070291154 0.10913183 0.032363843 -0.15386975 -3.2206568e-05 -0.055043302 -0.037168615 0.08907852 -0.10826959 0.15737154 0.02085289 0.108230926 0.051790647 -0.1479436 0.044284906 -0.35442087 -0.062212825 -0.097507104 0.043452505 -0.025765764 0.344235 0.16860566 -0.078288294 -0.008053512 -0.15036015 0.01697794 -0.09660409 -0.13924724 0.0019877325 -0.01941181 0.017747229 0.20163012 -0.22353819 -0.18403251 0.045207012 -0.06634524 0.100754224 0.17416479 0.074743144 0.09033919 0.07273347 -0.0009687173 -0.039197933 0.16066809 0.18875998 0.19602184 -0.03740965 0.07971619 0.008248835 -0.028284496 -0.025840305 0.16213746 0.20916912 0.11372609 0.15193585 0.11580277 0.09504941 -0.10629459 0.14642853 0.0611386 0.1826531 0.22990139 -0.041324615 0.070058316 -0.04975682 0.02636704 0.043293394 -0.08987798 -0.27299082 0.10525925 -0.17579998 -0.07121845 -0.09727991 -0.13383996 0.15006879 0.027182167 -0.0006555706 -0.09994329 -0.25035918 -0.031645697 0.18351613 0.066544496 -0.11324173 -0.099229924 0.032339882 0.15068337 0.18722203 -0.08440543 -0.010411803 0.32395184 0.059832975 0.13513961 0.041368034 0.0021114014 -0.003101705 -0.09148853 0.27230686 0.072553 0.081207566 0.21387127 -0.01119738 0.109243944 -0.044463288 0.137169 0.11340241 -0.12256705 0.019338327 0.20511048 -0.18349136 0.20617177 -0.12696372 0.15772355 0.051745214 0.15707232 0.16472714 -0.13935128 -0.09459298 -0.12251828 0.030991878 -0.1055549 -0.17733759 -0.12107189 0.16665228 0.0918465 0.03060274 0.092441365 -0.16727713 -0.09947695 -0.005094553 0.32647496 -0.13329412 0.06567464 0.043264803 0.27645856 0.09292402 0.04075362 0.15450878 -0.112606294 0.17461924 0.048276905 0.09043 0.13607787 0.27474776 -0.09103012 0.004275436 -0.20388904 0.12909263 -0.09723398 0.00944875 -0.034685053 -0.03102564 0.15519364 -0.28002772 -0.10006252 0.12682973 0.16087556 -0.057875294 0.12333589 0.19187936 0.04129725 0.12014379 0.16318484 -0.016253106 0.22055723 -0.23078452 0.2280757 -0.4661462 0.10711187 -0.07117113 0.26887277 0.23933956 -0.19004814 0.021125356 -0.016341079 -0.10783048 -0.11541731 0.15029672 0.12575068 -0.17439453 0.15250152 0.12482844 0.055743854 0.08541216 0.14145224 0.18881829 -0.24860677 0.027023919 0.035756268 -0.1777332 -0.0625847 0.093448095 -0.11327271 -0.10674268 0.06582933 0.1634043 0.034028918 0.03301166 0.028989578 -0.07488417 -0.03157878 -0.19044423 -0.04018125 -0.013809151 -0.026077816 0.13091196 0.07020295 0.18321277 0.2058299 -0.09450951 -0.1250172 -0.06499154 0.16818225 0.24258026 0.10489186 -0.115811564 0.121707335 -0.116265155 0.003015208 -0.016710334 0.12411175 -0.1599017 -0.2570252 0.26658872 0.16950019 0.13747075 0.115033895 0.0019826374 -0.049600713 0.23566167 0.07782907 -0.17451352 0.22481908 0.040920988 0.077362195 0.007372754 -0.054228496 0.11546042 0.083989434 0.14993373 -0.073965654 -0.24703813 0.19425681 0.041986566 -0.0479281 0.35084477 -0.2598788
姓名 -0.10111612 -0.14315976 -0.19763018 0.19898212 0.08541853 0.32173237 -0.6217175 -0.13034365 -0.1078519 0.279183 0.39597395 -0.35278422 -0.59526426 -0.14888239 0.080646396 -0.06609938 0.46136662 -0.11173411 -0.116708346 0.20250104 0.024558092 0.102082066 0.048526827 0.12612662 -0.12341851 -0.573408 0.18302351 0.3738203 -0.20223281 -0.5262705 0.7017709 -0.2190437 -0.005127473 -0.26342115 -0.45636788 -0.1351314 -0.5213914 0.14655821 -0.25209078 0.30807748 0.108995974 0.0302746 0.15573567 0.4392174 -0.6329537 0.052472636 0.19241662 -0.18745725 -0.23747392 0.24900933 0.47722125 -0.18379702 0.13316564 -0.041409567 0.18250684 0.26256144 0.29936045 -0.34265634 0.15542679 -0.15120074 -0.25043127 -0.003841294 -0.20843455 0.053707022 -0.14867632 -0.13599652 -0.08414268 -0.107667506 0.1172388 -0.44209263 -0.07106677 -0.10894108 -0.08070323 0.20200816 0.5673361 0.41880688 -0.28819528 0.05470741 0.12941702 0.19649273 -0.5457802 -0.3811651 -0.31528562 -0.13838084 0.06684749 0.40664905 -0.5312739 -0.31409952 -0.47251922 -0.06953691 0.14713944 0.13030274 -0.07255036 0.15865198 0.22528392 0.34997147 0.012279471 0.34038278 0.15730998 0.093819626 0.1680595 0.42569453 0.005565328 0.044250723 0.03694145 0.5175433 0.44927025 -0.23036355 0.3449234 -0.076864004 0.36986482 -0.04695703 0.33332533 0.026576279 0.45640573 0.5267647 -0.2837124 -0.1424722 -0.20128268 -0.1435229 0.02009428 -0.21505 -0.21907414 0.092421345 0.11338712 -0.05874505 -0.32307765 -0.6298269 0.09622912 0.22207071 0.2500801 -0.4067292 0.18606308 -0.21858294 -0.3618824 0.13989866 -0.4397344 -0.42019114 -0.4146938 0.16777508 0.21272242 -0.65998197 -0.23901866 0.54847634 0.25165042 0.38863245 0.48158965 0.2094497 -0.4096514 -0.41730228 0.6041051 0.064646326 0.0022205936 0.47412762 0.047973715 -0.0057420665 0.21084772 0.08273569 0.4332148 -0.32280037 0.032200836 0.43630388 -0.22587456 0.14308783 -0.142383 0.017215028 0.21408693 0.22239847 -0.37004903 -0.09487212 -0.053412087 -0.2589487 -0.048640072 0.1324727 -0.08901658 -0.5511531 0.21292658 0.044128526 0.10987219 -0.48113355 0.012704197 -0.8100071 -0.21766542 0.16477793 -0.24972975 0.39596227 0.029735336 0.3642102 0.55505395 -0.02551941 0.58534044 -0.25731984 0.40356284 -0.541413 -0.11746614 -0.097828224 0.46688893 -0.21347223 -0.15720485 -0.43926856 -0.14982277 -0.27841145 0.14426245 -0.51381034 -0.33715472 0.019106194 -0.5845202 -0.3044743 0.07574707 0.31787035 0.10905309 0.37697506 -0.16717936 -0.021604324 0.014887346 0.10618523 0.35659713 0.12900841 -0.18181787 0.09289169 -0.17597611 0.47100452 -0.06972833 0.7398536 -0.2831832 -0.086803466 0.15710022 0.0017389286 -0.23153265 -0.09042374 0.1111085 -0.2614012 -0.02186417 0.46544263 0.31739727 0.4219471 0.3185299 0.26295742 0.24029717 -0.4978721 -0.12328513 -0.2786839 -0.27876574 0.4188459 0.20031172 0.038399138 -0.13877676 0.09745254 0.5515439 0.35877916 0.06029996 0.09260388 -0.11614262 0.0088275615 -0.403935 -0.11189041 0.13862585 0.10065004 0.1954388 -0.13304728 0.23488514 0.6288379 0.26517406 -0.25085473 -0.38051978 0.4991029 0.095784634 0.04360196 -0.16484037 0.12621911 -0.20021701 0.2533531 0.19252332 0.40873936 -0.100468114 -0.69624937 0.762966 0.12227191 -0.032504838 0.11804363 -0.0819978 -0.09228495 0.43378818 0.24440284 -0.21726091 0.6066008 -0.1513655 0.25383064 0.25125918 -0.16899891 0.27807721 0.4328942 0.26193625 0.036076546 -0.3704911 0.30839524 0.10683148 -0.13303071 0.2592961 -0.2178879
音频 -0.4538263 -0.45070368 -0.15625957 -0.44752148 0.3279673 -0.24632274 0.313523 -0.097069055 -0.09179447 -0.07665761 0.29622433 0.00893544 0.172833 0.021770023 -0.10723209 -0.5205256 -0.576594 -0.49204314 0.1620009 0.20340969 0.69546497 0.121920794 0.5344094 -0.18558115 -0.13383092 0.15863131 0.6055491 -0.48117316 0.4140817 0.122940876 0.25900614 -0.24000432 0.26619196 0.63968587 -0.37936723 -0.18307926 -0.15908748 0.10371758 0.3037675 -0.055209905 -0.02856222 -0.19762723 -0.37753522 -0.14423296 -0.063230805 -0.0924849 0.667087 -0.36685708 0.49245924 -0.22028129 -0.31261134 -0.10314359 0.44431424 0.02327713 0.005220286 0.021717615 -0.098188855 -0.10247158 -0.09041266 0.33060655 0.12738754 0.3426412 -0.2676667 0.1297736 0.46584442 0.40057525 0.1265628 -0.27655295 0.14094406 -0.44572562 -0.25233695 0.06877081 0.17745146 -0.18085462 0.49287412 0.11202393 -0.030808829 -0.2318242 -0.41235244 -0.15926129 0.23194593 -0.049356658 0.12620227 0.08998509 0.117869146 0.18224712 -0.090993606 -0.15225843 0.58236283 -0.1781684 0.19642818 0.38116264 0.05780958 0.0024363343 0.17075881 -0.34763932 -0.1429094 0.14921825 0.48240057 0.465694 -0.09981695 -0.12613416 -0.067006305 -0.16479175 -0.06144742 0.00517996 0.24959196 0.4863135 0.23127265 0.42813322 -0.008446459 -0.22819047 0.16630796 0.121959575 0.032456506 0.0052897967 0.33361438 0.20210728 0.11966091 0.24455717 -0.103207074 -0.13188799 -0.320727 0.32229033 -0.6381987 -0.26926732 0.19589342 0.086166576 0.42697632 -0.23635526 -0.21935429 0.03473724 -0.88999003 0.08211523 0.58671683 -0.13679624 0.31220818 0.008338334 0.42068523 0.2899102 0.5384594 0.20722881 0.1924845 0.38411877 0.06571114 -0.03304104 -0.2381979 -0.44254735 -0.0012347306 0.02135551 0.33590332 0.07318856 -0.03393711 0.3175218 0.035282876 0.3217514 -0.09971404 0.3348661 0.030639706 0.072124705 0.035830155 0.10809697 -0.2847356 0.6388815 -0.2646439 0.3838272 0.05185622 0.28826827 0.8451869 -0.20020653 -0.053275872 -0.1568425 0.08277502 -0.4961149 -0.23159376 0.11412616 0.22907239 0.2525451 0.17627746 0.611525 -0.31822306 0.4324474 0.16439475 0.7388564 -0.21840219 -0.18557045 0.06830174 0.3789771 -0.14890309 0.013465854 -0.08927407 -0.18982807 -0.03303053 0.5780062 0.25581616 0.46561733 0.44135368 0.076171376 0.27437198 -0.07733751 0.31432247 -0.036578715 -0.029346881 0.48115233 0.1855349 0.36216977 -0.21655628 -0.1319603 0.45101473 0.25572342 -0.26562285 -0.04068331 0.5865188 0.118419245 0.17256717 0.105986744 -0.31195733 0.36014023 -0.63027143 0.38129765 -1.061631 -0.04659627 -0.22559625 0.23480871 0.6445548 -0.40793657 0.030357797 -0.006886118 -0.20006247 -0.24709624 0.43544677 0.5196723 -0.47882348 -0.03227347 0.1275603 -0.14125991 -0.22422846 0.1648106 0.23545977 -0.14067623 0.17560315 0.21471629 -0.22823742 -0.6214023 0.17873596 -0.37719083 0.009603757 -0.036573574 0.006722558 -0.13822499 0.060881045 -0.0399448 0.03990655 -0.14082637 0.08415928 0.08776154 -0.06548268 -0.02571375 0.36169672 0.3421546 0.4416295 -0.21461885 -0.35491568 0.04357951 0.16489692 -0.0063908203 0.5266563 0.1529305 -0.24874625 0.10026187 0.043816984 -0.013143491 -0.26495317 -0.26824737 -0.34396222 0.13388167 0.18600364 0.12702185 0.20893274 0.20516515 -0.04039417 0.11362837 0.30397117 -0.017031634 -0.26471236 0.13907704 0.20058826 0.11197212 -0.23780811 -0.11801977 0.034770187 -0.23487088 0.07978581 -0.27380344 -0.18354353 0.3462129 0.03859501 0.018821152 0.74983877 -0.46062174
历史 -0.4853703 -0.69978637 0.39149356 -0.005730283 0.13634035 -0.66045374 0.5616886 0.16478519 -0.1864692 0.07409254 0.17172638 -0.12393476 0.14800312 0.15212564 0.09246256 -0.18422125 -0.5959704 -0.0077140857 0.30694562 0.11962168 0.20154871 0.040508673 0.06789728 0.2837876 0.31082475 0.04868665 0.26149073 0.10277237 0.20648526 0.5313845 -0.034999877 0.046447355 0.10336793 0.8346277 -0.165894 -0.4604872 -0.18650503 -0.08435391 -0.032839756 -0.56848043 0.18309747 -0.02125017 -0.26982546 -0.580477 0.3642623 -0.2133616 0.07939515 -0.316074 0.6429604 0.05168941 -0.1316209 -0.28743815 0.48568788 0.08375499 0.099376574 -0.33812028 -0.18966365 -0.24662769 -0.3658791 -0.07440356 0.22287777 0.40015587 -0.01515889 0.31660545 0.45983663 0.19984753 0.48379067 -0.4976214 0.083270095 -0.6207943 -0.045451794 -0.090839945 0.08795819 -0.18153174 0.09647453 -0.09986018 0.3026294 0.026412353 -0.26562953 -0.12013644 0.16793425 0.018228622 0.27725932 -0.0036951965 -0.47996393 0.14073198 0.29295927 -0.5483203 0.53338945 -0.35119203 0.35649768 0.10366331 0.30899265 0.14255837 0.068308 0.06676734 -0.40661058 -0.23909768 0.2484349 0.21509454 -0.0796449 -0.17552127 0.14480996 -0.13356285 -0.07526595 0.2955036 0.055541273 0.4226874 0.37159583 0.28632167 0.075121514 -0.37359154 0.03740183 0.0471577 0.28806582 0.11431693 -0.1044825 -0.13285469 0.18721867 0.32164705 0.05916614 -0.050163906 -0.5042418 -0.07683292 -0.36940286 -0.39761892 0.10310832 0.19304408 0.19967595 0.094581865 -0.39148194 0.12595469 -0.79015654 0.5805251 1.189678 0.09445287 0.078304954 0.17037648 0.6217097 0.38176617 0.5107583 0.25960955 0.28253418 0.13065672 -0.091109574 0.07985801 -0.5229384 -0.0917432 0.041493688 -0.0565287 0.22379148 -0.11855571 0.4457178 0.13358527 -0.16351126 0.43959084 -0.46078885 0.74566275 -0.28335175 0.13016324 0.093503766 0.2044208 -0.3335 0.4832316 -0.07162302 0.5320514 -0.08948474 0.46268642 0.5481059 0.12510388 -0.1293514 -0.011066731 0.2590647 -0.065438695 -0.62580097 0.5656151 -0.008896967 -0.009979773 -0.1841945 0.7059755 -0.7425244 0.70443994 -0.014288379 0.42229852 -0.18247369 -0.26594603 0.14676444 0.27445948 -0.3596478 0.26820174 -0.20362099 0.5467884 -0.06980422 0.73827714 0.35181072 0.247611 0.17883077 0.047449216 0.089072466 -0.021365587 0.5566608 -0.32225746 0.39926648 0.24496768 0.37078327 0.24271478 0.39331675 0.57364595 0.26663327 0.21020515 -0.22783042 -0.14619419 0.1911653 0.35946202 0.12063458 0.34151945 -0.14505896 0.6423731 -0.24106197 0.62813294 -0.77698296 0.08619595 -0.32421538 0.13902403 0.8677345 -0.16991866 -0.2980796 0.05951093 -0.2443362 -0.29416716 0.17258973 0.8226591 -0.47114968 -0.0036704165 0.031693783 -0.4700356 -0.017133 0.042141855 0.27187526 0.094699696 0.04515417 0.52968746 -0.46093547 -0.48579177 0.1027241 -0.94791883 0.022194615 0.014643984 -0.5783956 -0.5138532 0.019667098 -0.038476277 -0.31750962 0.030980341 -0.12755418 -0.15467577 -0.43886817 -0.24879412 -0.14099121 0.051277086 0.43086964 -0.06727915 0.24702938 0.07671337 0.2270981 0.017230602 0.3576566 0.15666264 -0.3568613 0.05604471 -0.16725999 -0.048440997 -0.20253949 -0.09219353 -0.10661297 -0.11000933 0.049137227 0.29148644 0.44997743 0.2523681 0.2813402 -0.23624226 -0.18939997 0.116113365 -0.59680855 -0.20986168 -0.27065957 0.06866111 0.13118716 -0.23744503 -0.058929518 0.055957682 -0.23694436 -0.3647629 -0.32193398 -0.01027167 -0.27272582 -0.25113067 0.692906 -0.16061212
页 -0.43731546 -0.38113874 -0.0759503 -0.32430652 0.25609156 -0.32903683 0.31129777 -0.09290881 -0.097953774 -0.03382529 0.26116133 0.039925788 0.24138553 0.034207765 -0.055717006 -0.48229215 -0.5674799 -0.33906516 0.14718366 0.10902174 0.5279706 0.07376919 0.36261615 -0.14382917 -0.06318197 0.2379166 0.44519806 -0.3332051 0.358573 0.16329446 0.16210158 -0.21080098 0.25216362 0.6793094 -0.30946752 -0.19498515 -0.14894743 0.02588659 0.2523753 -0.12917605 -0.034388695 -0.10229961 -0.33683634 -0.23796229 0.033861797 -0.12314785 0.5130481 -0.3128749 0.45855388 -0.19604097 -0.30349746 -0.11664616 0.38943562 0.0075251334 0.022828232 0.0032025655 -0.18298806 -0.13033661 -0.07168087 0.21879148 0.11912026 0.3125257 -0.18398874 0.14040726 0.32416475 0.3189982 0.15492868 -0.27127865 0.12367576 -0.41496328 -0.14814559 -0.004203227 0.11612302 -0.1662487 0.35111922 0.047724396 0.0666189 -0.16979347 -0.3857844 -0.14617684 0.24628222 -0.010100215 0.196958 0.037364367 0.008403946 0.15095043 -0.012276177 -0.20054224 0.5799255 -0.12384189 0.23410009 0.3123738 0.112211585 -0.012474542 0.08836142 -0.26696476 -0.118085064 0.0537351 0.40200967 0.35830107 -0.14197814 -0.13642964 -0.0037627467 -0.0762967 -0.029211687 0.008448557 0.11442517 0.42673406 0.20849638 0.37525085 0.010787076 -0.25190806 0.13192928 0.101816 0.06416738 0.03766168 0.21057948 0.13539252 0.1691224 0.2745228 -0.0263155 -0.09621289 -0.34397545 0.20588566 -0.5523248 -0.25208923 0.2161894 0.13616253 0.33704808 -0.15936223 -0.22041231 0.12362198 -0.76610106 0.20420341 0.64333737 -0.08244958 0.3020513 0.025516074 0.4863101 0.26824716 0.48615837 0.23437324 0.22236338 0.3216846 0.035715595 -0.055807404 -0.2599391 -0.30927324 0.07646757 0.07681912 0.27523267 0.016469602 0.058817163 0.18278684 -0.02588152 0.26383436 -0.19812381 0.30315888 -0.049865313 0.077657096 0.011195144 0.08512538 -0.22229776 0.5048611 -0.20198454 0.3828716 -0.043554205 0.2577248 0.7730665 -0.12655987 -0.09359139 -0.14586447 0.08852951 -0.34570017 -0.2908827 0.18656728 0.16998862 0.23160751 0.1350947 0.5431643 -0.335151 0.4872911 0.16317987 0.6385687 -0.10917474 -0.24036153 0.09463031 0.31566125 -0.17189306 0.09145834 -0.102172166 -0.06552427 -0.041840136 0.5668492 0.28020504 0.39317337 0.3027609 0.066645935 0.18725269 -0.004275035 0.35744375 -0.01705426 -0.0036929839 0.38060015 0.23621772 0.33263278 -0.117092386 0.005261092 0.37812376 0.17053784 -0.24188845 -0.10339264 0.5142355 0.15381156 0.18743047 0.1467129 -0.3354455 0.37871394 -0.41675735 0.39531365 -0.9391343 -0.06308714 -0.1814574 0.16376302 0.64263153 -0.3915419 -0.069749035 -0.024053603 -0.1435292 -0.2734032 0.3227593 0.557966 -0.42735848 0.010502543 0.08726269 -0.24276303 -0.103314474 0.10771941 0.20057309 -0.04707571 0.15277198 0.23226646 -0.20773232 -0.5603444 0.103218995 -0.3961508 -0.04949197 -0.018312545 -0.09390918 -0.15999493 0.026590588 -0.049219053 0.0035183867 -0.11049291 0.0626702 0.07235976 -0.17535017 -0.08665536 0.21034215 0.30109566 0.31847474 -0.20678252 -0.29129684 0.013983507 0.14760917 -0.049742527 0.42911148 0.13134219 -0.17003442 0.102839485 -0.0072047017 -0.07568742 -0.24939698 -0.22863886 -0.26462242 0.0994838 0.07552454 0.13451959 0.23750442 0.22349696 -0.032500546 0.017507678 0.18607533 0.04583229 -0.28282833 0.07723548 0.085536934 0.08101769 -0.17820886 -0.088918276 -0.019632816 -0.164931 0.02523246 -0.2706136 -0.18389381 0.266287 -0.02704599 0.02725607 0.64391583 -0.36897695
界面 -0.20400009 -0.25330248 0.029464608 0.09517632 0.054928944 -0.053158917 -0.071739264 -0.011395172 -0.12354859 0.14316016 0.17962822 -0.208882 -0.19666472 -0.03708168 0.046353634 -0.021516284 -0.073309645 -0.044034746 0.083988875 0.15262306 0.043951374 0.06246594 0.06729041 0.08115487 0.050972268 -0.21295829 0.24180292 0.10325717 -0.018568546 -0.029851591 0.21385774 -0.09492229 0.03451827 0.07102636 -0.2414165 -0.21739039 -0.2141662 0.07616547 -0.08367953 -0.07469868 0.109725036 -0.05143597 -0.049042407 0.026798466 -0.14077443 -0.018816423 0.12095168 -0.13800149 0.09158849 0.12779659 0.18916583 -0.12701295 0.12521718 0.042843882 0.07243549 -0.047095627 0.08060842 -0.16128796 -0.07166333 -0.13267666 0.025424743 0.11800959 -0.05841323 0.19396488 0.09503454 0.009303691 0.11810263 -0.18580107 0.029070092 -0.374447 -0.04643274 -0.10491238 0.0776883 -0.041202452 0.24006902 0.1519776 -0.026236348 0.0427738 -0.03966463 0.04664663 -0.19263308 -0.1643829 -0.010699016 0.009865054 -0.09420782 0.17215677 -0.17650193 -0.27167928 -0.04452413 -0.14645596 0.10037046 0.0680991 0.09403883 0.14883155 0.114289716 0.13231063 -0.13220754 0.1043905 0.08571251 0.116152205 0.029563326 0.12327969 0.059412897 -0.109432936 0.0015015447 0.25389016 0.21271178 0.043571245 0.18437348 0.0627584 0.14296009 -0.10750731 0.10705338 0.07781093 0.24627738 0.19710298 -0.09941901 -0.05835694 -0.032803003 -0.0016987653 0.06612595 -0.09966945 -0.2640808 0.036784578 -0.074577086 -0.09354843 -0.17461543 -0.17839763 0.10856979 0.0776857 -0.016289549 -0.14323434 -0.17010932 0.031520505 0.28637153 0.11920678 -0.2086685 -0.11175822 -0.009420504 0.15315047 0.1359299 -0.16638395 -0.028288014 0.21528566 0.022626087 0.2000575 0.023051323 0.07459164 -0.050868917 -0.21842524 0.23944059 0.046580393 0.13536796 0.24824911 -0.023630545 0.17073305 -0.020814637 0.28320947 0.09224722 -0.116390906 0.059011467 0.19638458 -0.20973451 0.2012666 -0.06823678 0.1366381 0.09015708 0.19353884 0.0076371836 -0.06770761 -0.082270354 -0.080840394 0.063408524 0.016036656 -0.19821692 0.0027776503 0.11524732 -0.027429882 -0.05839438 0.10281312 -0.2597726 -0.095522545 -0.08633088 0.19956051 -0.18805201 0.12054268 0.050345078 0.23404905 0.029720372 0.07317754 0.15958615 0.04557173 0.16558981 -0.0038434092 0.053818762 0.06906584 0.22245874 -0.061914995 -0.00051620335 -0.22134621 0.11967914 -0.20193806 0.18347213 -0.11535926 -0.09296283 0.08867393 -0.10216884 0.065650985 0.07217347 0.20540588 -0.03462007 0.13387533 0.04508135 0.06934405 0.060475405 0.1603493 0.12534635 0.22582053 -0.17184518 0.21867205 -0.30202818 0.15604788 -0.12069866 0.3028434 0.21824266 -0.07552495 0.003722323 0.02944721 -0.11816234 -0.11881591 0.11103193 0.123546146 -0.186165 0.10896573 0.1176029 0.1032134 0.10815502 0.11496336 0.17697702 -0.21668482 0.027178556 0.099696934 -0.25071433 -0.00084567815 0.1314036 -0.24498422 -0.037206985 0.036423545 0.07961467 -0.06927134 0.013483565 0.060141638 -0.16221198 0.008198354 -0.28816447 -0.11818154 -0.009463319 -0.05210438 0.044560578 -0.053446624 0.21907 0.28852668 0.15123081 -0.062194426 -0.06694708 0.22083007 0.19407262 0.082831144 -0.20731698 0.09279716 -0.1335303 0.050623298 0.0006099147 0.14201292 -0.113290876 -0.36485317 0.30133608 0.18581308 0.1571992 0.107612126 0.09033079 -0.055816904 0.12775317 0.04864343 -0.23757713 0.14952289 -0.060615655 0.08507704 0.13710923 -0.06442441 0.09449238 0.15356103 0.0428873 -0.07927782 -0.26427647 0.09028505 -0.015489655 -0.16958629 0.3280887 -0.15177497
测评 -0.52644795 -0.44561756 0.033286925 -0.18658096 0.2102427 -0.5095003 0.36416727 -0.06496565 -0.156698 0.048572015 0.29951233 -0.0024308653 0.2818354 0.068098605 0.01420274 -0.48690185 -0.6606681 -0.21978152 0.19150299 0.086912274 0.40505987 0.03785705 0.21604946 -0.056381207 0.054694172 0.29397747 0.36986342 -0.1809962 0.3270129 0.261735 0.106575005 -0.18743022 0.2691736 0.8475098 -0.3297607 -0.3141139 -0.22468401 -0.028120656 0.1596661 -0.2915494 0.017521853 -0.051658094 -0.3536211 -0.40366754 0.14302592 -0.169755 0.42068523 -0.34324238 0.52983236 -0.14722946 -0.27384254 -0.19867599 0.43129846 0.028127242 0.056650084 -0.087699614 -0.28395158 -0.22401157 -0.11492619 0.058867607 0.15690432 0.37725446 -0.116002135 0.23966485 0.27950194 0.26830605 0.2602511 -0.37644786 0.13585505 -0.5671706 -0.0719728 -0.10351751 0.103352025 -0.20124707 0.28326824 0.008454869 0.18853547 -0.11391144 -0.39625812 -0.14709501 0.23721044 -0.02487654 0.3126594 0.0056302464 -0.18820542 0.18743907 0.06868017 -0.39713895 0.65425706 -0.14971149 0.33219013 0.2714883 0.2173753 0.028338205 0.04982597 -0.14878926 -0.18708214 -0.049752757 0.39503497 0.30591866 -0.17053652 -0.13275585 0.104886666 -0.05094114 -0.012876119 0.10169664 0.039658915 0.44600773 0.26940718 0.3741226 0.09158223 -0.3602813 0.13051012 0.13008925 0.19862932 0.111982204 0.07825809 0.021897256 0.24968578 0.3460367 0.07938977 -0.11708243 -0.49281207 0.098239824 -0.54820955 -0.3109559 0.21898976 0.15195784 0.30023372 -0.076827504 -0.29402223 0.18826899 -0.81064504 0.42294505 0.93028474 0.02161418 0.26061845 0.031517956 0.63201344 0.34250197 0.5299222 0.27051586 0.29150337 0.324221 0.00013245663 -0.045110382 -0.3630928 -0.17955776 0.15804301 0.061919153 0.28790963 -0.0656577 0.22722971 0.123202875 -0.121491894 0.3082446 -0.35108203 0.43458202 -0.15485515 0.08245821 0.028134974 0.12174207 -0.25207773 0.5014611 -0.16830057 0.46459115 -0.11937945 0.33893985 0.78608894 -0.064556904 -0.1709711 -0.15894738 0.1396318 -0.20489568 -0.47588563 0.34059677 0.11563922 0.21247704 0.0695629 0.5933561 -0.52028126 0.63069123 0.14427124 0.64808095 -0.08101306 -0.30439237 0.14661244 0.34572038 -0.23873144 0.21076804 -0.09846903 0.15944473 -0.016642593 0.66124827 0.37753537 0.3691814 0.22761005 0.06559417 0.108426794 0.029976789 0.4809723 -0.087146804 0.122697465 0.28544503 0.30408287 0.35463616 0.018199595 0.216653 0.3550706 0.14747289 -0.27443188 -0.1508351 0.48911178 0.24106719 0.2352782 0.26809156 -0.34848833 0.5254692 -0.27139544 0.5473268 -1.0051508 -0.04220905 -0.20252176 0.19426964 0.79947925 -0.40496603 -0.21303068 -0.011536831 -0.1469591 -0.35888728 0.26564002 0.7209772 -0.49466783 0.070445895 0.08136698 -0.37527773 0.023980483 0.074739374 0.22178186 0.016185861 0.16225691 0.35149193 -0.31315672 -0.57988375 0.07260924 -0.6043029 -0.09337431 5.765495e-05 -0.23953944 -0.27374932 0.00980754 -0.045882672 -0.10566872 -0.083338 -0.035613313 0.0272215 -0.33937296 -0.19323047 0.06178127 0.2561826 0.31213877 -0.12667389 -0.15585762 -0.0050451146 0.15410526 -0.040718548 0.41463083 0.15800178 -0.19891682 0.12147862 -0.09472249 -0.14143643 -0.26344922 -0.18507661 -0.22428726 -0.047415867 0.02962422 0.19210687 0.35602126 0.2761324 0.03583627 -0.10706044 0.05642273 0.13086353 -0.40998888 0.018308923 -0.07265265 0.07841641 -0.08201871 -0.09930292 -0.0648854 -0.07561455 -0.052310966 -0.3427324 -0.27468538 0.19175349 -0.14139721 -0.03355407 0.69979936 -0.33182895
首页 -0.25544155 -0.20158444 -0.11096421 -0.021661533 0.13857259 -0.08305653 -0.1715359 -0.078598775 -0.12718542 0.1822236 0.271305 -0.10796695 -0.14785756 -0.084858395 0.01879787 -0.1737218 -0.25956264 -0.09104685 0.08776388 0.074664585 0.14283788 0.0017296721 0.14167161 -0.03490819 -0.00910687 -0.054116163 0.35157844 -0.0838627 0.04060999 -0.0962852 0.26914513 -0.21460778 0.094815165 0.0983265 -0.29998896 -0.15541162 -0.19657561 0.098200396 0.031175187 -0.0015981193 0.009741123 -0.041527554 -0.07854525 0.13845316 -0.21346043 0.05246785 0.22904314 -0.19830248 0.15693912 0.10549035 0.09425599 -0.0976841 0.12639609 -0.03359477 0.0640033 0.14272621 0.030896964 -0.20070155 -0.042322792 -0.06634882 -0.08815489 0.053486314 -0.08585279 0.20516317 -0.0044512358 0.109196305 0.043528967 -0.16593704 0.048196897 -0.35771418 -0.109467566 -0.08105829 0.080011114 -0.042082034 0.39240068 0.18607977 -0.054636095 -0.0101041235 -0.23506548 -0.014966729 -0.07209245 -0.096594736 0.0063668615 -0.066027254 0.0015281296 0.22088951 -0.25568455 -0.21010101 0.048960194 -0.042718805 0.03789699 0.17435378 0.109626025 0.085463494 0.049843624 -0.0061247176 -0.027724978 0.1524461 0.20241624 0.18937157 -0.0919005 0.0937475 0.062539 -0.006427355 -0.013080422 0.12230956 0.18075491 0.14819993 0.09769432 0.116418935 0.15542014 -0.12208392 0.11312575 0.07909981 0.18274748 0.27662393 -0.05774611 0.13520016 -0.09638863 -0.02302259 0.049744837 -0.078439444 -0.35824665 0.12394982 -0.18514907 -0.014342798 -0.12180925 -0.13009287 0.121651165 0.023170395 0.00010027078 -0.08453604 -0.32340455 -0.032917026 0.18072674 0.089323066 -0.12803513 -0.05988595 -0.0035802221 0.1637594 0.14812179 -0.02067311 0.002291229 0.34491995 0.008648929 0.163774 0.07281391 0.01633055 0.05407526 -0.030222697 0.2701388 0.08239759 0.12014767 0.23387253 0.0002711996 0.06684021 -0.09905856 0.108046286 0.14821525 -0.12045298 0.0500849 0.25037315 -0.20297076 0.13882582 -0.15698312 0.14517054 0.06417272 0.11988611 0.16646382 -0.19392475 -0.09659121 -0.07592495 0.045806795 -0.15360902 -0.18235536 -0.11201265 0.15269952 0.091672435 0.038698275 0.11517617 -0.17366663 -0.13088362 0.010493173 0.38097316 -0.2127131 0.0021724442 0.058110014 0.28570515 0.107403815 0.019805081 0.14547677 -0.0876883 0.20491987 0.035752337 0.09872788 0.14784846 0.28914735 -0.106477946 -0.031657994 -0.2449452 0.14362818 -0.10064155 0.00034317476 -0.03123476 -0.009388874 0.14509228 -0.28314486 -0.07445393 0.12452009 0.10562432 -0.049187656 0.12577769 0.1939157 0.07614248 0.08740338 0.17102139 -0.026881853 0.18697754 -0.25001675 0.25383168 -0.4798552 0.0925505 -0.09556637 0.2651247 0.27023342 -0.22790319 -0.0018429488 -0.027341057 -0.12029054 -0.042196415 0.12321724 0.10391229 -0.18061383 0.13474794 0.12657768 0.04673509 0.06448134 0.090598986 0.13805425 -0.28992635 -0.0019733296 0.026093436 -0.1267292 -0.110202484 0.098669 -0.12484676 -0.080752335 0.086512335 0.14957304 0.03745406 0.04352324 0.02475151 -0.08017649 -0.06928186 -0.21616305 -0.048942156 -0.049344238 -0.09138815 0.21453519 0.03988797 0.17602536 0.26689786 -0.13454133 -0.1062921 -0.061142407 0.12777157 0.24554713 0.092102826 -0.15456167 0.10774739 -0.11883632 -0.019785844 -0.019072589 0.1640467 -0.18604456 -0.28019032 0.24473464 0.15595394 0.19239566 0.12330694 0.075018466 -0.048546564 0.21100384 0.08137181 -0.18276462 0.15547377 0.09138123 0.07397672 -0.004095154 -0.046016928 0.11532531 0.041025363 0.14736699 -0.11815779 -0.22117977 0.1778922 0.013924337 -0.09196851 0.29059404 -0.2107236
