380 300
点击 -0.31517252 -0.17936152 -0.031794697 0.0585903 0.11081042 0.35237417 -0.07024232 0.1959281 0.09186266 0.020911707 0.19375707 -0.11318647 -0.06484315 0.27858222 0.06566906 0.19473445 -0.107096136 -0.28451663 0.36334708 0.3396801 -0.00630674 0.10853787 0.2234487 0.2304618 -0.33126408 -0.24824555 0.1041908 0.07311286 -0.15291204 -0.29861167 0.012681452 0.087442525 -0.020525672 -0.21067666 0.06504127 0.057783946 -0.18406934 -0.0104275 -0.19547983 -0.025040993 0.36632472 -0.14167853 0.21265057 -0.04320495 -0.09444268 0.05875337 0.27580512 -0.29741833 0.10272756 -0.138089 0.22616069 -0.28924274 -0.23784196 -0.057664353 0.16840066 -0.19992411 -0.2008118 -0.1259656 -0.31696367 -0.100769825 0.28335875 0.087387115 0.022128018 0.056289155 0.075089976 0.10865515 0.05342248 -0.14487995 0.1832303 -0.11857802 0.036489658 0.09058308 -0.13770111 -0.19209348 0.032992255 0.08045802 -0.098647214 -0.05777336 -0.25431493 0.2367924 -0.11306082 0.024102869 -0.18418594 0.16565515 -0.045734815 0.028367728 -0.06452974 0.105610184 -0.0010002607 -0.11587484 0.06794044 -0.014413473 0.06805851 -0.053065665 -0.25150505 0.071222104 0.30360895 0.14858124 -0.0089061735 0.31357503 -0.009512413 0.36895305 -0.009535317 0.10225274 -0.22865172 0.014473084 0.066072054 -0.1448572 -0.04405803 -0.0034302745 -0.055977173 0.36326918 0.057775863 -0.17230801 0.02852401 0.08213961 0.248988 0.32576 0.14017665 0.04435467 -0.00036693164 -0.0006828564 -0.12835348 -0.13039298 0.19613144 0.15779263 0.031127287 0.028207177 0.25644705 -0.02431851 0.10982348 -0.15386946 0.036288515 -0.0892608 0.03207417 0.059856728 0.05564238 -0.2244356 -0.14628156 -0.0368642 0.16186346 -0.20330448 0.096082866 -0.14623873 -0.076195985 0.123533174 -0.07196253 0.1516402 -0.012892234 -0.16802552 -0.15318568 -0.027739022 0.23697987 0.17103435 -0.26962066 0.20575552 -0.20360193 0.43930614 -0.26206294 -0.1803515 0.16627707 0.24345186 -0.2523023 0.18674979 -0.03663204 -0.20219287 -0.07767039 0.28450802 -0.03307307 -0.10719735 0.13308421 0.06761607 0.2114427 -0.28549764 0.0953669 0.098085865 0.01311958 0.2868839 -0.15158765 0.03342165 -0.031271696 -0.28286707 0.23511952 -0.01664143 -0.19430563 0.19341962 0.19145863 0.28187412 0.16122265 -0.07248833 -0.22192636 -0.075729944 0.00621826 0.15859073 0.10752752 -0.06924963 0.19784977 -0.14879602 0.122858465 -0.19215044 -0.0341474 0.078463405 -0.021788942 -0.060202666 0.17457406 -0.09624967 -0.002849003 -0.24627532 -0.2583528 -0.1438088 0.13623188 0.22214974 -0.106401086 0.1273452 0.0270678 0.23837633 0.15587777 0.05634677 -0.15993366 0.3657434 -0.002380502 0.06891582 -0.13836621 0.2817507 0.15894131 -0.060552705 -0.22555679 0.023867557 0.05828708 0.21158609 -0.026361408 0.011387853 0.05488994 0.034984414 -0.0168785 0.12830192 -0.32856783 0.077268995 0.0136422245 -0.3281451 0.12360886 0.02675964 -0.059398457 0.11197564 0.1763305 -0.1384603 0.38708034 -0.014909309 -0.1971255 -0.04157777 0.19116196 0.07619801 -0.04154302 0.011987551 -0.10815348 0.090892084 -0.070667624 -0.01761365 0.18953 -0.18305852 0.10125108 -0.052373882 -0.057077296 0.05640338 0.15625027 0.15009187 0.01308108 0.10094908 -0.17547703 -0.079239674 -0.118736744 0.08608943 -0.26159278 0.025619125 -0.20251901 0.06962193 0.24450742 0.13855127 0.13895838 0.16653861 0.05705016 0.14461337 -0.015039154 -0.2115869 0.016114445 0.20220234 -0.13043626 0.0012267266 0.14061676 0.06503415 0.06663166 0.01707645 -0.13092378 -0.18345813 -0.058289032 -0.036343116 0.23084688 -0.04819113 -0.098747425 -0.008853927
评论 -0.3753513 -0.015585744 0.09155415 -0.17965281 0.33168697 0.3188348 -0.2014782 -0.14308164 0.5344541 -0.7097467 0.49281082 -0.14023703 0.29761195 0.5589951 0.3339851 0.6600556 0.5123093 0.2379061 0.49727914 0.4004859 -0.41759437 0.47137526 0.17982419 -0.2958555 -0.4936231 0.2879596 0.43287504 0.6501526 -0.4028106 -0.1385104 -0.56505185 -0.393105 -0.6322501 0.23589641 -0.36335802 0.13834508 -0.16168275 -0.10998217 -0.37329248 -0.089894556 0.19056809 -0.012527369 0.075109854 -0.82095826 -0.26027757 -0.21287198 0.08695241 -0.8135827 -0.24524911 -0.25658023 -0.2645482 -0.7140703 -0.6545706 0.05313092 -0.00016275197 -0.50808436 -0.0051321057 -0.32847 -0.32197052 -0.66141415 0.5412594 0.47599947 -0.63927853 0.089926034 0.77128124 -0.29193515 0.71378726 -0.38296744 -0.6121709 0.7699256 -0.084924385 0.31122863 0.015228337 -0.040212356 0.098982126 0.034799892 0.064168915 -0.01779576 -0.59821814 0.12867525 0.30292434 0.2577171 -0.12667486 0.4695204 -0.6154631 0.3232166 -0.044796824 -0.049668133 -0.056377977 -0.08904449 0.51641285 -0.08907246 0.86578226 -0.46901697 -0.49362725 0.29432842 0.112519845 -0.46460825 -0.5051158 0.2862841 0.84352875 0.8124037 0.6039357 0.54303086 -0.84284353 0.23495905 -0.10123979 0.22624859 0.11289377 0.07103333 -0.035053983 0.45266593 0.192825 0.11216128 0.008516904 0.026606027 0.77925426 0.21735342 0.34941944 -0.15691963 -0.40495178 0.21265253 0.96411383 -0.2596564 0.03879614 0.1684305 0.41257268 -0.12827739 0.29555154 0.40588918 -0.066197395 -0.3508165 -0.017400045 0.44759262 -0.5864808 -0.19652285 -0.63404775 -0.623063 0.030940045 0.23146047 -0.33384734 -0.3156405 0.37249196 -0.38496676 0.042598605 -0.074453734 -0.08498562 0.15237623 0.05710454 -0.24141967 0.7693766 0.3877812 0.3121859 0.85307455 -0.3000286 0.23284988 0.16233729 0.63713664 -0.2350179 0.26642308 0.16988474 0.044749286 -0.6351821 0.36812934 0.47449434 -0.029361276 -0.4414692 0.89433223 -0.51792806 0.027810568 0.51570165 -0.051574342 0.44170636 0.080065474 0.29285523 0.19725561 0.4637214 0.3165931 -0.02401326 -0.3277569 -0.030987915 -0.26671118 0.24128094 0.43518838 -0.28308344 0.18955398 -0.09063474 0.16143268 -0.59088796 -0.04673404 -0.68362844 -0.21349773 0.032804478 0.60139215 -0.0237097 -0.54250443 0.58514637 -0.3844602 0.42438477 0.027535407 -0.09376977 -0.17398979 -0.03588165 -0.29364532 -0.47002771 -0.13780838 0.07233109 -0.093258016 -0.06832387 -0.111689 -0.21644776 0.55497116 0.44989526 0.3437064 -0.37028822 0.2934388 0.024816794 0.24634878 -0.7837349 0.032715168 -0.41569015 -0.0817662 -0.17223316 0.17668533 0.58625793 0.09996277 0.2824003 0.31219125 -0.2989763 0.30022016 -0.11974513 -0.21203165 0.14189692 0.29055977 -0.39481586 0.3847839 -0.7886891 -0.012819404 0.09625019 -0.37993088 0.24051264 0.08133192 -0.06954834 -0.3603481 -0.2217833 -0.5463085 0.92402846 -0.6171402 -0.24762833 -0.5747092 0.18474776 -0.063721254 -0.20885825 -0.46028912 -0.24740468 0.21486567 0.2829695 -0.63855314 0.04287299 0.18210272 -0.01695459 0.13461877 -0.2584658 -0.16542998 0.38755247 -0.3118364 -0.06356062 0.02424403 0.14685385 -0.1941764 0.054461807 0.35560274 0.051967304 0.37316743 -0.027071623 -0.071855456 -0.25582317 0.29812717 0.24354489 0.71619636 -0.55499613 -0.4216377 -0.29540822 -0.38676527 0.45139188 -0.0141560035 -0.32051516 0.24691494 0.4638464 -0.21515284 -0.075399965 0.24905688 -0.48155805 0.09468313 0.080491714 0.49914324 -0.6551485 0.08752215 0.47308883 0.13515393
界面 -0.36674115 -0.2105395 -0.041704275 0.08095284 0.12851833 0.41082907 -0.025397986 0.2534523 0.079049505 0.08053476 0.20292395 -0.14033936 -0.07045714 0.3291358 0.070771724 0.18049935 -0.18285501 -0.39374787 0.45929676 0.39489937 0.03012818 0.08773587 0.25263196 0.29437613 -0.33015686 -0.3156078 0.10555079 0.023908598 -0.120758235 -0.37191597 0.023027292 0.112274036 0.053902842 -0.28330106 0.11919421 0.07376727 -0.2372814 0.014931589 -0.21268766 -0.04581824 0.4651907 -0.15387873 0.27685422 0.017489444 -0.05149054 0.10564745 0.31787616 -0.3051273 0.16000432 -0.19255045 0.28858736 -0.33152002 -0.23698816 -0.052273117 0.21073282 -0.22909616 -0.26071385 -0.12930712 -0.37259012 -0.0715681 0.3436331 0.071223035 0.1655905 0.091789104 0.026566822 0.18876159 -0.022512052 -0.1032369 0.24357189 -0.20704208 0.05476451 0.1329501 -0.1763023 -0.28500775 0.055658918 0.10395442 -0.084724575 -0.110196024 -0.2708333 0.24662733 -0.13105653 0.014368219 -0.21385847 0.15162091 -0.010788376 -0.004150084 -0.04576842 0.15964814 -0.014207271 -0.13692933 0.026284194 -0.0135034 0.025070632 -0.020010155 -0.27188623 0.099472724 0.38027373 0.18656012 -0.036103237 0.3267402 -0.07284422 0.3769725 -0.018559746 0.12717222 -0.19604619 -0.016947517 0.05178938 -0.17203225 -0.06238742 -0.04558174 -0.07785885 0.38916236 0.02916348 -0.22689481 0.0142942965 0.1164561 0.24723357 0.37894782 0.16788386 0.047227833 0.018338457 0.021837614 -0.20794453 -0.12436493 0.25870594 0.17507228 0.039513253 0.03433401 0.25787804 -0.058459073 0.16728085 -0.15367234 -0.011255643 -0.17008539 0.055475812 0.055603348 0.14579393 -0.18222168 -0.18763566 0.003854548 0.2175391 -0.1800611 0.09032889 -0.18834467 -0.16807738 0.15257066 -0.10024489 0.2080386 0.043596774 -0.1793709 -0.28395835 -0.06470216 0.28212976 0.15105177 -0.3128139 0.22715946 -0.26080596 0.4761957 -0.2823451 -0.24111561 0.18636878 0.33345646 -0.28924417 0.19284254 -0.08273883 -0.27563182 -0.030315774 0.29413095 -0.00479123 -0.11029006 0.12048824 0.0933706 0.2221974 -0.3488875 0.14161184 0.14353359 0.016544968 0.32295838 -0.20080478 0.06749904 -0.023638582 -0.28958955 0.25522754 -0.060993347 -0.21902326 0.21576187 0.24945815 0.3038129 0.24138466 -0.13035877 -0.2813276 -0.08530895 0.002255188 0.19160059 0.11565077 -0.030643437 0.17725696 -0.15343718 0.09915296 -0.20905189 -0.05789064 0.15811078 -0.028244711 -0.035108507 0.30230844 -0.08900782 0.03451584 -0.33797055 -0.3040995 -0.18090372 0.17130055 0.24972332 -0.19026124 0.11392776 0.059194487 0.27736327 0.18194883 0.03038218 -0.14542726 0.43033963 0.029977553 0.12050931 -0.17645235 0.3015706 0.16299433 -0.12609905 -0.29244536 0.00016461173 0.08093352 0.21705183 -0.012500462 0.038052935 0.030990185 0.064573154 -0.020248232 0.11450912 -0.33381158 0.12602553 0.017500678 -0.37967622 0.16020218 0.016478926 -0.080474235 0.17993599 0.229835 -0.1447836 0.4284367 0.007828103 -0.17673208 -0.03697617 0.21307987 0.08624577 -0.020245908 0.010565292 -0.09219171 0.09194109 -0.11871204 -0.028984407 0.21173638 -0.24206235 0.11324234 -0.13572766 -0.065948255 0.08818199 0.17144626 0.22594056 0.046269875 0.1385495 -0.24170557 -0.12689427 -0.16913788 0.1177271 -0.3045075 0.016291585 -0.19474362 0.13097598 0.3183165 0.15141405 0.18647985 0.1600927 0.09653627 0.2118145 -0.01204705 -0.23198633 -0.0021028572 0.2277454 -0.14223427 -0.0080950735 0.11054775 0.10639259 0.13717951 -0.027237043 -0.12908047 -0.20764251 -0.06369556 -0.065294564 0.36398327 -0.043567564 -0.14033931 -0.018170314
发布 -0.32848048 -0.03675546 0.004175442 -0.1557179 0.3191936 0.3577001 -0.37480578 0.0063768104 0.09879721 -0.32325083 0.09537404 -0.27956587 0.22824351 0.5318513 0.10438458 0.30796564 -0.25223988 -0.022331499 0.42277616 0.08501507 0.028260062 0.15907453 0.15247557 0.0012955026 -0.3093852 -0.19844879 0.18481036 0.30510157 -0.3020622 -0.4502528 -0.18845865 0.047036845 -0.33704984 -0.12193314 -0.001578065 0.055274736 -0.27541855 0.029283581 -0.15116192 -0.065325715 0.26409182 -0.17941633 0.26250324 -0.38399523 -0.08659118 0.0875971 0.12401272 -0.20742477 0.1299983 -0.08745899 0.38115144 -0.44895625 -0.26205137 -0.21465601 0.37162474 -0.12920335 -0.2730719 -0.28111833 -0.4472455 -0.16488428 0.42175642 0.32004482 0.0143992575 -0.10429118 0.27121097 0.087896064 0.11727583 -0.3952697 -0.07514529 0.2277899 0.11202273 0.06437394 0.008606699 -0.20352751 -0.0067680096 0.07589655 0.25741312 -0.14943138 -0.309795 0.04680104 0.2191696 0.058652356 -0.07483517 0.08938242 -0.23985752 0.03719093 -0.039552078 0.19100727 0.22750306 -0.007856846 -0.025633961 -0.055982016 0.23059657 0.01742979 -0.3134344 -0.015923899 0.19165453 -0.0005804353 0.026937414 0.24849917 0.18844882 0.6976757 0.2278722 0.32306737 -0.4630063 -0.089571364 -0.009903068 0.10652399 0.10855303 0.14593711 -0.071608536 0.46592844 -0.17882529 -0.23023774 -0.18958034 -0.008821515 0.28933397 0.22047906 0.19780898 -0.065533586 -0.22112128 0.09980032 -0.07963468 0.009456214 0.15815605 0.21196118 0.03235916 0.2100816 0.49418378 0.279243 -0.0034097282 -0.20530863 -0.1065215 0.44594458 -0.18533798 0.121807575 0.13202798 -0.3870105 0.09459138 -0.033783134 0.1404869 -0.16911559 0.496106 -0.26080453 -0.028384022 0.25695035 -0.13904987 0.3129228 0.042606834 -0.047009405 0.13214949 0.17416084 0.1854362 0.4629546 -0.25344428 0.14579055 -0.31457606 0.60235685 -0.1688446 0.071119115 0.13770704 0.31720638 -0.05580635 0.10241111 0.20664175 -0.32850546 -0.227198 0.47251898 -0.109096564 -0.10654566 0.130962 0.0736871 0.36903656 -0.2159548 0.13191244 -0.15312526 -0.0027806698 0.35935536 0.06731411 -0.0024880285 0.1377172 -0.35918522 0.305892 0.128044 -0.2275762 0.09526489 0.26266462 0.44142517 0.1226782 0.017143164 -0.44057944 -0.01775395 0.1959121 0.33397272 0.09707338 -0.035793114 0.23307759 -0.43303153 -0.106189504 -0.01528588 0.2198211 -0.10408732 0.1457487 -0.026246794 0.29493582 -0.12176572 0.34445867 -0.26709008 -0.099916294 -0.038911175 0.091589816 0.41248047 -0.0909415 0.020159641 -0.274554 0.21672715 0.004829814 0.2869122 -0.41813233 0.3493382 -0.13018851 -0.007144065 -0.21077037 0.24770916 0.17882921 -0.23671019 0.003881827 -0.12763211 -0.023184534 0.15952066 0.031423595 0.032825395 0.26859802 0.11828116 -0.29347092 0.243572 -0.39350262 0.1340563 -0.07056229 -0.52336895 0.15251546 -0.02101907 -0.123560436 -0.043421723 0.06633795 -0.727714 0.66364104 -0.026883394 -0.3140523 -0.07664846 0.22587043 -0.2434602 -0.061296415 -0.3472025 -0.042286124 0.36385378 0.0021019524 -0.3304975 0.07240291 -0.12988162 0.07479846 -0.15845434 -0.11002224 -0.015403497 0.2032219 -0.026277658 0.08923819 -0.025288563 -0.00623203 -0.11277671 -0.20567419 0.31068134 -0.047330122 0.08946716 -0.17580271 0.12059664 0.0930531 0.12070372 0.30883703 0.36946556 -0.15906191 0.25360894 -0.15624923 -0.28652313 0.2233224 0.04560536 -0.3228249 0.040245254 0.34509212 -0.038440544 0.062148035 0.1315103 -0.24042876 -0.410054 0.032329656 0.21064685 0.1549608 0.054569397 -0.07714021 -0.0018570651
按钮 -0.1402722 -0.1799415 -0.026594672 0.034177527 0.057555083 -0.014534822 -0.19573471 -0.12530208 -0.031010319 0.21469949 0.114931546 -0.009230244 -0.157273 0.01485234 0.16120452 0.14963333 -0.23083687 -0.08693327 0.14338878 0.0935218 0.098551705 0.033920225 0.15626812 0.11058584 -0.3156722 -0.1842878 0.017788745 -0.1002531 -0.090567395 0.07709 0.1447888 -0.07202805 -0.17967863 0.05257742 -0.14493376 -0.10397327 -0.02426514 -0.12736881 -0.22957994 0.0018339078 0.15302975 -0.29282948 0.054477632 0.053109113 -0.08244267 0.07718974 0.2065474 -0.11177463 0.07227912 0.09414643 0.1289235 -0.005783254 -0.18318911 -0.00015594147 0.022601344 0.029654866 -0.18033187 -0.2572412 -0.17490235 -0.28367668 0.14893967 0.12253226 -0.21034725 0.06529881 -0.03732195 -0.0035196275 0.15212454 -0.12259751 0.09032731 -0.14312108 0.007897289 -0.06478064 0.18000321 0.07172192 -0.1971032 0.117061004 0.0056166695 0.14753446 -0.06071866 0.3096884 -0.116822496 -0.21432196 -0.22549815 -0.028058495 0.038354233 0.15231688 -0.16937849 0.13814971 0.019470738 -0.09771371 -0.05146419 0.015310882 -0.002619606 0.0615324 0.0039959205 -0.124034695 0.10725468 -0.009047125 0.28429186 0.2998898 -0.05022765 0.12032264 -0.12648043 -0.037634134 -0.26015434 -0.011855078 0.03190206 -0.14388394 0.020707294 -0.06776628 0.047358524 0.100699954 0.020051317 -0.019145705 0.080770165 -0.015254174 0.1964676 0.13047665 -0.028767472 0.095158964 -0.07320343 -0.034570053 -0.2599876 -0.15300535 0.03899628 0.013333667 -0.17169902 -0.064874895 0.16263084 -0.04088789 -0.042192254 -0.16193998 0.011235429 0.00493996 0.11714393 0.12329522 -0.28075364 -0.20299162 -0.06358637 -0.035582922 0.12281575 -0.25992793 0.10467154 0.028289827 0.32917678 0.15394999 0.19016606 0.19174929 -0.14735578 -0.1717188 -0.0041771526 -0.029482037 0.13952707 0.0063019968 -0.14844903 0.13985826 -0.13480392 0.34499416 -0.26410297 -0.16759637 -0.004052494 0.050541703 -0.17055719 0.13570482 -0.060522642 0.06950754 -0.14616227 0.13384995 -0.05577733 -0.1649954 0.0929406 0.15238048 0.119221725 -0.013868928 -0.2044244 -0.091753155 -0.07743472 0.046799887 -0.11185855 0.18221514 0.030483855 -0.19014604 0.09822925 0.003906666 -0.30759758 0.13859597 0.11384305 0.29033312 -0.07421923 0.15788426 -0.07862404 -0.101081416 0.20843735 0.003578231 0.08535766 -0.08327877 0.26362506 -0.004894517 0.1747004 -0.2981613 0.09521719 0.121492945 0.14329246 -0.10394111 -0.04165987 -0.20492916 -0.015624149 -0.028209485 -0.13116188 0.068518564 0.0042000725 0.11076036 -0.02945071 0.2974466 0.16526271 0.29774982 -0.040562414 0.17691863 -0.22753675 0.19973272 0.18502307 0.09539804 0.0089608515 0.16838466 0.119060576 0.08317285 0.013668728 -0.056434512 -0.08002714 0.14356486 0.07421789 -0.03409022 0.026174607 -0.16443785 0.14311817 0.072119534 -0.20897901 -0.16301131 0.030945031 -0.20199089 -0.039782304 -0.1272981 -0.09994282 -0.020582408 0.19526094 -0.24141575 0.018853653 0.08609519 -0.1612724 0.12540734 0.02473904 0.20703344 0.028445218 0.08772678 -0.19975732 -0.2930841 -0.05770586 0.13269305 0.1103311 -0.15738843 0.17662197 0.22366707 -0.14265749 0.07351708 0.20414051 -0.104322106 -0.08449519 -0.1434358 -0.10974694 0.17836528 -0.062028915 -0.05627055 -0.088492565 0.06767713 -0.29038602 -0.3515041 0.12444311 -0.0052656587 0.058213722 0.11758513 0.11662694 0.057419438 -0.008367689 -0.265035 -0.07832994 0.08265392 -0.077957295 -0.01712328 0.045135826 -0.16309403 0.07885617 0.037229985 -0.017853448 -0.23277466 -0.02065275 -0.0075311945 -0.049069017 -0.048645604 -0.019413155 -0.027702268
输入 -0.48679274 -0.2950574 0.13018179 0.36891627 -0.20130543 0.11413276 0.2650066 0.0702697 0.1148415 0.25389454 0.4148975 -0.08394046 -0.53876716 0.025877155 0.2965088 0.2539899 0.113749355 -0.2704002 0.19040243 0.55399776 -0.2228067 0.20817612 0.18992166 -0.037180226 -0.201475 -0.11798799 0.22361684 -0.17652293 -0.24928057 0.4070933 -0.07199998 -0.42315373 0.025095975 0.018639 -0.0005030842 -0.26758456 0.2773232 -0.22271523 -0.2581613 0.100006305 0.4134163 0.15620373 0.287397 0.057821702 -0.3358319 -0.20238464 0.074489065 -0.53898436 -0.036952376 -0.10111684 -0.15467432 -0.1770048 -0.586101 -0.118430205 -0.16203976 -0.28683636 -0.2170808 -0.31294575 0.055062607 -0.68705356 -0.04917093 -0.07725013 -0.84694916 0.30245215 0.11169054 -0.16691506 0.0902055 0.16478395 0.04806001 0.0071577616 -0.013457579 0.06670861 -0.063319504 0.07483422 -0.12937468 0.30197167 -0.51714164 0.37530416 -0.42726457 0.5290584 -0.40603667 -0.021003429 -0.15699303 0.35242137 -0.124737166 0.2891632 -0.44027963 0.06840688 -0.4951333 -0.065475464 0.09079804 -0.17130077 0.16871108 -0.53266203 -0.053363215 0.13095818 0.11946536 -0.0440005 -0.13778624 0.42638138 0.25165692 0.20723897 0.13068432 -0.0854199 -0.38908964 0.16577987 -0.06022784 -0.33603206 -0.19439371 -0.09630285 -0.13845395 0.15872389 0.36492813 0.067475125 0.6321775 0.22009113 0.4140766 0.5480455 0.061687913 0.3595154 -0.03660025 0.03693251 0.22454254 -0.17549358 0.099022806 -0.021810716 -0.35929248 -0.42449296 -0.29648298 -0.22519146 0.040031288 -0.09306965 0.01536545 -0.4988769 0.06729009 -0.10711243 -0.88934 -0.3561628 -0.2593918 -0.06543179 -0.094692744 -0.2235392 -0.2930687 -0.09279638 -0.0058451504 0.22360018 0.17881241 -0.16197945 -0.3012708 -0.53637785 0.16346456 -0.043526277 0.19362594 0.27065876 -0.19146964 0.37561032 0.16679966 0.41881862 -0.40786308 -0.023046728 0.065958135 0.047344666 -0.64768666 0.1738979 0.06745283 0.2093308 0.33221698 0.4687545 -0.42417163 -0.45413855 0.12769721 0.06389764 0.14875163 -0.4990307 -0.05704764 0.27372995 0.5457915 0.079021744 -0.38735208 0.18434067 -0.114869796 -0.17675023 -0.074534275 -0.1710665 -0.6967521 0.35605073 -0.06671945 0.1658443 -0.3117687 0.056511506 -0.012522974 -0.39193717 0.21191792 0.16003454 -0.03251978 -0.47032928 0.20121458 0.2767488 0.397697 -0.33167475 -0.31726703 0.050360344 -0.26756123 -0.20377453 -0.58594066 -0.18499519 -0.24047334 -0.21573791 -0.29307464 -0.035716217 -0.24398874 0.17487854 0.2216027 0.5389152 0.3719862 0.3916303 0.08394879 -0.27110904 -0.40035236 0.1541801 0.12391033 0.18917352 0.07696671 0.2944839 0.16049565 0.34646115 -0.19905168 0.2830384 -0.11425437 0.18763497 -0.007826972 -0.2085868 0.046001084 -0.1751385 0.13235012 0.18763049 -0.51914537 -0.33545128 0.122545004 0.18134338 -0.025184494 0.5060891 0.14531958 0.025173625 0.21491775 0.29970825 0.057509158 -0.3101792 -0.081841 -0.113082 0.07471923 0.38779712 -0.065566026 0.2398008 -0.6889467 -0.411557 0.4604777 0.082071245 0.16019273 0.07699165 0.25710523 0.6654167 -0.16235524 0.2267745 0.083629295 -0.12529112 -0.23617329 -0.012736708 -0.25563487 -0.16881688 0.42922887 -0.1425706 -0.42499125 0.31745145 -0.26537487 -0.3303695 0.17527969 0.112613976 -0.18815918 0.35322845 0.10871607 -0.25687912 0.17750643 -0.13423643 -0.2769774 0.02693174 0.08974726 -0.06412972 0.25324258 -0.34570557 -0.27165174 0.021159602 -0.10739818 0.25943434 0.080024734 0.02174426 -0.357367 -0.12726967 0.433653 -0.00058933086
趣图 -0.29851553 -0.07167075 -0.0090104425 -0.17024137 0.3104893 0.32688582 -0.35454237 0.0005558063 0.09557669 -0.3353238 0.11190173 -0.22596395 0.22591877 0.44525242 0.14878622 0.30226982 -0.24011514 0.004447821 0.38530025 0.10464342 -0.036028333 0.15148371 0.16928001 -0.038296025 -0.33616388 -0.12940982 0.21221784 0.26573688 -0.26314256 -0.37754342 -0.19310872 0.0008254379 -0.38472307 -0.057427615 -0.06354257 0.04122301 -0.25662324 0.020575657 -0.18519509 -0.052654468 0.20145275 -0.20536634 0.16964802 -0.36150473 -0.092936754 0.07367217 0.11317488 -0.25934067 0.08913465 -0.12479682 0.2875918 -0.43063292 -0.2746767 -0.17092277 0.30346704 -0.11213021 -0.2537478 -0.2754801 -0.43298584 -0.19923843 0.43693563 0.3452495 -0.06619025 -0.078807 0.22822544 0.040040493 0.14441936 -0.36202896 -0.102108456 0.25402614 0.09020709 0.069096126 0.032789547 -0.14963134 0.0022728085 0.061088253 0.27664527 -0.14527757 -0.30779037 0.05348235 0.22868057 0.032429535 -0.068604216 0.089600325 -0.24087939 0.06720235 -0.051775634 0.16642827 0.20237511 -0.0054177656 0.021164428 -0.06330983 0.23452716 0.0037578128 -0.2883406 -0.049370434 0.20014761 -0.057897672 0.013795327 0.2196163 0.23549436 0.662304 0.23514721 0.29682335 -0.49379638 -0.08099919 -0.035432976 0.069146685 0.109001115 0.10632608 -0.039335348 0.44606674 -0.16404949 -0.17659244 -0.20733052 -0.012757729 0.31586307 0.1887194 0.1661245 -0.06580605 -0.21683386 0.078281224 -0.034670755 -0.030359766 0.1394176 0.21887942 0.04644564 0.11707203 0.45118105 0.2580806 -0.019114593 -0.22049822 -0.09407046 0.40652815 -0.23337814 0.08477611 0.0129018705 -0.39113414 0.09316744 -0.0032085162 0.12565553 -0.16918577 0.46975872 -0.21949045 0.012064129 0.22853789 -0.13457389 0.3134863 0.040479697 -0.064377934 0.1460279 0.17137235 0.18016551 0.40536138 -0.23522355 0.16624826 -0.28430057 0.5536611 -0.1898703 0.06904546 0.14278351 0.30641007 -0.063336805 0.13880277 0.19189028 -0.27389547 -0.25504076 0.47425953 -0.117579736 -0.10557789 0.14357136 0.09816995 0.36646575 -0.14247248 0.11742103 -0.15295619 0.013195748 0.30002034 0.052766558 0.007826287 0.11646174 -0.29320055 0.3078303 0.15419339 -0.2358458 0.08059521 0.25508428 0.4103728 0.026705636 0.014520665 -0.45997986 -0.055180494 0.18965086 0.27274513 0.09185324 -0.065166436 0.2651179 -0.4260222 -0.04869376 -0.027326044 0.24188961 -0.083543964 0.13804564 -0.010366256 0.21889775 -0.15150021 0.2760592 -0.23100422 -0.10332159 -0.038438555 0.07514204 0.39490974 -0.022055991 0.03870885 -0.2732037 0.21186936 -0.024566256 0.2998143 -0.417738 0.30285466 -0.12387085 -0.053690538 -0.17660286 0.22957759 0.1790618 -0.19606878 0.032079928 -0.08510239 -0.048881713 0.15618029 0.03532008 0.0104607735 0.2446255 0.06617709 -0.25766993 0.22905628 -0.38996822 0.09829854 -0.020439789 -0.4813001 0.14036746 -0.053466786 -0.13427785 -0.09439469 0.046645656 -0.6822001 0.60309744 -0.041531228 -0.29848596 -0.1327512 0.21007514 -0.17261799 -0.050663956 -0.33660597 -0.07090012 0.290749 0.0077556474 -0.29219344 0.057118103 -0.15088221 0.07238808 -0.10805982 -0.15751645 -0.027835455 0.2391862 -0.050528623 0.054896437 -0.065340646 0.03576219 -0.061603285 -0.1947713 0.32062313 -0.04601436 0.13089237 -0.16488534 0.064778514 0.07845264 0.10843109 0.33113363 0.34959787 -0.17201506 0.16785738 -0.13516615 -0.3251008 0.20455383 0.031628676 -0.31318066 0.06407781 0.2827174 -0.08326641 0.06826588 0.1509292 -0.208324 -0.36275235 0.042368196 0.20271702 0.079325035 0.041045442 -0.045572408 0.004196082
页面 -0.113162585 -0.14951149 -0.07977461 -0.04962489 0.18606347 -0.021540076 -0.32444546 -0.19619468 -0.06361172 0.22675775 0.021619637 -0.08845168 -0.0071812407 0.13350369 0.18332513 0.17276351 -0.37215188 -0.09466319 0.2746885 0.0046003433 0.19897386 0.015288417 0.14201124 0.14462435 -0.3322769 -0.23776087 0.019386847 -0.04541285 -0.047254186 -0.08524287 0.12117531 -0.003198912 -0.23117313 0.010070126 -0.1689567 -0.0606599 -0.18704988 -0.10431774 -0.23939593 -0.076177396 0.17767636 -0.4168441 0.083660476 0.0010834913 0.030773379 0.19290121 0.25191462 -0.056315962 0.14971532 0.106466606 0.24362905 -0.031827457 -0.13083176 0.013947452 0.11478889 0.060201004 -0.25174084 -0.3002027 -0.29105073 -0.22091086 0.29946426 0.22861397 0.045131344 0.057560526 -0.018829294 0.086069725 0.16547607 -0.20605262 0.055826224 -0.17333889 0.050216716 -0.05095801 0.25621662 0.009215287 -0.21016991 0.13196647 0.19750017 0.030033337 -0.054025788 0.23492235 -0.0008897933 -0.2835147 -0.2953538 -0.09626611 0.02403008 0.08743419 -0.05186376 0.25448155 0.1630646 -0.10178126 -0.13654666 0.04512955 -0.01337866 0.23376739 -0.017209461 -0.1553979 0.12645452 -0.048437275 0.3573721 0.29774004 -0.11788195 0.1822817 -0.1386922 0.06809197 -0.2922839 -0.12061712 -0.0062839817 -0.05019494 0.07154676 -0.11702174 0.062054098 0.13188261 -0.10954748 -0.050681725 -0.09918914 -0.02163958 0.1936836 0.07940055 -0.0077822683 -0.0047567715 -0.15454286 0.029470308 -0.4009318 -0.15861581 0.05898204 -0.01568346 -0.095913425 0.04730234 0.32874647 0.07493005 -0.014614139 -0.19804001 -0.08260357 0.16373122 0.08421119 0.13509968 -0.10078207 -0.163728 -0.0072479784 0.05360663 0.16155936 -0.26270556 0.2936528 -0.035869375 0.33043104 0.16917309 0.16435646 0.38943708 -0.013314063 -0.1102716 -0.060609117 -0.0105538815 0.22686218 -0.0034903693 -0.16682212 0.06753508 -0.21784487 0.43298396 -0.25542405 -0.25207055 -0.02779417 0.10806988 -0.13268936 0.16540562 -0.057039373 -0.045899168 -0.27281305 0.14562565 -0.010083255 -0.09784997 0.10518574 0.2201192 0.17716336 0.096489966 -0.18119991 -0.16477436 -0.19338706 0.05020697 -0.09207297 0.18172866 0.11912473 -0.19490711 0.17941092 0.020453485 -0.24935253 0.11786158 0.23919243 0.36504567 -0.02016313 0.17919551 -0.24402429 -0.07964061 0.25167868 0.09021413 0.1046567 0.004387074 0.32210147 -0.11273783 0.119319946 -0.25916985 0.17915334 0.22268915 0.26939565 -0.0653096 0.19245628 -0.23543844 0.17103025 -0.08468449 -0.08537209 0.090446144 0.020293243 0.20992559 -0.14649622 0.27298203 0.10873795 0.32879537 -0.08863434 0.31902018 -0.26945752 0.26871967 0.19560248 0.15552445 -0.08889009 0.115038216 0.19645543 -0.09518765 0.065866776 -0.17795415 -0.06473285 0.12534186 0.112860456 0.02480298 0.018117404 -0.08875999 0.11985685 0.07833188 -0.18168676 -0.085844755 -0.030657195 -0.38377935 0.030814776 -0.32236874 -0.19822045 -0.01260504 0.18325739 -0.51403844 0.15380493 0.19390693 -0.16048747 0.13112924 0.072644636 0.12406362 0.08324002 -0.025465088 -0.042402893 -0.2757364 -0.22793423 0.031255078 0.041220944 -0.2516581 0.18194374 0.040470958 -0.17570247 0.03841771 0.26463962 -0.06848284 -0.021831678 -0.18619597 -0.122620136 0.19672278 -0.23249735 0.06537536 0.019740725 0.045994792 -0.29476637 -0.34033826 0.14159456 -0.00280211 0.23350216 0.10116588 0.07807301 0.16192777 -0.13212752 -0.3440713 0.025106918 0.0977936 -0.16978039 -0.0086634355 0.012602569 -0.11606982 0.27902183 0.0314934 -0.025180807 -0.3836267 0.0011410541 0.025352422 0.030967193 -0.00065429247 -0.13235945 -0.051225405
登录 -0.5784331 -0.36245236 0.11138016 0.47950676 -0.26037958 0.27171475 0.40364137 0.29586658 0.03750668 0.39145732 0.36833155 -0.14501357 -0.63850737 0.058923155 0.2070846 0.16055694 0.002084015 -0.5020865 0.2566497 0.67501104 -0.19325854 0.14721234 0.23160407 0.12139179 -0.12682986 -0.280401 0.21857065 -0.28173402 -0.20662826 0.26470247 -0.025623506 -0.28714162 0.265125 -0.210595 0.21069539 -0.2603156 0.22115782 -0.15220775 -0.19114994 0.10447764 0.55300856 0.2352052 0.4056754 0.23535192 -0.30978063 -0.16222 0.13217865 -0.5146576 0.053245787 -0.18824159 -0.023287047 -0.19729 -0.54600686 -0.18345241 -0.081391096 -0.3208854 -0.30035657 -0.23464552 0.028752923 -0.53599006 -0.07182083 -0.19347948 -0.65726817 0.3452063 -0.02758916 -0.04728975 -0.14835824 0.264404 0.26888752 -0.17969246 0.038944688 0.078955926 -0.23124626 -0.070221424 -0.05348173 0.32826176 -0.6283812 0.28847572 -0.4506954 0.52911705 -0.51669836 0.017604226 -0.14385477 0.39182013 -0.029584972 0.17424296 -0.41555172 0.10810176 -0.53131634 -0.06397021 0.0067655784 -0.1897343 -0.0038793813 -0.5227864 -0.08927672 0.15208407 0.24875958 0.15415898 -0.1760377 0.43034455 0.094068006 0.18432516 0.057137616 -0.13340135 -0.25517166 0.11533973 -0.049583104 -0.44121122 -0.2786908 -0.10945305 -0.21556698 0.23389955 0.34746048 -0.040748455 0.6601946 0.31299508 0.32835227 0.7083624 0.07651277 0.40361363 0.086644776 0.026031844 0.03354065 -0.13268448 0.19211933 0.005248341 -0.40343022 -0.38102722 -0.3284291 -0.33701012 0.17175195 -0.03195579 0.011989368 -0.71689636 0.17788047 -0.09969692 -0.65139204 -0.26809826 -0.34185937 -0.12490441 0.0049426453 -0.1494299 -0.40131888 -0.11255363 -0.26937425 0.28271887 0.07228465 -0.20035253 -0.25123295 -0.55341333 -0.13604508 -0.15281703 0.22272086 0.18015917 -0.2249128 0.41275173 0.08127965 0.3991883 -0.42374456 -0.13628654 0.12696113 0.1786708 -0.632071 0.14803402 -0.038869463 0.07915226 0.50533193 0.41623402 -0.3435787 -0.49983186 0.040774483 0.072557464 0.13569495 -0.760212 0.051223215 0.36936358 0.5443781 0.13818045 -0.47387666 0.23397355 -0.1322851 -0.16868499 -0.050191496 -0.3340737 -0.6752772 0.37711638 0.02498666 0.1739493 -0.055980492 -0.05379605 0.05095879 -0.38844177 0.1424034 0.13369869 -0.010242485 -0.37854478 0.045930814 0.32063785 0.319418 -0.32239914 -0.39041144 0.11450377 -0.37148064 -0.11884293 -0.3712896 -0.15251295 -0.24951874 -0.37509927 -0.38323426 -0.13635118 -0.1444455 0.14354312 0.07680378 0.42939007 0.4368076 0.3685889 0.18303528 -0.40863746 -0.2381573 0.2969995 0.15384184 0.2262327 0.03654882 0.35114786 0.066255346 0.25992972 -0.43843052 0.2754629 0.02326613 0.18429127 -0.011268261 -0.13778937 0.032303806 -0.1829185 0.16451946 0.15396689 -0.47478542 -0.24111962 0.095955506 0.19000189 0.019700225 0.6168304 0.19422509 0.19740671 0.31213972 0.48148552 0.07033818 -0.22687198 -0.05278896 -0.08261721 0.14044127 0.37468192 -0.047405735 0.33310136 -0.66481715 -0.312316 0.42396137 0.15814821 0.19316164 -0.017176485 0.28227085 0.54504627 -0.102367505 0.29323533 -0.009211358 0.099747285 -0.18695301 0.08925896 -0.39115876 -0.29127 0.41510308 -0.14046045 -0.5970329 0.25694978 -0.26080573 -0.12399715 0.34049347 0.13672978 -0.17376457 0.24636284 0.24938959 -0.110327646 0.23833574 -0.053599767 -0.37757054 0.10041577 0.13666199 -0.13019009 0.22825663 -0.21353288 -0.24137543 -0.046011467 -0.07056048 0.2659373 0.06443912 -0.11217953 -0.0722889 -0.1660418 0.3257988 -0.03569656
提示 -0.36602825 -0.22000773 0.060010977 0.08121859 -0.040698152 0.19474395 0.20011905 0.14823104 0.36432296 -0.114256166 0.50933814 0.014767331 -0.13766553 0.16610907 0.3309014 0.36246163 0.48887348 -0.21424967 0.40027836 0.68189263 -0.33040783 0.28188533 0.22910869 -0.0379434 -0.44936928 0.12611571 0.20312317 0.13885212 -0.20487764 0.12355726 -0.24592793 -0.26974747 -0.0619726 0.040906824 -0.25274187 0.0045371354 0.058088977 -0.15421523 -0.35794452 0.02573519 0.37483895 -0.012120337 0.07370636 -0.17907277 -0.1869689 -0.21966936 0.033438876 -0.73189825 -0.022479322 -0.31818295 -0.30719903 -0.2650855 -0.47333515 0.1530624 -0.15753193 -0.42448634 -0.01748625 -0.093892075 -0.13896224 -0.5232845 0.19639878 0.063082956 -0.39896935 0.20088819 0.34458837 -0.13357572 0.423407 -0.014352444 -0.10910514 0.07060981 -0.19968437 0.23240234 -0.17241098 -0.032424547 0.16918159 0.096035875 -0.37060615 0.20487256 -0.44714773 0.38814747 -0.23833624 0.058966834 -0.22295485 0.41273087 -0.28651673 0.24005918 -0.18398316 -0.0760907 -0.36550745 -0.2288908 0.39163995 -0.09480779 0.37761936 -0.42020756 -0.25809887 0.2859542 0.2285747 -0.22552836 -0.3560914 0.35823515 0.34265432 0.3690807 0.21313149 0.12913656 -0.38094005 0.108824514 0.079329155 -0.13674082 -0.13387105 -0.13414638 0.042423014 0.2846505 0.4202721 0.10693129 0.33402362 0.03845204 0.48756832 0.30819374 0.19635482 0.09925629 -0.031783774 0.061224885 0.49289536 -0.35667515 0.20965338 0.11920582 0.1120402 -0.3977927 -0.040088315 -0.05028755 -0.08087378 -0.15296008 0.012512295 -0.3496194 -0.099710666 -0.336067 -0.6210508 -0.2966448 -0.29670492 0.13604352 -0.13269831 -0.22590084 -0.14070274 -0.18434873 0.16345206 -0.07627558 0.01148191 0.025237568 -0.024509765 -0.3793702 0.22124423 0.043643493 0.3283216 0.2877435 -0.20636378 0.32568553 0.16074817 0.43240872 -0.29628107 -0.08907799 0.1740364 0.0043549794 -0.73649246 0.37171274 0.1096659 -0.0025817892 -0.043146495 0.52405643 -0.27764568 -0.08553455 0.31810665 0.057132266 0.15497307 0.06115569 0.048125464 0.34230128 0.39898664 0.022455186 -0.30425715 -0.12001924 -0.196379 -0.12786056 0.12402156 0.08832644 -0.38344395 0.3506254 -0.046406485 0.012578865 -0.50042284 -0.076496154 -0.3653695 -0.23610014 -0.070111014 0.22607328 0.033748437 -0.4938304 0.42706972 -0.050698664 0.575649 -0.29354793 -0.38684872 0.1370815 -0.18380044 -0.18157136 -0.42920092 0.022832273 -0.26725546 -0.14811055 -0.28032035 -0.122380085 -0.09985149 0.23538236 0.14788418 0.4231184 0.19526449 0.39073873 0.1977734 -0.05568271 -0.40735364 0.05830049 -0.019203499 0.19961567 -0.09061442 0.16462956 0.51696074 0.14400063 -0.088163465 0.31667358 -0.12716454 0.29548386 -0.09114282 -0.24392086 -0.15018134 0.11248639 0.022949824 0.18719855 -0.56829375 -0.12377962 0.113938175 -0.00034589093 0.18898007 0.10295122 -0.017625008 -0.07123751 0.09998475 0.17356934 0.24749896 -0.3965627 -0.098478206 -0.3730488 0.22506872 0.44893113 -0.06664706 -0.009293033 -0.32604727 -0.3158667 0.063069336 -0.04704071 0.30069086 0.0023009058 0.00038140995 0.27089396 -0.11856934 0.024514344 0.30492744 -0.06562584 -0.16666934 0.17335385 -0.16516012 -0.020218274 0.11412192 0.049888078 -0.2571975 0.3175823 -0.08458867 -0.25311565 0.14882651 0.22413012 -0.03786214 0.37330294 -0.114790924 -0.39233455 0.014658582 -0.29783288 0.13881809 0.14657953 0.009907038 0.15479256 0.074779 -0.054782216 -0.12975773 -0.0013394653 -0.2343599 0.22824533 -0.08798205 0.086837195 -0.3143342 -0.0563718 0.27754825 0.05639265
编辑 -0.26522943 -0.31791574 -0.051891763 0.12280374 0.12734516 0.42626983 -0.1491767 0.27371144 0.07753321 0.28089038 0.2177844 0.061663404 -0.262837 0.18949768 -0.14613092 0.14897034 -0.3625252 -0.47871846 0.31920943 0.30278403 0.19738732 0.048446078 0.3084356 0.57601964 -0.4657963 -0.5374354 0.00048069993 -0.02687126 -0.14821084 -0.45543906 0.45987153 0.32294205 0.034644786 -0.25286454 0.24628505 0.18140882 -0.2231789 -0.035074566 -0.19685721 0.0014028696 0.46477294 -0.40551984 0.15417393 0.2635829 -0.102984555 0.24649781 0.7376286 -0.11313169 0.076192275 -0.004940517 0.46811214 -0.23549001 -0.1539355 -0.03766892 0.17959675 -0.104918055 -0.14632905 -0.11391101 -0.4490676 0.10445923 0.315916 0.02717243 0.18528792 0.029966269 -0.12182844 0.21486945 -0.000463246 -0.1318472 0.48506773 -0.4955382 0.1393612 0.07415586 -0.0916938 -0.29897678 -0.08657514 -0.0251037 -0.14125736 -0.12613052 -0.0710536 0.3288166 -0.2685673 -0.04757977 -0.2723048 -0.06284902 0.2715777 0.03056029 -0.12641591 0.11229246 0.09462237 -0.20253485 -0.042373676 0.22106613 -0.11230589 0.16043635 -0.25318733 0.022170207 0.4371581 0.38606167 0.2277427 0.42155 -0.31179923 0.10940868 -0.3743911 0.0014661661 0.01079844 0.110267095 0.27350512 -0.278342 -0.0058987113 -0.023909824 -0.054120306 0.27622908 0.037883636 -0.39885968 -0.024978548 0.041103702 0.18461712 0.34754586 0.06664187 0.1311026 0.14642322 -0.12714586 -0.5398758 -0.15948045 0.25563917 0.21443254 -0.042672843 0.17368165 0.37846807 -0.28786194 0.15582797 -0.21367551 0.23669676 -0.21384607 0.3112693 0.3714607 0.24930982 -0.16704603 -0.2953183 -0.17557094 0.40538126 -0.37279788 0.02980406 0.037770357 0.029252982 0.11523775 0.022416085 0.16498975 -0.15765157 -0.07099668 -0.5248358 -0.2144529 0.2513743 -0.019186487 -0.4795665 0.22846873 -0.36127937 0.4445268 -0.40630683 -0.37884557 0.288221 0.3022623 -0.08781336 0.13205487 -0.24065422 -0.08900454 -0.17091261 -0.046741717 0.22719058 -0.07418091 0.13772424 0.048207577 0.16645302 -0.43926233 -0.037263155 0.11040258 -0.30250788 0.57652414 -0.18733813 0.16372429 -0.1040404 -0.5051738 0.32356375 -0.010876717 -0.08506566 0.16216461 0.21905948 0.3914636 0.536769 -0.093723655 0.09033405 0.037390605 -0.09042639 0.026023066 0.22976984 0.16502532 0.20704591 -0.004273686 0.09445318 -0.38043427 0.041012187 0.111241505 0.11819108 -0.104084656 0.37576783 -0.14916235 -0.09526098 -0.20424454 -0.38303128 -0.24510068 0.4698947 0.000775417 -0.22421911 0.09696136 0.12054794 0.29468414 0.28104937 0.167161 0.10277617 0.64321226 0.173977 -0.032474212 -0.049036022 0.5404507 -0.048275433 0.12749799 -0.38601658 0.029737419 0.066173606 0.25730872 -0.035384413 0.15743795 0.06526212 -0.10871989 0.10319104 -0.049276583 -0.24901153 0.041808352 0.13472822 -0.5331234 0.016402224 -0.13381334 -0.06741071 0.22495824 0.40468147 -0.016643692 0.34830427 0.1368883 -0.28265998 0.2800968 0.018262709 0.1099897 -0.095911935 0.33505145 -0.07197363 0.12505288 -0.14937147 0.23255247 0.32295224 -0.27661142 0.21173474 -0.1349143 -0.08652889 0.13111588 0.24956134 0.27438015 0.016874453 0.20680402 -0.27282172 0.127851 -0.27694553 -0.19215575 -0.34046683 -0.19031572 -0.3305078 0.09551796 0.36381456 0.15094927 0.03173722 0.0001391585 0.28964978 0.3847021 0.08941628 -0.23080055 -0.24501699 0.404328 -0.122326195 -0.08304124 0.118847206 0.14338726 0.15345052 -0.062043067 -0.1078489 -0.35266253 -0.23182465 -0.21321553 0.655323 -0.121691704 -0.35914832 0.0072592874
验证码 -0.70653236 -0.46053758 0.16705588 0.5902182 -0.3647242 0.20321794 0.5088626 0.24155419 0.09117265 0.48914137 0.51325345 -0.12053091 -0.83295375 -0.016802015 0.35932097 0.26132026 0.11726571 -0.5294446 0.2773314 0.8507327 -0.29190403 0.2447579 0.2671139 0.03380244 -0.20468812 -0.23118937 0.29039758 -0.34180433 -0.27629253 0.5476102 -0.083474554 -0.51443356 0.23850006 -0.09350396 0.1217144 -0.38794968 0.38062945 -0.2851032 -0.28491917 0.17189838 0.6327379 0.27371144 0.42575747 0.25339112 -0.4148636 -0.2595494 0.087280005 -0.73306364 0.022457512 -0.23424797 -0.18088064 -0.17603312 -0.7770792 -0.19407378 -0.231296 -0.39795554 -0.34155872 -0.36587936 0.0968894 -0.85840297 -0.1269515 -0.2152928 -1.0617083 0.47390276 0.036106844 -0.166133 -0.03462819 0.33321545 0.2075408 -0.1534267 -0.0038918555 0.09881647 -0.17735071 0.03659 -0.10307055 0.43112183 -0.82305884 0.4826522 -0.5898666 0.732106 -0.6610798 -0.043212716 -0.20235014 0.51293766 -0.09611488 0.32656574 -0.6039533 0.12082254 -0.72877187 -0.08346571 0.04690033 -0.25119206 0.07320355 -0.7180105 -0.06474087 0.18305132 0.23729816 0.044595122 -0.22333312 0.5607188 0.21630685 0.20778875 0.11618854 -0.16227116 -0.40897426 0.13438968 -0.081256784 -0.5359664 -0.344714 -0.1722727 -0.21485555 0.21379532 0.51389796 0.06296814 0.9055594 0.3442244 0.5003134 0.84023994 0.06417603 0.55433416 0.041000076 0.058347862 0.18139789 -0.24186973 0.1988295 -0.049739886 -0.55444175 -0.6019315 -0.50691676 -0.40993616 0.10897608 -0.055659767 0.006232109 -0.89625 0.19656147 -0.21186048 -1.1258934 -0.38452986 -0.42865354 -0.11818733 -0.087528646 -0.22235489 -0.5260702 -0.10883462 -0.13210547 0.32626444 0.19113787 -0.24775767 -0.35775146 -0.7588352 0.002138239 -0.16020054 0.29242605 0.21396606 -0.22232847 0.5446822 0.22565019 0.4995846 -0.55814636 -0.14083979 0.1310624 0.09814358 -0.88934916 0.22255515 0.028059121 0.242835 0.5943641 0.57282794 -0.52636105 -0.64417756 0.10495215 0.13193779 0.17195159 -0.80033463 -0.039096322 0.46004108 0.7549319 0.04011675 -0.62958115 0.30326682 -0.17330731 -0.14463724 -0.109831855 -0.36567777 -0.93925667 0.5132468 -0.057863776 0.18635477 -0.34469998 0.009907947 0.044425894 -0.5592721 0.24878532 0.15197913 -0.024684558 -0.6048301 0.16927059 0.45282254 0.54169315 -0.453568 -0.52928776 0.1640935 -0.44512174 -0.19975522 -0.696667 -0.21495959 -0.35756558 -0.3935853 -0.43302944 -0.102513425 -0.28743866 0.16905609 0.20400047 0.6857574 0.6190636 0.52292687 0.15980525 -0.46613318 -0.4271198 0.26491827 0.22753735 0.3076456 0.10433011 0.3927542 0.17746097 0.420845 -0.43596968 0.39505833 -0.075877726 0.24345773 0.01026532 -0.25168386 -0.0059382226 -0.28135306 0.24972261 0.20249407 -0.64528257 -0.43702635 0.14941357 0.3514564 0.006616999 0.7441719 0.24552946 0.13792427 0.3730372 0.60955656 -0.017395131 -0.37003905 -0.050689936 -0.16347374 0.13980617 0.5762216 -0.039868042 0.41651174 -0.9129361 -0.5925028 0.5961336 0.19978714 0.218165 0.045539327 0.36010236 0.848277 -0.21402323 0.36446723 0.062632956 -0.019040368 -0.33060503 0.04191664 -0.4596119 -0.25777534 0.61195815 -0.21858798 -0.6861895 0.4463299 -0.32717893 -0.38261002 0.35825792 0.15841727 -0.28293014 0.37811625 0.26986706 -0.31658876 0.29181805 -0.13091698 -0.4714535 0.06550892 0.20993999 -0.12805215 0.26909095 -0.37918288 -0.35586032 -0.03743676 -0.11276159 0.4215345 0.1080041 -0.071869604 -0.35935393 -0.20019981 0.53819674 -0.033738483
模块 -0.081030466 -0.15643927 -0.072920725 -0.040258203 0.113172434 -0.12285067 -0.29209873 -0.3105561 -0.035372097 0.24167058 0.11502357 -0.018025897 -0.054174885 0.0036143467 0.26084962 0.18478538 -0.26030275 0.03785826 0.18573731 0.006331645 0.15025307 0.020031719 0.15245724 0.08440001 -0.40100688 -0.10803738 -0.006082098 -0.11750866 -0.058396064 0.14382002 0.17543991 -0.13503227 -0.31036717 0.15311092 -0.34076673 -0.1126575 -0.0720396 -0.1349862 -0.33553782 -0.05975893 0.091009825 -0.37299287 0.010958687 -0.0117919305 -0.047179 0.121196374 0.19202554 -0.10267175 0.06575477 0.16245218 0.11088945 0.00047777858 -0.19349922 0.090320304 0.022004817 0.06270939 -0.23126142 -0.3244566 -0.17612658 -0.3777392 0.23619354 0.233354 -0.1841573 0.05167685 -0.050171282 -0.009517428 0.24885665 -0.19692865 -0.0035609896 -0.12552983 -0.030908702 -0.0744521 0.29106724 0.13843347 -0.30972248 0.12991959 0.15193704 0.18231942 -0.0015484768 0.35658988 -0.017345086 -0.32075745 -0.31070378 -0.106179655 0.008702151 0.2074568 -0.12524362 0.17824617 0.055171758 -0.14957087 -0.020259136 0.020989299 0.071259886 0.1479694 0.058414273 -0.16812634 0.06543265 -0.12689337 0.37510622 0.31694904 -0.027318327 0.13185492 -0.12832926 -0.025742436 -0.37419513 0.023088071 -0.008166738 -0.11516136 0.05355363 -0.10613114 0.109685756 0.07949797 -0.016225526 0.06557984 0.024635391 -0.06368601 0.25596163 0.018715655 -0.02179533 0.0017944804 -0.15094128 -0.0356898 -0.26721397 -0.21778178 -0.0140794655 -0.022094881 -0.097423725 -0.070529096 0.23501195 0.03142971 -0.08310776 -0.2027083 -0.04134112 0.14583264 0.065745406 0.1360838 -0.33696222 -0.21270786 -0.0027942092 0.06558771 0.10443671 -0.3252917 0.23051466 0.0033902403 0.4825793 0.13823661 0.29376242 0.3330348 -0.11197039 -0.18790548 0.11491302 -0.01893503 0.16235462 -0.008040129 -0.1270315 0.09830346 -0.15719475 0.39239222 -0.2732823 -0.21099839 -0.10262225 0.020493492 -0.20760956 0.18351625 -0.06064966 0.11383554 -0.3008054 0.14130205 -0.07713634 -0.14355403 0.13956858 0.2040292 0.14622544 0.19957566 -0.27951983 -0.17023586 -0.1398507 -0.024069702 -0.07175361 0.1719272 0.058800068 -0.19244282 0.069680706 0.08125816 -0.32729557 0.15325806 0.12086601 0.33847582 -0.20374937 0.26075688 -0.20908439 -0.0811597 0.3090578 0.0076203793 0.08278369 -0.118082225 0.36799842 -0.03587018 0.22550347 -0.3392649 0.16417368 0.20867231 0.2492685 -0.15040815 -0.05938573 -0.2563045 0.01607472 0.07634115 -0.09025559 0.17119618 -0.07386496 0.19728212 -0.024275789 0.39044413 0.143801 0.3643963 -0.12274088 0.28410769 -0.30081055 0.118137226 0.23657258 0.14240055 -0.0056749578 0.09766739 0.21609257 0.07392005 0.15879546 -0.10955415 -0.14222178 0.13845593 0.11367517 -0.03286928 -0.021573255 -0.15802798 0.15959997 0.06809645 -0.22535364 -0.19707714 0.040855482 -0.24707167 -0.031496737 -0.3163251 -0.18233155 -0.06753011 0.15175965 -0.47036022 0.014773083 0.13390623 -0.15548335 0.12226283 0.016928256 0.26416212 0.066714786 -0.0019059008 -0.16902617 -0.44235292 -0.19022794 0.09814542 0.08281669 -0.21948437 0.1790503 0.2245259 -0.1817483 0.041401982 0.28100172 -0.23425342 -0.09013732 -0.27002692 -0.09549723 0.2523388 -0.12787853 -0.0341695 -0.0015755378 0.06072295 -0.34351966 -0.5004643 0.082081646 -0.025625695 0.13197736 0.17478216 0.08488781 0.052145243 -0.07289376 -0.3655718 0.0136755435 0.03756739 -0.16161264 0.030867366 -0.021807082 -0.22643705 0.17711006 0.06416265 0.019583434 -0.3092202 0.00059089635 0.030101553 -0.18769142 -0.045167007 -0.013997456 -0.046473
用户 -0.26298767 -0.13791946 -0.07114367 -0.072702385 0.23494707 0.18703799 -0.00012131379 -0.02812962 -0.0048511107 0.113364235 0.12474496 -0.1545351 0.16069357 0.26743507 0.23761855 0.14943181 -0.30899993 -0.26165217 0.530604 0.22248267 0.121520296 0.025952838 0.17074254 0.1389053 -0.22921363 -0.11626007 0.09824933 -0.03354058 0.0792768 -0.24253824 -0.12926838 -0.08563671 -0.0478486 -0.07960719 -0.10214926 0.031966962 -0.3145474 0.017315496 -0.2639374 -0.12528692 0.3754355 -0.19045284 0.18352163 0.0024389387 0.16688138 0.19968626 0.1421678 -0.2574752 0.22817953 -0.2540879 0.19793184 -0.2948845 -0.23618345 0.06988064 0.15304221 -0.18402472 -0.35041648 -0.29438573 -0.37879297 -0.17379357 0.48291653 0.21637148 0.32553446 0.1784837 -0.051598623 0.2429314 -0.02363004 -0.051148437 -0.011134567 -0.16113342 0.023383541 0.22081538 0.047738947 -0.2649205 0.0068677887 0.18784243 0.23730265 -0.20117109 -0.1972335 0.15037169 0.09898343 -0.18088685 -0.25286478 -0.049310967 -0.048030615 0.04002707 0.06306015 0.34332296 0.026264453 -0.13158542 -0.089851245 -0.05779738 0.06939785 0.17165567 -0.13474278 0.045199104 0.3268156 -0.075281896 -0.030766154 0.18549718 -0.030503694 0.3165148 0.12507409 0.2888458 -0.26729295 -0.1705746 -0.17782123 -0.0648331 0.009787195 -0.20460442 -0.010101316 0.205384 -0.15515839 -0.11274449 -0.17892396 0.07576083 0.30374113 0.20094782 0.16459966 -0.06514184 -0.1421191 0.16615689 -0.16650537 -0.11704985 0.18741956 0.078012384 0.12503001 -0.04442884 0.15268947 0.06346981 0.16320002 -0.17947209 -0.2722022 -0.040181663 -0.13515685 -0.085296236 0.057017744 -0.06639331 -0.0876896 0.3072662 0.14171334 -0.05183514 0.2612293 -0.24746059 -0.09503389 0.16153197 -0.006049709 0.48498115 0.30505386 -0.15220575 -0.22316271 -0.03736583 0.3269779 0.05315666 -0.18138118 0.132923 -0.20227002 0.39700255 -0.20431325 -0.24357912 0.040272605 0.3276015 -0.31589898 0.1830729 -0.046684638 -0.23835808 -0.09657385 0.32268724 -0.051063955 -0.028477143 0.10906031 0.21321756 0.24131827 -0.06434528 0.15297979 0.11004426 0.02230422 0.061816316 -0.21493341 0.094234586 0.110691555 -0.037049398 0.16414829 -0.0047173584 -0.24128231 0.17056021 0.25693202 0.26236546 -0.032816216 -0.12021404 -0.59747213 -0.14679201 0.19399375 0.22454482 0.05718908 -0.029644208 0.22732516 -0.2042455 0.08373653 -0.10241564 -0.008952521 0.4022281 0.08972578 0.037484188 0.40133926 -0.13069494 0.24041845 -0.36514285 -0.13019869 -0.06457234 -0.0034354795 0.34301034 -0.2216179 0.17298366 0.04864702 0.30904666 -0.061087366 0.13512687 -0.3143973 0.25657964 0.093338765 0.22236818 -0.20024493 0.046598233 0.27001792 -0.29411912 -0.05501891 -0.12466344 -0.06381578 0.11208796 0.12237003 0.04398934 -0.08163935 0.11343271 -0.05970807 0.07121838 -0.23098557 0.10953586 0.028509133 -0.36181474 0.1987201 -0.25934762 -0.20557666 0.11773157 0.14013061 -0.4794262 0.37742028 0.021732463 0.0115696285 -0.15441659 0.14572851 0.070268355 0.13344328 -0.20172888 0.017240828 -0.14243843 -0.24899456 -0.2348977 0.033462763 -0.28238502 0.090108834 -0.26115558 -0.24172032 0.045358296 0.2786942 0.083329365 0.06223569 -0.043205664 -0.21474129 -0.08642356 -0.24472705 0.2783509 -0.05456603 0.172033 -0.067344435 -0.027224727 0.22556049 0.10323894 0.36381847 0.1905614 -0.021562682 0.13968055 -0.1433057 -0.34803295 0.090792656 0.03586319 -0.20825365 0.044642564 -0.104442716 -0.011450628 0.37412256 -0.05289942 -0.101108216 -0.22953124 0.077841036 0.06194315 0.19385764 0.05372078 -0.05872735 -0.050741803
查看 -0.12122359 -0.08298226 -0.007108433 -0.12586732 0.24667896 0.021191662 -0.4086828 -0.2479682 0.06633476 -0.14600918 0.09257058 -0.12323079 0.13030483 0.22693932 0.21627647 0.29877478 -0.16886719 0.15902844 0.19057173 -0.036727168 -0.01681282 0.13211575 0.11443974 -0.08129439 -0.3135611 -0.045341708 0.15276793 0.16083519 -0.2104096 -0.042305123 -0.07091095 -0.14178069 -0.4723845 0.15724377 -0.22686593 -0.022643717 -0.12175808 -0.089830466 -0.22796205 -0.04733991 0.027157243 -0.28036878 0.01283909 -0.30436537 -0.10266322 0.0511962 0.12905255 -0.18692692 -0.03296708 0.08808022 0.109894544 -0.21629536 -0.26055238 -0.03778624 0.10038137 -0.016548226 -0.15406154 -0.32756037 -0.25546512 -0.35567296 0.32505855 0.34185827 -0.28110003 -0.005737986 0.20598555 -0.096825145 0.3203888 -0.30568612 -0.22252345 0.2627294 0.046349563 -0.031139767 0.2673945 0.058935937 -0.18310551 0.05531013 0.24433097 0.015384042 -0.16547088 0.12625493 0.1957443 -0.12355081 -0.16486995 0.0445059 -0.18371622 0.1663648 -0.05015529 0.13707896 0.16157842 -0.02539684 0.02523145 0.013265094 0.25876912 0.015394941 -0.097713366 -0.10918341 0.011459288 -0.20808803 0.152379 0.22280687 0.24564715 0.3745441 0.11028788 0.17037119 -0.49810663 0.03094511 -0.07718495 0.054377835 0.13806005 0.0066125416 0.03605602 0.20610261 -0.086205296 0.020994658 -0.10352123 -0.03547456 0.32790026 0.05039617 0.046221215 -0.07235854 -0.26141858 0.04663429 0.009279429 -0.114671 -0.040868483 0.03681145 -0.004786488 0.029236803 0.34531885 0.2240775 -0.08099689 -0.2275463 -0.059092082 0.41945395 -0.1847087 0.11755616 -0.3138337 -0.3413229 0.11593015 0.051636685 0.0039444724 -0.26784658 0.3947548 -0.08457624 0.2661926 0.1308115 0.08796503 0.26039433 -0.063250676 -0.08495575 0.30440944 0.15579009 0.15182953 0.29547304 -0.17280501 0.06879935 -0.1289357 0.44598117 -0.20925346 0.023129707 -0.00077670056 0.08230157 -0.124263406 0.16435456 0.16665609 0.014319756 -0.3433017 0.34368405 -0.16100913 -0.10035928 0.19108024 0.1019357 0.27212998 0.10483144 -0.07608676 -0.19537711 -0.024814688 0.14260405 0.043298155 0.042062525 0.114193775 -0.2178628 0.18249422 0.18081124 -0.25021628 0.05284477 0.12325215 0.32937843 -0.19269124 0.19891727 -0.29579544 -0.089266725 0.25259882 0.19443338 0.048420813 -0.13489974 0.3641913 -0.21576989 0.105204105 -0.092471845 0.24410315 -0.03172741 0.23740974 -0.13134715 -0.07400863 -0.23330857 0.18284272 0.004615394 -0.029770635 0.0950519 -0.072339565 0.3002429 0.11080811 0.2274085 -0.14819622 0.26580843 -0.1281601 0.3561934 -0.40895692 0.15164487 -0.026616527 -0.028668126 -0.046749625 0.12968457 0.1929175 0.019431086 0.2217014 -0.044005238 -0.14322865 0.10337169 0.055788446 -0.012445858 0.16450663 -0.035472564 -0.07661584 0.1737776 -0.30766594 -0.09030556 0.014121165 -0.3499305 0.033032853 -0.17309967 -0.14972804 -0.19839539 -0.00052245596 -0.61361283 0.36585304 -0.012984685 -0.2331121 -0.03629908 0.059502736 -0.03802128 -0.018213714 -0.20096694 -0.13545562 -0.03925228 0.012616039 -0.18091093 -0.03236353 -0.08641421 0.14249785 0.13676785 -0.19548807 -0.0448649 0.2751226 -0.24390692 -0.047874283 -0.22721691 0.06506646 0.11351545 -0.11361633 0.14179747 0.096602805 0.12451298 -0.21418831 -0.2636183 -0.06032464 0.04072775 0.24456495 0.28253517 -0.15783824 -0.02180523 -0.16481625 -0.31600693 0.12832439 -0.017701328 -0.23669969 0.07983998 0.22421014 -0.25284916 0.098293126 0.1715606 -0.11541333 -0.25456277 0.055910654 0.20284137 -0.24089657 0.009265206 0.07694515 0.0155464765
显示 -0.15223761 -0.1040723 -0.01382093 -0.07600193 0.17763378 -0.016122825 -0.30722743 -0.26298627 0.07462677 -0.006631598 0.14486273 -0.10408125 0.04637303 0.18607864 0.25163674 0.28657395 -0.12174214 0.08466978 0.2497219 0.047550548 0.025250213 0.123122595 0.11829405 -0.030839821 -0.35682762 -0.052725192 0.10211528 0.09266601 -0.17224412 0.035586905 -0.019526681 -0.1642464 -0.3785487 0.14845574 -0.27193037 -0.052490592 -0.09064072 -0.12340998 -0.27735502 -0.058986075 0.11501907 -0.27043957 0.05649934 -0.22113821 -0.081943214 0.054117855 0.14038995 -0.21971531 0.010623785 0.08552712 0.07952087 -0.16160655 -0.28007987 0.02362058 0.06240944 -0.05003329 -0.18194887 -0.3263867 -0.21822423 -0.40811235 0.28398222 0.28304943 -0.2560507 0.036415618 0.17305371 -0.065949194 0.32602918 -0.2521254 -0.16387546 0.11624057 -0.0056902324 -0.006494696 0.24046138 0.06729724 -0.20285636 0.107183374 0.14972496 0.104184926 -0.15762338 0.23357894 0.08626991 -0.1733935 -0.2336997 0.027020853 -0.14083676 0.18683814 -0.09211191 0.14791925 0.064389735 -0.09339381 0.035116933 0.003885035 0.23943746 0.015020065 -0.069181755 -0.068401895 0.041800614 -0.19978647 0.17130463 0.28886235 0.16715054 0.31490874 0.059540838 0.13197438 -0.46096432 0.035475273 -0.03427711 0.0054570893 0.08108698 -0.04517135 0.049403522 0.17260209 -0.0045251674 0.043354925 -0.0019533122 -0.039376147 0.34041718 0.07281002 0.05917758 -0.036759973 -0.22326067 0.04711459 -0.02359354 -0.17744605 -0.0010866936 0.0082632955 -0.026959315 -0.02724562 0.28034046 0.15523782 -0.09000597 -0.21222746 -0.067006946 0.27339405 -0.08797403 0.06778067 -0.3494415 -0.3011351 0.03498776 0.08132663 0.007024581 -0.29420447 0.31101114 -0.09929214 0.33573192 0.11694109 0.1648715 0.2822223 -0.06849756 -0.16043307 0.2628572 0.09209678 0.19471648 0.23318385 -0.16301678 0.09491976 -0.09480129 0.46559918 -0.23683293 -0.06561761 -0.027009387 0.045960017 -0.2484746 0.18968354 0.1102258 0.04303854 -0.2999875 0.3133536 -0.16804658 -0.116533145 0.19378272 0.13382863 0.2317295 0.13347512 -0.13534015 -0.1246652 -0.007484157 0.079251744 -0.034770947 0.06156754 0.07678925 -0.21887177 0.1326026 0.1400065 -0.3025992 0.1381061 0.10757941 0.31431106 -0.23955274 0.2055752 -0.29632756 -0.102787845 0.25331354 0.18197298 0.058320858 -0.1822424 0.38694078 -0.13377091 0.19870363 -0.19658762 0.13157187 0.07484988 0.20516586 -0.16262025 -0.098921455 -0.20467968 0.120313264 0.0033957853 -0.06691827 0.10961786 -0.09521675 0.28764164 0.05166779 0.33215767 -0.0068908725 0.33597535 -0.08979714 0.2935309 -0.41234744 0.13169357 0.06560152 0.093604945 -0.057661746 0.11881286 0.2730522 0.030108023 0.18367213 -0.03792571 -0.15843531 0.1365054 0.06630615 -0.04516252 0.06689481 -0.029887004 -0.0101500545 0.14367308 -0.3292034 -0.13629466 0.015744593 -0.2977937 0.042294987 -0.19768706 -0.1522876 -0.1417869 0.059103344 -0.5357943 0.26827472 -0.014932677 -0.18666592 -0.013068646 0.06734537 0.09278794 0.0040603615 -0.13763613 -0.1638128 -0.20763053 -0.049470466 -0.11447109 0.03430951 -0.10728777 0.1475808 0.17274107 -0.18216595 -0.0036849726 0.28278852 -0.24141777 -0.07395965 -0.19374529 -0.03476068 0.13407373 -0.09274634 0.07180699 0.043176405 0.12422933 -0.24818064 -0.3551993 0.00010715434 0.056017805 0.1683445 0.2918815 -0.08245884 -0.025259238 -0.13662207 -0.3328714 0.115655236 0.0059875846 -0.19851528 0.066401236 0.15048961 -0.22525746 0.10590157 0.10871453 -0.10566854 -0.23133014 0.030929187 0.15629089 -0.24720928 -0.0026422034 0.07728282 -0.006990477
选择 -0.30777028 -0.10789518 -0.03363624 -0.16117446 0.2574992 0.30700332 -0.31169868 0.048156787 0.06484872 -0.24861583 0.12489172 -0.1862933 0.18198156 0.3697617 0.1779637 0.2558709 -0.27115938 -0.07984324 0.42388284 0.17861642 0.0019782453 0.10175272 0.2090735 0.0104803555 -0.40410495 -0.15077549 0.14978763 0.17473017 -0.20048869 -0.36343303 -0.15800661 0.037398156 -0.30925328 -0.1048701 -0.10337161 0.006774059 -0.25758567 0.014337471 -0.2336439 -0.047171563 0.24153648 -0.27567324 0.17363904 -0.25318888 -0.056207757 0.091528505 0.09472104 -0.26730752 0.18259333 -0.16354874 0.29092872 -0.34404662 -0.21742682 -0.12702943 0.3067782 -0.08346925 -0.291451 -0.24153204 -0.4586435 -0.17371486 0.42481223 0.30962464 0.042062208 -0.06890658 0.1387571 0.08121571 0.114301376 -0.34970096 0.01855394 0.09305429 0.03149852 0.05597155 0.0057902727 -0.13918026 0.026709903 0.08004631 0.2482689 -0.08858271 -0.27280146 0.13806096 0.13346194 -0.026307156 -0.11081484 0.050347555 -0.18787621 0.061888896 -0.08715487 0.16728646 0.17957135 -0.05538062 0.0134455925 -0.08791155 0.13545398 0.06263633 -0.26903743 -0.07594687 0.27191564 -0.018500524 0.085397445 0.2637421 0.1182264 0.63614285 0.16320361 0.23294184 -0.4523748 -0.15386069 0.025842426 0.013272464 0.070374735 0.06694498 0.013287414 0.45173854 -0.14994387 -0.17670226 -0.18625018 -0.04561844 0.26448736 0.18201587 0.15060493 -0.029593885 -0.1538521 0.03913549 -0.18075483 -0.07123177 0.2121255 0.24453723 0.009991571 0.05074603 0.44942102 0.2026774 -0.043395348 -0.21691735 -0.1060807 0.2831374 -0.13173766 0.03160945 0.052842658 -0.3495936 0.03083134 -0.020351883 0.19896987 -0.18029256 0.42442667 -0.19484642 0.112261385 0.242826 -0.12518546 0.36256188 0.045552775 -0.10347119 0.02184423 0.12339507 0.1860092 0.26733002 -0.21377683 0.21744116 -0.3373202 0.563242 -0.20732063 -0.013378944 0.13636632 0.3216537 -0.09079095 0.16549459 0.08845443 -0.32389504 -0.22981742 0.4440503 -0.060440797 -0.12000723 0.10838984 0.16435592 0.32429838 -0.07522129 0.039103765 -0.1548121 -0.03854496 0.20010848 0.0030536528 0.06055976 0.08729273 -0.26827586 0.3176506 0.10114902 -0.2729457 0.12428144 0.3103281 0.42128062 0.016316475 -6.219566e-05 -0.4701903 -0.054937005 0.17753631 0.19226927 0.13075489 -0.053702224 0.27679533 -0.43713012 -0.0027086418 -0.14202292 0.22245656 0.007325506 0.13646512 0.02246325 0.2898113 -0.13387187 0.21311635 -0.25180498 -0.14993285 -0.022962512 0.11137028 0.3604939 -0.11729032 0.06549143 -0.15796548 0.25628212 0.00052254193 0.2866332 -0.40501162 0.30806327 -0.034338478 0.015351613 -0.1993683 0.22022195 0.22712637 -0.24414556 -0.013806062 -0.12750849 -0.03356031 0.20551981 0.05676543 -0.025714718 0.15736131 0.024040764 -0.1735948 0.22087575 -0.38130704 0.10865448 -0.027993174 -0.4667797 0.13444686 -0.10439819 -0.17866914 -0.05363908 0.13432598 -0.64232373 0.44695815 0.016914979 -0.2993546 -0.101976566 0.262429 -0.033426207 -0.0041935 -0.30106026 -0.074688494 0.15676303 -0.098867 -0.16368192 0.1494543 -0.25258186 0.05529726 -0.10428287 -0.13795115 -0.0052842554 0.25701448 0.0043407725 0.043964002 -0.048113745 -0.023829704 0.0089676455 -0.24084947 0.31136027 -0.10361802 0.123959504 -0.2055429 -0.0069707097 0.18360516 0.077817746 0.31621385 0.3076329 -0.087212235 0.20886105 -0.08561972 -0.3661684 0.20369047 0.08372013 -0.2855188 0.057963513 0.16739845 -0.021436132 0.08459797 0.110245034 -0.17470425 -0.42441398 -0.0010203164 0.13261607 0.1619951 0.041467898 -0.12311975 -0.020038977
关注 -0.19227394 -0.119638614 -0.13941665 -0.029103225 0.29315388 0.06641291 -0.27349067 -0.22332984 -0.14572312 0.2924564 -0.08829735 -0.33963272 0.1337417 0.3373781 0.26610902 0.16366886 -0.5600409 -0.17370972 0.4408173 -0.052733067 0.20893657 0.03239613 0.074376814 0.08725743 -0.11376029 -0.30794165 0.14409342 -0.0266015 -0.036454096 -0.26401904 0.059648614 -0.007269145 -0.11700573 -0.14556818 -0.023945186 -0.07208159 -0.31132728 -0.049452346 -0.13155617 -0.1597395 0.33169115 -0.30319715 0.25412056 -0.06047844 0.10474008 0.3091124 0.23898013 -0.059210707 0.20031993 0.058075875 0.34799352 -0.16804382 -0.24993236 -0.13412392 0.21736203 -0.041797295 -0.45247167 -0.3257279 -0.284856 -0.16782409 0.43846872 0.2893548 0.18416852 0.10642878 -0.0067718257 0.22389533 -0.010873946 -0.10748939 -0.062307585 -0.07839797 0.25853044 0.03675991 0.22148333 -0.13697629 -0.23754703 0.25072637 0.32162735 -0.20130666 -0.23618497 0.054216698 0.124194995 -0.281597 -0.2892037 -0.08339536 -0.043494113 -0.07393291 0.053282674 0.42938954 0.18279779 -0.027058924 -0.2918492 0.025912093 0.032690488 0.23733519 -0.02829769 -0.13044013 0.068732925 -0.09439125 0.2355695 0.19325148 -0.15629655 0.3084645 -0.04811977 0.20890887 -0.2923139 -0.2290825 -0.20167777 -0.009664634 0.05348947 -0.16274849 -0.081120566 0.21364751 -0.15570247 -0.068873174 -0.23006643 0.1712841 0.22781935 0.17787646 0.07756992 -0.041186627 -0.26294136 0.18045186 -0.4421387 -0.08984085 0.044821333 -0.07228561 -0.06019713 0.13463606 0.34162033 0.19206128 0.10889107 -0.09789061 -0.2672936 0.23080653 -0.07487538 0.09616922 -0.019422349 -0.074508056 0.08022925 0.24324107 0.16617362 -0.05171654 0.4543856 -0.20977409 -0.03047785 0.22580144 0.081183754 0.5443845 0.15132076 -0.10075932 -0.040928688 -0.039833363 0.3490241 0.10254753 -0.19389972 -0.048342295 -0.2622334 0.46072048 -0.24294202 -0.29312205 -0.035046227 0.27811703 -0.1026213 0.1011554 0.08573307 -0.19944616 -0.1121253 0.18005325 -0.042819947 -0.17084923 0.03075808 0.28881142 0.3096753 -0.072655335 -0.011191362 -0.16738173 -0.10301267 0.16150157 -0.099868655 0.14789967 0.27094263 -0.18746078 0.1996889 -0.037907977 -0.24379028 0.115362585 0.40896493 0.4266823 0.13196373 0.1806642 -0.46951473 -0.17580685 0.39284828 0.2718458 0.051414654 0.044646718 0.28380623 -0.15129375 -0.032122634 -0.035560504 0.16077289 0.25603026 0.23264192 0.024830846 0.34852007 -0.28162786 0.48003852 -0.2854846 -0.0855363 0.062128928 -0.055904254 0.45195934 -0.20022655 0.26369023 -0.0042650825 0.28615335 -0.14899702 0.2575585 -0.24810843 0.383854 0.14997765 0.2286384 -0.2090779 0.05191538 0.16036777 -0.30267248 -0.027752342 -0.27271128 0.026673988 -0.040424854 0.14341019 0.14137077 0.14209892 0.06944014 0.020187292 0.06444131 -0.12429479 -0.07409284 -0.0886189 -0.42305133 0.17019899 -0.3099563 -0.20696898 0.081367366 0.039428294 -0.66802716 0.48417202 0.25903335 -0.06493942 0.047808282 0.13257742 -0.07897095 0.12483421 -0.1453343 0.061590437 -0.11716377 -0.18444832 -0.23097801 -0.18065184 -0.19974229 0.25404787 -0.16879183 -0.2028836 0.050754953 0.23188205 -0.006739705 0.01596156 -0.2437204 -0.17044811 -0.07909113 -0.24540786 0.23354757 0.041100197 0.099959746 -0.26163104 -0.1682413 0.19923358 0.079096936 0.42477158 0.11493916 0.010626806 0.21777354 -0.22857873 -0.34240934 -0.024401737 0.014768686 -0.24111444 -0.0050745383 0.05155977 -0.18465933 0.43473688 -0.0020338066 0.0061824773 -0.33139715 0.11085607 0.06317525 0.11588035 0.026991807 -0.18262713 -0.08482873
手机号 -0.6255425 -0.4058881 0.14066991 0.53054225 -0.2992025 0.18903339 0.42773485 0.21801987 0.048782054 0.46443674 0.43733463 -0.13545702 -0.7334216 0.017476596 0.3163536 0.22156435 0.029555328 -0.5062287 0.2657235 0.7406438 -0.22021428 0.18985456 0.24944589 0.056909617 -0.16983166 -0.25554234 0.24982576 -0.32969913 -0.23491715 0.4309301 -0.04954691 -0.4295238 0.21809857 -0.12690793 0.13095152 -0.34448484 0.30928677 -0.23613559 -0.25677645 0.12200631 0.58882385 0.21648884 0.41198376 0.23625247 -0.35405567 -0.20393224 0.10369123 -0.60460603 0.037097476 -0.17252703 -0.116204605 -0.16349424 -0.65237176 -0.17632806 -0.16710618 -0.333898 -0.32459223 -0.33088705 0.07101509 -0.7398753 -0.10512055 -0.18619022 -0.86974394 0.4110671 0.009129266 -0.10926767 -0.06433314 0.29935583 0.21265312 -0.16506611 0.0070696734 0.07400303 -0.16343701 0.0075777457 -0.12198272 0.3994416 -0.7006829 0.40740728 -0.50647825 0.62980735 -0.5845576 -0.052859955 -0.19061267 0.42659423 -0.06851133 0.26488033 -0.51131976 0.14003424 -0.61396986 -0.077291965 0.00263758 -0.21383968 0.042053472 -0.59506935 -0.044758517 0.1488598 0.218441 0.063217714 -0.15054354 0.5100827 0.15618047 0.17853664 0.08081682 -0.14655976 -0.35627225 0.105735965 -0.07493349 -0.47760758 -0.29235443 -0.16458723 -0.20915592 0.1917303 0.41210628 0.021677252 0.7796486 0.32096717 0.42009065 0.76430625 0.049586784 0.48511058 0.038306296 0.049395874 0.094744496 -0.18892367 0.17869969 -0.045456786 -0.49456668 -0.49964547 -0.41273066 -0.35268044 0.12263176 -0.06123552 -0.0058560423 -0.7836983 0.18729438 -0.14403908 -0.92752683 -0.33432314 -0.37408268 -0.10783658 -0.05052858 -0.20216586 -0.4425803 -0.10327475 -0.1455672 0.3132347 0.16921452 -0.19712365 -0.31169173 -0.65977365 -0.04566719 -0.14894937 0.265779 0.19945456 -0.22253962 0.46086314 0.14839447 0.47068843 -0.5026353 -0.13348407 0.10091716 0.11719663 -0.7730376 0.19106358 -0.0060322126 0.17987856 0.53436375 0.50323355 -0.45296934 -0.58313125 0.08025168 0.1191742 0.14919004 -0.7421034 -0.025296293 0.39536095 0.64366 0.07242614 -0.5550052 0.28153548 -0.13295594 -0.16098072 -0.08652341 -0.35618076 -0.8357949 0.44743368 -0.012750786 0.18871501 -0.22726355 0.014166668 0.02383597 -0.48328647 0.23106228 0.15003312 -0.0286133 -0.5029203 0.13597968 0.39054096 0.43588266 -0.40652722 -0.44336128 0.15854335 -0.37442368 -0.1646083 -0.54832435 -0.20722574 -0.2793828 -0.37439018 -0.40061972 -0.09675862 -0.24144872 0.16977952 0.14383468 0.5960234 0.5515522 0.47319493 0.14580587 -0.41437525 -0.3750246 0.2759215 0.22153802 0.29058558 0.07170589 0.35351378 0.13636598 0.34858716 -0.4091643 0.3158302 -0.042342063 0.21444984 0.00699706 -0.20821027 0.011385937 -0.24566984 0.22479561 0.18201995 -0.56146663 -0.37708488 0.1063814 0.25588748 -0.007847966 0.65289867 0.20298742 0.15241052 0.33996826 0.50048274 0.01785568 -0.2912209 -0.050374594 -0.09068095 0.12255898 0.49426726 -0.041609053 0.3731026 -0.8055467 -0.51059455 0.50410205 0.18324693 0.1962808 0.020011341 0.33354154 0.73075587 -0.16895127 0.33086842 0.04850107 0.0024653727 -0.2566957 0.032622747 -0.41225332 -0.25682345 0.51275975 -0.17070338 -0.600477 0.35917023 -0.3158052 -0.31982064 0.3317646 0.13365774 -0.22284001 0.31968883 0.2501819 -0.21290408 0.24435109 -0.12533991 -0.41316643 0.07661308 0.16057293 -0.12964393 0.24254932 -0.33373803 -0.27973711 -0.04909035 -0.09143722 0.31631064 0.091063015 -0.075239174 -0.24687923 -0.17383608 0.45100114 -0.040055666
内容 -0.20571138 -0.033125482 0.017020639 -0.085126236 0.23301524 0.12616925 -0.2707757 -0.14161792 0.1529315 -0.2282022 0.17356214 -0.16969687 0.15091942 0.3656368 0.20109516 0.30719212 -0.026983911 0.06269537 0.2768058 0.080178484 -0.05567501 0.18968326 0.09649698 -0.08145322 -0.2316891 -0.046694882 0.17631705 0.24381553 -0.24319108 -0.13375883 -0.18400455 -0.14927626 -0.32701883 0.06600087 -0.11790424 0.028817154 -0.109877445 -0.060369663 -0.19782872 -0.06009559 0.17359197 -0.13073966 0.13961935 -0.37366313 -0.09907236 -0.0076305675 0.08776369 -0.27016675 -0.018696086 0.00027989742 0.0878842 -0.317532 -0.3038419 -0.053893313 0.12619673 -0.16784546 -0.14105254 -0.2633868 -0.24142075 -0.30616206 0.322966 0.2511415 -0.19212791 0.02084114 0.31536835 -0.040363953 0.2858912 -0.24332984 -0.24451508 0.2975067 0.048714556 0.07300691 0.118503325 -0.053434853 -0.06929898 0.07287372 0.12968035 -0.020301864 -0.27353138 0.07988292 0.15746957 0.01688505 -0.13635981 0.16000605 -0.25286773 0.12184241 -0.016709352 0.11792538 0.06687487 -0.030563453 0.07692178 -0.029437693 0.3316544 -0.11484952 -0.19189161 0.06277081 0.026971122 -0.17010681 -0.054938015 0.2121333 0.28193212 0.4483775 0.21306261 0.23933771 -0.42850465 0.04193363 -0.09695803 0.08529259 0.08504632 0.019811457 -0.02889107 0.26179165 -0.0018685649 -0.023230989 -0.035537604 0.03473698 0.34021616 0.13281076 0.1364774 -0.05850826 -0.25563848 0.11254249 0.19520327 -0.07541387 0.023688482 0.058191232 0.070653826 0.033318188 0.27050647 0.22349194 -0.013516624 -0.1783365 -0.08958336 0.32597038 -0.22702861 0.03649702 -0.23929603 -0.3190175 0.06044316 0.10001396 -0.038623676 -0.17531425 0.3226779 -0.20075211 0.062303785 0.10049509 0.013210286 0.18951719 -0.0021919722 -0.09811811 0.31692758 0.18215148 0.18949977 0.43765712 -0.20105878 0.06826336 -0.07224562 0.4543343 -0.16737121 0.0698454 0.04039655 0.12712231 -0.24334411 0.1483402 0.21940492 -0.093974926 -0.20158973 0.42219943 -0.20290506 -0.064424165 0.209076 0.026383542 0.25768682 -0.022393363 0.07034057 -0.05486864 0.109999314 0.2200143 0.010556818 -0.04109778 0.09232871 -0.24283981 0.1670522 0.16462803 -0.23656626 0.10628807 0.09284843 0.2516802 -0.1490622 0.08462877 -0.3645725 -0.11155437 0.17008984 0.32493445 0.006442151 -0.1650286 0.32470855 -0.2217317 0.08410225 -0.025496028 0.08686196 -0.05847302 0.11475043 -0.13634802 -0.05878347 -0.13600248 0.21047713 -0.112345345 -0.061512336 0.013780985 -0.08656073 0.353805 0.09075808 0.21038948 -0.15735991 0.22733308 -0.048209347 0.20833215 -0.4111401 0.14803632 -0.12527806 0.035084333 -0.11897251 0.13399108 0.23323746 -0.034616575 0.13778159 -0.009008882 -0.10681804 0.103944756 -0.013663218 -0.03762561 0.16747415 0.12714335 -0.17284821 0.21678329 -0.34334514 -0.018612806 -0.007607748 -0.31993893 0.107673824 -0.022384733 -0.09889121 -0.121666215 -0.038949165 -0.4891451 0.5049532 -0.12967463 -0.19046 -0.11431023 0.10428043 -0.09228063 -0.047580186 -0.22699556 -0.11830967 0.078866534 0.073444694 -0.30872494 -0.00026190357 0.021171851 0.09052565 0.054849453 -0.13409938 -0.04093275 0.21587338 -0.16801399 -0.00062837225 -0.079601325 0.030542098 -0.076818354 -0.066240825 0.18084499 0.049467687 0.14066061 -0.12547211 -0.09562027 -0.043059908 0.11453203 0.21358766 0.33462954 -0.22175731 -0.049587876 -0.1653466 -0.23197246 0.17223264 -0.012315392 -0.20373656 0.07963503 0.27272093 -0.17992991 0.05182891 0.11829569 -0.177882 -0.14097331 0.049038474 0.23134069 -0.16794354 0.037568927 0.109924965 0.04296407
设置 -0.26601285 -0.19356413 -0.093338035 -0.14520124 0.17467558 0.2559101 0.15764484 0.2270899 0.23878287 0.03504278 0.35408995 0.047937255 0.1935226 0.26715842 0.25053236 0.22106895 0.15088236 -0.4753014 0.7232092 0.635013 0.0411256 0.08090108 0.30324954 0.30235752 -0.5606165 0.0057735047 -0.0020678148 0.06434548 0.13633746 -0.32504424 -0.21714784 0.038420465 0.10357059 -0.14518584 -0.29747316 0.2104877 -0.37966493 0.009049401 -0.43093112 -0.12354367 0.5180575 -0.3249587 0.06417231 0.025801692 0.2488331 0.0861838 0.13247016 -0.5275421 0.325355 -0.49833763 -0.0043681376 -0.24076922 -0.14787664 0.37727827 0.047589213 -0.36025736 -0.13707875 -0.074898265 -0.50896823 -0.12767391 0.5257021 0.12440697 0.658327 0.18755414 0.07159619 0.2897112 0.2506952 -0.09102546 0.1169148 -0.42211464 -0.28322142 0.35342714 -0.18049535 -0.3449455 0.32826066 0.068565935 -0.0021267706 -0.117223926 -0.21066545 0.2905963 -0.1037918 -0.14404319 -0.40098915 0.1131957 -0.098890305 0.07748591 0.14365192 0.17649695 -0.0776918 -0.38431156 0.21462597 -0.037729383 0.09948169 0.17069389 -0.29818922 0.2597815 0.55712026 -0.08002158 -0.20228586 0.3104364 -0.07551397 0.3290584 0.06956769 0.31329843 -0.16139786 -0.22846113 0.065954044 -0.07571891 -0.06865155 -0.31027222 0.17898929 0.2767987 0.06236956 -0.10855633 -0.13661882 -0.094945356 0.36087915 0.165102 0.24543221 -0.11455492 0.016486038 0.12644772 0.007109667 -0.37206042 0.41028982 0.19053915 0.39298612 -0.18213691 0.17677838 -0.023023952 0.061133042 -0.23162067 -0.18163744 -0.3506643 -0.0075675994 -0.35447603 0.2008284 -0.009069493 -0.355855 0.3694755 0.13381661 -0.1424503 0.053820156 -0.26248503 0.1556713 -0.079589345 -0.07769413 0.51443684 0.44834864 -0.17551324 -0.39949208 -0.07131539 0.4736676 -0.08569241 -0.19382603 0.2534156 -0.1456129 0.4439155 -0.20653442 -0.43805954 0.16833378 0.21477982 -0.64062315 0.43299958 -0.18244876 -0.37393737 -0.27441698 0.36179155 0.07305339 0.2372486 0.2850555 0.21405563 0.11923821 0.3059677 0.15944995 0.37124273 -0.025112264 -0.10061624 -0.3586806 -0.075110026 -0.10898415 0.00827447 0.27846327 0.06097738 -0.12229876 0.3346841 0.19554469 0.05948953 -0.23603305 -0.30375943 -0.7490117 -0.055409607 -0.15153532 0.1835173 0.13346058 -0.1447613 0.39329943 -0.3055031 0.43718746 -0.33428374 -0.31262895 0.6205872 0.03835461 0.030284291 0.45507407 0.113120034 -0.058719385 -0.36763564 -0.24787788 -0.19373873 0.14441806 0.23702812 -0.3650241 0.2003435 0.24376018 0.42818534 0.1784158 0.13506474 -0.3006873 0.20439741 0.110085405 0.3896256 -0.3060419 0.005222884 0.64784193 -0.3575437 -0.1415131 -0.0012441231 -0.05074198 0.35494614 0.023624294 -0.09110511 -0.42843813 0.25601777 0.03816732 0.069666564 -0.3630035 0.23587137 0.02349038 -0.36971036 0.34583893 -0.463044 -0.27363646 0.16395941 0.27401263 -0.17752837 0.26619616 -0.115168124 0.011610436 -0.32328334 0.30569732 0.43078774 0.13919127 -0.16662253 0.17214388 -0.34526545 -0.63434947 -0.072742105 0.39102128 -0.39492968 -0.11921379 -0.41193104 -0.14751844 -0.015101322 0.44245487 0.25002986 0.07168659 0.25765637 -0.32425687 0.09633981 -0.41063565 0.2716234 -0.12350664 0.19028796 0.028998632 -0.0817991 0.37061098 0.18187204 0.28732723 0.16199723 -0.012508928 -0.006519292 -0.15370612 -0.47366792 0.3532801 0.26410022 -0.10209854 0.17478678 -0.33351427 0.33719325 0.3957202 -0.18239957 -0.2130677 -0.1836844 -0.15699795 -0.02698921 0.2840026 0.05197086 -0.14911112 -0.016499821
个人主页 -0.2713246 -0.17715678 -0.08034737 0.051525537 0.20719144 0.37867203 -0.27896497 0.14270037 0.0051605613 0.11569719 0.08734293 -0.17674544 -0.033148043 0.3565567 -0.005944838 0.1811012 -0.31983164 -0.28366223 0.36773977 0.18015005 0.13627957 0.055813868 0.23654355 0.38866124 -0.34410694 -0.43706492 0.043428473 0.064719275 -0.16917478 -0.44887936 0.18515222 0.24150132 -0.053174525 -0.29297015 0.15440278 0.099432655 -0.29727626 0.01633676 -0.18758835 -0.065065704 0.36387426 -0.26491755 0.26251188 -0.022086881 -0.0762382 0.18214504 0.45180297 -0.12349953 0.11688638 0.029607616 0.46192852 -0.28627995 -0.15401314 -0.08968977 0.2994357 -0.11539333 -0.26297486 -0.15021686 -0.39548865 0.029487155 0.3620282 0.12560605 0.200864 0.003430522 0.018922606 0.18307129 0.017721504 -0.24432105 0.2673242 -0.17985427 0.12922911 -0.00019833738 -0.06301764 -0.23919849 -0.08247412 0.050919563 0.015381691 -0.14214033 -0.1562761 0.21724606 -0.058470707 -0.019214872 -0.25745016 0.09223465 0.058309212 -0.05147736 0.031569626 0.16467065 0.166676 -0.11312112 -0.026328268 0.07943673 -0.01074244 0.10355322 -0.23876408 -0.009438074 0.28765637 0.266154 0.17231525 0.34465882 -0.15532862 0.33873394 -0.1576945 0.075286485 -0.20269261 0.059889782 0.0739828 -0.14056173 0.016711535 0.028828647 -0.06728779 0.39923263 -0.039806068 -0.24031691 -0.07510774 0.10105965 0.18343052 0.29540125 0.12243347 -0.035018012 -0.0066249175 -0.0412985 -0.38260305 -0.08745163 0.14636831 0.14463452 0.039525926 0.24095877 0.469789 0.007455522 0.18134552 -0.17549388 0.05644735 0.07611387 0.10534009 0.27564588 0.2921259 -0.2023313 -0.083757065 -0.088142365 0.2723227 -0.28586853 0.22905411 -0.12466632 -0.09807622 0.16159156 -0.045620326 0.20974857 -0.04396264 -0.08542017 -0.24144791 -0.048268232 0.23844565 0.17028601 -0.35670814 0.11046457 -0.35936508 0.50694525 -0.27821144 -0.2692559 0.13153562 0.3041812 -0.1089135 0.16286248 -0.096211344 -0.25273305 -0.17875227 0.17714682 0.07231763 -0.094032474 0.11737893 0.056027666 0.24331525 -0.3342769 0.06524484 -0.032758966 -0.19913398 0.43607584 -0.0675043 0.07933891 0.04315154 -0.41494185 0.3013285 -0.021333674 -0.11193843 0.13623357 0.28524098 0.416043 0.42767483 0.004571053 -0.14418003 0.0072130547 0.03786399 0.16965728 0.13979502 0.09003137 0.2004156 -0.16862431 -0.007482945 -0.18380904 0.12828296 0.0612112 0.11444669 -0.10326104 0.3683344 -0.16733967 0.10678774 -0.20466101 -0.2704096 -0.11418866 0.21704704 0.24295618 -0.20841576 0.07774261 -0.039204802 0.25287 0.15073134 0.16927887 -0.057275202 0.50666416 0.012234748 0.04893391 -0.15751056 0.34409204 0.06642761 -0.10074406 -0.2265908 -0.09910102 0.12646043 0.18720174 -0.008016889 0.13359976 0.13130721 0.042617977 0.0091570495 0.11101549 -0.24973948 0.14724307 -0.030900918 -0.529773 0.104608126 -0.08044884 -0.11272596 0.16681457 0.1961416 -0.3280668 0.48219612 0.1764786 -0.27480835 0.14935733 0.1661028 -0.058500342 -0.03401385 0.03909966 -0.012826031 0.21270224 -0.18484657 0.005301798 0.15622771 -0.2719495 0.1757198 -0.15844335 -0.014567471 0.04276556 0.15180872 0.18455286 0.07898325 0.041296475 -0.19530588 -0.056881852 -0.25686273 0.052133977 -0.22083338 -0.14009382 -0.3007404 0.12685315 0.2535582 0.11841329 0.2288809 0.09619525 0.12295092 0.33676824 -0.07547806 -0.19826294 -0.0068849707 0.2588242 -0.20479628 -0.03088428 0.2033921 0.088296965 0.19073586 0.047267772 -0.07772126 -0.36110365 -0.07906183 -0.08876546 0.40938976 -0.06532492 -0.26028204 -0.029274648
中 -0.27030963 -0.082820185 -0.019097129 -0.13885589 0.24350701 0.2724717 -0.21170762 0.044566426 0.09075905 -0.18565878 0.13960023 -0.13561523 0.1709087 0.35746244 0.13831948 0.23093781 -0.19438708 -0.11922031 0.4242953 0.18937811 0.038537398 0.10137418 0.17699946 0.057886414 -0.34858662 -0.13039495 0.11728983 0.17146537 -0.12974328 -0.34430096 -0.15855557 0.019867254 -0.22140752 -0.081705436 -0.09030668 0.06107458 -0.26007107 0.017570388 -0.22117507 -0.067859255 0.27042636 -0.22617573 0.16433369 -0.20601842 0.0021834516 0.092455655 0.121674 -0.24486151 0.16972466 -0.17199881 0.23631492 -0.32892293 -0.19035432 -0.049437642 0.24530947 -0.12717436 -0.22721979 -0.2192565 -0.4200066 -0.1383019 0.4038888 0.24336906 0.14095755 -0.017482784 0.14079928 0.12306639 0.11805609 -0.2727421 0.0017578328 0.025158225 0.0020951258 0.11333842 -0.0013851764 -0.1836355 0.05220037 0.07319361 0.20017587 -0.107626565 -0.22708304 0.11542495 0.11293857 -0.022542229 -0.13551524 0.03833289 -0.15127338 0.06030003 -0.025506327 0.17478216 0.13905752 -0.08058987 0.014127279 -0.053859077 0.14456628 0.07386813 -0.25779438 0.011777878 0.27525824 -0.01570433 0.012001947 0.23366761 0.09042693 0.5102726 0.15524165 0.26728025 -0.34579563 -0.12687063 0.002852072 0.028191444 0.05974986 0.01001655 0.0011340084 0.3467552 -0.13049655 -0.17647049 -0.17039283 -0.0336467 0.26745087 0.17311153 0.16298574 -0.047754582 -0.14454627 0.07762913 -0.09912539 -0.078673564 0.20461975 0.1932679 0.08067528 0.05741189 0.34689873 0.15864554 0.01079179 -0.2011054 -0.10420993 0.19689295 -0.10865251 0.0072259023 0.104520634 -0.26026627 -0.015645452 0.054017723 0.14798905 -0.15080184 0.33487174 -0.19702491 0.0584688 0.1715799 -0.094468914 0.340384 0.11102162 -0.08407493 -0.03149595 0.093822174 0.20517536 0.23785762 -0.19905671 0.18092795 -0.25496843 0.482853 -0.1740405 -0.04636058 0.12385435 0.2722968 -0.15622322 0.15646398 0.054193288 -0.27601665 -0.21616915 0.37837446 -0.054863434 -0.03482791 0.1328769 0.121083036 0.26035747 -0.065984815 0.09156171 -0.035948467 -0.019238766 0.18220446 -0.04663532 0.026668077 0.064452775 -0.21645041 0.26002744 0.092217214 -0.20535867 0.12740348 0.23049653 0.32126656 0.012746229 -0.06360894 -0.45783526 -0.04566295 0.11295693 0.2158278 0.099569656 -0.039441172 0.24166809 -0.34938008 0.026488489 -0.11788446 0.1150244 0.086884394 0.114832155 0.00676488 0.31087863 -0.08846355 0.19192925 -0.25626206 -0.1262713 -0.05743856 0.09820528 0.3031059 -0.13166897 0.06876171 -0.10343839 0.23280141 0.017578442 0.22694784 -0.360949 0.26964515 -0.03360896 0.06597153 -0.18746178 0.17040443 0.24411474 -0.22757287 -0.019734291 -0.09329085 -0.04977821 0.19756278 0.043198135 -0.016853543 0.07090061 0.08388036 -0.16543137 0.16797219 -0.3354096 0.12290582 -0.017100966 -0.42588758 0.14488779 -0.12597708 -0.15411656 -0.0063348203 0.13259406 -0.5301281 0.4327459 -0.02952791 -0.20559151 -0.10934687 0.20005591 -0.029625146 0.002902428 -0.24888682 -0.02030529 0.110018454 -0.12866144 -0.1968376 0.13713428 -0.19903858 0.03046201 -0.1677949 -0.13373765 -0.005994534 0.24379176 0.03732249 0.06931154 0.01430827 -0.062414907 -0.01942319 -0.2298948 0.26183325 -0.06512008 0.11144629 -0.1277011 0.023510568 0.1481822 0.091059886 0.2718611 0.26357603 -0.09041658 0.17851965 -0.11352901 -0.3124484 0.1978189 0.08172965 -0.23700613 0.051593006 0.11765876 0.028394384 0.13387322 0.047081746 -0.19437318 -0.34146297 -0.006737372 0.12602438 0.16827525 0.056734927 -0.08934208 -0.008595538
打开 -0.3959673 -0.23197359 0.033006523 0.19209054 -0.014485485 0.2902265 0.09986687 0.183532 0.063899755 0.15717442 0.25373715 -0.09973282 -0.26282787 0.18635207 0.1098341 0.17667697 -0.11046114 -0.34119475 0.32343647 0.4230425 -0.031023307 0.105965905 0.21640758 0.17372876 -0.24713151 -0.24902914 0.12837617 -0.06865472 -0.1558211 -0.07744591 0.0029902305 -0.07772249 0.060687684 -0.16575919 0.09742772 -0.065482 -0.03667326 -0.059592746 -0.19240995 0.016220743 0.4215402 -0.02722414 0.27462503 0.08116435 -0.1494696 -0.005375205 0.21866617 -0.32512715 0.09364142 -0.14333825 0.1458546 -0.24587181 -0.32973218 -0.098199196 0.0762295 -0.21246006 -0.24055716 -0.20148304 -0.19059487 -0.27123046 0.15020858 -0.0022598298 -0.20996013 0.15190844 0.019601187 0.059721652 -0.035224546 0.0129310265 0.1981163 -0.158038 0.03885849 0.09385988 -0.1310926 -0.14759123 -0.018248364 0.17651291 -0.23338392 0.061355058 -0.2904101 0.3335438 -0.22836353 -0.0058920006 -0.15252343 0.17202608 -0.022166712 0.108867034 -0.21458407 0.12706582 -0.1802001 -0.093539596 0.0071416995 -0.06981901 0.04222132 -0.18344432 -0.16757853 0.08349424 0.27321905 0.1281284 -0.04498143 0.33178195 0.023696154 0.26848122 0.024890458 0.0365861 -0.2300993 0.033804514 0.025482163 -0.22710302 -0.1038051 -0.045644782 -0.10889181 0.26182705 0.12237528 -0.1412733 0.23881677 0.13460109 0.27327144 0.43485364 0.1085296 0.17904823 0.017350536 0.017911281 -0.08911037 -0.1058588 0.19122858 0.10565793 -0.1461631 -0.12231662 0.026456747 -0.14426358 0.11691169 -0.114640586 0.0014021066 -0.29603192 0.08298387 0.015793553 -0.19999962 -0.23140384 -0.21472576 -0.055523533 0.1144984 -0.17328323 -0.06687079 -0.12522282 -0.11143249 0.20417464 0.005244786 0.052682888 -0.09096874 -0.28756902 -0.1532391 -0.07953522 0.21313997 0.16705732 -0.24385844 0.27916327 -0.10856225 0.40669575 -0.30520555 -0.13540004 0.13953751 0.21946183 -0.3565534 0.13306063 -0.04005004 -0.07372107 0.13014409 0.3076847 -0.14066538 -0.24548034 0.08901166 0.07884991 0.1728489 -0.43970695 0.05639064 0.1797097 0.20373787 0.22340561 -0.25841153 0.13250796 -0.05358152 -0.23430595 0.10585373 -0.11684007 -0.38218614 0.24242954 0.1146982 0.24409334 0.069903694 -0.074012205 -0.121760994 -0.1773705 0.08677144 0.1487446 0.06405167 -0.16132821 0.12678123 0.024311535 0.16375472 -0.2469276 -0.14798191 0.10686287 -0.11933062 -0.07101987 2.251829e-05 -0.118958175 -0.061270673 -0.29138187 -0.26997992 -0.1196296 0.040831923 0.17465216 -0.052681252 0.22871721 0.17869438 0.29000664 0.1371226 -0.089639105 -0.21484108 0.31655976 0.08451355 0.12142852 -0.06208115 0.2995832 0.10756913 0.059618894 -0.27002445 0.09226926 0.004468715 0.19399624 5.562012e-05 -0.042253874 0.04714454 -0.05814872 0.027073529 0.11413385 -0.37148482 -0.055485073 0.05988852 -0.14726482 0.06500354 0.21414083 0.028338592 0.13600093 0.24174105 0.029404907 0.23875667 -0.09888681 -0.12910305 -0.03758034 0.13071641 0.17326778 -0.042976566 0.1128496 -0.31073755 -0.07531771 0.11420029 0.027614877 0.19273357 -0.11830721 0.1606813 0.1486075 -0.104585655 0.15268427 0.1073006 0.10481393 -0.048345726 0.085379064 -0.24475151 -0.13840425 0.06957553 -0.004949973 -0.34908122 0.11886627 -0.21116358 -0.025313813 0.26155114 0.12325863 0.011983068 0.20682219 0.13131991 0.07970516 0.077100344 -0.16085102 -0.13728037 0.13450363 -0.047846302 -0.06273013 0.15840177 -0.060726758 -0.032832008 -0.021133441 -0.11842885 -0.052126 -0.0038677107 -0.04204304 0.12940304 -0.075330965 0.061781738 -0.018478803
头像 -0.38865036 -0.31345204 -0.21940827 0.2765083 0.12350487 0.55799395 -0.32726407 0.3218402 -0.13364545 0.5009152 0.040869657 -0.30450487 -0.27210203 0.3317623 -0.014476167 0.14109798 -0.41165805 -0.5246398 0.49118233 0.36103305 0.18432505 -0.03600549 0.3652953 0.74483263 -0.5032494 -0.74462 -0.069376156 -0.12087689 -0.13565008 -0.53329074 0.44021764 0.4837953 0.16058032 -0.6405603 0.25348422 0.041202888 -0.43481204 0.038305286 -0.3065662 -0.10986493 0.51917577 -0.30393028 0.4577889 0.16106786 -0.1685338 0.27536714 0.707026 -0.1702898 0.22692126 0.13780496 0.66582465 -0.23723532 -0.119365506 -0.061238017 0.42030993 -0.14246964 -0.4508131 -0.06155445 -0.41058463 0.11728056 0.3650823 0.044612326 0.31886914 0.043620832 -0.13868713 0.26114938 -0.10761891 -0.28341305 0.6927034 -0.47413522 0.12667972 -0.15030102 -0.24181192 -0.2213959 -0.18002395 0.15155838 -0.20756303 -0.04512027 -0.16158305 0.5042495 -0.3171208 -0.05452055 -0.4924137 0.27257085 0.21189317 -0.2005482 0.083084084 0.15726686 0.13276924 -0.19326231 0.039605025 0.06163699 -0.20361836 0.12132876 -0.25483787 -0.07899637 0.43538767 0.5813855 0.39570868 0.59336925 -0.43592477 0.3321638 -0.4394356 -0.16927831 -0.22616626 0.21786368 0.16194552 -0.39283466 -0.12465022 0.014984432 -0.10780751 0.65058386 0.08721907 -0.20746224 0.093159474 0.27739468 0.1178591 0.4875528 0.13393497 -0.083400056 0.16331987 -0.2050628 -0.75807565 -0.19193712 0.16518284 0.120303124 0.039000325 0.30810556 0.6785821 -0.08704333 0.39572683 -0.17567852 0.1809889 -0.14681622 0.38164836 0.40765947 0.5384986 -0.18311988 -0.1580352 -0.24206826 0.4188145 -0.4902106 0.10607492 -0.11433501 -0.21889298 0.19906332 -0.035655778 0.15063879 -0.1792045 -0.28394488 -0.4754093 -0.16313493 0.31359506 0.031532716 -0.45836446 0.14246675 -0.531145 0.6703349 -0.4345438 -0.5962391 0.06036686 0.3782554 -0.22770981 0.3110518 -0.39487922 -0.3791619 -0.15020718 0.14226411 0.13901407 -0.23465118 0.08980294 0.089398436 0.25018865 -0.55152696 0.003258995 -0.044922292 -0.3493581 0.5034087 -0.16774133 0.14328226 0.014360352 -0.57532805 0.3671444 -0.23719041 -0.13485165 0.25807315 0.4783592 0.60646456 0.75808305 0.07937487 0.0027154784 -0.0029914328 -0.026393576 0.08861978 0.20288308 0.1212369 0.19257095 -0.08211198 0.087381974 -0.39179295 0.14577344 0.15609893 0.028679434 -0.20724142 0.48091385 -0.2769518 -0.09133061 -0.18530694 -0.51167345 -0.10032646 0.22798353 0.32511237 -0.36364934 0.18601757 0.11965812 0.33054426 0.29576495 0.042689133 0.15208958 0.72915757 0.077297434 0.20517842 -0.23285301 0.495395 0.08001758 -0.14545493 -0.4933282 -0.16465545 0.37750193 0.29893866 -0.028988874 0.1869571 0.07582502 0.004088349 0.29528332 0.16709563 -0.2904557 0.26327822 -0.1295781 -0.66523457 0.09682149 -0.019684242 -0.13629949 0.38006133 0.30146948 -0.19240926 0.44332364 0.4608882 -0.3835594 0.31922078 0.35391918 0.102262296 -0.010777595 0.26154172 -0.06879913 0.14002517 -0.39447126 0.3262209 0.26542526 -0.54863644 0.3070087 -0.07403367 0.1675589 0.088817716 0.012790532 0.41324437 0.09428385 0.020301873 -0.43053752 -0.1318759 -0.30030897 -0.036227997 -0.5168117 -0.38606763 -0.60062486 0.16379178 0.4878882 0.115080744 0.29621658 -0.03723718 0.40288064 0.5358759 -0.029272534 -0.16292198 -0.062240504 0.48825607 -0.21207371 -0.11457574 0.19097476 0.24668671 0.26444823 0.09022712 0.08020328 -0.4688642 -0.11322343 -0.384318 0.5787206 -0.17670465 -0.47174415 -0.12499968
GIF -0.38530153 -0.110707164 -0.022254875 -0.11284566 0.23030283 0.47982904 -0.2428988 0.21817718 0.0773115 -0.22579919 0.13357078 -0.17340688 0.09927087 0.42303786 0.039493114 0.22521877 -0.28741127 -0.2268358 0.48539427 0.27050433 0.05664167 0.09251703 0.23971255 0.14452319 -0.43169454 -0.2748218 0.10837007 0.19289485 -0.21691686 -0.53533065 -0.09042701 0.18759266 -0.17614493 -0.2507371 0.04869803 0.05673119 -0.30322888 0.056369368 -0.1819318 -0.034303974 0.36255464 -0.24694526 0.272872 -0.1668282 -0.066982694 0.11634964 0.18987036 -0.23964319 0.24080989 -0.21046431 0.42052916 -0.3941079 -0.18020031 -0.19012253 0.390342 -0.117347226 -0.29446372 -0.18142974 -0.5155258 -0.035654478 0.38219547 0.22662388 0.16325721 -0.11374424 0.10630776 0.16895066 -0.0023480796 -0.35249415 0.2173222 -0.06280669 0.039385542 0.08259219 -0.14696613 -0.25066078 0.10168806 0.08107245 0.14715596 -0.12245051 -0.2809396 0.16706333 0.035921536 0.05834759 -0.07781396 0.040893227 -0.10941962 0.012809666 -0.12826762 0.14775187 0.18369786 -0.07022669 -0.0012003098 -0.07911319 0.050448127 0.07645897 -0.35528004 -0.031038992 0.39054355 0.1812088 0.07531692 0.31182033 -0.0009937912 0.6615503 0.11163768 0.23113567 -0.3392092 -0.15581147 0.15162612 -0.024025097 0.029054852 0.13169655 -0.038494408 0.5187089 -0.14775355 -0.32585078 -0.1652092 -0.05172184 0.20795515 0.28215855 0.18706484 0.018378396 -0.049214933 0.00573985 -0.28764874 -0.027685774 0.32126778 0.32377583 -0.010174832 0.13880517 0.4716932 0.11409212 0.0076749823 -0.20182839 -0.021118937 0.16666673 -0.0072946628 0.08313342 0.30359364 -0.33977678 -0.050188024 -0.14133978 0.29532915 -0.18237714 0.35295212 -0.20229447 0.011432362 0.27637812 -0.19782265 0.31720287 0.025477575 -0.1005461 -0.17060661 0.064445816 0.18024805 0.25118032 -0.26585445 0.27644336 -0.4114213 0.58817005 -0.21407935 -0.049382687 0.22476912 0.3815778 -0.053420056 0.1287597 0.01766302 -0.41548088 -0.16769569 0.39422983 0.009302859 -0.12742183 0.06526788 0.12298699 0.30987164 -0.2876863 0.08887358 -0.08278885 -0.07029348 0.3222366 -0.031027282 0.06416009 0.038023498 -0.3653887 0.35985363 0.040324815 -0.22220185 0.15712687 0.32508367 0.44992048 0.23605844 -0.10389945 -0.38202757 0.0076186047 0.07801733 0.17694624 0.17859751 0.019860331 0.17391722 -0.43681514 -0.05739501 -0.18362752 0.16916351 -0.012756654 0.07154188 0.049948186 0.4483953 -0.06950496 0.17287286 -0.33802283 -0.22290787 -0.119572155 0.2555056 0.29493982 -0.226176 -0.034687098 -0.12953402 0.22163054 0.12402454 0.21540985 -0.32063898 0.4296256 -0.028373092 0.01919632 -0.23054339 0.3391101 0.16861354 -0.27258393 -0.19677226 -0.1274692 0.036917526 0.27668616 0.032398105 -0.005988323 0.1585443 0.037022416 -0.19981591 0.19069374 -0.4061984 0.19661215 -0.046537377 -0.51791304 0.14440733 -0.010557342 -0.12294264 0.06764185 0.24043047 -0.52419275 0.478456 0.020543572 -0.3320773 -0.03910483 0.28781006 -0.068905346 -0.051536493 -0.23027539 -0.054562684 0.30646428 -0.111520395 -0.09719124 0.25893286 -0.27999598 0.029476386 -0.20987128 -0.071040064 0.045564473 0.19846676 0.16095524 0.090656325 0.106288984 -0.09960164 -0.05041761 -0.2533322 0.2657961 -0.23641749 0.043725885 -0.22284923 0.157942 0.28318158 0.10779111 0.23518665 0.28123143 0.009146004 0.3764649 -0.024256019 -0.31374764 0.16873868 0.17421784 -0.27375987 -0.01051127 0.20249575 0.13579208 0.029949015 0.061087895 -0.22320618 -0.48353842 -0.060983866 0.057527654 0.41318396 0.027943332 -0.22948408 -0.03302322
错误 -0.3529871 -0.23982157 0.06780084 0.1939816 -0.11597186 0.046636518 0.15473615 -0.01656302 0.11334738 0.18372393 0.33174902 -0.040829424 -0.33329877 0.006593759 0.2902451 0.23978712 0.11195176 -0.16151315 0.23183489 0.43747032 -0.147182 0.16314323 0.1714702 -0.025730148 -0.28643778 -0.022857435 0.14749126 -0.10891094 -0.16163065 0.32466394 -0.0742547 -0.333183 -0.061429936 0.077465035 -0.16304977 -0.18724325 0.14778498 -0.17788084 -0.281579 0.053766914 0.29381314 0.017588297 0.15357009 0.021717962 -0.20358054 -0.121866055 0.044233736 -0.4632372 0.012690809 -0.11505044 -0.14025295 -0.12837346 -0.45830607 -0.003968491 -0.12659985 -0.21798705 -0.18312936 -0.27870038 -0.021367054 -0.5924805 0.050076097 0.023512289 -0.58821887 0.22628492 0.09530213 -0.124368966 0.17566895 0.044760842 -0.0046876897 -0.031357355 -0.081925504 0.07514277 0.004249153 0.075260825 -0.099174686 0.22760388 -0.31095916 0.29542512 -0.3024007 0.4566063 -0.2617413 -0.10654596 -0.18886524 0.22673291 -0.11696669 0.26760513 -0.31823185 0.07166474 -0.33836135 -0.115923464 0.109856226 -0.12188457 0.1699263 -0.3195275 -0.05323977 0.07564739 0.13647889 -0.120019406 -0.06069006 0.35855922 0.20151143 0.20881772 0.10239324 -0.010738637 -0.37875724 0.09092923 -0.022632262 -0.23224151 -0.12835293 -0.1114821 -0.032768466 0.13556105 0.26314723 0.08968678 0.41337946 0.08622914 0.38782245 0.35100296 0.06934659 0.21077031 -0.05687972 0.03669962 0.15762927 -0.23128612 0.09868107 -0.0078123217 -0.199301 -0.3475439 -0.15243174 -0.12465273 -0.03464998 -0.11757628 -0.021066338 -0.32507512 0.03861523 -0.1342218 -0.68929505 -0.28192967 -0.198362 0.01840854 -0.06989848 -0.22897895 -0.13684884 -0.08226594 0.16537775 0.1437186 0.17804271 0.019950695 -0.16358127 -0.42510468 0.1501465 -0.03744508 0.20689061 0.15532555 -0.12691925 0.30410644 0.10814404 0.3756913 -0.32417673 -0.086270995 0.03711106 0.012278543 -0.5456233 0.2011351 0.04625103 0.16542011 0.101349965 0.3899077 -0.3069626 -0.29663128 0.15548237 0.12140609 0.14641505 -0.18231827 -0.09324181 0.19085366 0.3511284 -0.026946241 -0.30127588 0.1218359 -0.08704336 -0.10391726 -0.025201354 -0.06893998 -0.5342446 0.30031008 -0.03469711 0.16202241 -0.37299505 0.07370747 -0.14373906 -0.27677834 0.1883721 0.10849843 0.012972133 -0.4008151 0.257823 0.14162332 0.39915505 -0.31273624 -0.23214564 0.1422808 -0.12553537 -0.16435462 -0.40883583 -0.13977449 -0.18541217 -0.12233526 -0.20417777 0.016905235 -0.18339758 0.16754374 0.12749185 0.46500754 0.29221806 0.38116583 0.03970483 -0.088074505 -0.3809642 0.08869234 0.14610566 0.1933713 0.029770145 0.18409115 0.2591274 0.2192694 -0.081315264 0.19520187 -0.13875833 0.18997027 0.033194363 -0.17451572 -0.051135164 -0.1327145 0.111318104 0.13367893 -0.44048968 -0.25700787 0.10030378 0.08860962 0.025804816 0.2031189 0.03661495 -0.026073046 0.18275006 0.07581528 0.027679246 -0.2248755 -0.068662316 -0.13902819 0.09172657 0.37893358 -0.01452921 0.105182886 -0.4718065 -0.4318919 0.20518884 0.05875031 0.15449826 -0.027061384 0.1657532 0.4587121 -0.1747921 0.14229552 0.17542003 -0.14027478 -0.19587801 -0.048289433 -0.21691766 -0.0142630795 0.24459755 -0.075597465 -0.2739304 0.28202775 -0.21517839 -0.37293634 0.13877292 0.09426018 -0.09431243 0.31151307 0.07355433 -0.21748063 0.08537457 -0.2241147 -0.111640245 0.018753044 0.023132205 0.007407326 0.10850968 -0.24437527 -0.13681404 0.016957982 -0.11006514 0.12666798 0.044315863 0.040297866 -0.33995935 -0.085105486 0.30810905 -0.0140037555
图片 -0.3572442 -0.06018981 -0.015148698 -0.18292253 0.26239058 0.4318631 -0.29817766 0.12553485 0.0958792 -0.34618446 0.12947309 -0.19205631 0.19490051 0.43487602 0.08512972 0.257933 -0.22689559 -0.09097933 0.46378398 0.20965762 0.013317462 0.12100431 0.20984966 0.03985078 -0.43876705 -0.16768348 0.12728868 0.2697543 -0.23455206 -0.491141 -0.1808234 0.12104249 -0.2920827 -0.16674717 -0.056542747 0.04717773 -0.29830143 0.052463874 -0.19886178 -0.041109465 0.27387187 -0.23155 0.22759992 -0.2867189 -0.076300494 0.07913935 0.10130543 -0.25589475 0.2135386 -0.20094767 0.3649576 -0.41651282 -0.1886738 -0.17416793 0.3858626 -0.111895144 -0.27729028 -0.20386212 -0.499314 -0.09635805 0.40255883 0.3001546 0.0874499 -0.14399298 0.17964216 0.1057573 0.07695852 -0.41030592 0.08610892 0.081589215 0.015081953 0.08180897 -0.09520759 -0.18968366 0.090121835 0.07033198 0.23162565 -0.11496303 -0.28999683 0.12403313 0.13593116 0.066491306 -0.050577354 0.038667038 -0.19250399 0.0388287 -0.104768 0.1270163 0.21198973 -0.052258983 0.048395906 -0.105971694 0.14248951 0.061515503 -0.35344246 -0.045182258 0.33011383 0.07455226 0.061288934 0.27404067 0.10904562 0.72817856 0.20285696 0.2807102 -0.43262514 -0.15633343 0.11337672 0.04933357 0.06575817 0.15761572 -0.015783466 0.5228923 -0.16862297 -0.2618706 -0.20436569 -0.081998594 0.24105214 0.21079741 0.20656861 -0.034734756 -0.11348987 0.022854399 -0.16671446 -0.029808905 0.26467893 0.32576403 0.04049018 0.1311504 0.49968508 0.21846211 -0.040154483 -0.2203681 -0.050435666 0.31033954 -0.1099372 0.051819276 0.23698679 -0.38775742 0.020324025 -0.10453586 0.22621931 -0.17776707 0.43643618 -0.22730416 0.06371196 0.25659668 -0.1948419 0.33980945 0.046668883 -0.08234559 -0.0040867957 0.1301028 0.15813509 0.32282513 -0.22078492 0.25028062 -0.3758107 0.58467907 -0.17372908 0.030538226 0.18807752 0.3389905 -0.034923017 0.13446033 0.09069158 -0.39590505 -0.2356759 0.45321405 -0.03956835 -0.10175235 0.08851473 0.11940268 0.33142698 -0.17292765 0.08613753 -0.13869372 -0.045442503 0.2731454 0.037078425 0.012045468 0.06319543 -0.32666388 0.34425685 0.11534587 -0.21525219 0.12523708 0.29715002 0.44030362 0.11608179 -0.067338504 -0.45293793 0.014461399 0.11375234 0.20109351 0.15885715 -0.031482782 0.21195616 -0.5078652 -0.05920351 -0.1253956 0.21005392 -0.064203456 0.0952324 0.038026802 0.3734676 -0.072856076 0.20665464 -0.27673784 -0.15711647 -0.069343075 0.1863485 0.34421664 -0.15958896 -0.034987595 -0.22152631 0.20186827 0.064112775 0.26810804 -0.39652732 0.34021273 -0.08272286 -0.014539942 -0.23449607 0.27666005 0.21820788 -0.29089534 -0.07979787 -0.13367128 -0.008233033 0.26274645 0.039358962 -0.030400582 0.17596312 0.062067635 -0.255218 0.22711483 -0.41798276 0.18833782 -0.057980996 -0.5100098 0.14816825 -0.047042023 -0.14153492 -0.019624231 0.15181603 -0.65205103 0.50735635 -0.018192308 -0.33492687 -0.10841965 0.29614916 -0.10555099 -0.057132874 -0.3377456 -0.038145877 0.32415006 -0.09217072 -0.18116874 0.216525 -0.24257939 -0.003983929 -0.1891208 -0.08475552 -0.0071658166 0.21051466 0.063454196 0.08067471 0.04581235 -0.021918 -0.037473347 -0.2469469 0.32708266 -0.1560889 0.08498507 -0.19568427 0.12293865 0.19246428 0.104345694 0.26695064 0.3419631 -0.082340136 0.31170854 -0.06855053 -0.3317491 0.2641909 0.113291636 -0.31290287 0.03139744 0.22097182 0.08488404 0.0129821915 0.110054046 -0.24685878 -0.47843945 -0.024565825 0.13827233 0.2631317 0.055530336 -0.16916022 -0.02431172
