417 300
系统 -0.23660363 -0.07234139 -0.10249319 -0.06631233 -0.00063686597 0.13121033 -0.10899321 -0.09678932 -0.03519014 -0.14021228 0.13619539 -0.10784972 -0.055070013 -0.1102419 -0.0732905 0.021150136 -0.14478195 -0.10509712 0.07161127 0.25539294 0.024697812 -0.00963642 0.03269246 -0.02355122 -0.11311163 -0.00092565926 0.18002106 -0.025867816 -0.09590113 -0.06909723 0.11932105 -0.016257782 0.06555938 0.033555485 -0.08363648 -0.025045237 -0.0766178 0.20351003 0.06749652 0.014052257 0.12001112 -0.12996197 -0.13977705 -0.034167085 -0.18471633 0.063868724 0.104200386 0.1131991 0.21628615 0.093838274 0.045231126 -0.25592548 0.07837175 0.11775954 0.05829941 -0.06257769 -0.28794724 0.049998485 0.06816033 0.16760178 -0.08325713 -0.14944291 0.1120822 -0.18535134 -0.030793605 -0.18170415 -0.0074714837 -0.059176262 -0.17056695 -0.057334896 -0.29010516 -0.01992778 0.32262883 0.013822469 0.08515095 0.0055827675 -0.04717982 -0.028345136 0.042149883 0.11469828 -0.13718355 -0.010338658 -0.2268607 -0.10829357 -0.0026836756 0.19196942 -0.111223884 -0.21239728 -0.04155376 -0.015036666 0.12778986 -0.07037348 0.047613446 -0.12615211 0.062162407 -0.021806855 0.01819319 0.11926245 0.019219797 0.0208844 -0.07560017 0.0143988505 -0.13426447 -0.11295035 0.033519708 0.2629401 0.29033887 0.09900626 0.24866278 0.097003825 0.0886763 0.0808708 -0.19281276 0.13839638 0.16502525 -0.007855191 0.19842805 -0.14028108 0.09142671 0.19509564 -0.005182867 -0.124485664 -0.22625309 0.04828239 0.0005660477 -0.20560817 0.111495696 -0.17135267 0.1253414 -0.017708778 0.1011236 0.06571836 -0.16315725 -0.124851905 -0.13018255 0.20704584 -0.08576208 -0.06513492 -0.056284543 -0.041072097 0.24586903 0.14703715 -0.051989917 0.042481184 0.16409549 0.11037486 -0.13669895 0.099113114 -0.044558372 0.00021644507 0.03872414 -0.12972192 -0.028824061 0.100853436 -0.19072072 0.2148007 -0.116958104 -0.012913214 0.20897824 -0.18306322 -0.15382485 0.07597978 0.12297336 0.022742141 -0.037487596 0.20310557 0.19500215 -0.04741296 0.2631077 -0.14791018 -0.10010099 -0.07794439 -0.051977854 -0.018933794 -0.1289684 0.26485592 -0.20555651 -0.06372781 -0.09315381 0.08706107 -0.0565479 -0.18748727 -0.151453 0.058996454 -0.2030912 0.1848365 -0.03135259 0.38228017 -0.030434407 -0.0703138 -0.0033501058 0.1056618 -0.050342157 -0.0054624737 0.20951054 -0.027524628 0.22910082 -0.06811254 0.22537567 -0.079666734 0.007372785 -0.03359916 -0.064464815 -0.22660853 -0.1898605 0.08799591 -0.1212548 -0.2056526 -0.06944678 0.2719439 0.044344287 0.16758373 0.051263355 0.22984345 0.19979489 0.49890843 -0.12175343 0.02863453 -0.17203943 0.06380709 -0.14375477 0.39276603 -0.10666741 0.11719585 -0.01179624 0.093764916 -0.11944343 0.027528629 -0.11804121 0.039930366 0.14064017 0.03908136 -0.00637149 0.10178299 -0.12778324 -0.0010230943 -0.19892085 0.08189774 0.19974786 -0.25607356 -0.122081175 -0.02653173 0.037141044 -0.1483004 -0.19180752 -0.115791224 0.018340664 0.24666426 -0.2493023 -0.040859062 -0.04843331 0.04628301 0.122467995 0.1538785 0.015326123 -0.008978489 -0.15093958 0.12862639 0.22352082 -0.035474714 0.14293355 0.1246315 0.038477547 0.13569196 0.14123474 -0.054542772 -0.09247971 0.051242407 -0.3381672 -0.08061886 -0.28030583 0.16716619 0.10739068 0.16704492 -0.277107 -0.22283387 0.33060613 0.04706029 0.1986649 0.15577957 0.11540474 -0.16471185 -0.09399369 0.1004974 -0.14453615 -0.15747328 0.07217518 0.25082177 0.04949027 -0.26411906 -0.013383314 0.032200243 0.10420767 0.07434376 -0.0060066995 0.088751025 -0.08277731 0.032308977 0.09402736 0.02660237
普华 -0.2504978 -0.08162408 -0.103442766 -0.06952872 -0.001536629 0.14310852 -0.11530047 -0.10154754 -0.03491727 -0.1449044 0.15063812 -0.10024401 -0.0450801 -0.11988089 -0.08605027 0.01669927 -0.16720298 -0.11238414 0.07331822 0.27290887 0.025452591 -0.008013578 0.025244262 -0.03733829 -0.12841508 -0.0036774145 0.1895727 -0.034511242 -0.10372437 -0.06280755 0.11960902 -0.02506656 0.06805277 0.04463247 -0.09227769 -0.021675985 -0.08744176 0.21884194 0.07627555 0.010809096 0.1285405 -0.1344277 -0.15139708 -0.036337875 -0.20789239 0.06440973 0.11005776 0.13128877 0.23266196 0.097618595 0.05782217 -0.27947074 0.09186118 0.1281836 0.059475366 -0.076629415 -0.31552058 0.05566679 0.05924209 0.17958114 -0.096889004 -0.15672785 0.118948534 -0.20759735 -0.029998926 -0.19576417 -0.006797024 -0.065475285 -0.17890097 -0.077130094 -0.3155576 -0.020595634 0.34760568 0.014828685 0.0906877 0.0023855362 -0.04693492 -0.03239145 0.03948722 0.113314144 -0.14852993 -0.012153414 -0.23307218 -0.11007517 -0.019428976 0.20167409 -0.116701454 -0.22626533 -0.045651484 -0.014008487 0.12064191 -0.071554765 0.050005946 -0.1292674 0.06312404 -0.018656505 0.008062005 0.121636555 0.024722321 0.013604478 -0.091316186 0.016832218 -0.14648506 -0.11880408 0.034785323 0.29009742 0.3162191 0.10936064 0.2667355 0.09114817 0.083812416 0.08455085 -0.20097315 0.14710186 0.170831 -0.022483846 0.19900629 -0.14381106 0.101023994 0.21385708 -0.009003384 -0.14776158 -0.24465935 0.06603623 -0.0073188553 -0.22236504 0.12137391 -0.1892126 0.14415888 -0.021264894 0.09851524 0.08283222 -0.18263748 -0.13229528 -0.13892157 0.21427177 -0.08294298 -0.057069045 -0.048438966 -0.045023672 0.26219413 0.1664824 -0.046103958 0.03477663 0.18476254 0.10156765 -0.14482968 0.10804335 -0.044517048 0.016131334 0.054424915 -0.1276251 -0.027583323 0.10470338 -0.1971646 0.22536369 -0.13400096 -0.013950726 0.23322077 -0.20027713 -0.1566863 0.07904836 0.1475246 0.010660698 -0.044100262 0.21890663 0.20405264 -0.04800134 0.28947774 -0.1613019 -0.110516146 -0.0882524 -0.061695985 -0.028144317 -0.1437094 0.2891501 -0.22703147 -0.05822833 -0.09410896 0.09666304 -0.06686834 -0.21277015 -0.1581299 0.06348877 -0.20769434 0.1919525 -0.031363573 0.41565177 -0.039743196 -0.06995135 -0.00571423 0.10977169 -0.05662317 0.0036578595 0.22956672 -0.031651195 0.2450423 -0.076854795 0.23071378 -0.08320167 0.0070352145 -0.04180284 -0.066694066 -0.24195038 -0.2054896 0.087718904 -0.1266396 -0.215427 -0.072659016 0.2991857 0.042837128 0.1770534 0.04514102 0.2471355 0.21212968 0.53294915 -0.12676921 0.034128796 -0.1819259 0.07344291 -0.15547544 0.41258603 -0.12059124 0.12136329 -0.019356303 0.10601112 -0.13345608 0.03926012 -0.1316366 0.038274284 0.1556257 0.048642423 -0.0036241666 0.102589294 -0.14339933 -0.017393496 -0.2161828 0.08428697 0.21809667 -0.27177352 -0.14167994 -0.024649866 0.045549996 -0.16407718 -0.20364317 -0.1291637 0.011906284 0.2504987 -0.27053103 -0.047321297 -0.059191115 0.04883307 0.12303929 0.16792391 0.0045287996 -0.011131353 -0.16486086 0.13372654 0.23190308 -0.042801525 0.14778486 0.13154356 0.038443845 0.1452263 0.1649317 -0.0643336 -0.103811614 0.062170006 -0.35996693 -0.09243286 -0.29669374 0.17979561 0.10950395 0.17587288 -0.30219865 -0.24203043 0.35542116 0.049045935 0.21631259 0.168791 0.12954116 -0.17881538 -0.09753009 0.106327854 -0.14968228 -0.16690928 0.069850355 0.26611194 0.050898727 -0.29650226 -0.02734139 0.03573005 0.1149931 0.09657038 -0.008063329 0.076701656 -0.08099224 0.033782255 0.09628458 0.024814995
测试 -0.26458842 -0.08830706 -0.10711086 -0.06707915 -0.0052711195 0.15758109 -0.11424686 -0.10397977 -0.035817165 -0.14783114 0.15335624 -0.09609081 -0.04700901 -0.12948589 -0.084935054 0.019388355 -0.17525585 -0.1254156 0.08841069 0.28365216 0.04145726 -0.014994139 0.028256271 -0.033437703 -0.14507742 0.010862037 0.1989024 -0.026291793 -0.10750054 -0.06852242 0.119975574 -0.030884342 0.074842356 0.04133591 -0.08585271 -0.023652768 -0.09379814 0.22055405 0.07402626 0.0052301805 0.15121123 -0.14306688 -0.15632391 -0.029950785 -0.23134172 0.090198524 0.109499454 0.13507055 0.24395588 0.0907906 0.061651662 -0.2835749 0.09100095 0.12774822 0.05555081 -0.08568114 -0.31890374 0.053476147 0.040251527 0.19383633 -0.100406535 -0.15487984 0.12595297 -0.21330515 -0.028204208 -0.18557465 -0.010308315 -0.046491623 -0.1796751 -0.087183185 -0.3210123 -0.01525051 0.35722 0.0061402214 0.1048368 0.01089956 -0.059877206 -0.03283929 0.035715293 0.12432634 -0.15265018 -0.004335269 -0.2639141 -0.12161735 -0.002673949 0.20944227 -0.130275 -0.23037146 -0.051045608 -0.010021299 0.1209354 -0.0779772 0.037637837 -0.13950066 0.067776754 -0.015343467 0.0022361604 0.13090086 0.03271828 0.0051628514 -0.08587884 0.011180659 -0.15847977 -0.13296114 0.039651334 0.28987148 0.31852922 0.102715746 0.27709752 0.08987228 0.08439823 0.081667766 -0.21324518 0.14666851 0.18347238 -0.023688788 0.198394 -0.14829777 0.114219084 0.22516419 -0.009345315 -0.16341823 -0.25846472 0.079032816 -0.007408156 -0.22891682 0.12530263 -0.19354205 0.15264319 -0.003957152 0.110323586 0.07562257 -0.1826732 -0.13408509 -0.16173823 0.22337885 -0.097241275 -0.054793727 -0.04139045 -0.04724181 0.26581943 0.17451721 -0.0489518 0.038975462 0.1937154 0.10952566 -0.15263988 0.10635508 -0.05005555 0.017621413 0.052868064 -0.12555288 -0.02616683 0.098616414 -0.19718252 0.2193637 -0.14069024 -0.011532186 0.23252705 -0.19974582 -0.17763479 0.07842133 0.1531573 0.01652163 -0.04847429 0.22638372 0.21570344 -0.043601032 0.29814076 -0.1689344 -0.11777414 -0.086447485 -0.07175833 -0.033411015 -0.1449282 0.29094496 -0.22655503 -0.06328331 -0.097771145 0.10076254 -0.06535702 -0.21293159 -0.15866487 0.06346863 -0.21721298 0.20350842 -0.03182545 0.42947245 -0.052861813 -0.084511966 0.0019458074 0.11000602 -0.06230798 0.00789749 0.24583392 -0.026126742 0.26317614 -0.0758044 0.23732743 -0.08850133 0.01859844 -0.043941863 -0.06425519 -0.2574035 -0.21643934 0.08887464 -0.12351322 -0.24299604 -0.073721476 0.30144107 0.030837093 0.16991888 0.042519066 0.2585935 0.22655629 0.5512955 -0.1335065 0.026976861 -0.18533759 0.080742255 -0.16555543 0.4309766 -0.12586667 0.115659475 -0.016198812 0.11125742 -0.13891472 0.054060362 -0.12117297 0.03453375 0.15582399 0.06524265 0.008019879 0.12014532 -0.13781668 -0.019004224 -0.2306975 0.09340394 0.21202342 -0.27609128 -0.16712725 -0.02023488 0.037419833 -0.15625355 -0.1972317 -0.1394761 0.005067539 0.2751469 -0.27561027 -0.041568898 -0.052162122 0.042615373 0.12993963 0.18034744 0.003200662 -0.0031560506 -0.16268277 0.13719147 0.24217913 -0.04639586 0.15732355 0.13316208 0.044439565 0.1469606 0.16684687 -0.055425126 -0.11295157 0.07640069 -0.35969067 -0.08866213 -0.30275372 0.17546636 0.10762537 0.18078944 -0.3112866 -0.24462368 0.36810762 0.042795133 0.22391963 0.17137806 0.12661383 -0.18964778 -0.10184905 0.109956086 -0.15763414 -0.15678677 0.07601374 0.27644536 0.053602926 -0.3107008 -0.02564933 0.02717192 0.107883 0.09834479 -0.0033299304 0.07712237 -0.07271796 0.041769058 0.09217741 0.018124433
麒麟 -0.25008455 -0.09065966 -0.10259906 -0.066400714 -0.006614801 0.1563609 -0.11951731 -0.10426481 -0.037231144 -0.14524432 0.12963131 -0.082746916 -0.039786823 -0.12860352 -0.090971194 0.011874499 -0.16159989 -0.10623147 0.07552397 0.26939544 0.039960783 -0.0032788927 0.027407711 -0.023748478 -0.13287908 0.015019406 0.17766207 -0.016616497 -0.09846411 -0.060107797 0.10548169 -0.013385588 0.07424916 0.028247321 -0.08190507 -0.021183051 -0.0703087 0.21275732 0.06146799 0.002385111 0.14026341 -0.13700145 -0.15366447 -0.027390333 -0.20994937 0.08534741 0.113712765 0.11419251 0.22842169 0.10197551 0.06352717 -0.26736552 0.08112069 0.12785211 0.0534151 -0.07135479 -0.3082104 0.051381186 0.04288896 0.18046702 -0.10780963 -0.14612564 0.109732494 -0.19549292 -0.019771272 -0.17883946 -0.0139509505 -0.04775074 -0.17583707 -0.08487623 -0.3111808 -0.016256878 0.31791764 0.0030920415 0.104866125 0.007170405 -0.050070032 -0.03242851 0.04314717 0.13029756 -0.1405236 -0.011420562 -0.23140487 -0.12186237 -0.009614414 0.1908994 -0.114049286 -0.20670374 -0.047034193 -0.012344464 0.11267472 -0.06911364 0.028825885 -0.11724192 0.07470365 -0.017357672 -0.0056949835 0.12420603 0.027391406 0.014122726 -0.074326724 0.008685058 -0.13417079 -0.11879146 0.040696785 0.2699084 0.29437193 0.09741959 0.2622637 0.073579125 0.07136649 0.07941334 -0.20418276 0.14006104 0.17903528 -0.011847188 0.19656926 -0.13713364 0.117942184 0.21309932 -0.004069136 -0.15138607 -0.24921721 0.06638557 -0.012160649 -0.21165857 0.12561068 -0.18059503 0.13500264 -0.007957178 0.112018034 0.049731366 -0.16644482 -0.12965535 -0.15889461 0.1986578 -0.095496565 -0.07254036 -0.06356112 -0.037636112 0.25033256 0.17110068 -0.061473623 0.044130478 0.18982233 0.11155191 -0.1361095 0.10415913 -0.049256463 0.017396409 0.02709819 -0.13661738 -0.032814242 0.11325611 -0.19303332 0.21004839 -0.13355121 -0.0055600107 0.21500032 -0.18654722 -0.16177145 0.052421145 0.14951867 0.017856827 -0.039565556 0.21365368 0.18975402 -0.046487983 0.28804132 -0.16183656 -0.11941492 -0.08885975 -0.07094476 -0.04059849 -0.14070117 0.27666423 -0.2167379 -0.055776585 -0.09350317 0.098195665 -0.06832777 -0.20390552 -0.15711991 0.059924282 -0.20681995 0.19330522 -0.033978146 0.40873453 -0.036854245 -0.08766097 -0.003846929 0.113660626 -0.061476912 -0.009307506 0.21873832 -0.024555335 0.2538757 -0.08183454 0.21149218 -0.07062496 0.010499265 -0.045526423 -0.06559457 -0.24526046 -0.21024756 0.08490443 -0.12302023 -0.23717241 -0.063799106 0.27900353 0.03295178 0.15953 0.050295096 0.24107365 0.20972376 0.53740364 -0.13232042 0.025340896 -0.19487444 0.064332426 -0.15370157 0.39981282 -0.111705914 0.122892044 -0.021899367 0.12421398 -0.12864748 0.044396173 -0.11509437 0.03170947 0.14490074 0.06187692 0.00029073234 0.11359444 -0.13149208 -0.012686074 -0.22656977 0.09374647 0.21174848 -0.26673272 -0.16380562 -0.010560566 0.022185717 -0.16379172 -0.1853271 -0.13598917 0.010878956 0.27023703 -0.26072833 -0.058594987 -0.06915378 0.041046567 0.13593584 0.17702557 -0.004637277 0.0038694197 -0.15828353 0.14066838 0.24074994 -0.04875475 0.14197089 0.1274902 0.03732428 0.12593164 0.14543538 -0.05319985 -0.10150197 0.06660795 -0.34264836 -0.09583566 -0.2837926 0.17053492 0.110888615 0.17108485 -0.29502967 -0.24197556 0.357184 0.04664873 0.2046634 0.16126794 0.13903156 -0.17050937 -0.09085964 0.112513565 -0.15200415 -0.13478094 0.07898133 0.27639547 0.041567378 -0.30086246 -0.017947406 0.036490876 0.102985136 0.09023047 0.00095053634 0.06981797 -0.06304938 0.053958476 0.08194835 0.017564118
点击 -0.2871122 -0.09952545 -0.14019962 -0.074213736 -0.003172423 0.17124996 -0.13533168 -0.114840575 -0.054338418 -0.16424437 0.17355719 -0.13400663 -0.05353378 -0.14473058 -0.086494654 0.028335623 -0.1884739 -0.12475167 0.082599156 0.3073878 0.042688664 -0.024262443 0.04670878 -0.030193703 -0.1495235 -0.0031400775 0.23163718 -0.035885613 -0.10778531 -0.08626437 0.14220577 -0.032876454 0.101039104 0.04401068 -0.10667994 -0.03836885 -0.085366614 0.24182406 0.07006223 0.02819032 0.14823557 -0.16780381 -0.1766687 -0.023523409 -0.23436698 0.0833277 0.13511434 0.1357945 0.26690692 0.12563731 0.06525845 -0.31470644 0.09350036 0.15850678 0.071079224 -0.0815347 -0.36565396 0.06278634 0.078102514 0.20610161 -0.10263924 -0.19430111 0.12153089 -0.24405421 -0.038140517 -0.21384838 -0.012379874 -0.074980766 -0.21036261 -0.0853795 -0.35607728 -0.02545217 0.3963909 0.017892636 0.102072924 0.009527984 -0.06602015 -0.026989784 0.05444678 0.15124942 -0.16982637 -0.026407894 -0.28991514 -0.15039626 -0.008869525 0.22864687 -0.15046701 -0.2745878 -0.049280245 -0.016633159 0.16731112 -0.081623055 0.043407492 -0.15115716 0.070793815 -0.028723175 0.020464541 0.15016896 0.032984074 0.021698385 -0.08674741 0.025127174 -0.17104903 -0.14437191 0.051565774 0.3232902 0.34787408 0.1194772 0.3038294 0.11886552 0.11516785 0.09923966 -0.22208342 0.15914154 0.20612374 0.0007601186 0.23885173 -0.16997345 0.118279755 0.24800709 -8.156633e-05 -0.16356431 -0.2830193 0.05479933 -0.009373351 -0.23791277 0.14433993 -0.22487272 0.15732506 -0.011844633 0.12256898 0.08399159 -0.19929653 -0.14148268 -0.17379998 0.24872653 -0.10285568 -0.09058851 -0.06687173 -0.04142849 0.30516988 0.1931353 -0.07555411 0.04907023 0.19857474 0.13124257 -0.16314565 0.11675282 -0.058671482 -0.0011887393 0.056328394 -0.16723835 -0.026121924 0.11520209 -0.22991124 0.25144863 -0.15196502 -0.021321021 0.24572712 -0.22756381 -0.19356824 0.096410215 0.15591791 0.023701813 -0.051670782 0.24900624 0.238118 -0.05304469 0.32585818 -0.1950145 -0.13242486 -0.09479727 -0.07411394 -0.0327968 -0.16681662 0.32593682 -0.2557491 -0.07237603 -0.10128337 0.1142171 -0.062114075 -0.23475462 -0.1822867 0.07698634 -0.25192478 0.2203935 -0.026781209 0.4735392 -0.043675296 -0.089760244 -0.0032027385 0.112131014 -0.052175306 -0.0066573797 0.25506762 -0.035048593 0.29408935 -0.08786823 0.2781699 -0.091948114 0.006022438 -0.04281541 -0.08225876 -0.28008315 -0.23581709 0.098101825 -0.15613942 -0.27554077 -0.099501066 0.32284898 0.044928525 0.20977615 0.062159136 0.29246387 0.2485326 0.62341505 -0.14554761 0.034998327 -0.21801819 0.06472316 -0.180163 0.4716308 -0.12755726 0.14112765 -0.01821675 0.11657825 -0.14315441 0.018728694 -0.1437884 0.046187386 0.17666666 0.04507267 -0.0056643854 0.12319051 -0.15243734 -0.00027959832 -0.24065869 0.093179725 0.24599685 -0.3247686 -0.16136557 -0.026097175 0.037078984 -0.18371625 -0.24697126 -0.14470159 0.024874102 0.32349342 -0.3206028 -0.055904806 -0.07228612 0.05057645 0.15839313 0.19927855 0.025525138 -0.022546973 -0.1758088 0.16471468 0.27451146 -0.03308022 0.18138711 0.1570647 0.030316329 0.15767318 0.17474778 -0.07148657 -0.12321691 0.06516692 -0.41347086 -0.08232092 -0.3355546 0.21610749 0.14033489 0.20366792 -0.33855522 -0.27108452 0.41667476 0.059572026 0.23662698 0.18282767 0.13225304 -0.2136319 -0.096479245 0.12919843 -0.17973045 -0.17291693 0.09131711 0.29495108 0.059392106 -0.3305794 -0.013420704 0.035590902 0.12981935 0.076283954 -0.0043832883 0.105896525 -0.09626083 0.0349362 0.10633818 0.033395026
优 -0.22911689 -0.07992976 -0.09259435 -0.06285133 -0.0090524405 0.14330202 -0.11043162 -0.09294243 -0.028881239 -0.13259684 0.11664994 -0.074044265 -0.037601564 -0.11554838 -0.08430222 0.00889354 -0.14830703 -0.10014555 0.0699665 0.24953054 0.037199207 -0.0013716833 0.024493134 -0.02500868 -0.124756455 0.015702866 0.16099788 -0.016800607 -0.08852216 -0.049966484 0.09703507 -0.012792756 0.06940706 0.027370604 -0.07283969 -0.02190984 -0.068391785 0.193975 0.05722563 0.0008191004 0.13161376 -0.12389855 -0.14307122 -0.026447553 -0.19481564 0.07993148 0.102272384 0.104898356 0.21130101 0.09416629 0.057233784 -0.24545564 0.07601629 0.11417499 0.047590878 -0.06636694 -0.28097826 0.04233462 0.0397128 0.16311231 -0.10062379 -0.13160184 0.100467734 -0.1782312 -0.020976368 -0.16399634 -0.01178938 -0.044756945 -0.16111764 -0.08061752 -0.28417796 -0.013698311 0.29094177 0.0016433739 0.096471526 0.0074772025 -0.040840555 -0.027382512 0.038361367 0.11966295 -0.13008428 -0.010894629 -0.21465708 -0.11280844 -0.005397282 0.17452426 -0.10211661 -0.18690826 -0.04874785 -0.010934727 0.102185376 -0.060122512 0.024773771 -0.109326124 0.068263665 -0.011993367 -0.00757645 0.11614483 0.026699068 0.0139577 -0.07141723 0.004111357 -0.123482004 -0.10960964 0.033629876 0.24343579 0.267156 0.088883765 0.24123026 0.06699076 0.067455865 0.07331731 -0.18977328 0.12983401 0.16574562 -0.014399765 0.18332511 -0.12840253 0.10836401 0.20151718 -0.0032651832 -0.13842745 -0.23021132 0.058718994 -0.0120090265 -0.2003276 0.11600718 -0.16939941 0.12602575 -0.010131469 0.09828833 0.045564245 -0.1566004 -0.11774323 -0.14716297 0.1822799 -0.0840045 -0.062700145 -0.060167007 -0.03557171 0.232246 0.16031072 -0.052418564 0.041549183 0.17520098 0.10791521 -0.12655602 0.10023151 -0.04340011 0.020423213 0.027998222 -0.12397908 -0.035695646 0.10523775 -0.17362061 0.19364764 -0.12053857 -0.0047891587 0.20212051 -0.16835989 -0.15149084 0.049088467 0.1380928 0.017113464 -0.037921805 0.19257753 0.1762986 -0.04285355 0.26766166 -0.14648409 -0.11334549 -0.079438046 -0.06234787 -0.039065704 -0.13356622 0.2516228 -0.20013112 -0.052948326 -0.08562381 0.08772286 -0.06343577 -0.19106019 -0.14900185 0.053356424 -0.18847317 0.1772648 -0.032240342 0.3791281 -0.036320884 -0.081984766 -0.0060430155 0.10474436 -0.0587445 -0.005687035 0.20451602 -0.025889747 0.23668392 -0.07382032 0.19051023 -0.06541931 0.008617193 -0.040977214 -0.05941072 -0.22552438 -0.19340985 0.08092282 -0.11161751 -0.21835704 -0.05770494 0.26423556 0.030814545 0.14805755 0.041440748 0.2202204 0.1939174 0.49459982 -0.12045172 0.026253708 -0.18203714 0.063591234 -0.14106596 0.3680047 -0.10520389 0.11000128 -0.018563867 0.11418793 -0.11816966 0.043169267 -0.10607374 0.030823842 0.1348023 0.053370018 -0.0013596317 0.10460035 -0.12343256 -0.015356495 -0.20811528 0.083540484 0.19442785 -0.24830312 -0.15400146 -0.011914827 0.014641571 -0.15226267 -0.17163566 -0.12902424 0.010133224 0.2500816 -0.2426869 -0.050321102 -0.066670544 0.041243047 0.12729853 0.16298287 -0.0053957454 0.0051989886 -0.14687972 0.13176806 0.22049303 -0.04746959 0.12787062 0.1164086 0.03820189 0.117836736 0.13400868 -0.046152394 -0.09266954 0.061852206 -0.3191747 -0.09005886 -0.2640353 0.15520136 0.10321506 0.158064 -0.27400967 -0.2243646 0.33086482 0.045443326 0.18879926 0.14665885 0.13025528 -0.15647648 -0.08185969 0.10741777 -0.14000121 -0.12627473 0.07343763 0.25856405 0.036668777 -0.27990302 -0.016263528 0.030409094 0.091949634 0.08619581 -0.0018615332 0.06359693 -0.056002557 0.051312592 0.075473204 0.014609387
打开 -0.2406259 -0.08892237 -0.10188356 -0.06608332 -0.0032152892 0.15031083 -0.110744685 -0.092080966 -0.03606115 -0.13360561 0.132983 -0.08090415 -0.026690869 -0.11723137 -0.088817686 0.008453697 -0.16752395 -0.09920703 0.07199234 0.25557673 0.026316602 -0.0064065214 0.024417257 -0.043068126 -0.13664928 -0.0012104019 0.18214954 -0.033882044 -0.092117235 -0.05227887 0.106533855 -0.0327685 0.07853692 0.042768814 -0.08538834 -0.020518975 -0.086534664 0.20596577 0.062330414 0.009790042 0.13839024 -0.13738342 -0.14423214 -0.026155028 -0.21144578 0.07480424 0.10706925 0.12634394 0.2194605 0.095235355 0.071948476 -0.26808077 0.08852466 0.13870192 0.057932574 -0.07446573 -0.31372544 0.04767195 0.04180962 0.1683591 -0.09648667 -0.1501924 0.108442135 -0.20721215 -0.023678822 -0.17716968 -0.0016489973 -0.056456406 -0.16945858 -0.08866765 -0.2974506 -0.023605235 0.33147764 0.003235386 0.08981784 -0.0021076864 -0.050415073 -0.029454026 0.038635705 0.11699321 -0.13791056 -0.012687596 -0.22384314 -0.12259182 -0.019359164 0.18526393 -0.11990861 -0.21693078 -0.05071984 -0.00389169 0.105199106 -0.058739915 0.03430054 -0.116024666 0.05872659 -0.010073022 0.00010792001 0.12342316 0.033380315 0.0072126556 -0.090442404 0.011054992 -0.14104532 -0.11833892 0.035026293 0.2751552 0.29985642 0.093260154 0.2575628 0.082845904 0.08403539 0.074608214 -0.18314008 0.13765502 0.16889964 -0.015818423 0.188161 -0.14052963 0.10637839 0.21572165 -0.004668973 -0.15378334 -0.24527241 0.072817326 -0.01357798 -0.20952348 0.11694595 -0.19102426 0.14483494 -0.0070894826 0.09521719 0.07121489 -0.17850254 -0.12181587 -0.14974025 0.19857472 -0.08545986 -0.056216672 -0.04871943 -0.038388588 0.24179557 0.17273447 -0.053710043 0.032354478 0.18308626 0.096551485 -0.13652669 0.10531111 -0.04065477 0.02601282 0.044245437 -0.12366058 -0.029117715 0.10358869 -0.19086397 0.20690066 -0.1334346 -0.014089101 0.22957411 -0.1899449 -0.15437315 0.070449404 0.15591225 0.0054440685 -0.057153508 0.20686325 0.19083893 -0.047397885 0.27147356 -0.15751185 -0.11082884 -0.080261305 -0.06795762 -0.04061621 -0.1493286 0.27442116 -0.21358797 -0.047776014 -0.08573971 0.09366139 -0.066167615 -0.21154596 -0.14977549 0.069296 -0.19907004 0.17528135 -0.02423701 0.40886402 -0.047224227 -0.07385118 -0.0033783102 0.1018958 -0.06207555 0.00083273125 0.22533022 -0.026369113 0.24990122 -0.08166845 0.2069874 -0.07881571 0.0073767374 -0.0424074 -0.062073108 -0.2395264 -0.20053826 0.07856431 -0.12236611 -0.2226424 -0.06792524 0.28153104 0.03620818 0.16402765 0.038902793 0.24596868 0.21184367 0.5228501 -0.11439584 0.03966567 -0.18594585 0.06927897 -0.15245679 0.38661703 -0.116347134 0.115434006 -0.017456379 0.1080519 -0.13113178 0.036829453 -0.11697361 0.03536026 0.14818676 0.048423328 0.0030933288 0.101479664 -0.13279107 -0.025223427 -0.2083348 0.08229176 0.21149902 -0.27427647 -0.14557134 -0.021681268 0.03275446 -0.15795587 -0.1861317 -0.13325532 0.008688715 0.24732238 -0.26375857 -0.0515288 -0.06371559 0.04013464 0.11792197 0.16795976 -0.0014809082 -0.008073492 -0.15862991 0.12763883 0.22723009 -0.04721197 0.1416092 0.1259348 0.03377883 0.13568649 0.15173233 -0.061937217 -0.11391569 0.06765798 -0.33761397 -0.085683286 -0.2829393 0.17473148 0.10101864 0.16647775 -0.2964233 -0.2352272 0.3529686 0.05107655 0.2022247 0.15124874 0.13285139 -0.17461014 -0.08693526 0.099970385 -0.14857809 -0.14552557 0.068487816 0.24806078 0.04318171 -0.28651312 -0.021679692 0.03371215 0.10572021 0.09524225 -0.010833754 0.06120548 -0.07026157 0.03649054 0.080580294 0.018317437
操作系统 -0.25956252 -0.080155425 -0.10597629 -0.06031588 0.0033599683 0.14167008 -0.118908994 -0.10949288 -0.032528445 -0.15272094 0.15008472 -0.09967809 -0.047885418 -0.12117944 -0.08629053 0.014492361 -0.1609116 -0.11806781 0.068862565 0.27502844 0.027203586 -0.0028868665 0.02709832 -0.030578934 -0.120815575 -0.0030407049 0.18788964 -0.030599793 -0.103297636 -0.06857014 0.12016251 -0.023270309 0.06598341 0.03888336 -0.09224139 -0.023706324 -0.08325082 0.22375147 0.074431024 0.015151234 0.12762932 -0.13474475 -0.15947977 -0.03921233 -0.20339593 0.066562 0.10967937 0.12787952 0.23959683 0.10029054 0.05250571 -0.28587386 0.09148401 0.121277496 0.05655308 -0.07026968 -0.31656724 0.05283256 0.06318882 0.18083636 -0.10384022 -0.1556062 0.11985828 -0.20122172 -0.030619988 -0.200437 -0.00893621 -0.06713179 -0.18836144 -0.07250537 -0.3167355 -0.026663499 0.34384838 0.012776838 0.09539648 0.012239541 -0.047050744 -0.033119578 0.03982789 0.11546227 -0.14272682 -0.010127794 -0.23398358 -0.11598592 -0.015475276 0.20107618 -0.10989859 -0.22291116 -0.043189537 -0.017776038 0.12232758 -0.06804149 0.050821524 -0.12776755 0.06454582 -0.024530152 0.007278181 0.12584811 0.026136098 0.018079676 -0.08547922 0.025402132 -0.14322972 -0.11925059 0.03707709 0.28553027 0.3198472 0.111328125 0.27026758 0.0910198 0.0829073 0.08916435 -0.20836778 0.14674091 0.17813148 -0.022755677 0.20467952 -0.14571227 0.1023895 0.20864503 -0.00877523 -0.14506309 -0.2479367 0.056083787 -0.011385799 -0.22983094 0.12256299 -0.18941942 0.14552195 -0.023903618 0.10671355 0.076536655 -0.19228917 -0.12707826 -0.13650694 0.21153645 -0.081903994 -0.062701106 -0.058396015 -0.052891742 0.26385114 0.16415983 -0.047284313 0.033465106 0.18308266 0.11436194 -0.1526095 0.1109689 -0.047073364 0.010794274 0.048965693 -0.12766989 -0.032924995 0.10703207 -0.2008628 0.23110259 -0.12871313 -0.010803057 0.23307262 -0.19872831 -0.15818353 0.07820637 0.1429412 0.021010159 -0.038362104 0.22259608 0.20465744 -0.04440752 0.2984434 -0.16457544 -0.10543833 -0.09052397 -0.059369978 -0.027560616 -0.14225292 0.28342196 -0.22595939 -0.056313965 -0.097294845 0.10491414 -0.06498412 -0.21485347 -0.16247518 0.05737225 -0.21397127 0.20094728 -0.03650197 0.41941217 -0.030703176 -0.07297194 -0.0032609063 0.11832155 -0.056936536 -0.0039365953 0.23104838 -0.03476888 0.24892704 -0.077732205 0.23129585 -0.079515226 0.008396906 -0.043054998 -0.06686256 -0.24604869 -0.20839655 0.096421346 -0.12370976 -0.22169021 -0.07173183 0.3019905 0.035467107 0.18009609 0.045837313 0.2521165 0.21803539 0.5391473 -0.12625843 0.036073506 -0.18697824 0.073479556 -0.15640192 0.420316 -0.12012755 0.12273317 -0.02340985 0.11159501 -0.13734433 0.04166351 -0.13475813 0.037375875 0.16066743 0.04935131 -0.007916173 0.10396859 -0.14326721 -0.014993457 -0.21850237 0.08239593 0.22351193 -0.27164024 -0.14082329 -0.025180565 0.038885072 -0.16393247 -0.20989309 -0.14296398 0.01671297 0.25541598 -0.27477783 -0.045324627 -0.057018694 0.0501631 0.124744095 0.16660048 0.0012975008 -0.00809955 -0.1671871 0.14055833 0.23792173 -0.041073892 0.14978665 0.12523672 0.04303536 0.14321786 0.16594669 -0.058098212 -0.10394848 0.059974108 -0.36764413 -0.09554289 -0.30018365 0.17488341 0.11213835 0.1711368 -0.29558116 -0.24015899 0.35764977 0.05097225 0.21607777 0.17096186 0.13692333 -0.182027 -0.1000611 0.110833906 -0.1461332 -0.16315067 0.06955469 0.27829129 0.056755785 -0.29693058 -0.02368102 0.041799687 0.11060774 0.093258955 -0.0074344375 0.081598595 -0.079394326 0.03192859 0.09610276 0.026453367
桌面 -0.2590837 -0.09099528 -0.11686303 -0.0503667 -0.00034247566 0.15619431 -0.1054324 -0.112283215 -0.06697414 -0.13601339 0.16190733 -0.11904073 -0.038416993 -0.1352079 -0.078248635 0.017826146 -0.17616373 -0.10046659 0.06651627 0.26977888 0.030868381 -0.01861577 0.03132478 -0.03530977 -0.1179607 -0.01795447 0.21378385 -0.048924528 -0.11095188 -0.08386419 0.13195045 -0.028519772 0.08283286 0.051877383 -0.10030798 -0.02754587 -0.08456482 0.23061498 0.074224465 0.03102448 0.122440666 -0.15190756 -0.15552734 -0.030214911 -0.20205513 0.0628323 0.11685985 0.12298198 0.24469733 0.1105995 0.056552354 -0.30018213 0.10313722 0.14010948 0.072914295 -0.062140044 -0.32503846 0.061145026 0.0789768 0.16967633 -0.09075515 -0.17391762 0.11880099 -0.21800715 -0.035864882 -0.19935244 -0.008105143 -0.09036652 -0.18194121 -0.06962283 -0.3199732 -0.031184305 0.35859087 0.020144237 0.08666063 0.011957206 -0.05481398 -0.02980721 0.04230277 0.11853833 -0.14632498 -0.022719203 -0.24373853 -0.12854421 -0.011295877 0.19550858 -0.13189459 -0.2534323 -0.026871955 -0.017416777 0.15628736 -0.048349142 0.041006565 -0.12463053 0.04613393 -0.02722999 0.023539599 0.12850468 0.01661522 0.015095573 -0.08401113 0.04262792 -0.14872663 -0.110489875 0.053637296 0.29683304 0.3386136 0.13159825 0.25818038 0.10771652 0.087447464 0.09759801 -0.19098519 0.15779662 0.18944436 -0.0046424204 0.22221562 -0.14560327 0.10961805 0.21440114 -0.010298063 -0.14480771 -0.2659826 0.046121977 -0.01002889 -0.21499637 0.13876711 -0.1959527 0.12877774 -0.022023782 0.094848864 0.10214373 -0.18970041 -0.12955433 -0.1301456 0.2232963 -0.071388714 -0.07001945 -0.05757583 -0.054900907 0.2828972 0.18381542 -0.05862195 0.034743473 0.17357768 0.10167526 -0.13566944 0.102987036 -0.052840054 0.0049237097 0.0658991 -0.1603761 -0.021928478 0.09952344 -0.22626378 0.23746341 -0.13749988 -0.01926075 0.23515621 -0.22062175 -0.1585854 0.09984096 0.14459795 0.010996746 -0.043821298 0.2273821 0.20728946 -0.059238125 0.29435623 -0.1766774 -0.105879284 -0.09691824 -0.060998056 -0.016367964 -0.14194997 0.29858625 -0.22736003 -0.052627757 -0.081610404 0.106217206 -0.051937032 -0.21371049 -0.16286841 0.07643455 -0.20919546 0.18284538 -0.016717363 0.417016 -0.03616539 -0.06767412 0.0025398242 0.10501223 -0.038313877 0.009600296 0.22369602 -0.038121093 0.24775183 -0.08180785 0.25303543 -0.07227508 -0.0060863076 -0.055294637 -0.06827659 -0.24132156 -0.20599131 0.090920486 -0.14938997 -0.22483005 -0.09756978 0.2940171 0.044994235 0.21547398 0.037420038 0.26450098 0.23246711 0.5505474 -0.14243677 0.044233296 -0.1907945 0.068662874 -0.1614338 0.42162478 -0.11398282 0.13988853 -0.033787567 0.08882353 -0.13175279 0.009858104 -0.14621514 0.04226632 0.1695951 0.04715301 -0.008852211 0.103677236 -0.1547863 -0.013777003 -0.20137164 0.07651267 0.25119182 -0.2795121 -0.120607115 -0.032770623 0.049550086 -0.16147688 -0.22743753 -0.13896742 0.030796204 0.2808005 -0.2933424 -0.04397435 -0.067886114 0.055955846 0.12831202 0.17290595 0.024620755 -0.0374783 -0.17659453 0.14471012 0.23586197 -0.028347764 0.14662707 0.12610763 0.026141113 0.13346003 0.16837065 -0.07329472 -0.11279829 0.033164855 -0.37290007 -0.074355945 -0.31286445 0.19902304 0.13081354 0.1805361 -0.31098652 -0.24518698 0.36684957 0.05152645 0.20564018 0.16102491 0.12450515 -0.20383224 -0.07849826 0.11595806 -0.15906915 -0.17322464 0.07673154 0.25086764 0.057556774 -0.287646 -0.018014899 0.0407675 0.117805675 0.08063085 -0.008043618 0.09949513 -0.09880047 0.023262806 0.09283782 0.031606544
设置 -0.23979536 -0.079782754 -0.120541885 -0.06733717 0.0016952524 0.13632019 -0.1151504 -0.09870135 -0.04270666 -0.14156836 0.14258833 -0.11626473 -0.061054546 -0.1167655 -0.06148469 0.028949492 -0.14919387 -0.10556518 0.065959096 0.26295203 0.044033594 -0.023310874 0.045562193 -0.007156254 -0.11546013 0.001984623 0.18536101 -0.026448857 -0.088640854 -0.078962 0.119494855 -0.016015446 0.082028374 0.026035009 -0.07902007 -0.036354493 -0.059297133 0.19444723 0.059628125 0.034223 0.117625244 -0.1376379 -0.14760491 -0.023920752 -0.1763707 0.07042796 0.10806041 0.10859101 0.22743638 0.10792877 0.041619338 -0.2438684 0.07586458 0.12223401 0.05812513 -0.06034607 -0.28969088 0.055514045 0.07166292 0.17475864 -0.07794744 -0.16678599 0.1033978 -0.18881375 -0.028227443 -0.16818245 -0.017450968 -0.056822535 -0.1808484 -0.051027402 -0.29260987 -0.010555499 0.3238081 0.012931877 0.0907709 0.018011797 -0.06739885 -0.016879246 0.046414565 0.12481323 -0.14623246 -0.021153409 -0.2529072 -0.11897004 0.007169188 0.19840202 -0.12089043 -0.22205123 -0.040828124 -0.018415442 0.1533146 -0.08241851 0.04303954 -0.12844445 0.06515369 -0.034965765 0.023504177 0.12365969 0.027433502 0.025558874 -0.0663967 0.014831777 -0.13943282 -0.11314101 0.038510058 0.26028877 0.2793971 0.09470193 0.2564204 0.099452004 0.10207172 0.0806357 -0.19483252 0.12761678 0.17047797 0.009540117 0.20488442 -0.14096509 0.09973477 0.19126993 0.0018847049 -0.11905666 -0.22336003 0.026966067 -0.0031795118 -0.19832478 0.11184436 -0.17922129 0.12438476 -0.00853265 0.11008247 0.062231775 -0.15824519 -0.12155398 -0.14206396 0.21710128 -0.08941669 -0.080092914 -0.06844931 -0.03827071 0.2558546 0.1516485 -0.06748126 0.046829697 0.15450428 0.13126467 -0.13644181 0.09290118 -0.050497677 -0.016397072 0.035883587 -0.14661065 -0.029558685 0.09535443 -0.19277695 0.21192665 -0.11872603 -0.017754083 0.19044675 -0.17563342 -0.16932628 0.084748454 0.10756459 0.030401634 -0.037593227 0.20887938 0.2009379 -0.048196547 0.2687795 -0.15110542 -0.1118418 -0.06425761 -0.06013271 -0.01790247 -0.13551903 0.2552875 -0.21399531 -0.075154774 -0.09269498 0.09831638 -0.050971553 -0.1815219 -0.15116578 0.060269777 -0.22115345 0.20010123 -0.032960348 0.3832726 -0.02491125 -0.07895945 -0.00096130645 0.09575803 -0.048893012 -0.008983641 0.20680094 -0.021230513 0.23336016 -0.0606882 0.23730902 -0.083840944 0.007834093 -0.030287685 -0.07190996 -0.22780582 -0.18357718 0.08952671 -0.12248973 -0.22748746 -0.07451353 0.26683843 0.033661906 0.17396761 0.06308883 0.23158823 0.20773488 0.51326126 -0.12999463 0.018886803 -0.17799014 0.05156283 -0.1467336 0.40209985 -0.10569963 0.12485601 -0.0073741353 0.09492123 -0.10421531 0.008135982 -0.12335401 0.04200095 0.14311323 0.038236886 -0.007792979 0.10515093 -0.116063625 0.016154526 -0.20742036 0.08214833 0.19425742 -0.2636319 -0.1281922 -0.022639135 0.028886197 -0.15136828 -0.20532885 -0.11548101 0.011442747 0.27409804 -0.25816354 -0.04132941 -0.05051203 0.03554935 0.1433179 0.15565866 0.028664285 -0.010230058 -0.144081 0.13595648 0.23003656 -0.023866316 0.15545726 0.12258489 0.0283949 0.14103018 0.13223602 -0.049853247 -0.08712486 0.059359826 -0.3484659 -0.06309886 -0.28025952 0.16850673 0.12652126 0.16895874 -0.26780182 -0.21205734 0.34235784 0.041414596 0.19636746 0.15785864 0.104332134 -0.162616 -0.0825789 0.1057382 -0.15160155 -0.14993304 0.07777716 0.25341523 0.05543989 -0.2731829 0.00282966 0.021550303 0.10618207 0.049622852 0.0054012653 0.104882546 -0.07717925 0.03324988 0.09315623 0.030362867
时间 -0.2689271 -0.06757397 -0.09256779 -0.070923306 0.017087057 0.10705764 -0.11726879 -0.10961324 -0.01688386 -0.16014934 0.13145341 -0.10320137 -0.047539234 -0.09796837 -0.09273918 0.014843456 -0.16318007 -0.12681332 0.055691842 0.28023288 0.0068005165 0.020013528 0.009935979 -0.033681843 -0.09556138 -0.014204811 0.17477483 -0.027019812 -0.11658639 -0.045459542 0.12158393 -0.018139515 0.051387254 0.0532202 -0.096643135 -0.02478964 -0.0906873 0.2292649 0.081585936 0.008751853 0.11488419 -0.10529339 -0.16252959 -0.07876357 -0.16307092 0.05057499 0.0793435 0.13852562 0.25357175 0.094306745 0.051397715 -0.28555074 0.085887425 0.107504934 0.055506885 -0.07648263 -0.31260234 0.04193863 0.05262076 0.17318061 -0.10769372 -0.16055602 0.12887308 -0.18187863 -0.03509835 -0.19776042 -0.00046640082 -0.065203406 -0.18972836 -0.054330155 -0.30686745 -0.026124705 0.3627565 -0.0012259525 0.0869268 0.0016053336 -0.040933542 -0.037169706 0.030802172 0.09993513 -0.14088257 0.008497659 -0.21830142 -0.09306235 -0.023211045 0.19279122 -0.086899355 -0.20096315 -0.048897646 -0.021207549 0.095392995 -0.085998096 0.0788571 -0.109139234 0.06232239 -0.019271974 0.010514864 0.11270144 0.02727525 0.025298214 -0.10602823 0.036419682 -0.14165457 -0.11347283 0.03484451 0.2931043 0.32098678 0.10327143 0.27247936 0.093361765 0.095293686 0.09172563 -0.21058412 0.13702218 0.16665553 -0.045354743 0.20353794 -0.1424759 0.08124774 0.20265923 -0.024463095 -0.12491772 -0.24688402 0.06122701 -0.010510557 -0.26825663 0.09558726 -0.18368559 0.14691727 -0.040918257 0.08668852 0.07696952 -0.21300884 -0.12436345 -0.11132694 0.20628674 -0.06719981 -0.039623167 -0.054704838 -0.061236862 0.2526857 0.1521274 -0.017314369 0.016772168 0.18816218 0.118185826 -0.17255545 0.11649697 -0.03931853 0.01724327 0.046683628 -0.09883605 -0.044357657 0.1190402 -0.20046759 0.24601746 -0.11429852 0.0027596168 0.26129684 -0.18209551 -0.1337227 0.08020947 0.14312683 0.02004359 -0.050107405 0.22032331 0.20098215 -0.038266495 0.29934636 -0.14203972 -0.0896429 -0.085533805 -0.03404262 -0.0171516 -0.15677787 0.29160875 -0.23036347 -0.04973936 -0.12424244 0.11398981 -0.09569335 -0.19955765 -0.15454386 0.055429775 -0.2149121 0.19751643 -0.05024011 0.42187205 -0.02481284 -0.038707588 -0.014787073 0.13911329 -0.06978108 -0.010840482 0.24298787 -0.031983044 0.23169512 -0.07094238 0.21701781 -0.091490865 0.017861735 -0.03406688 -0.05545718 -0.24023497 -0.20001075 0.09051393 -0.109943144 -0.18652904 -0.058908973 0.3180745 0.034748986 0.1742211 0.036884785 0.25156364 0.20821048 0.51569146 -0.123982094 0.03429325 -0.1722487 0.101274684 -0.14840165 0.42839918 -0.12994325 0.11496601 -0.016419802 0.101551905 -0.14530143 0.048140258 -0.14258969 0.03233031 0.16042803 0.051266316 -0.02157077 0.080763824 -0.1472048 -0.02173422 -0.20924999 0.0785896 0.22004278 -0.25927764 -0.11942517 -0.02842525 0.048415374 -0.1751501 -0.2039835 -0.15554066 0.016378362 0.20147155 -0.2760259 -0.049377833 -0.041757315 0.0508367 0.11033346 0.13592437 -0.011293882 0.010756464 -0.18908732 0.133733 0.22894087 -0.064909816 0.15084349 0.123927176 0.067818865 0.17457618 0.17526934 -0.072137 -0.09492231 0.066061154 -0.37710425 -0.10787178 -0.30463508 0.15477055 0.106742814 0.15972938 -0.3006349 -0.23662345 0.35344985 0.048221443 0.22532445 0.17807937 0.14841634 -0.16524038 -0.111599386 0.093877845 -0.13252388 -0.18940012 0.065126956 0.29327744 0.05824875 -0.27690417 -0.023934694 0.04736713 0.11087178 0.11706609 -0.010075067 0.05909084 -0.09254814 0.0114857815 0.10644297 0.025300978
显示 -0.2613976 -0.08307825 -0.09905707 -0.05977633 0.004892697 0.1327919 -0.11260759 -0.102496274 -0.041358195 -0.15130273 0.14121988 -0.104848415 -0.042814594 -0.111513 -0.08725204 0.015114881 -0.16779713 -0.11619535 0.06307333 0.2690414 0.02442612 -0.0038728642 0.02279694 -0.032854933 -0.11133727 -0.015249949 0.19451602 -0.037441682 -0.10610556 -0.058569726 0.115462385 -0.024773119 0.06606669 0.054892074 -0.09349263 -0.024899665 -0.08865818 0.22273934 0.0773362 0.022205116 0.124513455 -0.12279674 -0.16067715 -0.05228546 -0.18651481 0.06028073 0.101002485 0.13245945 0.24780516 0.105614275 0.05284852 -0.28347114 0.08526372 0.1208264 0.059880503 -0.075763 -0.320399 0.0505519 0.053350154 0.169081 -0.09699793 -0.16660926 0.11683935 -0.20148003 -0.030137103 -0.19006751 -0.0017630516 -0.06927815 -0.18544139 -0.06864727 -0.3124568 -0.025952315 0.357434 0.00799198 0.089181274 0.009934051 -0.053424258 -0.028611928 0.035036243 0.118738316 -0.14171985 -0.010134436 -0.23747241 -0.10466053 -0.015183805 0.19406213 -0.10815391 -0.21576077 -0.04628675 -0.016932473 0.123930015 -0.0685909 0.056088354 -0.120392494 0.050861046 -0.021633375 0.012287761 0.11054178 0.028344527 0.018514337 -0.08283554 0.02737879 -0.14454918 -0.11932056 0.040621936 0.28739163 0.31515965 0.10123051 0.26552024 0.093231075 0.091948405 0.09119564 -0.2092813 0.13510823 0.17500119 -0.026155958 0.1973039 -0.13505058 0.09897707 0.20694707 -0.014621846 -0.13475074 -0.24952723 0.05332217 -0.015193129 -0.2412161 0.11554899 -0.18753327 0.15288305 -0.018624583 0.08755476 0.08391294 -0.19565937 -0.1218164 -0.12638699 0.21067753 -0.07078003 -0.060086843 -0.049343787 -0.050645433 0.26456013 0.16000502 -0.02850412 0.022239817 0.17619951 0.10986888 -0.15821487 0.106271856 -0.047915235 0.014413577 0.056951977 -0.11796691 -0.029118767 0.10380457 -0.2022008 0.22762588 -0.122161366 -0.0074092527 0.23552114 -0.19857469 -0.14567395 0.08466621 0.13870989 0.019487338 -0.045777705 0.22029026 0.20136903 -0.039796863 0.2973852 -0.15674615 -0.10826382 -0.08558425 -0.061245713 -0.01692483 -0.15620308 0.2862912 -0.22637291 -0.054886803 -0.09847328 0.1103088 -0.07544618 -0.20441267 -0.14946759 0.06388384 -0.21054852 0.19813047 -0.034840826 0.41304958 -0.036879912 -0.056522932 -0.011322402 0.11572065 -0.059112746 -0.0014486612 0.23673297 -0.032812655 0.24755728 -0.073498555 0.23096861 -0.08711877 0.009239635 -0.045283154 -0.060267646 -0.23979038 -0.19664772 0.089785874 -0.11598911 -0.2073165 -0.07424988 0.30613494 0.04231449 0.1847521 0.03735941 0.25504145 0.21723026 0.5326426 -0.12592423 0.040685985 -0.18262129 0.08088348 -0.15740067 0.41863167 -0.12840648 0.11945936 -0.022225175 0.10144914 -0.13569626 0.038165852 -0.14023657 0.036070824 0.1570475 0.05081283 -0.009810153 0.081746966 -0.1465659 -0.021278124 -0.2138243 0.08148077 0.21390511 -0.26648688 -0.1220244 -0.028907008 0.039662953 -0.16671376 -0.20842208 -0.1475069 0.0098891705 0.23693517 -0.27480522 -0.044535276 -0.055077393 0.045442984 0.12000983 0.14853658 0.0074925236 -0.0079466505 -0.17473257 0.12964869 0.23024142 -0.049889665 0.15379868 0.12357087 0.04923774 0.15029158 0.16679932 -0.062294155 -0.1029752 0.06610485 -0.36875254 -0.082494386 -0.29835972 0.17427127 0.11752644 0.16582389 -0.2969114 -0.23194966 0.35421684 0.053021967 0.21802329 0.17206356 0.13224204 -0.17523307 -0.09626358 0.10445008 -0.1409219 -0.17290673 0.066748306 0.2712616 0.060824364 -0.29002836 -0.0232618 0.04162134 0.11386887 0.09571649 0.0003272931 0.07196024 -0.08381712 0.016528264 0.09996292 0.032560088
功能 -0.25666535 -0.09550616 -0.11386089 -0.07210334 -0.0031659238 0.15876645 -0.120399736 -0.105645664 -0.049228035 -0.14511693 0.15705134 -0.1115945 -0.04822786 -0.12824313 -0.07952455 0.021468958 -0.1785259 -0.110576406 0.0782962 0.28122473 0.03670156 -0.01516739 0.03505771 -0.031904068 -0.1346626 -0.0033926514 0.20768237 -0.0371052 -0.10365096 -0.06982766 0.122261345 -0.022527117 0.0825453 0.04216735 -0.09461694 -0.032392733 -0.08827467 0.22518803 0.0741715 0.023067774 0.13406134 -0.15042579 -0.16191427 -0.02792326 -0.21728218 0.07520989 0.12073107 0.13048494 0.24589938 0.11013077 0.057952072 -0.28519985 0.09271002 0.13953607 0.06467348 -0.071426295 -0.32938987 0.059064757 0.0650565 0.18435274 -0.09630209 -0.1674978 0.117251985 -0.21679707 -0.030676978 -0.1921454 -0.0073464457 -0.068500124 -0.18360719 -0.07736586 -0.32127014 -0.020579286 0.36143893 0.014235746 0.0963302 0.007477102 -0.056474272 -0.03125353 0.04322509 0.1285203 -0.15398152 -0.018442625 -0.25560474 -0.12335752 -0.013663211 0.20591378 -0.12916593 -0.23654704 -0.042549256 -0.015461717 0.13827854 -0.07281306 0.044540208 -0.13426326 0.058957014 -0.02389068 0.013508732 0.12801494 0.02696957 0.01280345 -0.088297375 0.018485658 -0.1527281 -0.12290102 0.03887285 0.29248703 0.32386813 0.11461692 0.27688593 0.10091344 0.09158889 0.094356775 -0.2064058 0.1523953 0.18398884 -0.009994666 0.21244507 -0.145993 0.11144121 0.21948187 -0.002650383 -0.15068616 -0.26094273 0.06102021 -0.009579188 -0.2236674 0.12967992 -0.20161082 0.14731844 -0.016087627 0.10551946 0.083898164 -0.18245953 -0.13212505 -0.15487425 0.22238176 -0.09222788 -0.07087523 -0.052858207 -0.04328669 0.27671552 0.17970681 -0.056444127 0.03982581 0.18249908 0.109021984 -0.14760919 0.10683004 -0.05284512 0.009092763 0.0542334 -0.14153232 -0.026808208 0.107876234 -0.21039659 0.23018983 -0.14113715 -0.015987646 0.22814782 -0.20323743 -0.167479 0.082720116 0.15225436 0.015884684 -0.047214106 0.22622539 0.21100153 -0.049624622 0.29737362 -0.17192884 -0.123446785 -0.08708304 -0.07322142 -0.028878376 -0.15432511 0.29618686 -0.23306867 -0.06269246 -0.09216328 0.10339214 -0.059564184 -0.21275438 -0.16156511 0.067416206 -0.22412702 0.19682148 -0.03035695 0.43451232 -0.044042177 -0.078702 -0.0040273117 0.10600386 -0.051004212 0.0011592351 0.2360134 -0.031071298 0.25974658 -0.082322 0.24820259 -0.086025104 0.0073764455 -0.045347024 -0.071270175 -0.25087184 -0.2153591 0.09017649 -0.13654937 -0.24146198 -0.082468785 0.3023348 0.040855527 0.19144586 0.0499537 0.2616583 0.22691235 0.5649091 -0.13728583 0.034354772 -0.19385786 0.069367506 -0.16349691 0.42933497 -0.124570794 0.12809801 -0.024232108 0.11021503 -0.13500938 0.029719317 -0.13484575 0.04290539 0.16171095 0.04986279 -0.00032653965 0.10980833 -0.14516033 -0.0152175035 -0.2241729 0.0870804 0.22792393 -0.2901941 -0.15031241 -0.027430413 0.042721815 -0.17184426 -0.21577157 -0.13610391 0.012581545 0.28398812 -0.2869631 -0.049740873 -0.061221153 0.046764806 0.13699582 0.18135786 0.012332806 -0.014307928 -0.1673489 0.14263192 0.24870999 -0.034985516 0.15785198 0.1342229 0.029111912 0.14519581 0.16866454 -0.06537198 -0.11064863 0.060630668 -0.37201786 -0.08328244 -0.30797404 0.19279571 0.12041921 0.1855888 -0.30921838 -0.24770017 0.37544253 0.045803294 0.21797319 0.17106853 0.13335331 -0.18982975 -0.09339897 0.113114275 -0.16142601 -0.16574979 0.07955708 0.270468 0.055655956 -0.30616623 -0.018891186 0.028404878 0.1185042 0.08245519 -0.0038683445 0.08615925 -0.08628814 0.036245372 0.096806444 0.030342301
用户 -0.26495793 -0.08610333 -0.120880514 -0.06298163 -0.005894162 0.15192713 -0.12078872 -0.10687763 -0.041897677 -0.14964795 0.15885411 -0.11630248 -0.057631757 -0.12876181 -0.07629968 0.023952037 -0.16851804 -0.11806264 0.089829236 0.29123873 0.027602023 -0.020035597 0.03625456 -0.030581074 -0.14166285 -0.004736658 0.20561263 -0.031602886 -0.107049055 -0.07748759 0.1356247 -0.03145407 0.08063038 0.03919333 -0.10169928 -0.031703513 -0.09179511 0.22454669 0.07296507 0.020332042 0.14514658 -0.15032041 -0.15109245 -0.024112945 -0.21843183 0.082506195 0.11376013 0.13179126 0.24171653 0.10682634 0.060025558 -0.2935077 0.08725672 0.13859838 0.069685236 -0.08010239 -0.3332513 0.055630602 0.06679142 0.18916903 -0.08849558 -0.16641843 0.120379336 -0.21573173 -0.038745634 -0.20196672 -0.009818315 -0.059920345 -0.19120537 -0.070866466 -0.3264494 -0.019563334 0.36848253 0.02049813 0.094764724 0.010919881 -0.058155574 -0.028565954 0.046224058 0.13295789 -0.14787863 -0.013841387 -0.26552042 -0.13576774 -0.00017286476 0.2201503 -0.13588949 -0.24813995 -0.05683435 -0.013021711 0.146398 -0.083418846 0.04694094 -0.14642778 0.06855934 -0.017845001 0.016909193 0.14137837 0.029650409 0.015655994 -0.08954688 0.015376126 -0.16384196 -0.13569424 0.03544407 0.299638 0.3321874 0.10979897 0.2841631 0.10862843 0.106462434 0.084366076 -0.2133701 0.15197292 0.18641067 -0.0072332006 0.2159961 -0.1599632 0.1103995 0.21852358 -0.0022782213 -0.14876784 -0.266581 0.057321906 -0.002019863 -0.2242429 0.12788433 -0.20165004 0.14678548 -0.0107549615 0.11431925 0.08107681 -0.18871008 -0.13784389 -0.15075327 0.23214683 -0.10084636 -0.0697992 -0.05699577 -0.04490671 0.27099282 0.17071573 -0.058480512 0.041304283 0.1865737 0.11470296 -0.14973544 0.11503211 -0.049505025 0.001662783 0.049852666 -0.14397645 -0.023557654 0.106571496 -0.21191642 0.2335975 -0.13328397 -0.01727301 0.23717757 -0.2112632 -0.18060797 0.09807957 0.14531967 0.024259679 -0.044360846 0.2270333 0.22740734 -0.056750264 0.29443115 -0.17591582 -0.11790406 -0.08871044 -0.06851487 -0.0335001 -0.14604586 0.3024324 -0.23760407 -0.07895164 -0.09882322 0.10193172 -0.05843962 -0.2170485 -0.17203881 0.06546416 -0.23623697 0.20821 -0.02124683 0.44092387 -0.03997624 -0.082555465 0.0037690492 0.107287064 -0.054221038 -0.0015018906 0.23888911 -0.03370203 0.26946354 -0.07745644 0.25743818 -0.09734504 0.013859218 -0.03851499 -0.07438348 -0.2700019 -0.21952808 0.09576231 -0.14465484 -0.24056843 -0.080014944 0.30183646 0.044844728 0.18694045 0.055822305 0.2656331 0.22949785 0.5726405 -0.13404536 0.039680377 -0.19132413 0.06861158 -0.16340427 0.4458629 -0.13126233 0.12474359 -0.01794511 0.10738517 -0.14134507 0.03321899 -0.13005374 0.043656394 0.15984042 0.04702007 -0.0014209204 0.11747399 -0.1397195 -0.0047419798 -0.21913691 0.08963119 0.22250606 -0.29469895 -0.14932291 -0.03910159 0.04533333 -0.16505405 -0.2149938 -0.13779087 0.015143789 0.28984192 -0.28676668 -0.045144826 -0.056995492 0.055142738 0.13896784 0.1775365 0.023421356 -0.014015949 -0.16122442 0.14343208 0.25451532 -0.034660526 0.17203838 0.14702646 0.037771247 0.15600942 0.16232872 -0.06534179 -0.11074786 0.06227897 -0.3836702 -0.08177862 -0.3186749 0.19068341 0.12650391 0.1921154 -0.3100281 -0.25065157 0.3773876 0.05631574 0.23120247 0.17462687 0.12361752 -0.19455953 -0.107490666 0.11780978 -0.16340658 -0.16792668 0.08428577 0.275312 0.059565127 -0.30216795 -0.017168796 0.033086702 0.1195171 0.083083354 -0.013551175 0.104406126 -0.08836828 0.033127952 0.100441575 0.025389746
安装 -0.25833443 -0.079725794 -0.10519485 -0.06817966 -0.004108591 0.14263456 -0.10710283 -0.09298945 -0.03817577 -0.14141122 0.15427387 -0.09814839 -0.04373478 -0.12164094 -0.08247487 0.019735267 -0.1736103 -0.11864178 0.07734008 0.2754174 0.028270146 -0.005119312 0.02456015 -0.041263606 -0.13333635 -0.0026217091 0.19269368 -0.04021672 -0.110250264 -0.07276245 0.122371174 -0.02751736 0.06103523 0.05192767 -0.08834942 -0.020833872 -0.095253564 0.22625266 0.08000656 0.005185943 0.13621998 -0.140539 -0.1522861 -0.039218023 -0.22219777 0.07648108 0.1060657 0.13041171 0.2319122 0.09497646 0.06146747 -0.28889626 0.09471389 0.1287183 0.06285112 -0.07216157 -0.3186984 0.0566611 0.055022143 0.18038164 -0.09289745 -0.15323272 0.12755747 -0.2053585 -0.029095767 -0.19734661 -0.0069168885 -0.058402643 -0.17834067 -0.06937228 -0.31927094 -0.024105787 0.3574752 0.017330391 0.09743587 0.0028339406 -0.050749183 -0.034226768 0.03871038 0.11552789 -0.14682743 -0.0037421212 -0.23647709 -0.107357726 -0.010173026 0.20751482 -0.1226181 -0.23224038 -0.040690254 -0.015927628 0.1159309 -0.06804302 0.049474224 -0.13558787 0.063613124 -0.01641521 0.015228119 0.12876901 0.0190588 0.004886108 -0.09427909 0.014838422 -0.15440105 -0.13131018 0.033640247 0.29679063 0.32737258 0.10671719 0.27832487 0.09804094 0.07890023 0.08386361 -0.20631212 0.15609217 0.17257667 -0.022140771 0.19516361 -0.14522685 0.10623179 0.21141082 -0.009605792 -0.15056649 -0.26210374 0.07356055 -0.0078026447 -0.22229993 0.1107793 -0.18327212 0.15662505 -0.017055038 0.09906186 0.08539085 -0.1887069 -0.14205354 -0.14343493 0.22521934 -0.08944466 -0.05347882 -0.039289735 -0.053475358 0.2617347 0.16746698 -0.038989708 0.033282302 0.19015917 0.09498682 -0.13913216 0.10976878 -0.046124198 0.024123931 0.05957224 -0.12645048 -0.026811084 0.10631568 -0.20648699 0.22411305 -0.12792179 -0.014646914 0.23508762 -0.20882484 -0.16100508 0.087464646 0.1528439 0.0073131677 -0.048757296 0.21671562 0.21221934 -0.056144375 0.28783634 -0.15854906 -0.10240699 -0.09298308 -0.06110354 -0.027235063 -0.13514218 0.2950335 -0.22898956 -0.0646726 -0.096076734 0.101187006 -0.06445218 -0.21971262 -0.1555126 0.06255935 -0.20739567 0.20004046 -0.028290728 0.41906187 -0.042738453 -0.06857894 0.0021003555 0.115061186 -0.054481 0.011767363 0.24052759 -0.025936592 0.25010818 -0.084128626 0.2383828 -0.08606153 0.015239116 -0.041285705 -0.074816875 -0.24476881 -0.21601747 0.08376887 -0.13155629 -0.21665221 -0.07191405 0.30217862 0.046514433 0.17913523 0.047665026 0.24944809 0.22432847 0.5400209 -0.12724738 0.041083027 -0.1855286 0.08463632 -0.16193227 0.42661968 -0.12514926 0.11405772 -0.02039786 0.10566885 -0.14093259 0.050165303 -0.13001247 0.035952765 0.15105924 0.05535342 0.008995872 0.105812944 -0.14666279 -0.020402445 -0.21277505 0.092027895 0.22624172 -0.2759471 -0.14319728 -0.033071633 0.05534674 -0.16121383 -0.19963934 -0.12723014 0.011277131 0.2561913 -0.27193573 -0.035228744 -0.055101357 0.057769284 0.11375143 0.16915359 0.0064565525 -0.011641839 -0.16501053 0.12828907 0.24201265 -0.0404638 0.14297253 0.13758628 0.0433547 0.15060121 0.16476344 -0.060645234 -0.10318917 0.065349266 -0.36272407 -0.08721731 -0.30892935 0.17470032 0.10709407 0.18458046 -0.31553444 -0.23812439 0.36066717 0.04322287 0.22223717 0.1675761 0.13475862 -0.1934627 -0.108966485 0.10274146 -0.15969813 -0.17219557 0.0743347 0.26666364 0.058046006 -0.2912743 -0.031470634 0.039437454 0.11512413 0.104971506 -0.010921315 0.082508326 -0.082367904 0.027057016 0.09415066 0.02567572
中 -0.2764887 -0.097620614 -0.11674106 -0.07435266 -0.004439753 0.17049497 -0.13108285 -0.10884852 -0.046787586 -0.1602803 0.16065103 -0.10313198 -0.045043238 -0.14130758 -0.095886335 0.010298547 -0.18654187 -0.117381655 0.088791996 0.29410094 0.042313114 -0.01492804 0.035687815 -0.03608177 -0.15356436 0.006477239 0.21566963 -0.034684148 -0.10180606 -0.07404249 0.11494154 -0.03280866 0.08839792 0.039881494 -0.09456266 -0.026730066 -0.09352139 0.23384511 0.06510709 0.020036241 0.15273818 -0.1538705 -0.17573337 -0.021113021 -0.24673119 0.0867961 0.12833337 0.13961619 0.259254 0.11134608 0.07015655 -0.3067692 0.09376064 0.1424326 0.060811114 -0.08650176 -0.34552515 0.05931807 0.05419205 0.19881245 -0.10774002 -0.17136015 0.12902126 -0.23653068 -0.028010905 -0.19936836 -0.00764096 -0.067064345 -0.19399363 -0.100357585 -0.33975348 -0.019858912 0.37441766 0.0041238973 0.10919162 0.00901127 -0.05720618 -0.034233723 0.044415884 0.14126311 -0.16678984 -0.022989845 -0.27775723 -0.14019492 -0.009681563 0.2127683 -0.12790515 -0.24443024 -0.051509812 -0.009995358 0.132031 -0.07087975 0.036998954 -0.14581843 0.0626267 -0.019120501 0.0041483566 0.13344757 0.034402203 0.012269694 -0.08015543 0.007886041 -0.15857558 -0.12964946 0.04214441 0.30935922 0.33122584 0.108900964 0.2936957 0.09230814 0.09773731 0.086741984 -0.21945259 0.15116654 0.19198512 -0.016004628 0.21460101 -0.15432173 0.122881964 0.23793449 -0.0010083866 -0.16609791 -0.28027523 0.070939176 -0.018602585 -0.23806433 0.14243586 -0.20886038 0.16542745 -0.009838638 0.1114667 0.08337428 -0.19590394 -0.13152814 -0.17057168 0.22696373 -0.09491987 -0.07232454 -0.060019832 -0.048261568 0.28315243 0.19514236 -0.054823995 0.043467097 0.19576403 0.12547126 -0.15879148 0.11648117 -0.053972922 0.015150489 0.05528128 -0.14086658 -0.028434644 0.11423278 -0.21203871 0.24147137 -0.14695671 -0.012220989 0.2416248 -0.2096631 -0.18180816 0.07698282 0.16484828 0.018437536 -0.051892877 0.23875733 0.21794501 -0.047898024 0.31589383 -0.17970559 -0.13807856 -0.09269289 -0.08839727 -0.04142547 -0.16767569 0.301142 -0.24060658 -0.065584205 -0.09326085 0.105440855 -0.07256453 -0.23545279 -0.17455006 0.06551566 -0.23048311 0.20979692 -0.039811913 0.45739588 -0.04652377 -0.09531549 -0.008050251 0.11167279 -0.06494759 -0.004229698 0.25179675 -0.03471825 0.2837619 -0.08290958 0.23947571 -0.087229475 0.005676779 -0.050910745 -0.07142965 -0.26784322 -0.22652723 0.08864197 -0.13500747 -0.26097533 -0.08172839 0.32243988 0.034265302 0.1840483 0.046031043 0.27490887 0.2378608 0.5896321 -0.13358128 0.031440157 -0.20745759 0.07547563 -0.17021693 0.44493082 -0.12420447 0.13606772 -0.019957092 0.12551542 -0.14650309 0.042441055 -0.13757513 0.03985124 0.16855952 0.056338504 0.0015401155 0.114366464 -0.1467146 -0.022595247 -0.24881957 0.09600334 0.23080222 -0.30290467 -0.17293729 -0.02233493 0.029098283 -0.17957683 -0.21278793 -0.15432143 0.010975043 0.29502958 -0.30127674 -0.050823107 -0.074599415 0.03969018 0.14820594 0.18923563 0.0029652899 -0.011785048 -0.16774331 0.14448912 0.26345974 -0.04765533 0.16406105 0.13777658 0.04012822 0.14179139 0.17367312 -0.057684746 -0.12490928 0.07875107 -0.3828467 -0.092625484 -0.31283858 0.19860987 0.12526509 0.18925637 -0.32324895 -0.25789356 0.39744177 0.05736318 0.22283037 0.18053569 0.14326921 -0.19097091 -0.09447678 0.121538535 -0.16820371 -0.16406903 0.07664446 0.29332557 0.05284271 -0.32876363 -0.027442358 0.033004366 0.11033466 0.091617815 -0.0071259616 0.082253955 -0.07419359 0.04534519 0.09508985 0.031435307
输入 -0.27307662 -0.098637715 -0.119319305 -0.059057742 -0.013563527 0.1593287 -0.11472151 -0.10163616 -0.037780926 -0.14669797 0.15769474 -0.10077067 -0.04547017 -0.13650633 -0.07905485 0.018857539 -0.16673866 -0.11127293 0.09824637 0.29000032 0.017078387 -0.032562498 0.036351964 -0.03861325 -0.17212401 0.0063037463 0.21988101 -0.02330752 -0.10385321 -0.066903114 0.14739881 -0.040173493 0.099890724 0.026720112 -0.094945416 -0.025675949 -0.102888666 0.20720002 0.061516628 0.016774483 0.19121268 -0.16465285 -0.12764265 -0.007414854 -0.25065902 0.10542685 0.10024169 0.14239627 0.22905505 0.10284357 0.09083459 -0.28816128 0.081555314 0.15806247 0.07965529 -0.10545009 -0.33907136 0.048001308 0.031014869 0.19294122 -0.082362734 -0.16289355 0.11170578 -0.23382048 -0.038447276 -0.18412486 0.0060246624 -0.049822185 -0.17714162 -0.09930227 -0.32177615 -0.020341853 0.37426826 0.011242402 0.104715295 0.010767057 -0.078238286 -0.007986928 0.0484315 0.14561424 -0.14462695 -0.0149361845 -0.28951925 -0.1690643 0.008116656 0.22879596 -0.15598457 -0.26852086 -0.08996205 0.006312245 0.1493172 -0.08132725 0.023524472 -0.15628329 0.075990506 0.00090936717 -0.0002864534 0.1480531 0.044050947 0.01050103 -0.09252737 0.0026721067 -0.1733032 -0.15468995 0.044816215 0.29621845 0.3268069 0.08479421 0.27854422 0.10654229 0.1251959 0.07217806 -0.19268692 0.13908647 0.18838984 0.0020722775 0.20125154 -0.17449999 0.12730853 0.23902065 0.009463376 -0.17648393 -0.27104247 0.07961857 0.0023207834 -0.22434656 0.13451143 -0.21187095 0.14724408 0.013774076 0.11440172 0.07951984 -0.17760098 -0.13464823 -0.17637677 0.23339805 -0.12093283 -0.069019824 -0.04950379 -0.03221946 0.24667758 0.17033969 -0.087762974 0.051973067 0.19988045 0.1115625 -0.1497924 0.11273385 -0.05771476 0.0072218375 0.051863547 -0.14140795 -0.024782024 0.08710029 -0.21210787 0.21034876 -0.140558 -0.012184256 0.2461572 -0.21084043 -0.19444837 0.08907185 0.1532478 0.020954128 -0.054976802 0.20639509 0.23522289 -0.05718337 0.2840675 -0.17746688 -0.13291433 -0.09589893 -0.07979765 -0.05235548 -0.16309887 0.30360186 -0.23415817 -0.08304137 -0.096934214 0.07661285 -0.06284748 -0.22392529 -0.17306119 0.08555983 -0.24273212 0.20163816 0.014901451 0.45588428 -0.058501475 -0.09479311 0.012039448 0.09004368 -0.06424324 -0.00033388173 0.23826946 -0.030065974 0.3018968 -0.07579857 0.24087507 -0.0971248 0.02149243 -0.04983911 -0.050585695 -0.29234907 -0.22666527 0.08188319 -0.14902762 -0.26595 -0.08229466 0.2991741 0.03391643 0.17678572 0.045670196 0.27760378 0.240356 0.5833921 -0.12808228 0.046967376 -0.18500286 0.0722024 -0.16621415 0.44364637 -0.13296174 0.11850094 -0.011211719 0.10368452 -0.14124611 0.034578543 -0.097924426 0.044039447 0.15593441 0.05328753 0.0067521245 0.14067651 -0.12855315 -0.008042854 -0.22683746 0.09801017 0.20569351 -0.31867114 -0.16865356 -0.035897613 0.022462478 -0.16113807 -0.19930659 -0.13889192 0.0003988514 0.30097237 -0.28570384 -0.043969944 -0.05265517 0.03964157 0.14222632 0.19435668 0.025755992 -0.017116917 -0.15814736 0.14327124 0.24506244 -0.046230633 0.18292844 0.15993685 0.047866788 0.15495825 0.14562972 -0.06488788 -0.14957906 0.07716908 -0.3733361 -0.07538463 -0.31555077 0.1926945 0.12661286 0.1922123 -0.32171157 -0.2743912 0.39862612 0.055346247 0.22720355 0.16581914 0.107634 -0.21276984 -0.09557717 0.12629268 -0.18040971 -0.14204074 0.092083775 0.25889438 0.059318807 -0.30927378 -0.008990781 0.02462471 0.10624778 0.08284844 -0.028745884 0.09119331 -0.08350933 0.04076388 0.098214276 0.010994658
按钮 -0.2874704 -0.10113602 -0.13574854 -0.07790161 -0.00013668445 0.17210868 -0.13740298 -0.11877909 -0.053526495 -0.16157897 0.1787714 -0.12820525 -0.06257906 -0.14253688 -0.0857044 0.024536226 -0.18803933 -0.12087351 0.08499932 0.30777773 0.044567253 -0.020689616 0.04439314 -0.029551234 -0.14383341 -0.008179899 0.22688521 -0.042508956 -0.110991955 -0.08798263 0.13488957 -0.035478123 0.0952683 0.04214258 -0.10032026 -0.037997928 -0.082271725 0.2434384 0.07888041 0.03314221 0.14035086 -0.16939612 -0.18035606 -0.028366845 -0.23146719 0.07749217 0.13090481 0.1389196 0.27512068 0.123772375 0.06410328 -0.31164974 0.09747698 0.1510656 0.065994754 -0.080082655 -0.3640866 0.065117806 0.07362926 0.2041462 -0.10135038 -0.19115482 0.12366293 -0.23855974 -0.033038042 -0.21204084 -0.0123488065 -0.0748685 -0.20810705 -0.07646332 -0.35583767 -0.020587856 0.39907345 0.017611383 0.10097348 0.012119501 -0.07077629 -0.03034133 0.05167385 0.14366834 -0.17593248 -0.024885122 -0.29118782 -0.13748494 -0.010075419 0.22973458 -0.14800239 -0.26932445 -0.044046156 -0.020714054 0.16228455 -0.084185906 0.051116742 -0.1482801 0.06897742 -0.031315356 0.01760595 0.14378445 0.035196543 0.019365732 -0.090990834 0.02596718 -0.16616009 -0.1360766 0.047196858 0.31780213 0.35436478 0.12147745 0.30845544 0.116892755 0.10950958 0.10339366 -0.22566715 0.16189805 0.20638707 -0.005036655 0.23749703 -0.16830775 0.12126322 0.24059153 -0.004028518 -0.1586259 -0.27688462 0.05476195 -0.011522089 -0.23537369 0.14413 -0.21876289 0.15603995 -0.0134087205 0.12195098 0.085587054 -0.20332389 -0.14073585 -0.16821842 0.25205892 -0.099342905 -0.08307202 -0.064363435 -0.049242336 0.30831292 0.19876072 -0.06710364 0.044830494 0.19871098 0.13564509 -0.16235967 0.11603711 -0.059954662 0.0006024326 0.05674877 -0.15751186 -0.027329586 0.11690071 -0.22905993 0.2511211 -0.15466508 -0.021891702 0.24370311 -0.22535717 -0.19187266 0.096717075 0.15314516 0.023621881 -0.052243162 0.251862 0.23723494 -0.049734842 0.33216724 -0.19232072 -0.13110805 -0.08886963 -0.080040134 -0.032887537 -0.16594318 0.31763878 -0.25733745 -0.07267443 -0.09862677 0.11849978 -0.061161384 -0.23133056 -0.18180792 0.0795493 -0.25367072 0.22374736 -0.03870329 0.4753575 -0.041218955 -0.09112559 -0.0023758614 0.1128565 -0.05141978 -0.0040038927 0.2580104 -0.031401 0.28896874 -0.08636849 0.28092104 -0.09612189 0.0074890805 -0.049879372 -0.08404874 -0.2779318 -0.23383391 0.10275195 -0.14875391 -0.27210394 -0.09642747 0.32582688 0.041362382 0.20986892 0.05605093 0.2890616 0.24772486 0.62249583 -0.14653282 0.03310494 -0.21389315 0.06988611 -0.18300001 0.47399423 -0.12968835 0.14580317 -0.021011155 0.11409252 -0.14199753 0.019620769 -0.14988732 0.0478412 0.17915043 0.04441446 -0.0013166245 0.11759117 -0.15230076 -0.0018758613 -0.24370606 0.09158601 0.24181199 -0.31883505 -0.16151893 -0.024474492 0.03886817 -0.18076704 -0.2441252 -0.14675356 0.019456267 0.3187965 -0.3141215 -0.050031144 -0.07001104 0.04586416 0.15546401 0.19420476 0.022655241 -0.01773097 -0.17590316 0.15901223 0.2794228 -0.03054658 0.18186587 0.14562885 0.03240737 0.16026631 0.18379878 -0.070001826 -0.114778936 0.066778116 -0.41076338 -0.084414 -0.33587104 0.21101479 0.1413457 0.20351774 -0.33162695 -0.26538515 0.4093087 0.062144417 0.23508267 0.19020505 0.13898715 -0.20741703 -0.10002168 0.121243306 -0.17791991 -0.1819686 0.089324296 0.29715523 0.06366699 -0.3316667 -0.018891117 0.03299238 0.13157563 0.08228492 -0.00248369 0.103316896 -0.08981237 0.037349913 0.10239951 0.037298597
窗口 -0.29054078 -0.107340805 -0.13043787 -0.08297038 -0.009717725 0.18222366 -0.13833648 -0.10974707 -0.05793113 -0.16104311 0.18102707 -0.12309714 -0.05602375 -0.14762093 -0.0937826 0.03020574 -0.20377308 -0.1181002 0.09541164 0.31661534 0.03701885 -0.020232296 0.035799254 -0.038071606 -0.16246265 -0.009130931 0.24163516 -0.042648125 -0.11873924 -0.07731687 0.13474312 -0.03568881 0.094423436 0.04825866 -0.10994961 -0.031180086 -0.10379003 0.24433836 0.08550134 0.025525361 0.15271735 -0.17643873 -0.18102916 -0.030459588 -0.25735816 0.08797794 0.13500708 0.15095283 0.27614495 0.12569748 0.07505978 -0.32777584 0.10304678 0.1593751 0.075541876 -0.09247349 -0.37722322 0.06821704 0.06514106 0.21048933 -0.10229947 -0.18978344 0.12862253 -0.2572536 -0.03251275 -0.21951719 -0.007685808 -0.07584135 -0.20860924 -0.09192984 -0.37512213 -0.02212999 0.41667813 0.018964082 0.10697278 0.0028258485 -0.064461954 -0.031993806 0.049060244 0.14465804 -0.17820312 -0.02065454 -0.29332474 -0.1387106 -0.02110436 0.23858166 -0.15403576 -0.27753463 -0.056430046 -0.012843079 0.1518257 -0.085759565 0.048911013 -0.15553677 0.07027011 -0.022756731 0.0073381467 0.14622082 0.03508296 0.012224069 -0.10272015 0.008746404 -0.17461827 -0.1470993 0.04291586 0.33661297 0.3657921 0.12452147 0.317507 0.11539082 0.11241041 0.102459535 -0.23507863 0.16693036 0.2026783 -0.016412726 0.2314817 -0.17567416 0.122499034 0.2530568 -0.000987129 -0.17460838 -0.2963554 0.0750558 -0.007323432 -0.24766503 0.14504762 -0.23078658 0.17319135 -0.0128875775 0.12084775 0.094674625 -0.20229231 -0.15505756 -0.17807285 0.25425586 -0.10965803 -0.08113474 -0.05571142 -0.047010034 0.30731615 0.2052448 -0.062461715 0.046747632 0.2159927 0.11692519 -0.16372727 0.12737456 -0.060037114 0.017244784 0.061442133 -0.15542246 -0.02590944 0.113994546 -0.23122048 0.25146514 -0.159106 -0.016197288 0.2584417 -0.23521674 -0.19476609 0.09401264 0.17218 0.010415094 -0.060357828 0.25762275 0.23881751 -0.059899226 0.33917746 -0.20148827 -0.14496084 -0.10018553 -0.08710338 -0.04013739 -0.17860653 0.34134534 -0.27069348 -0.07630869 -0.10050872 0.112968475 -0.070774645 -0.2525875 -0.18384787 0.08361021 -0.25310534 0.21964085 -0.034118377 0.49643946 -0.06167244 -0.09348117 -0.0030331872 0.11633175 -0.05715235 0.0011223183 0.26996604 -0.03452947 0.30214235 -0.092327505 0.2836329 -0.10322357 0.010778321 -0.052900363 -0.080503665 -0.29203126 -0.24696393 0.10378711 -0.1536297 -0.2786396 -0.08925183 0.34250158 0.048755754 0.20825946 0.057633158 0.29428652 0.25905138 0.64569527 -0.15041061 0.04054931 -0.21733727 0.07985406 -0.19212522 0.48923868 -0.14880426 0.13871959 -0.023423834 0.12413737 -0.15161665 0.032303073 -0.15095812 0.04997976 0.18029879 0.05937111 0.0030858105 0.12195464 -0.16089739 -0.02193078 -0.2531829 0.10051371 0.24519041 -0.33352786 -0.17016883 -0.03390117 0.05036547 -0.18783498 -0.24021083 -0.14650942 0.009458678 0.31646383 -0.32425508 -0.05293176 -0.072729506 0.046503417 0.15045846 0.2106581 0.020480372 -0.020779451 -0.1803219 0.15860796 0.28559566 -0.04187638 0.18683076 0.156004 0.0346632 0.1663399 0.19498022 -0.07491978 -0.13344046 0.072583176 -0.42274258 -0.09180669 -0.34901765 0.21900675 0.13926175 0.21193625 -0.3527604 -0.28051877 0.42848933 0.058559846 0.24822669 0.19376591 0.148253 -0.21084675 -0.11059182 0.119947724 -0.18339777 -0.18825662 0.09454102 0.29734 0.06390251 -0.34942648 -0.028616084 0.030389577 0.13768409 0.10152334 -0.011493055 0.09429687 -0.09574705 0.039352853 0.107660934 0.02979833
字体 -0.26271322 -0.07950295 -0.09712544 -0.0721959 -0.0045646997 0.16421221 -0.12203923 -0.09916034 -0.024058994 -0.16411978 0.1406356 -0.08163922 -0.018201819 -0.14185524 -0.12311923 -0.01804432 -0.16578947 -0.117053725 0.09561146 0.2684528 0.028285945 -0.018236779 0.035456643 -0.056729957 -0.16662116 0.023085553 0.1965229 -0.021921648 -0.080825806 -0.060582794 0.10040169 -0.036480416 0.08460385 0.030220725 -0.08262824 -0.006069399 -0.10930095 0.24193427 0.042096972 -0.0056110974 0.17329837 -0.14602952 -0.15704122 -0.008984073 -0.2721727 0.08574164 0.12961508 0.13766427 0.21377975 0.08015971 0.07772233 -0.29894266 0.08394663 0.13409448 0.048429176 -0.09912386 -0.31797084 0.042955156 0.034534223 0.17481235 -0.11851748 -0.13737357 0.13328104 -0.23314342 -0.027847804 -0.20478109 0.0067167617 -0.0592719 -0.17001565 -0.12515087 -0.31503657 -0.02425582 0.3343603 -0.0037200283 0.10981409 0.012862125 -0.03652289 -0.043957945 0.040556043 0.14086194 -0.14894135 -0.024623051 -0.2623414 -0.14378338 -0.007348568 0.20114304 -0.11668147 -0.22222859 -0.07066789 4.565705e-05 0.10220737 -0.04225135 0.013572819 -0.15223533 0.06764686 -0.0016780386 -0.01718742 0.12176558 0.031054236 0.012891018 -0.059870306 0.0005056318 -0.14969173 -0.13593954 0.027595768 0.29609823 0.30061078 0.090441376 0.2672982 0.06901234 0.08126169 0.07339556 -0.20230842 0.13929929 0.18850666 -0.021776583 0.1849127 -0.14963539 0.11034084 0.23429053 0.005020084 -0.18447986 -0.26968625 0.09112304 -0.02945494 -0.23098452 0.15443626 -0.19360313 0.1667096 0.00051963265 0.10689122 0.070859544 -0.19175167 -0.10725781 -0.17489125 0.19583626 -0.09384058 -0.06595879 -0.045339726 -0.03890638 0.24957198 0.18117674 -0.042272873 0.051789157 0.19847918 0.111029625 -0.14676696 0.11872914 -0.052074645 0.026155258 0.047491096 -0.11237922 -0.02542151 0.11546667 -0.18856134 0.2297769 -0.14084072 -0.016592156 0.24483395 -0.20258194 -0.16880256 0.049660686 0.17811637 0.022425186 -0.045407787 0.21762745 0.20109047 -0.029440856 0.30165723 -0.16487344 -0.1328399 -0.103914745 -0.090528496 -0.061105397 -0.14804888 0.28235027 -0.21136595 -0.05041907 -0.07423491 0.07426749 -0.074580655 -0.22565018 -0.17389001 0.04930764 -0.19443136 0.1905459 -0.034458574 0.43693694 -0.049783505 -0.09803697 -0.013914372 0.113198005 -0.07488998 -0.009384717 0.23292632 -0.05032937 0.2873629 -0.08158002 0.17999855 -0.07726135 -0.0038157785 -0.05754741 -0.052498773 -0.2616811 -0.22361735 0.07813131 -0.1190918 -0.23934354 -0.07072532 0.31307894 0.034689702 0.15364958 0.0323714 0.25905573 0.20954369 0.54705024 -0.1014199 0.03385519 -0.20932887 0.074062765 -0.14728965 0.40186208 -0.110365495 0.1240676 -0.026194237 0.14052263 -0.14813247 0.073169425 -0.11356334 0.033847697 0.1660018 0.050681993 0.0061020087 0.11386133 -0.1457077 -0.036844034 -0.25244048 0.09557608 0.2049758 -0.28266943 -0.18261077 -0.012012328 0.007925507 -0.17199369 -0.17705242 -0.15665285 0.012943706 0.2561576 -0.26767617 -0.04786289 -0.0872296 0.029938955 0.13717553 0.17621422 -0.018720431 -0.005007631 -0.15643358 0.12634826 0.24040969 -0.05308961 0.12925355 0.12471501 0.042303123 0.1077793 0.16325517 -0.043924015 -0.13974522 0.08634002 -0.34246123 -0.10389506 -0.28489724 0.20198499 0.09536772 0.17275895 -0.31156826 -0.26782647 0.38240433 0.07505969 0.21572506 0.17136759 0.14450845 -0.17935888 -0.08409255 0.12571403 -0.1492585 -0.14394782 0.05381265 0.2804053 0.03669016 -0.31984273 -0.033921897 0.041172173 0.086677 0.09737687 -0.019589135 0.06183494 -0.05556029 0.055389356 0.094113216 0.023897808
密码 -0.22383188 -0.069029175 -0.11781243 -0.029390039 -0.012488076 0.1125985 -0.097371385 -0.097883165 -0.042854425 -0.13604166 0.13413718 -0.11165162 -0.065520145 -0.11831228 -0.04835389 0.026293918 -0.11008925 -0.0931551 0.081969455 0.26555604 0.016989266 -0.032963358 0.050388724 -0.009689718 -0.110542916 -0.015693484 0.179218 -0.010054571 -0.08481909 -0.08798955 0.14919055 -0.015806817 0.08630007 0.014283989 -0.10782239 -0.02756703 -0.07003143 0.19173218 0.040271662 0.03713182 0.13328886 -0.14867677 -0.11017345 -0.008187893 -0.17719913 0.0703407 0.09225486 0.08508402 0.19716531 0.13072856 0.044160545 -0.24937877 0.063715436 0.117781654 0.078851156 -0.058290754 -0.2716924 0.050159838 0.10413013 0.15591751 -0.06625943 -0.15224971 0.08311704 -0.18416715 -0.05368976 -0.18480086 -0.0052387593 -0.0650427 -0.16357206 -0.039140474 -0.27877197 -0.020826636 0.29617548 0.04707108 0.08366237 0.018809902 -0.049307015 -0.0023613237 0.06200725 0.13936323 -0.115916826 -0.03590852 -0.23685527 -0.15548404 0.032484338 0.20350277 -0.116368435 -0.24647565 -0.06932281 -0.020930495 0.16546224 -0.0640522 0.028927954 -0.14441134 0.07573167 -0.017646393 0.02851075 0.14101183 0.010578718 0.033313736 -0.055286523 0.016085725 -0.14773071 -0.12418991 0.038047973 0.2476321 0.2763651 0.097305484 0.23639143 0.11238396 0.11358512 0.06088822 -0.17242289 0.12066171 0.1702603 0.039390177 0.20617373 -0.14702426 0.093151845 0.16838826 0.014128617 -0.10414618 -0.23692992 0.0011455707 -0.00010668185 -0.17333032 0.11438183 -0.17497501 0.098310605 -0.009094228 0.10241133 0.06357194 -0.1469707 -0.11505104 -0.120883204 0.20084627 -0.0997241 -0.09666598 -0.092244565 -0.024412524 0.2206987 0.11551713 -0.08920615 0.05959709 0.1411914 0.115090065 -0.104277045 0.10985208 -0.050608303 -0.021603918 0.033162463 -0.17787404 -0.030703789 0.09708658 -0.18854237 0.20980138 -0.094240546 -0.011510059 0.19343916 -0.18621647 -0.16270679 0.10749898 0.10456256 0.048902918 -0.017169187 0.17321245 0.20040597 -0.07869145 0.23190148 -0.14630684 -0.09981949 -0.091621585 -0.044543 -0.02943079 -0.10658312 0.25712463 -0.19084048 -0.102473885 -0.072058074 0.067073986 -0.031198662 -0.1860448 -0.165379 0.041220423 -0.21685268 0.18916091 0.019413065 0.36162272 -0.0013083417 -0.08140408 0.016723 0.08817358 -0.030325668 -0.03199084 0.16760518 -0.051383074 0.23802526 -0.056972258 0.22592723 -0.073157765 -0.0031995687 -0.028200828 -0.057288747 -0.25291604 -0.18217885 0.08055193 -0.15207174 -0.21261287 -0.070475295 0.24420945 0.05991679 0.18026914 0.07291024 0.22149375 0.2056097 0.48990127 -0.11355126 0.039997865 -0.16721429 0.025947483 -0.13010956 0.3832931 -0.09631072 0.11421439 -0.013313104 0.07801142 -0.11289394 0.00036760984 -0.10289255 0.05456891 0.12418358 0.025595635 -0.011041731 0.11730533 -0.104189 0.027542941 -0.1699664 0.068241164 0.18834849 -0.26200002 -0.10596389 -0.05437012 0.023965666 -0.13583952 -0.19439681 -0.10541443 0.028471705 0.2759407 -0.23435748 -0.041152563 -0.050670095 0.054049682 0.13239522 0.1526902 0.05267841 -0.036936734 -0.11552972 0.14149576 0.22150853 -0.0018716262 0.16531114 0.15228024 0.03388264 0.11860009 0.09939424 -0.048066247 -0.09128498 0.018366244 -0.34910488 -0.052776743 -0.27191228 0.16867365 0.14673716 0.17164405 -0.24495058 -0.22811738 0.3308945 0.061893553 0.18992153 0.12688397 0.079850435 -0.17716119 -0.09063719 0.13725437 -0.1544694 -0.12106849 0.09311416 0.22913808 0.058271125 -0.24819545 0.016102742 0.031039407 0.092896685 0.023573507 -0.027520575 0.14169341 -0.09509914 0.023304489 0.0871645 0.031581484
界面 -0.26973522 -0.09138137 -0.120972626 -0.061876476 -0.0014555058 0.15689178 -0.12128986 -0.10922523 -0.05012113 -0.15393974 0.1614378 -0.12222873 -0.056605786 -0.12684667 -0.08111565 0.024334181 -0.17061676 -0.11716949 0.08440686 0.28948334 0.030206144 -0.017507154 0.03627276 -0.029538704 -0.13557209 -0.010540429 0.2089995 -0.03826028 -0.108448565 -0.07714225 0.13479055 -0.026888577 0.08128927 0.045863155 -0.10078022 -0.034209173 -0.089965545 0.2295015 0.07807279 0.02776063 0.14080335 -0.15081957 -0.15719615 -0.032997902 -0.21497451 0.077267095 0.12119089 0.13545494 0.25009385 0.11081987 0.055806853 -0.29726818 0.09357812 0.1410436 0.07306731 -0.075322755 -0.3356256 0.06147933 0.07254942 0.18637605 -0.09702402 -0.1766753 0.12228235 -0.22091284 -0.032985337 -0.20363285 -0.0061159898 -0.06994294 -0.19184808 -0.07251047 -0.32890213 -0.028039912 0.37674043 0.018112727 0.09384087 0.0097415475 -0.05667864 -0.028873438 0.045402914 0.13219506 -0.15361202 -0.020052126 -0.2607043 -0.1275264 -0.005142759 0.21471749 -0.13297193 -0.24987897 -0.04503866 -0.01495339 0.15429877 -0.07356951 0.051212385 -0.14495091 0.059498105 -0.022764267 0.020446135 0.13593572 0.026836963 0.014107618 -0.089519605 0.02453177 -0.15842953 -0.13262023 0.039463203 0.30349928 0.33994132 0.11511362 0.28465074 0.11098035 0.10045249 0.09387611 -0.21418558 0.1576454 0.19060148 -0.0062088133 0.21917042 -0.15289322 0.11425439 0.22351703 -0.001035194 -0.15070915 -0.2680295 0.05426824 -0.007497417 -0.22878104 0.12992592 -0.20201187 0.15561904 -0.013674117 0.11142369 0.0855466 -0.18976793 -0.13662876 -0.14528173 0.23485987 -0.09733501 -0.07338365 -0.05583833 -0.046454884 0.2833888 0.17541675 -0.05708208 0.034461703 0.18226926 0.11434777 -0.15240577 0.113503024 -0.054294 0.0037756285 0.058552034 -0.1482109 -0.021726398 0.11032562 -0.219661 0.23843226 -0.13851659 -0.016114416 0.23462185 -0.21633728 -0.17277372 0.096786074 0.14829496 0.022297934 -0.044982024 0.23026894 0.22456565 -0.05370017 0.3010345 -0.18038587 -0.11995121 -0.087808415 -0.07031522 -0.022963254 -0.15243444 0.30080348 -0.2360745 -0.06876402 -0.09342695 0.10686607 -0.057268687 -0.22089893 -0.16926916 0.068731785 -0.2333618 0.21041912 -0.023445569 0.44247773 -0.04192208 -0.07961631 -0.00037919133 0.11158411 -0.05456792 0.0036630137 0.24291159 -0.03437387 0.26344135 -0.08130354 0.26162636 -0.09650282 0.0066117537 -0.046824746 -0.075540476 -0.26288342 -0.21931377 0.09225786 -0.14373168 -0.23668166 -0.08606579 0.30594236 0.044361375 0.20008601 0.051123656 0.268411 0.23114963 0.57600623 -0.13634895 0.040222798 -0.19402876 0.06929436 -0.16476257 0.4466418 -0.12927422 0.13024382 -0.022526894 0.10422108 -0.14288327 0.028339136 -0.13481459 0.044002894 0.16248915 0.04655295 -0.0028755434 0.11303674 -0.14405876 -0.008831556 -0.22137083 0.08939651 0.23047638 -0.2971205 -0.14038552 -0.033190444 0.042447582 -0.17409605 -0.22573414 -0.13766548 0.015580973 0.28847897 -0.29494265 -0.044331443 -0.060024545 0.05422268 0.13375135 0.176619 0.023189498 -0.015654707 -0.17101182 0.14534728 0.25293222 -0.036252182 0.16655925 0.14449699 0.036840077 0.1554187 0.16471237 -0.06218906 -0.11290693 0.05898817 -0.38386375 -0.08145539 -0.31910682 0.19712293 0.1247594 0.18796682 -0.31665295 -0.2506585 0.37947446 0.052120004 0.22551401 0.1770677 0.13118686 -0.19787616 -0.10216095 0.11816293 -0.16675752 -0.17193708 0.08157077 0.27856004 0.06333363 -0.30564255 -0.019763758 0.031205412 0.12132583 0.08612334 -0.0068423417 0.10225037 -0.09642179 0.02959744 0.102727 0.03400872
文件 -0.27177072 -0.10048353 -0.1192363 -0.058704413 -0.009217827 0.18385312 -0.12401303 -0.110882476 -0.06268309 -0.14477177 0.17038876 -0.104268834 -0.036344957 -0.14212707 -0.09404474 0.010215258 -0.18599941 -0.108272195 0.08191238 0.28700423 0.029502505 -0.013446224 0.039149567 -0.044804305 -0.15227185 -0.006279066 0.21234298 -0.047433693 -0.10661356 -0.0667066 0.11714261 -0.03960186 0.086257435 0.050036527 -0.10836735 -0.032357935 -0.0852939 0.2397362 0.07128694 0.028101977 0.14633106 -0.16679035 -0.16822727 -0.017245533 -0.2453745 0.08106289 0.12810443 0.14301783 0.24804261 0.1175951 0.08416472 -0.31350446 0.101071134 0.15424007 0.07157263 -0.084759034 -0.36724365 0.07165535 0.06005668 0.18376292 -0.112232395 -0.17210059 0.1195411 -0.24706355 -0.029868387 -0.21419504 0.0035705282 -0.08121264 -0.19485433 -0.09660127 -0.34287018 -0.04199015 0.37676537 0.011970268 0.087056495 0.0074269725 -0.057044134 -0.04203236 0.051379245 0.1396263 -0.16080941 -0.029531883 -0.25945762 -0.155242 -0.01891824 0.21510398 -0.14432399 -0.26555735 -0.058090273 -0.010388115 0.14474297 -0.053928353 0.035695694 -0.14465682 0.054886762 -0.022686858 0.01105251 0.1399409 0.028677763 0.0045052003 -0.09419183 0.029056702 -0.15460072 -0.13652863 0.04669316 0.30912027 0.35672316 0.1051027 0.2828713 0.100265846 0.09263619 0.09255358 -0.1982421 0.15376829 0.19244434 -0.019178664 0.21405612 -0.15668657 0.13122116 0.23823376 0.0018952974 -0.17854102 -0.28205925 0.06734431 -0.023678903 -0.22122161 0.15388316 -0.2174947 0.16989836 -0.012709449 0.10461361 0.095656484 -0.20465128 -0.13580455 -0.16595064 0.22606716 -0.0985793 -0.07145631 -0.05523341 -0.05161019 0.28726602 0.2017183 -0.062194716 0.025609603 0.19772632 0.10140144 -0.14943007 0.11632121 -0.05271078 0.019450419 0.06732656 -0.15159023 -0.025075763 0.10735087 -0.22072308 0.22473109 -0.15251908 -0.016034126 0.2424867 -0.22885102 -0.16991284 0.082495965 0.17020802 0.009982819 -0.05343875 0.22776577 0.21315682 -0.050969798 0.3175238 -0.19114397 -0.13086744 -0.09916429 -0.092759036 -0.040354975 -0.17307004 0.30602834 -0.23772402 -0.057097543 -0.07169765 0.108808696 -0.057096504 -0.24764813 -0.17155902 0.07698475 -0.22194628 0.19718392 -0.01855235 0.46191004 -0.051855106 -0.08657145 0.0071063535 0.108147785 -0.063945815 0.0008085272 0.2481283 -0.04583039 0.29030222 -0.091362186 0.25021827 -0.08203412 -0.0015705479 -0.0531003 -0.06830836 -0.27693036 -0.23844245 0.08182648 -0.15202442 -0.24733178 -0.09195191 0.3156026 0.040558744 0.20291135 0.028881392 0.28746846 0.23485576 0.5996281 -0.13019347 0.05935618 -0.2025832 0.059758686 -0.16423848 0.42962652 -0.13482322 0.12710527 -0.03328747 0.115223564 -0.15915456 0.026726583 -0.13708685 0.04729114 0.17017257 0.051953126 0.003792955 0.10738108 -0.1509823 -0.032194864 -0.22575071 0.087176114 0.24675463 -0.308456 -0.15767992 -0.028821938 0.037707172 -0.17713925 -0.22273915 -0.15501629 0.020676048 0.29436028 -0.31332272 -0.053891536 -0.08967797 0.053911272 0.1314113 0.18868217 0.0143389 -0.025563892 -0.17816262 0.14693123 0.25737202 -0.043062 0.16057375 0.1401747 0.03117902 0.14482787 0.18176186 -0.07004264 -0.13515717 0.059792213 -0.38348445 -0.08013388 -0.3185728 0.20806567 0.12833393 0.18759371 -0.33894077 -0.26537016 0.3922839 0.07085971 0.21872836 0.17648585 0.14841688 -0.2099564 -0.09115587 0.11947352 -0.16741462 -0.15912229 0.0736884 0.27861795 0.057182375 -0.32450622 -0.046908036 0.04139352 0.11995601 0.10121993 -0.016097475 0.080161735 -0.084141456 0.02765728 0.08286667 0.030613326
软件 -0.2763186 -0.08731593 -0.10917834 -0.08598178 -0.006241305 0.16020973 -0.12364649 -0.09738132 -0.03938496 -0.14901458 0.14907798 -0.09032237 -0.036531772 -0.12997885 -0.09314594 0.0030051875 -0.18951744 -0.119424134 0.0820755 0.2849009 0.029673299 0.00066736067 0.023459164 -0.05439568 -0.15258512 0.0006438935 0.20501785 -0.048907634 -0.10586402 -0.0667578 0.11736002 -0.034784358 0.07335312 0.054509565 -0.08644129 -0.01991603 -0.096346974 0.24315503 0.07490723 -0.0055981223 0.15456706 -0.15219016 -0.16318789 -0.038214523 -0.24308334 0.080008365 0.11972145 0.13931423 0.23617584 0.09246266 0.079784736 -0.3079155 0.0949275 0.14562571 0.061826754 -0.07801261 -0.34539875 0.055390485 0.051812712 0.19214998 -0.10830119 -0.15692063 0.12602654 -0.22652192 -0.029631888 -0.20511931 -0.006236685 -0.064502105 -0.18676677 -0.08851331 -0.33728117 -0.01948724 0.3737903 0.008206463 0.09928273 -0.00025988964 -0.055844497 -0.03596364 0.037324775 0.12461251 -0.15371051 -0.0024785604 -0.2509723 -0.12155505 -0.0121388445 0.20995824 -0.13075861 -0.25050896 -0.04778371 -0.010385072 0.11264562 -0.066148065 0.034514494 -0.13966186 0.07159874 -0.012773794 0.0077275313 0.13429432 0.023218526 -0.000671865 -0.100970566 0.012012965 -0.15621257 -0.13640055 0.039672464 0.3138161 0.33513355 0.10050783 0.2921018 0.09529767 0.07673372 0.07953622 -0.20946391 0.16097105 0.18968238 -0.015255617 0.20053624 -0.16450733 0.118219174 0.23579057 -0.008847658 -0.17215154 -0.27449492 0.083163604 -0.015024756 -0.23330396 0.11770001 -0.19966324 0.16306843 -0.0068784505 0.1062085 0.08379115 -0.20028654 -0.14372961 -0.1679192 0.22855069 -0.09495437 -0.06397536 -0.044390243 -0.053530425 0.27371025 0.18866046 -0.05104944 0.035732098 0.20482603 0.09978301 -0.14139675 0.12019508 -0.041116823 0.032685883 0.0559201 -0.13851383 -0.03412017 0.11608871 -0.21125159 0.23387429 -0.14066285 -0.019773928 0.26173088 -0.218585 -0.17047864 0.07624182 0.17785563 -0.0001700686 -0.058979735 0.23715802 0.2125382 -0.054205157 0.300225 -0.16336888 -0.106341414 -0.09754109 -0.066889524 -0.037244894 -0.14162293 0.30876526 -0.24517967 -0.05657024 -0.09708342 0.108725116 -0.07411489 -0.2311775 -0.16472422 0.068434626 -0.21151304 0.20787272 -0.030834623 0.44735843 -0.04975722 -0.07180539 -0.0016818445 0.12265431 -0.0634157 0.004906941 0.252046 -0.024284061 0.27438533 -0.09620452 0.23645282 -0.084678635 0.019417906 -0.041725013 -0.07563923 -0.2638289 -0.23156372 0.07857751 -0.13343565 -0.2375934 -0.07582922 0.3122017 0.050909247 0.17845768 0.042411834 0.26397696 0.22927468 0.58127075 -0.12172711 0.0454222 -0.20407392 0.08993887 -0.17010747 0.44184738 -0.12776287 0.12792759 -0.021648055 0.119813085 -0.14397137 0.05022448 -0.13733053 0.038013496 0.16752343 0.054951835 0.012146748 0.11254108 -0.15839307 -0.029003605 -0.23480657 0.09981118 0.24051246 -0.29754755 -0.16039896 -0.025479522 0.04778331 -0.17022902 -0.20843272 -0.13513593 0.016005412 0.26494426 -0.2822477 -0.043386314 -0.06699453 0.049536273 0.12266854 0.18683156 -0.006396655 -0.014156375 -0.16870639 0.13303214 0.2527083 -0.048041247 0.14264509 0.13095535 0.0397288 0.14940329 0.17205991 -0.06630276 -0.11766268 0.0711024 -0.36625254 -0.10195966 -0.32273287 0.1912018 0.11615939 0.19001886 -0.34093812 -0.2625181 0.3919576 0.04925311 0.22370736 0.1768519 0.14868918 -0.20587246 -0.09813586 0.102510944 -0.16688828 -0.16933292 0.072438665 0.2777789 0.048150953 -0.31771216 -0.034118865 0.04468414 0.1233576 0.10939679 -0.019717753 0.07142847 -0.0733572 0.043109547 0.10062696 0.02522587
选择 -0.30013466 -0.10623151 -0.13832444 -0.074077696 -0.0060996767 0.18408082 -0.13501817 -0.11740948 -0.052203286 -0.16759107 0.18079473 -0.12661538 -0.047804363 -0.14995559 -0.09169512 0.022427289 -0.19995771 -0.123749994 0.08795662 0.318874 0.032449644 -0.020463046 0.041614998 -0.039985444 -0.16135769 -0.0017075555 0.23980375 -0.041152604 -0.118029885 -0.07728856 0.14487706 -0.03611917 0.100022286 0.044321362 -0.10647855 -0.037069608 -0.09627861 0.25170273 0.0796518 0.029498674 0.16510902 -0.17294739 -0.17517191 -0.028181469 -0.25118557 0.09175829 0.1335562 0.14974657 0.2722139 0.119445585 0.077859804 -0.3292111 0.10541741 0.16662969 0.08115925 -0.09236244 -0.38468093 0.065932505 0.061515804 0.21320193 -0.103484794 -0.19364294 0.13276713 -0.2571994 -0.0388751 -0.2203524 -0.0076828026 -0.07727532 -0.21353422 -0.09570447 -0.37075123 -0.025438486 0.41422606 0.009983563 0.10784667 0.00654987 -0.07386768 -0.030069072 0.052893396 0.14932938 -0.17226294 -0.020029059 -0.29773682 -0.15799655 -0.011702802 0.24015373 -0.16050734 -0.28701735 -0.061812926 -0.011247189 0.16511507 -0.08299421 0.04559126 -0.15317829 0.068178646 -0.024857571 0.01208065 0.15196274 0.04042586 0.015616738 -0.10221566 0.024370853 -0.17982505 -0.14920999 0.051481232 0.3358808 0.36896637 0.12190236 0.31396276 0.11811319 0.118187256 0.1037834 -0.22769149 0.16647884 0.20880096 -0.0061052204 0.24101512 -0.17825852 0.12782814 0.26055607 -0.0036306554 -0.17883289 -0.29933158 0.070006885 -0.0063998247 -0.25421044 0.15215848 -0.23285507 0.16771668 -0.0077631087 0.12007052 0.09234007 -0.2125658 -0.14794253 -0.1814439 0.25430077 -0.10852972 -0.0821745 -0.058372624 -0.051243424 0.31001738 0.20266163 -0.07295702 0.045434058 0.2148885 0.12653658 -0.17072111 0.12037743 -0.061997976 0.007943349 0.061130993 -0.15979563 -0.029391339 0.11171935 -0.24252252 0.25635412 -0.16036715 -0.020168915 0.26553848 -0.2358448 -0.1991032 0.0975361 0.16894057 0.015463886 -0.059667394 0.2524634 0.24955402 -0.05596043 0.33934474 -0.20192416 -0.13736884 -0.09719789 -0.08013144 -0.037838943 -0.1800799 0.33944696 -0.2675943 -0.07354929 -0.10245839 0.11382764 -0.06886212 -0.24687494 -0.18705983 0.089781255 -0.25662374 0.22588487 -0.020125862 0.50019455 -0.05249006 -0.091927245 0.001987397 0.11629386 -0.066160604 0.002658003 0.27056614 -0.03273972 0.3122476 -0.09140032 0.2835998 -0.098847926 0.010360229 -0.053377073 -0.0779294 -0.29539028 -0.24648847 0.099651106 -0.161865 -0.28118774 -0.09642598 0.34224138 0.043044653 0.21874933 0.053167168 0.3061878 0.2601386 0.64870954 -0.15083756 0.04449509 -0.21662878 0.07735156 -0.1851888 0.48980734 -0.14447576 0.14644784 -0.023069665 0.12060775 -0.1528787 0.028766278 -0.14835614 0.046266984 0.1850456 0.05711553 -0.003733667 0.12909494 -0.15939607 -0.013293085 -0.25261563 0.10052898 0.25592014 -0.33849266 -0.17283417 -0.029366232 0.04152954 -0.193034 -0.24734037 -0.15955628 0.014743709 0.323871 -0.33354142 -0.053106997 -0.070593655 0.05208646 0.15543662 0.20624962 0.020001318 -0.018383317 -0.1910689 0.1619539 0.27952135 -0.04578097 0.188469 0.15701388 0.037372455 0.17042483 0.18786734 -0.07438563 -0.13785268 0.07247923 -0.42784193 -0.08870394 -0.35296205 0.22392017 0.13861552 0.20655093 -0.35805988 -0.2836503 0.43494144 0.060715467 0.2521281 0.19508755 0.14371967 -0.22382931 -0.10008169 0.1301986 -0.18772951 -0.18096602 0.09361328 0.3033448 0.06267038 -0.34150568 -0.023402482 0.03684853 0.13000982 0.0939085 -0.013189775 0.09869942 -0.09574922 0.038407553 0.106450446 0.027441215
查看 -0.26466393 -0.08156163 -0.101737805 -0.06150371 0.0020641363 0.145435 -0.11807912 -0.105133295 -0.037593644 -0.15547258 0.14636227 -0.09978182 -0.040777944 -0.1257717 -0.096313305 0.00937543 -0.16715494 -0.120355144 0.07375746 0.27449554 0.025995133 -0.004336488 0.029640084 -0.03459797 -0.12998597 -0.0018009251 0.19263755 -0.031126358 -0.10536287 -0.0640232 0.113749705 -0.02666369 0.06834436 0.046473425 -0.093957044 -0.020490292 -0.09425528 0.23198166 0.06944945 0.014484948 0.13583669 -0.1351 -0.16275854 -0.039731126 -0.21482664 0.06899125 0.10958222 0.1368074 0.247486 0.098898195 0.058746237 -0.29486778 0.08923366 0.12259265 0.05936791 -0.085475236 -0.32249162 0.050759308 0.049874373 0.1764247 -0.10439565 -0.15766029 0.12525533 -0.21304443 -0.029805081 -0.19504668 -0.0019418194 -0.06463963 -0.1851773 -0.08366424 -0.32063007 -0.025791038 0.35718548 0.0038078332 0.09407799 0.011967313 -0.046529543 -0.0390142 0.03772279 0.124486685 -0.1449541 -0.011754724 -0.25024518 -0.12171097 -0.010998167 0.20436229 -0.11048808 -0.22491145 -0.049844276 -0.014167941 0.11916057 -0.06384085 0.048574913 -0.13106151 0.060288575 -0.016248232 0.0043415152 0.12216384 0.027553 0.01489283 -0.081579015 0.023187872 -0.14888303 -0.1238865 0.038777642 0.29442498 0.3213963 0.10215496 0.27321526 0.088966794 0.08988412 0.086646795 -0.2112929 0.14295894 0.18048634 -0.02661802 0.20306358 -0.14202432 0.10689968 0.21768834 -0.010100961 -0.1547754 -0.26209903 0.06786008 -0.01790326 -0.23953822 0.1304333 -0.19228816 0.15624152 -0.016824558 0.097704984 0.08286565 -0.19684385 -0.12049271 -0.1457022 0.21385276 -0.07951107 -0.060092133 -0.051655244 -0.05174575 0.26695114 0.17252798 -0.034779202 0.03417137 0.18797176 0.11125846 -0.16112785 0.113828085 -0.050181128 0.017404893 0.056337558 -0.122128196 -0.02967285 0.10628554 -0.20393905 0.23304945 -0.13398473 -0.0073328544 0.24052045 -0.20175448 -0.1589658 0.0762126 0.15289983 0.017684381 -0.04714277 0.2272294 0.2057582 -0.04134897 0.306531 -0.16695441 -0.115804985 -0.09158605 -0.0676876 -0.029042462 -0.15671305 0.29002398 -0.22468299 -0.05408447 -0.09511343 0.10117646 -0.07475161 -0.21578296 -0.16325708 0.05954265 -0.2137338 0.19637515 -0.039599366 0.42751414 -0.039292835 -0.070572846 -0.008448649 0.11893757 -0.065492325 -0.0030785257 0.24030446 -0.039982714 0.26036268 -0.07451909 0.22446913 -0.08449997 0.0051804394 -0.04727909 -0.059754103 -0.25079724 -0.210008 0.088867486 -0.12460609 -0.22178273 -0.0759839 0.31162822 0.03395842 0.17826165 0.038274612 0.25717446 0.21838608 0.5445087 -0.12497416 0.038679752 -0.18877068 0.08217302 -0.15676798 0.4246507 -0.123245895 0.12302516 -0.023905637 0.11568219 -0.1459255 0.04673553 -0.13350318 0.036843408 0.16043255 0.055360734 -0.006400375 0.10190029 -0.14496513 -0.02611371 -0.22689156 0.085729614 0.21868053 -0.2729745 -0.14591633 -0.024771778 0.03129964 -0.16751264 -0.20445085 -0.15320939 0.016236909 0.25019473 -0.2823405 -0.04511249 -0.05982422 0.04548599 0.1258145 0.16064125 0.0002660922 -0.0054461416 -0.17512135 0.13792498 0.23809583 -0.0508333 0.14879678 0.12861715 0.049733713 0.14354406 0.17372313 -0.0591506 -0.11448764 0.06995149 -0.37106916 -0.09383368 -0.2992296 0.18247274 0.1140549 0.17269452 -0.30603355 -0.24458292 0.3675468 0.0560464 0.22091246 0.17529012 0.13710408 -0.18123813 -0.09700681 0.11433457 -0.14600316 -0.16764756 0.06433565 0.28426838 0.05734906 -0.30087912 -0.031709734 0.040007558 0.10415713 0.09778487 -0.006299564 0.0756886 -0.080613054 0.025882231 0.09503518 0.028616022
页面 -0.26520392 -0.091527574 -0.12175343 -0.06374615 0.0004983493 0.15396751 -0.122010596 -0.1081404 -0.043964535 -0.15248463 0.16041225 -0.113731645 -0.049745996 -0.12442356 -0.08479514 0.019654207 -0.17222123 -0.11145411 0.079195745 0.2792141 0.033097804 -0.01732592 0.03899666 -0.031156829 -0.13375078 -0.010715322 0.20765656 -0.033015016 -0.10152447 -0.07347002 0.12660958 -0.03211641 0.08344734 0.04241045 -0.09389382 -0.03155224 -0.08263721 0.22269982 0.06763102 0.025288917 0.13773279 -0.15184 -0.15354234 -0.027290447 -0.21436521 0.0725842 0.12028413 0.13232003 0.24306285 0.11270795 0.062434185 -0.2876654 0.09083001 0.1422905 0.06404247 -0.076762564 -0.33728 0.05669242 0.065233774 0.18239404 -0.09174555 -0.17647353 0.11415064 -0.21840309 -0.030233547 -0.1996665 -0.004784378 -0.06994698 -0.18948805 -0.0791288 -0.32224703 -0.026518943 0.36703405 0.014357647 0.090528116 0.010252197 -0.058851533 -0.026952637 0.049850985 0.13135539 -0.15470925 -0.023462355 -0.26007193 -0.13120487 -0.015459052 0.20893915 -0.13524196 -0.24499904 -0.0500224 -0.0107721295 0.14889324 -0.06857855 0.043794498 -0.13712941 0.057687137 -0.0223591 0.012216164 0.13165917 0.034547027 0.018707868 -0.083519034 0.024827313 -0.1541217 -0.13380943 0.04357516 0.29419172 0.32596177 0.107571274 0.27450493 0.10376575 0.101740904 0.089528605 -0.20305416 0.1466599 0.18746816 -0.0069088913 0.20954992 -0.1534835 0.10983171 0.22261924 -0.0022925164 -0.14973158 -0.2551829 0.05380966 -0.0106013175 -0.22093737 0.13357756 -0.20626731 0.15016119 -0.010822554 0.10758895 0.08232052 -0.19032091 -0.1260503 -0.14823012 0.22788626 -0.09387039 -0.07372192 -0.056144014 -0.04213517 0.27513656 0.17579608 -0.058806416 0.0357046 0.18354274 0.11743312 -0.15000662 0.109916836 -0.052275613 0.003129068 0.054868154 -0.14383537 -0.023457775 0.105471894 -0.21190378 0.22436757 -0.13898154 -0.015324826 0.22971153 -0.21043433 -0.17182177 0.08949877 0.14668018 0.019588927 -0.049948003 0.22586855 0.21922167 -0.044631943 0.29746807 -0.1782631 -0.11886565 -0.08365222 -0.070516385 -0.028531507 -0.15690441 0.29119438 -0.23273973 -0.06296729 -0.09116095 0.105156235 -0.0593655 -0.21689379 -0.16545399 0.071155846 -0.23063546 0.20225745 -0.024141373 0.4340512 -0.04115668 -0.077461064 -0.0027876587 0.10238768 -0.054734092 0.00017741587 0.23530519 -0.03145575 0.26626807 -0.07718127 0.24718982 -0.08786821 0.0016381355 -0.04554872 -0.07187646 -0.25862902 -0.21227914 0.09451241 -0.13493076 -0.24122754 -0.084190875 0.30122015 0.037339337 0.18987638 0.048121173 0.2663063 0.22319107 0.5680268 -0.13011067 0.04082257 -0.1940743 0.06510472 -0.16061267 0.4295557 -0.12210518 0.12812938 -0.017204959 0.10282898 -0.13302481 0.025933608 -0.13100947 0.04172533 0.16155499 0.04096302 -0.005228353 0.1106832 -0.14193295 -0.005753831 -0.21970545 0.08613895 0.22160941 -0.2932528 -0.1415206 -0.023078615 0.036085982 -0.16751216 -0.22207898 -0.13734151 0.013674405 0.2837166 -0.28606614 -0.048846103 -0.062437803 0.0471039 0.13616052 0.17601028 0.019866046 -0.021446446 -0.16499835 0.14090605 0.24519674 -0.03540966 0.16200638 0.1428233 0.034290623 0.14792967 0.16251567 -0.06360609 -0.1120345 0.06478198 -0.37867144 -0.08017211 -0.30629537 0.19622299 0.12189011 0.18488415 -0.30608785 -0.24677357 0.37308872 0.05967886 0.22323033 0.16920495 0.12230839 -0.19322985 -0.09222788 0.11837798 -0.15822992 -0.15979211 0.07557968 0.26693717 0.05722696 -0.30137894 -0.015709724 0.033169486 0.118408 0.080681935 -0.0048379935 0.09211836 -0.08766655 0.030218938 0.09756165 0.030851169
切换 -0.23371789 -0.08616607 -0.097139664 -0.05696166 -0.016816968 0.14826277 -0.08904554 -0.07991359 -0.032448538 -0.122306846 0.13142636 -0.07719837 -0.03738882 -0.115218945 -0.07300867 0.022146221 -0.1502102 -0.09558025 0.089686684 0.24404004 0.02277575 -0.035843737 0.024816785 -0.0335115 -0.1613971 0.01812298 0.1881646 -0.014650087 -0.09674386 -0.057826072 0.118026555 -0.033363715 0.07568047 0.021871096 -0.07081676 -0.015596298 -0.09728802 0.16519111 0.05923048 0.0026740432 0.17798166 -0.1397423 -0.10149781 -0.0035719054 -0.22385961 0.10350021 0.08084013 0.13056046 0.19084892 0.06601653 0.07765757 -0.23425445 0.0695861 0.1320874 0.06265777 -0.09898059 -0.28539017 0.04026544 -0.00090263836 0.17410396 -0.06687179 -0.12766477 0.103672914 -0.20276453 -0.028647507 -0.1385068 -0.003288734 -0.021007007 -0.14255916 -0.09429055 -0.27044418 -0.01419134 0.32435897 -0.002034555 0.09487047 0.005926055 -0.07824234 -0.009634966 0.037722185 0.1196393 -0.117910504 -0.003853623 -0.25771978 -0.13915521 0.008793332 0.19672963 -0.13827486 -0.21618837 -0.07723778 0.014512682 0.11617628 -0.080172315 0.014805496 -0.1365139 0.06675775 0.0052382634 -0.010398506 0.12383157 0.047111772 -0.0027274184 -0.07779913 -0.011874001 -0.15341976 -0.13975137 0.039055463 0.24849328 0.27219605 0.06044182 0.23328745 0.08753146 0.10203389 0.06325183 -0.17170179 0.11806501 0.15426305 -0.014290227 0.16194354 -0.15253676 0.11619959 0.21571831 0.0074208537 -0.16504344 -0.2235484 0.085807964 0.010275931 -0.20284127 0.11754764 -0.17152373 0.13120165 0.026312226 0.10449704 0.06493715 -0.13459685 -0.11932541 -0.1626267 0.2035724 -0.111195594 -0.04868127 -0.019827284 -0.025682842 0.20364837 0.14594612 -0.06976617 0.047961798 0.18277134 0.08724063 -0.13475631 0.08790073 -0.05015927 0.013707255 0.03953158 -0.10909309 -0.013201477 0.061981596 -0.17394881 0.16457847 -0.12800346 -0.010147806 0.20699295 -0.17674206 -0.18007846 0.06681978 0.12367206 0.009640393 -0.052401405 0.17976627 0.20164086 -0.040679365 0.23673332 -0.15024236 -0.11924918 -0.07435675 -0.076184794 -0.046919372 -0.13720398 0.26081455 -0.20383473 -0.07081254 -0.08982067 0.057002373 -0.053131226 -0.18216357 -0.14138378 0.08075971 -0.20069332 0.16790707 0.009448376 0.39163268 -0.07187786 -0.087834336 0.01879246 0.07492536 -0.067339465 0.01254918 0.21761267 -0.012146547 0.2591105 -0.06341146 0.21135354 -0.08730965 0.031805024 -0.040039826 -0.03939785 -0.25015157 -0.19259912 0.0660521 -0.11929869 -0.23167911 -0.062437378 0.25092137 0.019912053 0.13656478 0.02773408 0.23100011 0.20500706 0.49290505 -0.11975222 0.03793038 -0.1433355 0.07627077 -0.14399397 0.38593805 -0.12200258 0.09171768 -0.004938248 0.09215995 -0.12406461 0.045253936 -0.06845176 0.030363478 0.12969458 0.0646357 0.009349209 0.12988907 -0.110537894 -0.015739635 -0.20233548 0.091779366 0.16142139 -0.2650871 -0.16017659 -0.029084573 0.021005748 -0.12692468 -0.15908523 -0.11380616 -0.011522669 0.26603317 -0.2372084 -0.031329654 -0.03368397 0.026599666 0.12351495 0.16851446 0.019789496 -0.0007168158 -0.13932706 0.11618079 0.20108533 -0.0512692 0.1554855 0.1304172 0.041993815 0.13603947 0.12484525 -0.04888184 -0.13602008 0.086043864 -0.3014076 -0.06922603 -0.2673872 0.15314355 0.09720554 0.16318965 -0.28496546 -0.23238355 0.3411743 0.0361408 0.19587338 0.14187 0.08677303 -0.17828009 -0.08989766 0.0926577 -0.15700601 -0.120602064 0.08042126 0.21989888 0.05055474 -0.2660922 -0.010248646 0.008939749 0.077510595 0.08446678 -0.023604298 0.066872835 -0.05819342 0.047892652 0.07944965 -0.0017835115
