298 300
点击 -0.22205825 0.097119845 -0.1290011 0.203838 0.09922291 0.0068318895 -0.04009143 -0.10502954 -0.03258794 0.1378009 0.109495915 -0.034958757 -0.00023349041 0.018507876 0.13878551 -0.10410208 -0.19111745 -0.13711128 0.231311 0.20055935 0.055904046 -0.07723651 0.1438593 -0.096968 -0.1701695 -0.08258799 0.018808167 0.015200445 -0.09140899 0.10007195 0.2065884 -0.14843997 -0.0021244457 -0.107556336 -0.27778092 -0.34489623 0.07640322 0.1268269 -0.09769882 0.048498034 0.124293305 -0.25685793 0.021668395 -0.07819664 -0.20460425 -0.11771767 0.16713367 -0.14888464 -0.18355338 -0.012896011 -0.018642547 -0.11133273 0.15644826 0.13988994 0.059568696 -0.07340709 -0.03361981 -0.07202985 -0.011395192 0.049025375 0.0145005165 0.027032549 -0.03160638 -0.16096918 -0.19775832 -0.12383977 -0.09665555 -0.29522565 0.05617939 -0.11521669 -0.17643304 0.05437413 0.18050869 -0.24770658 -0.11094202 0.20390983 -0.103297986 -0.0016071411 -0.14076075 0.014824102 -0.111378126 -0.29851624 0.13567352 0.023914903 0.15888716 0.1332782 -0.27170664 -0.044031486 0.033059902 -0.16080834 -0.09105976 0.023151562 -0.03278108 0.17193566 0.008585254 0.01433561 0.025305675 0.021222591 0.093943335 0.15078835 -0.07466701 0.1292545 -0.14989048 -0.14495744 0.13180466 0.04278597 0.24439342 -0.10327433 0.029074306 -0.15377118 0.04761836 -0.1186429 0.04327993 0.1040183 -0.010919157 0.0067026336 0.14697394 0.19584763 -0.10202515 -0.045294408 0.3075561 -0.22951344 -0.31863493 -0.22829331 -0.15929322 -0.0142199835 -0.05868992 -0.20438007 -0.046453446 -0.02383125 0.12554917 -0.0630747 -0.1004181 -0.21291263 -0.29608253 0.13547559 -0.13016829 -0.35386106 0.16976687 0.08815396 0.19902803 0.06474097 0.24778502 0.03831216 0.16335958 0.22311355 0.01625385 0.0025904826 0.04254846 -0.21735448 0.13526541 0.068550356 0.14701131 -0.014639596 0.052496485 0.1770795 -0.11290249 -0.08198622 -0.011925549 -0.25037894 0.19133684 0.31992352 0.10738591 0.10682407 0.07784916 -0.013377209 0.04912864 -0.005751043 -0.00743276 -0.21327928 -0.09473673 0.21476986 -0.22862723 -0.042800304 -0.07157638 0.17750038 -0.119250156 -0.047758333 0.056438703 0.2802431 -0.2734528 -0.018105658 0.03438949 0.26123914 -0.11185052 -0.053628445 -0.0138951605 0.35238722 -0.15654035 -0.15119027 0.05405384 -0.0702755 0.07703993 0.04783652 0.16936348 -0.258481 0.1996515 -0.04454153 0.123140566 0.07165723 0.35717267 0.0134651065 0.072420225 0.06778199 -0.21009928 -0.103389606 -0.106904574 -0.13045989 -0.04711493 0.026136637 -0.08146711 0.1950519 0.22192922 -0.010874011 -0.023732953 0.13923095 -0.07449888 0.2530887 0.005616939 0.074215874 0.027189543 0.102655396 0.05098382 0.10684537 -0.009509769 0.3256944 -0.15212257 0.22783364 -0.015661603 0.05905506 0.056333076 -0.07056476 -0.1969548 -0.1205453 0.22805592 0.29447967 0.0137466015 0.13208197 -0.099182576 -0.31956345 -0.07348368 -0.2104629 -0.09536458 -0.03237962 -0.15454394 -0.20816945 0.031649653 0.01646104 -0.19787121 -0.06475113 0.13630313 0.024749788 -0.1585234 0.11472841 -0.102025546 0.1376304 -0.009931822 0.07626606 0.25343072 0.051164515 0.27934483 0.1165585 -0.089641996 0.13300137 0.020239491 0.06987097 -0.11349236 0.07037097 -0.1519023 -0.02136253 -0.36888173 0.08033118 -0.2179828 -0.07178141 -0.21646509 -0.36423135 0.26889643 0.2239561 0.2536137 -0.024198228 -0.19590741 0.02123457 -0.115871936 -0.0075385496 -0.05418073 0.19667509 0.16875094 -0.07773455 0.08499643 -0.13751031 -0.17012389 0.09168441 0.016287588 -0.13622268 -0.13361837 0.045394722 0.0085752 0.07806823 0.17531572 -0.060310517
页面 -0.22239746 0.09166704 -0.13129777 0.210663 0.101564415 -0.0072446857 -0.033398956 -0.1012032 -0.0310549 0.13589391 0.112089135 -0.037182458 -0.007302534 0.04024763 0.13242991 -0.10799263 -0.20051634 -0.13201758 0.23693447 0.20355873 0.046238106 -0.076295376 0.12948959 -0.10128779 -0.1667718 -0.085904285 0.03008557 0.0010630284 -0.09511427 0.10737257 0.20356601 -0.14627956 -0.0035880834 -0.11410319 -0.26762095 -0.33630836 0.0701418 0.14007069 -0.102120414 0.042806655 0.122183025 -0.2722803 0.029629022 -0.085418515 -0.1965713 -0.12606621 0.16254215 -0.14788668 -0.18384458 -0.010971864 -0.027822377 -0.113063306 0.15953752 0.14225964 0.052513693 -0.067334086 -0.031875677 -0.06000577 -0.019355468 0.03731435 -0.0048384834 0.02595956 -0.031029215 -0.1636942 -0.20769748 -0.12994562 -0.097070105 -0.29522768 0.066700876 -0.10798569 -0.17739962 0.067534514 0.1780471 -0.23998062 -0.118651725 0.20816454 -0.1001112 0.010965697 -0.14454193 0.009275679 -0.112089865 -0.29195958 0.12543063 0.02671282 0.15064639 0.13498844 -0.27198118 -0.03827462 0.027281333 -0.1608048 -0.09407856 0.033525836 -0.03497879 0.17446573 0.004693592 0.012423627 0.025526676 0.007494373 0.0903892 0.1504021 -0.073748134 0.13684924 -0.15554395 -0.14426953 0.12851985 0.045835514 0.24971864 -0.10484093 0.030866498 -0.16545485 0.052058123 -0.106662415 0.036105223 0.100650124 -0.0060284906 0.014432228 0.13869634 0.19687869 -0.104714565 -0.061919805 0.30449575 -0.2203342 -0.3171408 -0.22921968 -0.14636597 -0.016090944 -0.06422115 -0.1994237 -0.05467321 -0.023450438 0.11892041 -0.061458696 -0.122330815 -0.2122063 -0.29002008 0.13156185 -0.1433412 -0.35990265 0.1640914 0.08747794 0.19351251 0.07200811 0.2393073 0.0330938 0.16205102 0.22566123 0.014582844 0.0036023308 0.039194398 -0.20842922 0.1438235 0.07836954 0.13715887 -0.012300126 0.04842591 0.1811471 -0.12426126 -0.076974936 -0.008367027 -0.24566427 0.19315985 0.32656434 0.1091716 0.11247193 0.06421679 -0.026717465 0.05460271 0.0010922949 -0.007614493 -0.21804501 -0.085111395 0.21715036 -0.2315855 -0.02551748 -0.081015185 0.17670768 -0.13109282 -0.044068065 0.053549446 0.28057316 -0.27812842 -0.02897161 0.035184428 0.27938458 -0.11064201 -0.048758406 -0.017334009 0.35033098 -0.15269369 -0.14565153 0.050832715 -0.05617779 0.083183534 0.056410637 0.16773044 -0.26014292 0.20107187 -0.03840164 0.118773036 0.06533845 0.36121073 0.0017096231 0.07673566 0.07973493 -0.19580464 -0.10190069 -0.10370609 -0.12071681 -0.047278415 0.021382429 -0.091082394 0.19929656 0.2188429 -0.012804576 -0.034676846 0.14109176 -0.073517494 0.25619274 0.0016078544 0.07468237 0.04134095 0.09929482 0.045752097 0.10812595 -0.010133537 0.31813517 -0.14830124 0.23043036 -0.014450091 0.07085344 0.0660602 -0.069374934 -0.20156716 -0.13681355 0.2260958 0.2928431 0.00043117246 0.14813754 -0.09840294 -0.3109492 -0.07005632 -0.1942974 -0.093473256 -0.029949686 -0.15336809 -0.20985885 0.037526578 0.007323501 -0.18112697 -0.056905806 0.14520708 0.021096334 -0.16197295 0.10442843 -0.115226224 0.14096206 -0.00050295994 0.06746326 0.25316945 0.05031119 0.27791327 0.12354435 -0.085250035 0.14141637 0.032115445 0.05926546 -0.11974727 0.07392155 -0.13894099 -0.030052548 -0.3696852 0.08490153 -0.22553861 -0.056545217 -0.2069579 -0.352256 0.26278457 0.22785513 0.2638236 -0.01770247 -0.20093022 0.03115238 -0.11928599 0.0024383084 -0.055286724 0.18744723 0.16578718 -0.08255003 0.090276316 -0.13828583 -0.16387501 0.08968223 0.019121353 -0.13521607 -0.13325559 0.043087345 0.0057719327 0.07975141 0.18111981 -0.062021967
按钮 -0.21824831 0.09076395 -0.1264055 0.20968263 0.10246051 0.0009370871 -0.03651894 -0.10399328 -0.03344708 0.13282913 0.10995886 -0.04013098 -0.009541352 0.047784265 0.12938467 -0.109898895 -0.20237349 -0.1284036 0.2311729 0.200808 0.047985647 -0.077849366 0.12843424 -0.10091586 -0.16697226 -0.08272381 0.027336316 -0.005302427 -0.08949086 0.10348486 0.20014483 -0.1493335 -0.0027871663 -0.11977732 -0.2612955 -0.33103406 0.07145563 0.14224869 -0.09482887 0.03843805 0.11941058 -0.26576185 0.03168416 -0.07729408 -0.19815917 -0.120958924 0.16058908 -0.1503442 -0.17750433 -0.0051458515 -0.021812972 -0.113001384 0.1586299 0.139066 0.05515345 -0.0705037 -0.033445496 -0.057958815 -0.020307196 0.036217242 -0.0016693679 0.025171312 -0.03845714 -0.16493176 -0.2135872 -0.12258187 -0.095087714 -0.2915091 0.06650619 -0.10680268 -0.17923285 0.062623486 0.17745452 -0.23510823 -0.116693 0.20358184 -0.10357669 0.0052607395 -0.14284132 0.006031495 -0.11163158 -0.2879282 0.123274945 0.029759381 0.15164413 0.13449977 -0.26978 -0.03516524 0.029385652 -0.1644234 -0.091683164 0.030574868 -0.032972287 0.17198928 0.00839598 0.0010012602 0.029265076 0.010140407 0.09099089 0.14708313 -0.07247599 0.14252277 -0.15386194 -0.1407874 0.12973459 0.036276728 0.24731663 -0.10597786 0.0336519 -0.15517071 0.05232571 -0.10445963 0.029917637 0.099518575 -0.011137943 0.011189815 0.1451779 0.19810964 -0.09548652 -0.055971276 0.30148646 -0.2211874 -0.3104107 -0.23013155 -0.14769009 -0.010638988 -0.07129015 -0.18582101 -0.05228385 -0.021484237 0.11498726 -0.058454093 -0.12610954 -0.20920372 -0.28788054 0.13422664 -0.1405455 -0.35458368 0.16152556 0.092719845 0.18929885 0.07260171 0.23438539 0.036917426 0.1565228 0.22110389 0.015211167 0.0051172613 0.04005268 -0.19778846 0.14688534 0.080854416 0.13706446 -0.016382646 0.050725862 0.18098462 -0.12551455 -0.081017606 -0.0060953875 -0.24439594 0.19172278 0.31961888 0.101554826 0.10857114 0.06635886 -0.032686606 0.052914113 0.007444121 -0.000687704 -0.21492872 -0.082968675 0.21653856 -0.2328522 -0.024241306 -0.07883413 0.17530942 -0.13175112 -0.04274773 0.056465268 0.27684063 -0.2784481 -0.026096143 0.033926863 0.28262088 -0.111035176 -0.048182823 -0.018966544 0.34814957 -0.15221874 -0.14716983 0.05285581 -0.04935256 0.08229332 0.051981125 0.17110726 -0.26471594 0.1968016 -0.043958396 0.12189577 0.06301893 0.3605116 0.001447092 0.07267663 0.07322329 -0.19518994 -0.10332746 -0.104230404 -0.11991291 -0.04617359 0.018155491 -0.08807147 0.19912732 0.21345297 -0.011438792 -0.034562707 0.14261408 -0.073398486 0.24938726 -0.0004947733 0.07515551 0.035846937 0.09388529 0.0473481 0.10640288 -0.010156039 0.3096148 -0.15364695 0.22064397 -0.018530075 0.07436728 0.06727804 -0.06655174 -0.19734791 -0.13955729 0.2215905 0.28564677 -0.00014868761 0.14642952 -0.09201628 -0.3084035 -0.07298274 -0.19514379 -0.09365614 -0.028409934 -0.14869474 -0.2007579 0.036479406 0.012468832 -0.17323452 -0.05445356 0.1446236 0.024459323 -0.15867932 0.1011879 -0.11226459 0.14219593 -0.0005486272 0.06912707 0.24920098 0.05800371 0.27576804 0.121345 -0.08252514 0.13765763 0.0343719 0.05681871 -0.11879063 0.071852274 -0.1354529 -0.03403363 -0.35665202 0.08052326 -0.2266522 -0.05753013 -0.19915302 -0.3430347 0.26424092 0.22460856 0.25252092 -0.019614236 -0.19342038 0.029328685 -0.12315982 -0.0022958627 -0.05830592 0.18384595 0.16680016 -0.07800612 0.08882144 -0.13989222 -0.16494568 0.08769294 0.01744793 -0.13207781 -0.12937683 0.04258127 0.013482785 0.081728555 0.17883809 -0.054841645
测试 -0.22635886 0.09498072 -0.12222914 0.21751426 0.10322031 0.0064925747 -0.02885304 -0.11188596 -0.027713368 0.12919383 0.10927672 -0.039453592 -0.010770736 0.03856247 0.14175914 -0.10842213 -0.19420762 -0.1352989 0.24414434 0.21815717 0.04556781 -0.084126435 0.12895797 -0.10398188 -0.16517992 -0.085497156 0.030456636 0.0019574456 -0.09927487 0.11386338 0.21031307 -0.1667578 0.0019342739 -0.11447709 -0.27007028 -0.3451597 0.07502677 0.13938999 -0.11096284 0.05066327 0.13042997 -0.27130884 0.027726728 -0.087570176 -0.20458801 -0.12954554 0.16012119 -0.15922038 -0.19138601 -0.016061492 -0.025868654 -0.109606385 0.17526917 0.14305964 0.05996224 -0.07549779 -0.031467907 -0.055616777 -0.010145265 0.037443563 -0.0016335351 0.03256932 -0.028645303 -0.17528309 -0.21614154 -0.13877285 -0.09657913 -0.30553293 0.059331737 -0.12101167 -0.18708639 0.07161309 0.17760907 -0.24690661 -0.12050197 0.20839128 -0.10375106 0.016611168 -0.1475635 0.007948115 -0.11229451 -0.28764564 0.13071994 0.024766235 0.15507981 0.13289234 -0.28210092 -0.049647868 0.019290816 -0.17272173 -0.10068655 0.026083859 -0.04134977 0.1790589 0.0015020568 0.013651273 0.027331399 0.003028841 0.09702445 0.1413734 -0.07929178 0.13705507 -0.16578645 -0.14045377 0.12964137 0.03956762 0.26012656 -0.10125021 0.030945122 -0.17291312 0.048184134 -0.11461241 0.032309808 0.1018614 -0.003895344 0.012766947 0.14440788 0.2031502 -0.10363128 -0.06402849 0.31501386 -0.23817524 -0.31235093 -0.22851665 -0.15333274 -0.0144136185 -0.060237214 -0.20015283 -0.050411142 -0.02546507 0.11557591 -0.06108579 -0.12657355 -0.21917883 -0.30065414 0.128749 -0.14387845 -0.36338934 0.16785105 0.08549138 0.20537694 0.06823091 0.25144684 0.039419193 0.16383961 0.23217964 0.014576317 0.0041529667 0.04540236 -0.20984118 0.14923282 0.07673818 0.13489541 -0.015221782 0.06062568 0.20168254 -0.12918983 -0.08708645 -0.009066867 -0.250504 0.19673297 0.33502555 0.12006221 0.113284595 0.072578825 -0.017281901 0.059357494 -0.0019948108 -0.014962685 -0.22390564 -0.09445001 0.21849298 -0.23549786 -0.026110433 -0.08388801 0.17245905 -0.1246202 -0.047548126 0.06311358 0.28450057 -0.2826821 -0.030315002 0.03612544 0.2877019 -0.1099869 -0.043767694 -0.014753079 0.36307427 -0.1543829 -0.15274724 0.05250746 -0.05781365 0.08378236 0.052248087 0.17266878 -0.25704756 0.2135695 -0.030938847 0.11708635 0.07012324 0.37223762 0.0036192525 0.080572486 0.07573605 -0.2107737 -0.115108274 -0.111364685 -0.122223936 -0.048575312 0.026664829 -0.09721826 0.20789236 0.23021829 -0.019635899 -0.031833276 0.14222848 -0.0781575 0.25619125 0.012651065 0.07588028 0.036359407 0.08840717 0.046688825 0.1101126 -0.0070317914 0.33733502 -0.15170947 0.22561851 -0.014819667 0.075529896 0.069086045 -0.079057716 -0.20029189 -0.13814661 0.22905579 0.2966294 0.0093352925 0.14076574 -0.10157414 -0.3081199 -0.07645002 -0.19925141 -0.09349353 -0.026653254 -0.16216257 -0.21382408 0.04063421 0.008203627 -0.18574162 -0.04796479 0.1533964 0.013367049 -0.17179182 0.100120276 -0.119453125 0.1433868 0.007438035 0.07532014 0.25634494 0.04814908 0.2917118 0.12891784 -0.086460136 0.14139758 0.0382187 0.07035315 -0.12261295 0.07206191 -0.13976601 -0.025478002 -0.38241965 0.085679755 -0.22620484 -0.059792392 -0.21534069 -0.36442843 0.26407108 0.23574176 0.28300735 -0.016941028 -0.2057191 0.02447638 -0.1226597 0.003331033 -0.045971952 0.1992978 0.17641056 -0.08029053 0.090801015 -0.14671081 -0.175243 0.093850315 0.0042480724 -0.13603829 -0.13738385 0.054478914 0.008219341 0.08471911 0.1900867 -0.06836691
新建 -0.20452411 0.09272342 -0.12227046 0.19348048 0.09472104 0.003921437 -0.03471371 -0.10057175 -0.027453171 0.12268437 0.09627161 -0.033727977 -0.0032264711 0.022377431 0.12617473 -0.101709455 -0.17374931 -0.13065067 0.22260772 0.18737243 0.04535212 -0.071238466 0.12196372 -0.09652594 -0.15710902 -0.07027609 0.022443 0.008799342 -0.085608386 0.10093848 0.19628124 -0.1459236 -0.0008975756 -0.10302796 -0.25526378 -0.3167718 0.06732104 0.1236105 -0.0932443 0.042634636 0.11663335 -0.24296756 0.023951355 -0.077103674 -0.18893579 -0.11588158 0.15300451 -0.14158182 -0.17353667 -0.01595605 -0.017831057 -0.10070245 0.14976902 0.12626536 0.054613564 -0.07211189 -0.026173623 -0.05873879 -0.008909126 0.04181422 0.010434749 0.025649013 -0.023337895 -0.15783893 -0.19309962 -0.12412032 -0.08718561 -0.2746922 0.058535777 -0.11379145 -0.16754016 0.054172635 0.16831411 -0.23893265 -0.10394728 0.18823566 -0.098292075 0.004750969 -0.13370965 0.009076733 -0.099788345 -0.27390495 0.1261082 0.024947807 0.15106067 0.121053204 -0.2569489 -0.04476022 0.02599131 -0.15375862 -0.08806654 0.018104658 -0.029019952 0.15773506 0.0098407855 0.013473857 0.019699216 0.01152163 0.088783905 0.14020713 -0.07271576 0.118090615 -0.14615926 -0.13949095 0.12809168 0.035192735 0.23488937 -0.09469176 0.028086742 -0.1555303 0.047896978 -0.11071838 0.03985582 0.09598159 -0.006210079 0.004769037 0.12804715 0.18063554 -0.0969677 -0.05129483 0.29208365 -0.21136028 -0.2952554 -0.20673217 -0.14948967 -0.011256909 -0.05644542 -0.19657627 -0.044711046 -0.02063794 0.112644225 -0.050276678 -0.10416874 -0.19996126 -0.26972607 0.1192805 -0.1191661 -0.3287357 0.16814484 0.0791228 0.18577784 0.061736774 0.228535 0.0355681 0.1529766 0.20820197 0.015423038 0.0065608155 0.039392024 -0.20231326 0.13328533 0.06951231 0.13739689 -0.013718067 0.052787606 0.1707994 -0.106927976 -0.07813005 -0.005168402 -0.23231672 0.17554009 0.30230203 0.10800973 0.09919441 0.06872085 -0.011066365 0.052497905 -0.007038421 -0.013160451 -0.20740382 -0.0845875 0.19297394 -0.21327378 -0.027210444 -0.06798234 0.16754313 -0.10732416 -0.044782747 0.057921898 0.26187208 -0.25849074 -0.020540476 0.029463183 0.24997438 -0.108000234 -0.04467428 -0.015693888 0.32829913 -0.14463213 -0.1421834 0.05309073 -0.06498401 0.076873735 0.052294794 0.157575 -0.23826386 0.18755613 -0.03447228 0.111798584 0.069717556 0.33680987 0.016175078 0.07209853 0.06313843 -0.19810253 -0.096902534 -0.0974054 -0.115449876 -0.04091623 0.023352893 -0.08232007 0.18172562 0.21463375 -0.01314236 -0.027795374 0.1282104 -0.07002063 0.23710392 0.004060166 0.071327634 0.035138097 0.092929475 0.04773629 0.09900169 -0.0018490274 0.30020747 -0.13879976 0.21469565 -0.01437593 0.05542861 0.058668766 -0.07310918 -0.1905382 -0.11693481 0.21386528 0.2677399 0.011094782 0.12289051 -0.09531392 -0.29365826 -0.060680296 -0.19137867 -0.08374515 -0.032534093 -0.14524756 -0.19573073 0.03384212 0.010091102 -0.17878099 -0.057909407 0.13526446 0.017502803 -0.15297513 0.1016678 -0.10477314 0.1286303 -0.0064551733 0.06647598 0.23665431 0.049166296 0.26354975 0.114192605 -0.083813444 0.12720376 0.026453448 0.06551181 -0.106903754 0.06735875 -0.13988312 -0.021773852 -0.34348583 0.071106195 -0.20369154 -0.06521277 -0.20260452 -0.33614522 0.24777603 0.21443604 0.24854846 -0.021377197 -0.18441214 0.019446494 -0.10994776 -0.0041312925 -0.047717404 0.18334354 0.16153325 -0.07399129 0.08367097 -0.1324999 -0.1636034 0.08292955 0.010155373 -0.12811258 -0.12601312 0.043060157 0.004777417 0.078179054 0.172025 -0.06332892
体验 -0.22420783 0.094435796 -0.110725105 0.2373664 0.11241487 -0.0024294644 -0.03296444 -0.12804434 -0.030089794 0.11844006 0.11576929 -0.049609024 -0.011659543 0.0806093 0.13394935 -0.11245251 -0.21731174 -0.13538924 0.249895 0.23370427 0.03468985 -0.081446335 0.10816488 -0.11684535 -0.17551295 -0.090448424 0.03888811 -0.0136127025 -0.10715527 0.12770306 0.21138412 -0.183654 -0.00838763 -0.12432225 -0.25807047 -0.33184823 0.07655972 0.14970759 -0.11943429 0.04432733 0.13020699 -0.2976259 0.042668954 -0.07493626 -0.21144493 -0.14156614 0.14988777 -0.18400086 -0.19972171 0.0006701214 -0.029499713 -0.11731615 0.17964195 0.14850199 0.06441817 -0.073990285 -0.04422744 -0.043565396 -0.027512692 0.020508314 -0.019305177 0.029060213 -0.045696717 -0.18561552 -0.24692886 -0.15055971 -0.09745721 -0.316841 0.06823841 -0.118418284 -0.20244461 0.07936068 0.18211257 -0.23469886 -0.12886003 0.21584459 -0.10990768 0.024527386 -0.16798425 -0.004967912 -0.109020464 -0.27884334 0.12974557 0.02725617 0.14533865 0.12968127 -0.2858559 -0.037209753 0.023895364 -0.18173313 -0.09382998 0.026983561 -0.04989742 0.17282152 -0.007581424 -0.005735106 0.038296323 -0.0032995858 0.09462839 0.14333205 -0.07838662 0.1522275 -0.17525743 -0.14258516 0.12754373 0.037433174 0.26643574 -0.10201405 0.03431376 -0.17968838 0.058767546 -0.115020156 0.018479131 0.09982976 -0.00888454 0.0107104685 0.14390528 0.22304796 -0.09983054 -0.07852573 0.32400528 -0.24129473 -0.30725518 -0.244272 -0.15335056 -0.013457665 -0.0830673 -0.1823063 -0.05238592 -0.022016117 0.10312098 -0.058475964 -0.15272765 -0.21605508 -0.308932 0.14003827 -0.15649582 -0.39194083 0.16407286 0.08802982 0.20440423 0.09478298 0.25555405 0.041321985 0.15897645 0.24053279 0.012517361 0.007214164 0.059819546 -0.1894916 0.16750121 0.08900571 0.1366913 -0.018221889 0.04498429 0.20937224 -0.14051378 -0.079812065 -0.008298078 -0.25766158 0.20630759 0.3423884 0.11010029 0.1284853 0.07670058 -0.037183832 0.063502446 0.022205783 0.00077495794 -0.22667016 -0.09520281 0.22039796 -0.23972727 -0.008588016 -0.10896035 0.1838717 -0.14180401 -0.045155775 0.064214945 0.29632545 -0.30742854 -0.03499893 0.04033456 0.32049602 -0.10638016 -0.032795083 -0.027719067 0.37693647 -0.15243314 -0.14491475 0.053335253 -0.028742356 0.08840195 0.058201097 0.1776415 -0.279121 0.22381055 -0.03685361 0.107638575 0.07161794 0.38904005 -0.0026777505 0.07632916 0.087913655 -0.20426524 -0.116617575 -0.11579855 -0.10937672 -0.057029687 0.013374227 -0.111707196 0.2152569 0.23621017 -0.025978312 -0.038515776 0.15831678 -0.078414634 0.27048725 0.006653188 0.07771546 0.05272414 0.07130048 0.043584783 0.122363344 -0.015617628 0.3381234 -0.15869975 0.22363155 -0.014854353 0.09550705 0.08166945 -0.072974406 -0.22557034 -0.16423236 0.2288178 0.2973511 -0.011340732 0.17498969 -0.11066309 -0.29994848 -0.06191617 -0.19074218 -0.09278295 -0.029578293 -0.17675883 -0.21131688 0.03788753 0.001369907 -0.1678821 -0.039692327 0.17242786 0.009189926 -0.17359106 0.07446809 -0.1471206 0.1609853 0.0075028436 0.057467025 0.2565311 0.062985614 0.29588628 0.14407404 -0.08942761 0.14872847 0.042589508 0.056574415 -0.13519175 0.0848184 -0.11238794 -0.04289093 -0.37806812 0.10517588 -0.24349219 -0.05361503 -0.19887348 -0.34494305 0.2763951 0.24905232 0.29252848 -0.021827098 -0.21733166 0.03920902 -0.1316973 0.006643668 -0.046942774 0.19107676 0.18224573 -0.09690263 0.11112504 -0.16441697 -0.1790657 0.09667972 0.0109571135 -0.1425794 -0.13188723 0.05116793 0.0101005025 0.09632494 0.2081355 -0.06115862
选择 -0.25119394 0.10331623 -0.13332735 0.23762766 0.10715387 0.012877955 -0.020595038 -0.12433408 -0.018825838 0.12775524 0.12062407 -0.045905717 -0.005217179 0.040188834 0.1543708 -0.124056496 -0.20537297 -0.14223349 0.26060495 0.24751016 0.039206084 -0.094158694 0.14446 -0.10465318 -0.17334317 -0.0927973 0.034836926 0.0042003165 -0.11415703 0.1272863 0.22410747 -0.18806879 0.0073275375 -0.12892362 -0.29308015 -0.3793 0.0826535 0.16096471 -0.12732495 0.0641131 0.14509536 -0.29142353 0.024331376 -0.098542765 -0.22756778 -0.14214098 0.17850155 -0.18592979 -0.21972372 -0.017359454 -0.02580602 -0.11118248 0.20267317 0.15616998 0.069715254 -0.091563344 -0.04472433 -0.056539483 -0.010130512 0.044833224 0.009901741 0.032962613 -0.024939116 -0.19855714 -0.23635216 -0.15609433 -0.10578633 -0.3376408 0.062260907 -0.14170225 -0.21387175 0.08380123 0.19230787 -0.27294558 -0.13145678 0.2225916 -0.11658779 0.029618377 -0.1636576 0.01032547 -0.12109627 -0.31478173 0.14448588 0.0150255645 0.16743994 0.13455805 -0.31022793 -0.07076748 0.02020461 -0.18984658 -0.103700355 0.026062842 -0.044196747 0.19438498 -0.0024835158 0.02057055 0.031102424 0.0035333543 0.106385514 0.14890078 -0.08255766 0.13854527 -0.18875939 -0.15044713 0.13495955 0.04189541 0.27604443 -0.10383277 0.03251211 -0.18472873 0.05247914 -0.13170588 0.033587553 0.113703154 -0.0016310227 0.013463039 0.1627581 0.2236887 -0.110681385 -0.07063074 0.34747624 -0.2647825 -0.3395187 -0.2557655 -0.1602171 -0.010635994 -0.051652804 -0.21614817 -0.050199043 -0.022637844 0.11298504 -0.06721454 -0.13145342 -0.22434989 -0.3260915 0.13677917 -0.15656091 -0.4009999 0.18630922 0.08992775 0.22864155 0.07752958 0.2856086 0.051480133 0.1813209 0.25566518 0.024499722 0.01972947 0.048819616 -0.22985633 0.16346012 0.075759344 0.14721027 -0.016383553 0.06537376 0.22936867 -0.13599133 -0.098342314 -0.0059163207 -0.2770028 0.21614501 0.3603344 0.13510609 0.12138848 0.081257716 -0.02759585 0.066207916 -0.007427343 -0.014076097 -0.24127707 -0.11427568 0.24284165 -0.25065306 -0.03336833 -0.09689665 0.18263878 -0.13795282 -0.059288193 0.07663895 0.3079138 -0.3047493 -0.030863032 0.044203553 0.3074074 -0.11695402 -0.042679906 -0.010551806 0.4025684 -0.17051655 -0.17033032 0.05793132 -0.063983776 0.09138319 0.05296294 0.17982632 -0.27381095 0.24403955 -0.028134517 0.12027273 0.073306255 0.39413968 0.001157714 0.075277664 0.07480641 -0.23563132 -0.12435774 -0.13135825 -0.13605286 -0.053666085 0.028781757 -0.110712744 0.23323965 0.25855553 -0.02995374 -0.04119314 0.14902191 -0.086805835 0.27859384 0.025218058 0.085349225 0.03595384 0.08361012 0.0539491 0.12151574 -0.013074273 0.38285947 -0.16092081 0.2422077 -0.01507231 0.08096981 0.07415248 -0.09605947 -0.2293262 -0.15383393 0.24974567 0.32374817 0.010974537 0.1491244 -0.1155612 -0.33111924 -0.08447975 -0.21617076 -0.10206621 -0.039218303 -0.18659927 -0.24335688 0.042022113 0.0040513645 -0.20320645 -0.051211625 0.16555862 0.009801657 -0.18196927 0.1064266 -0.12763579 0.16385853 0.0135486545 0.08544778 0.28440306 0.05066495 0.31725287 0.14667268 -0.0957875 0.14675862 0.04137413 0.08589862 -0.1312273 0.07907018 -0.16375448 -0.027658315 -0.42479876 0.101489834 -0.24516073 -0.074611634 -0.23622228 -0.3970617 0.29390225 0.2651502 0.32149163 -0.0076639787 -0.22175159 0.032073457 -0.1320261 0.005303725 -0.039844226 0.22007601 0.19237341 -0.08827253 0.104234986 -0.15506755 -0.18757205 0.10840275 -0.0014544146 -0.15094073 -0.15563928 0.065581895 0.010038221 0.09735426 0.21003255 -0.07108461
文字 -0.18378167 0.08710637 -0.105137564 0.17573024 0.081961654 0.006343252 -0.03650711 -0.09801626 -0.028063236 0.108160615 0.08804464 -0.021411574 -0.002611056 0.018902628 0.11649735 -0.08443408 -0.15055782 -0.11730596 0.20301147 0.18184844 0.04511031 -0.0722954 0.11364065 -0.091501825 -0.1394936 -0.06877991 0.026848571 -0.00072862196 -0.080402665 0.09280761 0.17931497 -0.12667626 0.006385397 -0.09857165 -0.23128434 -0.29182482 0.07452467 0.12743811 -0.087239675 0.048245557 0.11429099 -0.21610469 0.011572038 -0.07101853 -0.1695233 -0.10690206 0.13116056 -0.12496988 -0.1555024 -0.012836667 -0.01726196 -0.08775278 0.14745332 0.12096498 0.04063294 -0.06731219 -0.01313097 -0.045818146 -0.0065263407 0.038525194 0.006304331 0.021722618 -0.016685573 -0.14863186 -0.18187244 -0.1101474 -0.08216162 -0.2571335 0.043986436 -0.10275534 -0.1651788 0.06422276 0.14446618 -0.21747099 -0.10612672 0.17520273 -0.08241974 0.011742191 -0.10855134 0.00953566 -0.094903976 -0.2524751 0.10667887 0.01784072 0.12962729 0.10180821 -0.23732156 -0.037929542 0.01620677 -0.14896205 -0.0722133 0.008566542 -0.032318655 0.16074125 0.011941849 0.024229972 0.01746572 0.005858039 0.08914823 0.12370488 -0.055640724 0.108355604 -0.13743867 -0.12806822 0.10790259 0.025723156 0.22211783 -0.09146112 0.027873214 -0.14622045 0.028972896 -0.10651019 0.041225005 0.08234367 -0.0048922556 0.015219427 0.132279 0.16636646 -0.09247659 -0.05858665 0.27083468 -0.19990163 -0.2676082 -0.19718425 -0.13253182 -0.011528908 -0.036232475 -0.16686639 -0.044388406 -0.019564828 0.11124979 -0.047546837 -0.098143265 -0.1911048 -0.24973114 0.11263475 -0.11680106 -0.31126457 0.13644376 0.076486036 0.18101622 0.044968594 0.21683416 0.034607768 0.14915763 0.2080949 0.0140006095 0.00093626836 0.046682347 -0.17457303 0.1169424 0.07142253 0.105001755 -0.011351837 0.050861713 0.16658644 -0.10212978 -0.077143654 -0.014525289 -0.21014698 0.16833597 0.27997476 0.11314531 0.09825523 0.07555392 -0.0049065417 0.052249268 -1.5962572e-05 -0.014742021 -0.18643251 -0.07753872 0.18477106 -0.2004937 -0.025356181 -0.068139225 0.14158733 -0.096669 -0.045473564 0.055229492 0.23429988 -0.23190346 -0.028799636 0.02882182 0.23655435 -0.088813595 -0.04008617 -0.0071581947 0.31052497 -0.12932149 -0.12695336 0.030892363 -0.06891715 0.07740647 0.03372823 0.14035587 -0.20936091 0.19270903 -0.0150805395 0.10052257 0.067069605 0.31350085 -0.0023369733 0.080085166 0.066847526 -0.18733455 -0.09229166 -0.09694891 -0.10695972 -0.04635651 0.03941753 -0.08290065 0.17940459 0.20551853 -0.012899035 -0.024647346 0.116571516 -0.06554202 0.22345577 0.017404895 0.064014524 0.03522764 0.07673946 0.03844814 0.08926354 -0.0023504193 0.2925515 -0.120956875 0.18258151 -0.010912542 0.053251572 0.050658625 -0.07656128 -0.16225965 -0.11214279 0.18800351 0.25031933 0.017779106 0.107827164 -0.08762027 -0.26262817 -0.06481321 -0.17619838 -0.071137995 -0.025693249 -0.14168328 -0.18269055 0.033893663 0.013275736 -0.16041568 -0.038268846 0.11462879 0.016640326 -0.13977748 0.08860778 -0.08837851 0.112105094 0.002173183 0.07895416 0.21237579 0.031069366 0.2512172 0.096515 -0.072798625 0.11181716 0.03322049 0.05853505 -0.096805245 0.05774218 -0.1336085 -0.019771518 -0.3297152 0.07036948 -0.18719983 -0.05393753 -0.18725777 -0.31426978 0.21559916 0.20200272 0.23081253 -0.012323514 -0.17243771 0.00935035 -0.10025856 0.007987245 -0.03545997 0.1745571 0.13388579 -0.06087912 0.07113267 -0.11481727 -0.14921996 0.08914566 0.0014640826 -0.124326006 -0.11410831 0.04625195 0.013257479 0.0659672 0.15644026 -0.068014584
功能 -0.1995418 0.084071204 -0.10560107 0.19066139 0.09062654 -0.0022962773 -0.03140258 -0.09746706 -0.031037088 0.12714902 0.10193794 -0.030833825 -0.010075484 0.031252995 0.12656131 -0.08749522 -0.1767869 -0.11874121 0.21667312 0.19312905 0.042309806 -0.07589893 0.113349006 -0.097046204 -0.14594251 -0.08564671 0.027381971 -2.5687197e-05 -0.09266683 0.106095485 0.18718286 -0.13806172 -0.001338002 -0.10364245 -0.24130784 -0.30669388 0.07045256 0.12331164 -0.09915397 0.04955374 0.11890052 -0.2565905 0.023225937 -0.076408185 -0.18012331 -0.12003098 0.13757418 -0.13875453 -0.16629295 -0.010171664 -0.034867857 -0.09877589 0.15184818 0.13564852 0.050800737 -0.06066304 -0.028924499 -0.048660796 -0.013135564 0.02484986 -0.010610784 0.033732943 -0.026201993 -0.14806382 -0.19617306 -0.1224767 -0.09264429 -0.27409315 0.054215588 -0.09261058 -0.16614583 0.07258593 0.15061885 -0.21015316 -0.113538295 0.18968572 -0.086050086 0.021399215 -0.13101126 0.011457085 -0.09525323 -0.25651193 0.11258319 0.02174655 0.12842062 0.12119356 -0.24630877 -0.031370763 0.017252581 -0.15319139 -0.08504616 0.022870861 -0.037794072 0.1606187 0.0012018429 0.01599583 0.026160475 -0.00096231437 0.084426 0.13375969 -0.07351046 0.122717075 -0.14256603 -0.12389861 0.10666483 0.04067822 0.23101299 -0.08995424 0.023812877 -0.15703738 0.038754832 -0.09614884 0.03396024 0.08824452 -0.006279893 0.017256271 0.13021643 0.18839236 -0.097774394 -0.06334843 0.2828744 -0.20613919 -0.28175083 -0.20539914 -0.13604313 -0.017075835 -0.055202223 -0.17497487 -0.052501783 -0.032890875 0.11018907 -0.058289465 -0.10909408 -0.20070818 -0.27988613 0.119974755 -0.1344313 -0.3379806 0.14227004 0.07991665 0.18430164 0.067002214 0.22127146 0.03200829 0.14996955 0.20977636 0.00864921 -0.00735405 0.046414904 -0.18602295 0.13103467 0.078924485 0.11111375 -0.01064226 0.043691706 0.17595732 -0.12211167 -0.07381403 -0.018867593 -0.22058742 0.18195245 0.30276245 0.10697527 0.11267704 0.068273984 -0.014987306 0.052604012 0.00081411237 -0.010325462 -0.1928881 -0.086481586 0.19883102 -0.21518075 -0.026154486 -0.08356621 0.15499215 -0.11510218 -0.047832966 0.05135874 0.2567888 -0.24911177 -0.026996445 0.032756355 0.2629979 -0.0933213 -0.04435887 -0.018601477 0.32159036 -0.13066742 -0.13080695 0.034698326 -0.055719163 0.07647005 0.042049594 0.15318026 -0.22740996 0.19498424 -0.027969502 0.10042537 0.061183516 0.33964396 -0.003550407 0.07908877 0.08378961 -0.180975 -0.10095168 -0.098798364 -0.10715188 -0.054571792 0.027298095 -0.0878334 0.18915367 0.20848554 -0.018067142 -0.025818165 0.1285732 -0.06959924 0.23600347 0.00870762 0.0655201 0.040181603 0.07954052 0.035926748 0.10168075 -0.01535038 0.30745006 -0.13229156 0.19933797 -0.009191548 0.07374543 0.06387074 -0.06349287 -0.1784136 -0.12103939 0.19650838 0.26496297 0.0042868503 0.13398282 -0.09931849 -0.2782661 -0.06763455 -0.17773196 -0.08298647 -0.02091143 -0.14674258 -0.19092788 0.031826515 0.0006076145 -0.1668133 -0.040494867 0.1313647 0.01396735 -0.15060732 0.084318936 -0.1119049 0.13046074 0.0077813645 0.06689785 0.22990091 0.04113794 0.26274484 0.11185546 -0.07985381 0.12811443 0.03242765 0.054269616 -0.11326289 0.06254536 -0.113891296 -0.021544594 -0.34556714 0.08340378 -0.20017612 -0.043576237 -0.18824403 -0.3269101 0.22656047 0.20962675 0.24726859 -0.015971923 -0.19027103 0.024734268 -0.11073278 0.0063753873 -0.042812824 0.1721072 0.15274449 -0.07811875 0.08539142 -0.12775259 -0.15112233 0.08841946 0.013940733 -0.12686917 -0.12382698 0.038571894 0.009472329 0.06873039 0.16799766 -0.060963664
编辑 -0.17054124 0.07134851 -0.10520133 0.15718654 0.07188476 -0.006089028 -0.03417987 -0.070308745 -0.020622207 0.11369904 0.087924846 -0.022553347 -0.002717426 0.019431176 0.09873628 -0.0792291 -0.15168317 -0.0997848 0.17803563 0.15451466 0.03966095 -0.064076655 0.10527377 -0.07347801 -0.1269403 -0.0657618 0.018353086 -0.0016714435 -0.07032124 0.08000732 0.1561916 -0.10007619 0.0016325652 -0.09172428 -0.215987 -0.25759995 0.05707689 0.11351917 -0.07336524 0.036297556 0.09293213 -0.20082329 0.015070175 -0.066209555 -0.14637567 -0.09134449 0.12851068 -0.104746535 -0.13273448 -0.009284556 -0.023041612 -0.089451656 0.12353109 0.10928729 0.031123525 -0.052040022 -0.014808135 -0.05034259 -0.011993209 0.033946164 0.0008443524 0.02304352 -0.019498313 -0.12451539 -0.15047209 -0.09123733 -0.082577184 -0.22431105 0.04986631 -0.07850285 -0.13848495 0.057933465 0.13210495 -0.1863197 -0.09644706 0.1547544 -0.07591226 0.007285513 -0.10509681 0.009726752 -0.08461382 -0.22841226 0.09591152 0.016802952 0.11170488 0.10603683 -0.20661391 -0.027530914 0.019648507 -0.1207171 -0.06780668 0.02533879 -0.020116154 0.13730858 0.011148441 0.014804149 0.019669957 0.012526125 0.06896461 0.11761992 -0.05163729 0.10412282 -0.11119335 -0.11022489 0.096253276 0.03439012 0.18958244 -0.081128605 0.02440902 -0.12311049 0.035902463 -0.083355054 0.034290303 0.070467465 -0.0040171365 0.013370919 0.11527016 0.14897524 -0.08646376 -0.04294392 0.23036067 -0.16493225 -0.25138652 -0.17360659 -0.10907202 -0.011476311 -0.04538097 -0.15135399 -0.04596769 -0.021995554 0.10447669 -0.04898454 -0.085554 -0.16720325 -0.21932104 0.10064775 -0.10955835 -0.27052146 0.116581805 0.07380925 0.14835061 0.05098035 0.18005565 0.022467377 0.1290223 0.17322135 0.008125598 -0.0035346753 0.02937433 -0.1594294 0.104246974 0.063208215 0.09840774 -0.014593007 0.03417896 0.1334194 -0.09711426 -0.0634086 -0.014209285 -0.18104449 0.15129304 0.25186905 0.08430066 0.083682194 0.046512973 -0.019691242 0.035182092 -0.002816542 -0.0010920117 -0.16096288 -0.059298884 0.16885072 -0.17919543 -0.027356217 -0.054585278 0.13261083 -0.09943983 -0.03406391 0.037521556 0.21274397 -0.20455758 -0.026299942 0.023668712 0.2109046 -0.08277633 -0.048360758 -0.009153347 0.26326457 -0.11882737 -0.1120471 0.03301431 -0.04842639 0.06045952 0.040179096 0.13187131 -0.19939221 0.14709708 -0.032038864 0.10235327 0.04869546 0.2765685 -0.007866591 0.066120684 0.061447244 -0.1499799 -0.07207504 -0.07554674 -0.096093394 -0.03956539 0.018613113 -0.06282004 0.15524961 0.16506094 -0.0054498245 -0.024731897 0.10163376 -0.055892836 0.19482398 0.0009305741 0.056728974 0.028721869 0.07918191 0.031111127 0.079120636 -0.008850381 0.24245967 -0.11412113 0.17461014 -0.016426444 0.049992498 0.044282287 -0.04781907 -0.13803208 -0.10021969 0.16935302 0.21955645 0.0037605742 0.107241705 -0.071169384 -0.24551325 -0.06435903 -0.15548652 -0.0632651 -0.023915317 -0.112463884 -0.16174135 0.027942562 0.0075466936 -0.144977 -0.04530198 0.09166172 0.023011379 -0.12219411 0.08816231 -0.07888556 0.10306803 0.0019712332 0.058975074 0.19367374 0.035376467 0.21035123 0.083615705 -0.0653335 0.10118599 0.02453174 0.04366731 -0.09239432 0.049578056 -0.111476034 -0.019562246 -0.2847346 0.057462182 -0.17025104 -0.0422887 -0.15995355 -0.27061123 0.19445488 0.1675847 0.18351328 -0.01041644 -0.1476785 0.024335096 -0.0866861 0.0025009678 -0.043877717 0.14204556 0.11602696 -0.053105224 0.06507719 -0.09669494 -0.123043045 0.07137269 0.0227663 -0.10652884 -0.10432115 0.028415442 0.009813412 0.05411203 0.12331915 -0.049976517
插入 -0.21068433 0.09170133 -0.10069144 0.19013385 0.089245796 0.016627531 -0.025877682 -0.116656385 -0.01827401 0.11329184 0.093889095 -0.028582264 -0.003288351 0.02457721 0.13244374 -0.09013517 -0.16603237 -0.1178006 0.20723468 0.2009997 0.05149118 -0.07879051 0.120696366 -0.08854895 -0.13584918 -0.08458972 0.021778537 0.014349448 -0.091384016 0.10271807 0.1853355 -0.15555589 0.0040306235 -0.10573177 -0.23933434 -0.31166276 0.07691203 0.123656146 -0.09915239 0.06608941 0.13028638 -0.24605086 0.017978564 -0.078637555 -0.19608432 -0.12188094 0.14496326 -0.15968294 -0.18057452 -0.005869971 -0.021407366 -0.08632372 0.16611704 0.135857 0.061329003 -0.074432865 -0.033461936 -0.047339346 -0.001358349 0.041541185 0.016428214 0.026326496 -0.02493808 -0.15701306 -0.19294769 -0.119619794 -0.082990944 -0.2787848 0.042993054 -0.111371435 -0.18005629 0.074902974 0.15276852 -0.22075497 -0.11358112 0.18806767 -0.09780477 0.024152946 -0.12845387 0.012686603 -0.099663176 -0.26025623 0.12204604 0.011973977 0.1380997 0.10251625 -0.25737724 -0.054096438 0.01582697 -0.15624624 -0.077922285 0.0127865495 -0.04156907 0.1644019 0.0013584187 0.021822536 0.030594235 0.004872381 0.09241757 0.13298425 -0.06638389 0.107774675 -0.15810111 -0.12309617 0.11035764 0.031002168 0.22847193 -0.08477838 0.020698195 -0.15486231 0.036571607 -0.11419219 0.034619268 0.097498044 -1.3889737e-05 0.010509604 0.1408104 0.19672063 -0.09062742 -0.061186552 0.29643744 -0.22484387 -0.2782587 -0.21264702 -0.1418952 -0.00911005 -0.036061574 -0.17610836 -0.044658918 -0.02204703 0.10122108 -0.061452627 -0.09455395 -0.19083303 -0.279381 0.13104005 -0.12673053 -0.34427443 0.1531024 0.081301846 0.1918011 0.06437173 0.24388716 0.045471996 0.15250088 0.21908252 0.03109559 0.013882874 0.048428457 -0.19305259 0.13274981 0.06442989 0.12112257 -0.0043052183 0.052820314 0.18452808 -0.11145122 -0.08139777 -0.013372801 -0.23553364 0.18353614 0.30175704 0.10965266 0.10528378 0.08052688 -0.010006355 0.053372692 -0.010688005 -0.010900188 -0.19479488 -0.108353436 0.20282292 -0.21002539 -0.036642585 -0.08673843 0.14650685 -0.10485787 -0.05243059 0.06986874 0.2576573 -0.24801168 -0.020949937 0.038921658 0.25394955 -0.09523939 -0.034431692 -0.010535772 0.32995725 -0.13246082 -0.13933976 0.04605444 -0.06045133 0.07768249 0.033883158 0.14750755 -0.22032937 0.21342324 -0.015097852 0.08988487 0.06604285 0.32620752 0.0018513114 0.067852214 0.062515534 -0.19670571 -0.09821351 -0.108458616 -0.11201435 -0.051542286 0.03242958 -0.09789647 0.19498852 0.22064894 -0.021109432 -0.030383643 0.12955023 -0.079717755 0.23651998 0.025241725 0.070038445 0.028208243 0.06595585 0.044712614 0.10338427 -0.01432559 0.33234826 -0.13591197 0.19802393 -0.011997113 0.06706424 0.04998631 -0.07768455 -0.19519182 -0.120519124 0.19930764 0.26619467 0.016290523 0.11267676 -0.09880352 -0.2731361 -0.063457325 -0.19166711 -0.08444389 -0.031548943 -0.16575116 -0.20356193 0.033671845 0.00038915954 -0.16837193 -0.03615797 0.1351915 0.008639045 -0.15100403 0.0839984 -0.10200548 0.13851652 0.002891817 0.08279255 0.2290907 0.03443334 0.26778254 0.116409056 -0.08040477 0.11892403 0.03211454 0.06919588 -0.10562228 0.06278633 -0.14563218 -0.016620865 -0.3508633 0.083550334 -0.2032531 -0.06309918 -0.2019131 -0.34029055 0.23887211 0.2212828 0.26580957 -0.0054539265 -0.19419424 0.017855091 -0.11270437 0.005429579 -0.031365134 0.19029093 0.15248042 -0.08391227 0.08883282 -0.13037856 -0.1563748 0.098107375 -0.003133888 -0.12518941 -0.12714933 0.054936636 0.007736998 0.07519581 0.17842188 -0.05873132
word -0.21120329 0.0943682 -0.12017975 0.19974975 0.09332606 -0.0013729886 -0.036446076 -0.1037002 -0.025770836 0.12405365 0.102207534 -0.029073032 -0.004711701 0.038677067 0.12668899 -0.09837287 -0.18424948 -0.1270612 0.2249681 0.20402178 0.042719435 -0.07732654 0.11794319 -0.09820594 -0.15728423 -0.08057734 0.029497685 -0.0062160273 -0.09203886 0.106428735 0.19108559 -0.14131725 0.006757877 -0.11209736 -0.2557859 -0.31619322 0.07395454 0.14625238 -0.0973228 0.049005676 0.123725496 -0.25392428 0.019354122 -0.08134361 -0.18933615 -0.12104524 0.15049662 -0.14435288 -0.17151222 -0.013027863 -0.030617626 -0.10339039 0.165154 0.13519096 0.042807434 -0.06848771 -0.023775652 -0.049675707 -0.017579101 0.035658993 -0.00011602266 0.0248746 -0.024872344 -0.16459185 -0.2061421 -0.12083115 -0.093180686 -0.28433856 0.05690575 -0.10538727 -0.18336147 0.07850963 0.16355276 -0.22787194 -0.12044832 0.19326779 -0.095562026 0.016630838 -0.13785326 0.012586496 -0.10620005 -0.27600682 0.1144089 0.01738472 0.1373857 0.11883345 -0.2594763 -0.03966719 0.02484973 -0.16233112 -0.08238743 0.021387527 -0.03241684 0.17012855 0.007669815 0.014880149 0.022179049 0.0007947182 0.08989246 0.14052688 -0.062120255 0.12683703 -0.15167746 -0.13536781 0.11584719 0.036091685 0.23932372 -0.09618147 0.029426508 -0.16240655 0.042516544 -0.11296226 0.03643121 0.090906285 -0.003572805 0.016924134 0.14214922 0.18846448 -0.10431661 -0.067015044 0.299521 -0.21505521 -0.30016947 -0.22340235 -0.1366392 -0.0145247625 -0.051712535 -0.1756464 -0.053408466 -0.021487096 0.114533976 -0.053988334 -0.11369669 -0.20415942 -0.2771075 0.12963678 -0.14001702 -0.3511978 0.14953841 0.0861827 0.19360693 0.069015525 0.23585092 0.034654453 0.15888803 0.22508757 0.011995579 0.0028782228 0.04655454 -0.19096616 0.13703161 0.079919085 0.11454577 -0.012156273 0.047658153 0.18112743 -0.121218145 -0.080221996 -0.014493745 -0.23338315 0.18894207 0.30991197 0.1127652 0.11277075 0.07017478 -0.023906237 0.05200382 0.0009957508 -0.0022631485 -0.20140278 -0.08736816 0.20787805 -0.21784736 -0.020533497 -0.083820105 0.16255303 -0.11855593 -0.04657923 0.056583717 0.2623666 -0.26575202 -0.033588894 0.035146855 0.27115157 -0.10091611 -0.046370465 -0.011188823 0.34066895 -0.14464055 -0.1382477 0.04121992 -0.058946893 0.082250826 0.049633525 0.15721412 -0.2444669 0.20298769 -0.024126938 0.11467341 0.06510551 0.3448875 -0.010466266 0.08114868 0.07907025 -0.19192575 -0.096981294 -0.103086956 -0.111919045 -0.053246327 0.025855947 -0.09395688 0.19713366 0.21733163 -0.013392867 -0.03515927 0.13255514 -0.0697659 0.24901381 0.011174216 0.07222706 0.04379662 0.08339901 0.038060058 0.10065977 -0.0089115705 0.3130237 -0.14010264 0.21147178 -0.01503881 0.07095464 0.05650813 -0.0723003 -0.18687548 -0.13370022 0.21159357 0.27516314 0.0016496726 0.13738675 -0.0965967 -0.28958905 -0.069575034 -0.18487777 -0.0813991 -0.030030575 -0.15589434 -0.20650792 0.037586898 0.0068251905 -0.16947961 -0.045402728 0.13055374 0.016460244 -0.14858153 0.09816917 -0.10951516 0.13499472 0.007382289 0.07824185 0.23775181 0.042111903 0.26557824 0.11286067 -0.083389774 0.12817712 0.037604574 0.059532642 -0.116670154 0.06690094 -0.13662374 -0.025744185 -0.35882947 0.085253455 -0.2189994 -0.059094913 -0.19629163 -0.3363107 0.2425951 0.21986598 0.25252494 -0.0055539277 -0.19213986 0.025927862 -0.11200483 0.0079581635 -0.044493053 0.18135744 0.14688562 -0.07577092 0.08977045 -0.133629 -0.15765594 0.09731266 0.013959002 -0.13457865 -0.12776105 0.045374352 0.010697739 0.07301702 0.17535399 -0.06574168
输入 -0.25768262 0.11180237 -0.13506523 0.23651092 0.10937085 -0.0032445365 -0.044017877 -0.11795344 -0.03500131 0.16039963 0.12886865 -0.03496918 -0.006956671 0.017744051 0.15615408 -0.11130638 -0.20694275 -0.15140271 0.27343148 0.23991531 0.053732455 -0.099033594 0.14791755 -0.11274408 -0.1815536 -0.096648894 0.025349507 -0.0005081455 -0.111745805 0.13219428 0.23763493 -0.16722322 -0.0013563785 -0.12684676 -0.31287426 -0.3888197 0.092594 0.15753879 -0.12070547 0.06647823 0.14812914 -0.29918188 0.020501029 -0.10573967 -0.2222594 -0.14721203 0.17143413 -0.1628214 -0.20823562 -0.021225674 -0.03541554 -0.12336308 0.19278984 0.1684415 0.05606568 -0.08511638 -0.020040631 -0.067331 -0.011273418 0.040298164 -0.0022752977 0.042396117 -0.024163282 -0.18665645 -0.23005573 -0.1511788 -0.118305705 -0.3394478 0.069080256 -0.12028821 -0.21416627 0.09184544 0.1871722 -0.27825138 -0.14059575 0.23654711 -0.10802032 0.02785326 -0.14815402 0.019852389 -0.12122768 -0.329492 0.14193021 0.023729313 0.16208845 0.15355633 -0.3126064 -0.045821887 0.017846035 -0.19200888 -0.0981985 0.030207148 -0.038079284 0.20951009 0.010484713 0.034621328 0.025563112 0.007481117 0.11145261 0.16947906 -0.083177835 0.14917946 -0.17095277 -0.16152449 0.13479625 0.052520227 0.28775758 -0.11732231 0.032617666 -0.1910608 0.047283664 -0.1339834 0.05256086 0.10230641 -0.0044864113 0.02218921 0.16754809 0.22399904 -0.13302284 -0.072695635 0.3520197 -0.25824678 -0.36074367 -0.25277793 -0.17287582 -0.019482406 -0.061356753 -0.22847524 -0.07037415 -0.03907002 0.15258467 -0.07130187 -0.12668183 -0.25449035 -0.34379596 0.1457883 -0.1616272 -0.4133177 0.17450447 0.10046478 0.2363425 0.070257135 0.27903235 0.038055334 0.19741614 0.27406833 0.009999835 -0.0052984147 0.05895232 -0.24347846 0.16121054 0.09875881 0.13838604 -0.019905848 0.05766391 0.21743712 -0.14158317 -0.095263615 -0.025693053 -0.27579856 0.2236926 0.3756886 0.14464127 0.13305831 0.08838215 -0.012175658 0.064196825 -0.0024199956 -0.018199062 -0.24781951 -0.1004531 0.24837923 -0.26895028 -0.03668675 -0.093295135 0.18554923 -0.13411808 -0.05822726 0.0630285 0.3177238 -0.30791488 -0.039492946 0.037366383 0.32071105 -0.118758366 -0.06363926 -0.01905215 0.40226895 -0.16901492 -0.16536437 0.03725866 -0.083746254 0.0972459 0.04461746 0.19460876 -0.28245664 0.24115093 -0.029921707 0.13282488 0.07850372 0.4215313 -0.00737468 0.09992473 0.094980344 -0.24168241 -0.11744307 -0.12773733 -0.14465508 -0.06364126 0.045736767 -0.10690636 0.23625782 0.26542136 -0.021158863 -0.027373796 0.15130627 -0.0867602 0.2885252 0.012681746 0.08307352 0.04321664 0.10519738 0.05026328 0.124452844 -0.01497927 0.38323212 -0.16093518 0.24771103 -0.011759115 0.08241902 0.07041402 -0.09086026 -0.21061836 -0.1397287 0.24944639 0.33484742 0.016449008 0.15514837 -0.11957834 -0.36088008 -0.09361281 -0.2272387 -0.09587683 -0.028281152 -0.17759322 -0.24339065 0.042759728 0.0041426183 -0.22421488 -0.050999325 0.14631881 0.019152706 -0.19137323 0.11849583 -0.12569363 0.15278761 0.0014988688 0.09523076 0.28964254 0.04288027 0.32916352 0.13455485 -0.09793067 0.15253423 0.03503955 0.074201785 -0.13659388 0.069540545 -0.15839244 -0.022768646 -0.43623406 0.089640915 -0.24747367 -0.06165039 -0.24238934 -0.4180763 0.27898222 0.26500174 0.29539827 -0.013373708 -0.23354208 0.022240669 -0.12477599 0.010464782 -0.050475195 0.22052704 0.1770269 -0.08506425 0.100606956 -0.15059285 -0.1888312 0.10849751 0.019595318 -0.16251226 -0.15744829 0.050756123 0.013449808 0.08105658 0.2025331 -0.08659666
文件 -0.20399453 0.07484268 -0.11768762 0.18938297 0.08106161 0.001672753 -0.050406776 -0.08690423 -0.028243514 0.12590905 0.104450546 -0.041996475 -0.013243726 0.00029237475 0.14556584 -0.083649 -0.16110547 -0.12060935 0.21718179 0.20956676 0.04318925 -0.08131214 0.13535577 -0.11060883 -0.16827197 -0.065600656 0.0060848794 -0.009072828 -0.07670506 0.09810845 0.18387964 -0.12637731 -0.004798931 -0.082899176 -0.28273892 -0.3130191 0.07799298 0.12748355 -0.09153043 0.06034083 0.111762874 -0.23129202 0.005066969 -0.08119303 -0.16342697 -0.12329478 0.14647472 -0.11575518 -0.15379848 -0.017641336 -0.021130878 -0.077882685 0.1649687 0.14886783 0.035198905 -0.052227058 -0.023607397 -0.05993005 0.0059821326 0.0461326 0.0049426495 0.030104304 -0.002064609 -0.16739596 -0.16711438 -0.113440104 -0.10680003 -0.27256325 0.05101363 -0.10094984 -0.16572818 0.06998842 0.15422952 -0.22460921 -0.12759581 0.19403483 -0.072081864 0.022415584 -0.10057094 0.015340493 -0.100817725 -0.2723905 0.11809184 -0.0009868566 0.12834343 0.13009611 -0.24509943 -0.045202162 0.022153033 -0.14992708 -0.0706176 0.048836432 -0.01514593 0.17660989 0.02688688 0.040007055 0.021290166 0.009659981 0.09602426 0.12066522 -0.05704757 0.13345022 -0.14167432 -0.13381614 0.10276559 0.04107797 0.24474828 -0.12456032 0.02363839 -0.15094556 0.031587426 -0.09363079 0.06134545 0.09420272 -0.011863803 0.018016985 0.14254294 0.16033173 -0.10576668 -0.054734245 0.25878397 -0.21623659 -0.29124022 -0.2074006 -0.13885464 -0.022405436 -0.030697107 -0.18292525 -0.051265653 -0.030532625 0.12146997 -0.055592235 -0.0924513 -0.19895074 -0.28315407 0.10895459 -0.13056667 -0.31062692 0.12141709 0.076191224 0.20530117 0.027826887 0.22779885 0.043195054 0.16681829 0.21260314 0.019742263 -0.013999272 0.026870077 -0.2001489 0.11802165 0.0701582 0.10557814 -0.01986979 0.054313436 0.17052062 -0.108597025 -0.08061905 -0.012033189 -0.204766 0.16689754 0.3098079 0.13007647 0.08774561 0.052451685 0.0019597951 0.044827316 -0.016803727 -0.014997021 -0.20390426 -0.07367825 0.21550658 -0.21547896 -0.029085116 -0.058012918 0.13480748 -0.10001666 -0.054651227 0.043920863 0.24889797 -0.22833458 -0.051065717 0.019340748 0.26765993 -0.08775581 -0.07646655 -0.00046324806 0.34298757 -0.14371613 -0.12745067 0.03922308 -0.05927871 0.08167889 0.020882666 0.16226226 -0.22987413 0.19185364 -0.027903734 0.13139066 0.066730134 0.34264526 0.0070086615 0.068878606 0.07648287 -0.20487921 -0.108270876 -0.091684856 -0.1137201 -0.05024376 0.040627073 -0.07006485 0.20075291 0.20278358 -0.0035184347 -0.016831212 0.12872031 -0.08119311 0.22295237 0.021277703 0.04995812 0.029981282 0.08844892 0.038702276 0.08316667 0.012901112 0.2869407 -0.13425703 0.19472486 -0.0071974783 0.051879935 0.048578516 -0.063746475 -0.12798822 -0.10748555 0.20224439 0.2615174 0.041562095 0.108695984 -0.07603083 -0.3055937 -0.104919024 -0.19131805 -0.06969949 -0.024436418 -0.145874 -0.20210516 0.03063689 0.03486422 -0.18780684 -0.032680925 0.09584673 0.022631176 -0.16636704 0.10947105 -0.09635118 0.110163696 -0.0038705482 0.08398961 0.24713399 -8.826338e-05 0.25812238 0.08965099 -0.05801698 0.12507904 0.026931591 0.05762421 -0.114980996 0.03643571 -0.14353704 -0.006620785 -0.3623613 0.06549963 -0.19287229 -0.032344896 -0.22522461 -0.3551928 0.21567148 0.22109815 0.23415157 -0.0101882955 -0.17655273 0.017428195 -0.095043555 0.004258167 -0.052629136 0.16659005 0.13753025 -0.051607788 0.05849154 -0.11379648 -0.15389244 0.085728295 0.015356166 -0.12716363 -0.12875037 0.056933153 0.018079758 0.045992117 0.113259606 -0.06455856
空白 -0.18686816 0.078278825 -0.10620448 0.17327188 0.08601558 0.0052188197 -0.02360082 -0.088985525 -0.019429903 0.10666733 0.0854131 -0.033510488 -0.0042378125 0.018230774 0.11741441 -0.093220375 -0.15716581 -0.110568486 0.19781055 0.17330162 0.035585564 -0.06571035 0.11327459 -0.080976546 -0.13772595 -0.06449989 0.019189166 0.0063682254 -0.08057151 0.08894054 0.1770941 -0.13559222 -0.0033261988 -0.089801714 -0.22815193 -0.2869845 0.06135233 0.106658965 -0.087095305 0.040485226 0.1011515 -0.21221347 0.02135803 -0.07326282 -0.16812873 -0.10040533 0.13794859 -0.12822457 -0.1573317 -0.015677584 -0.016527608 -0.08944001 0.14170416 0.112883 0.04917137 -0.06533798 -0.028683797 -0.05352112 -0.0021629946 0.037114397 0.010152902 0.02569521 -0.018330442 -0.14271426 -0.16909006 -0.11064852 -0.0747876 -0.24895577 0.05013053 -0.10344499 -0.15067506 0.052158207 0.1472872 -0.21451041 -0.09170618 0.16614524 -0.08862586 0.008199748 -0.11648923 0.009629015 -0.08872269 -0.24587591 0.1148148 0.020328362 0.13426006 0.109372504 -0.22841753 -0.045777872 0.019816719 -0.13372222 -0.083003335 0.022793723 -0.028913226 0.14184432 0.0092837745 0.016463265 0.01865795 0.012120591 0.078345284 0.120332986 -0.06407502 0.10234266 -0.13223477 -0.12001512 0.111052066 0.033667564 0.20664774 -0.08373237 0.022919817 -0.13623552 0.04372097 -0.100562036 0.032174908 0.08241369 -0.0055838143 0.004780861 0.11467371 0.15844567 -0.08468191 -0.041206382 0.25869054 -0.19340713 -0.2592577 -0.18415728 -0.12879327 -0.010854816 -0.04811096 -0.17580637 -0.040385503 -0.020589048 0.09637386 -0.049145196 -0.093274295 -0.17461301 -0.24415347 0.10447255 -0.11005829 -0.28767434 0.14498702 0.06809361 0.1672029 0.052016225 0.20769033 0.03636067 0.13519388 0.18579118 0.018160837 0.0075897793 0.030932466 -0.18135312 0.11504306 0.056351803 0.122478954 -0.011425776 0.049662735 0.1575831 -0.09357348 -0.07211409 -0.0045774276 -0.20793606 0.15696701 0.26829973 0.09924944 0.08347751 0.057231206 -0.015860075 0.044106096 -0.009867001 -0.016596733 -0.18602249 -0.07899379 0.17612308 -0.1927042 -0.030380396 -0.058216173 0.14253837 -0.0961212 -0.041674234 0.049515244 0.23326893 -0.22902262 -0.019600818 0.026887855 0.21983656 -0.09728856 -0.03981816 -0.012879097 0.29592347 -0.13225602 -0.12732631 0.046569146 -0.053008802 0.06506586 0.042613845 0.1397324 -0.21056691 0.16664284 -0.029701363 0.0974833 0.059344586 0.2988726 0.013262615 0.059302047 0.05449753 -0.1772176 -0.08941486 -0.090066865 -0.10785886 -0.032887615 0.021888964 -0.07349995 0.16362034 0.18799911 -0.015294975 -0.02445815 0.10952514 -0.06307415 0.20762005 0.010300363 0.06269118 0.025443422 0.07722946 0.042557158 0.09013724 -0.005129857 0.2720581 -0.12324913 0.19161361 -0.014816146 0.048753638 0.05465087 -0.06831587 -0.16262248 -0.10650626 0.19334882 0.24146779 0.016138082 0.10647171 -0.07907443 -0.25826138 -0.060319908 -0.16980153 -0.07695524 -0.028473137 -0.12530963 -0.17682514 0.030604413 0.009843118 -0.1631666 -0.048975673 0.12256932 0.013357043 -0.14164335 0.091966465 -0.089658774 0.11498091 -0.0027903013 0.059965692 0.21581572 0.041377563 0.23253366 0.10408534 -0.07459015 0.112620175 0.023783825 0.0606978 -0.09521572 0.058229093 -0.1226331 -0.01778624 -0.3097707 0.05977199 -0.17827682 -0.058023654 -0.18213347 -0.29983658 0.22165559 0.19675662 0.2292094 -0.01396941 -0.15884389 0.018575171 -0.09517827 -0.0067534284 -0.04014434 0.1614877 0.14713605 -0.060855415 0.07208698 -0.1157849 -0.14720489 0.07105448 0.005771013 -0.106014736 -0.11962235 0.045160785 0.0044297907 0.06845873 0.15403713 -0.052248683
显示 -0.22782542 0.10455042 -0.11818907 0.23178336 0.106437005 -0.000246723 -0.032141197 -0.12606263 -0.03091216 0.12695609 0.11619243 -0.0438824 -0.0010859905 0.060716312 0.13506551 -0.11877861 -0.21069235 -0.14747731 0.24798682 0.22619 0.041093703 -0.08069134 0.118328884 -0.10779191 -0.17555973 -0.091340125 0.03526639 -0.0040845117 -0.108288035 0.1193903 0.21339943 -0.1737678 -0.010108971 -0.11710189 -0.2708178 -0.33866677 0.077890255 0.15236254 -0.11545306 0.04564601 0.13048577 -0.28423533 0.03504598 -0.08264578 -0.21313556 -0.132281 0.16086116 -0.17833647 -0.19682087 -0.009511293 -0.02413327 -0.11588724 0.17541073 0.14568906 0.06520157 -0.07552339 -0.03990012 -0.057950523 -0.02694815 0.031016698 -0.0020622788 0.024856238 -0.03661875 -0.18220352 -0.23749715 -0.14857684 -0.0972462 -0.31115368 0.062210154 -0.12368583 -0.2051841 0.07118609 0.1938964 -0.25000602 -0.1211013 0.21587285 -0.11538305 0.016619235 -0.16764417 0.0034235439 -0.10694537 -0.29595628 0.13001864 0.028167056 0.15883826 0.13599499 -0.28630528 -0.042274 0.026409596 -0.17939043 -0.09562524 0.025735768 -0.03919343 0.17265514 -0.0001988383 -0.00011243885 0.029431067 0.0016808877 0.09236142 0.1525696 -0.07500866 0.13697436 -0.16881526 -0.15151133 0.13636981 0.03667778 0.26020506 -0.10355139 0.028418062 -0.18828402 0.053632367 -0.12336491 0.023065465 0.101220034 -0.011487048 0.009809917 0.14732704 0.21861868 -0.10600798 -0.07188529 0.3318872 -0.2430474 -0.32690966 -0.2427783 -0.15641932 -0.013945835 -0.079395175 -0.19764271 -0.05297044 -0.021028448 0.111066066 -0.05255973 -0.1310384 -0.21930653 -0.3047348 0.14351933 -0.14512251 -0.38951263 0.18236266 0.09317452 0.21105962 0.087972745 0.25743914 0.036566246 0.15990025 0.24073792 0.0067804796 0.009990515 0.053474624 -0.20709375 0.16436608 0.083653316 0.14527513 -0.019424396 0.050584726 0.20245971 -0.12972073 -0.08659767 -0.009767925 -0.2687058 0.20675887 0.3399708 0.10871685 0.12214925 0.085705414 -0.02504057 0.060039014 0.0057018073 0.0019057938 -0.22476001 -0.102059074 0.21698639 -0.23638123 -0.0144807175 -0.10057811 0.18652523 -0.13419594 -0.048135288 0.06608593 0.2979872 -0.30095062 -0.027904406 0.043323092 0.30175677 -0.11192354 -0.036316805 -0.0184078 0.3685704 -0.15744223 -0.15233858 0.05747865 -0.050900605 0.08203289 0.061344642 0.18049994 -0.27599353 0.22290981 -0.038130697 0.11985091 0.07490936 0.38690367 0.00540685 0.07847121 0.07866184 -0.21004866 -0.10435671 -0.105489165 -0.12090886 -0.055787876 0.020200226 -0.10040467 0.2138376 0.2373287 -0.026785564 -0.032659933 0.15522628 -0.078067206 0.2760819 -0.0020472908 0.08256446 0.045372795 0.08731343 0.048193984 0.119938955 -0.0105886 0.33822396 -0.15444571 0.23794112 -0.015878653 0.09024811 0.07361159 -0.07935196 -0.23275575 -0.15005943 0.23321363 0.2956577 -0.0071175597 0.16350125 -0.11428662 -0.3114338 -0.06158719 -0.20108712 -0.09090541 -0.03385854 -0.17102584 -0.21231861 0.034972742 0.0019984578 -0.17873056 -0.05475577 0.16079076 0.010348265 -0.16703972 0.08715032 -0.12970422 0.15404797 -0.0059607713 0.06310911 0.2560038 0.0633063 0.29737964 0.13609493 -0.09847113 0.14492314 0.037029427 0.06964262 -0.12472865 0.08302181 -0.14149046 -0.035240006 -0.3828208 0.09169193 -0.23769484 -0.06481599 -0.2069832 -0.35800263 0.2780264 0.24187027 0.28230062 -0.020411946 -0.21643853 0.034696452 -0.126212 0.0055559343 -0.047047216 0.19917223 0.17780976 -0.092567034 0.11542719 -0.16168162 -0.17867017 0.100335196 0.0145150935 -0.14918154 -0.13056937 0.04616558 0.007787641 0.091993 0.208135 -0.06807545
Excel -0.2180187 0.09494961 -0.11790355 0.20532674 0.093305826 0.0043311436 -0.02934521 -0.103385195 -0.024888642 0.12732507 0.11266813 -0.03644025 -0.009424214 0.021664795 0.13530093 -0.10677102 -0.18295439 -0.12795657 0.23477927 0.21115324 0.044145677 -0.089397006 0.13341759 -0.099736966 -0.15637015 -0.07757134 0.02358652 0.001544679 -0.09654663 0.10662229 0.20492703 -0.15049517 -0.0036344368 -0.114909835 -0.26986238 -0.3386693 0.07861975 0.1383618 -0.10717356 0.05745619 0.12256618 -0.24659152 0.017072534 -0.08779624 -0.19320752 -0.12821558 0.1559389 -0.14456545 -0.18221071 -0.018556533 -0.019925168 -0.101196855 0.17077176 0.14382018 0.05223525 -0.07548735 -0.024337275 -0.051483642 -0.0011762509 0.042047273 0.004320622 0.032761175 -0.021379383 -0.16851123 -0.2053738 -0.12906551 -0.09822648 -0.29322603 0.057947487 -0.11754584 -0.18180048 0.06868576 0.16353904 -0.24616148 -0.12492984 0.20296605 -0.09460078 0.020747425 -0.12928206 0.0077222683 -0.10461913 -0.28384027 0.13217789 0.019177677 0.1444102 0.12518595 -0.26966354 -0.047244914 0.020801697 -0.17159933 -0.0927041 0.025817106 -0.033639126 0.18619516 0.009935397 0.03318529 0.026017867 0.006841379 0.09998912 0.13351467 -0.07209512 0.12931094 -0.16127957 -0.13792364 0.12224384 0.041315615 0.2559946 -0.10167804 0.03018869 -0.15958054 0.042362593 -0.10913203 0.040106926 0.09582254 -0.0036978624 0.017799875 0.15068191 0.18672776 -0.100529216 -0.062039778 0.30015227 -0.22581743 -0.30487722 -0.22189447 -0.15174279 -0.0133320615 -0.048606772 -0.19826072 -0.047070548 -0.027738204 0.113528796 -0.057119418 -0.11123913 -0.2092944 -0.28819224 0.11663185 -0.13218084 -0.3430622 0.15304738 0.08236665 0.20130013 0.05619427 0.24542236 0.040413722 0.1646683 0.22864765 0.014149624 0.008319492 0.051531594 -0.2082221 0.13303469 0.07212153 0.12803349 -0.0147142755 0.06308447 0.19297929 -0.11976104 -0.08788887 -0.008115193 -0.2330808 0.18529207 0.3282137 0.12731832 0.11258925 0.071425736 -0.013713537 0.05061575 -0.003006445 -0.022656817 -0.21489264 -0.08517231 0.21614213 -0.2315958 -0.024854211 -0.0766273 0.1577968 -0.11973481 -0.048298687 0.055067018 0.26986954 -0.26784992 -0.036855083 0.031933974 0.27600914 -0.10299627 -0.05373735 -0.011263927 0.35188535 -0.14935295 -0.14352185 0.04435664 -0.06219439 0.08513224 0.040300693 0.16272305 -0.23737322 0.20420964 -0.024075044 0.11083446 0.0706979 0.359333 -0.0008364763 0.07642945 0.068415955 -0.21026309 -0.1128376 -0.1118303 -0.12149968 -0.04849941 0.04022908 -0.08827385 0.20780246 0.23016815 -0.019771144 -0.029538142 0.1286131 -0.07782714 0.2447319 0.02245482 0.0708848 0.034356944 0.0887917 0.0493794 0.100807704 -0.0053490144 0.33240265 -0.145448 0.21373014 -0.0089826705 0.0663079 0.061041042 -0.084422156 -0.18225197 -0.1300325 0.21695375 0.28847408 0.019926468 0.12274953 -0.092846915 -0.30101398 -0.090625875 -0.20217413 -0.09097363 -0.024500918 -0.15232691 -0.21077856 0.0376816 0.017540826 -0.18093938 -0.042388305 0.1322958 0.013518677 -0.16498828 0.09853445 -0.09940213 0.13249247 0.0020864573 0.092048764 0.24799478 0.038509093 0.28234005 0.116687275 -0.08176996 0.13276505 0.03351461 0.06594758 -0.11670905 0.06705985 -0.14693302 -0.025229782 -0.37892765 0.07818846 -0.21725212 -0.054349884 -0.21592496 -0.35744053 0.24619666 0.22711642 0.26535988 -0.01345552 -0.19384569 0.018154267 -0.11963261 0.003581605 -0.04239794 0.19286793 0.15776788 -0.07303368 0.08012766 -0.12444449 -0.16805013 0.090943485 0.0019261036 -0.13496023 -0.13479157 0.056505203 0.013215897 0.075753435 0.1685535 -0.06793631
返回 -0.14914809 0.052417554 -0.10422887 0.1362689 0.070633434 0.0035422256 -0.024493946 -0.057052854 -0.021312505 0.09730322 0.06398916 -0.028283833 -0.012290933 0.0327288 0.09200822 -0.07411254 -0.13963765 -0.07217266 0.14441426 0.121285304 0.044960372 -0.050090317 0.1011948 -0.06704659 -0.11076001 -0.050256666 0.020772088 -0.0024687494 -0.043556508 0.052948408 0.13361701 -0.09013135 0.008566364 -0.09757198 -0.17229877 -0.23410563 0.04229119 0.08864913 -0.04520954 0.009640598 0.08098269 -0.16974658 0.024035184 -0.052667096 -0.13224907 -0.07449882 0.13112849 -0.09193371 -0.11673853 0.003320397 -0.013979431 -0.084037185 0.09788048 0.090595305 0.03965668 -0.045073356 -0.020923644 -0.037860163 -0.0013834144 0.038928457 0.0074379076 0.01547378 -0.03267246 -0.101328656 -0.14015064 -0.06433412 -0.05227928 -0.19529365 0.047311645 -0.070534654 -0.10161048 0.038047664 0.1139271 -0.15883996 -0.0787444 0.13634852 -0.06951488 -0.012293334 -0.09164664 0.0035192147 -0.087301396 -0.20000747 0.08610155 0.028290492 0.11486973 0.092478454 -0.17848495 -0.026328836 0.019857533 -0.096394815 -0.06931005 0.024405422 -0.026083201 0.119944476 0.014279906 -0.0009650062 0.026654135 0.009635622 0.059430383 0.09949389 -0.04833848 0.105074316 -0.099539354 -0.08951559 0.097844675 0.028695218 0.16554567 -0.07508521 0.026599275 -0.08192544 0.049554184 -0.056463312 0.02456159 0.08082082 -0.0036887026 0.0047189402 0.10178502 0.12882495 -0.04997529 -0.029069893 0.19531253 -0.14246348 -0.2100052 -0.16286826 -0.0998022 -0.0051246625 -0.04322472 -0.12293007 -0.03012625 0.00017431582 0.0731968 -0.048717417 -0.092229076 -0.14020285 -0.18781902 0.09257198 -0.10116534 -0.22191338 0.1060127 0.06914649 0.10780403 0.034925092 0.14800203 0.027888918 0.102478 0.12922165 0.026013305 0.0048466725 0.008634333 -0.13492556 0.09417618 0.049204044 0.09876762 -0.0047808737 0.046746552 0.10826908 -0.0843811 -0.05480299 0.0058139246 -0.15815382 0.1218704 0.21204202 0.05920493 0.06591718 0.031771757 -0.033743724 0.025226623 0.0020114782 -0.0035151648 -0.14948225 -0.04863918 0.15265255 -0.15953985 -0.025831452 -0.038602818 0.118242584 -0.09305847 -0.021102449 0.03844648 0.18300062 -0.18585694 -0.012905307 0.019903243 0.18413413 -0.08833024 -0.03167547 -0.008019669 0.22685345 -0.1082684 -0.109089665 0.044790946 -0.03032303 0.061386097 0.043418158 0.10974871 -0.18373398 0.12148026 -0.036204394 0.08450088 0.032874238 0.23306833 0.0026378368 0.05011553 0.038935676 -0.11423717 -0.06852572 -0.06979241 -0.08005278 -0.019405428 0.001681047 -0.051833693 0.12611413 0.13137862 0.009065364 -0.038618814 0.09323125 -0.04933332 0.15805048 0.00031976975 0.051844653 0.014621495 0.07450799 0.035360377 0.06311683 -0.00468338 0.20570481 -0.110992536 0.15321463 -0.017606447 0.03598677 0.047629196 -0.03057996 -0.122202314 -0.10097476 0.14965113 0.19745484 0.0035989485 0.084997445 -0.039132483 -0.21407525 -0.05379465 -0.14225774 -0.07932824 -0.020306664 -0.09120263 -0.13991268 0.030445807 0.013307447 -0.10872553 -0.0469616 0.10300655 0.030619236 -0.10001667 0.09084866 -0.058513142 0.10023872 0.0033192395 0.053837236 0.16957675 0.04110659 0.18403913 0.07537727 -0.050391454 0.09742761 0.023204012 0.030946989 -0.08268318 0.050635062 -0.10602039 -0.026381884 -0.23188974 0.046389602 -0.15931326 -0.046615344 -0.13788238 -0.2327947 0.18774977 0.13708995 0.1654763 -0.0047012335 -0.11465434 0.015991077 -0.096547075 -0.00938708 -0.050907735 0.12919477 0.10971903 -0.053375635 0.03914679 -0.08724568 -0.11348842 0.05917881 0.009209608 -0.06883644 -0.09165268 0.030393898 0.009162175 0.055555787 0.111167334 -0.027212346
界面 -0.2546674 0.10228907 -0.14024301 0.23924936 0.11447482 0.003219326 -0.03283892 -0.1217141 -0.023479259 0.14226843 0.11755516 -0.050071783 -0.01028825 0.04496236 0.15611142 -0.12878458 -0.2156989 -0.14330995 0.27352685 0.24197151 0.045358825 -0.093171045 0.1405378 -0.11574022 -0.18553874 -0.094646804 0.027109064 -0.0023319393 -0.111187704 0.132333 0.23664136 -0.18743315 0.001290515 -0.13120952 -0.3080094 -0.38395107 0.08224428 0.15311894 -0.1228308 0.060216006 0.14359206 -0.299783 0.033267945 -0.09965885 -0.22470325 -0.14685705 0.181066 -0.17541592 -0.21497817 -0.0153044835 -0.027542755 -0.12645775 0.20007874 0.15971537 0.065871514 -0.08253393 -0.037133515 -0.05960981 -0.012622154 0.0406973 -0.0014300278 0.03631036 -0.03168181 -0.19495995 -0.23476316 -0.15364297 -0.10600881 -0.34081256 0.07061883 -0.1378232 -0.20393895 0.07596391 0.20205037 -0.28373274 -0.13860816 0.22592652 -0.114944905 0.025072096 -0.16793163 0.005690286 -0.119671196 -0.32278773 0.1534619 0.025880268 0.16603494 0.14534158 -0.30987573 -0.061356954 0.02618754 -0.18547848 -0.11038489 0.028718974 -0.037993055 0.19939256 0.004483995 0.020476164 0.026770055 0.011111577 0.10868841 0.158048 -0.09138225 0.15302621 -0.18140498 -0.15653871 0.13795769 0.048718173 0.2878562 -0.10880344 0.035846476 -0.18758179 0.057292722 -0.1283713 0.036954667 0.112667456 -0.0014699593 0.014703912 0.1601617 0.2227468 -0.11565834 -0.06446447 0.35285038 -0.26018116 -0.34902248 -0.25335124 -0.16977327 -0.017741961 -0.07068813 -0.22575992 -0.052773353 -0.026345864 0.12715644 -0.07197244 -0.1374878 -0.23970465 -0.32867953 0.14097318 -0.16313218 -0.40246496 0.18758799 0.09577669 0.22307783 0.08199601 0.28109795 0.044279534 0.18163764 0.25521693 0.01936777 0.01310952 0.05383513 -0.23146316 0.16398552 0.08187631 0.15450367 -0.012195111 0.06262443 0.22535348 -0.14174508 -0.09601386 -0.007565725 -0.27985567 0.22187345 0.37388876 0.1314634 0.12479519 0.072949655 -0.02711799 0.06364025 -0.0026977356 -0.019515974 -0.25323427 -0.10236248 0.24910232 -0.26201275 -0.03334112 -0.09258153 0.1895259 -0.14153609 -0.048497036 0.07240709 0.31898504 -0.3136651 -0.03498309 0.042202227 0.31721255 -0.12792252 -0.0535768 -0.015212157 0.40673605 -0.17701884 -0.16779478 0.058146145 -0.059550054 0.09286412 0.061278567 0.18866523 -0.28909314 0.22940692 -0.03671856 0.1305512 0.07693782 0.41071445 0.0041442723 0.08439146 0.07793622 -0.2339164 -0.12632999 -0.1239603 -0.13224746 -0.05281514 0.024127547 -0.1076895 0.23415563 0.25677556 -0.025605379 -0.038893193 0.15316842 -0.08479181 0.28377455 0.020256236 0.0882791 0.041770473 0.10006436 0.05297203 0.122964926 -0.009138283 0.37594557 -0.17383529 0.25100958 -0.01982943 0.078475654 0.077921174 -0.09164784 -0.2270727 -0.15360166 0.25878605 0.3279321 0.013375081 0.15608317 -0.11499778 -0.351868 -0.08481671 -0.22867283 -0.105509356 -0.038081057 -0.18571977 -0.2417154 0.04192147 0.009665497 -0.21241923 -0.0548064 0.16715816 0.019530518 -0.19232418 0.11324466 -0.1314222 0.16841333 0.0077341474 0.084914654 0.28906223 0.05720887 0.32038307 0.14573553 -0.09579499 0.1599618 0.037584696 0.079243705 -0.14105944 0.08028523 -0.15395516 -0.029636892 -0.43244395 0.097981684 -0.25370684 -0.07634978 -0.24128437 -0.40755975 0.29674178 0.26395097 0.31487608 -0.016524311 -0.21895403 0.028787952 -0.13939492 -0.0016264322 -0.046831407 0.22238493 0.1936864 -0.089450315 0.10393824 -0.15731 -0.19364114 0.100296564 0.010566714 -0.14565527 -0.16324897 0.05904078 0.0065156864 0.09631997 0.21051036 -0.0735593
文档 -0.20823507 0.090734065 -0.11647344 0.19911309 0.09076454 0.0059892624 -0.027749266 -0.105188385 -0.0269795 0.11908854 0.103411466 -0.0350322 -0.00562739 0.030079404 0.13347611 -0.1043914 -0.17458478 -0.13118777 0.22766486 0.20752092 0.039976217 -0.082409434 0.12360756 -0.0983635 -0.15365405 -0.07427534 0.027961085 0.00021433909 -0.09045419 0.101192914 0.19437964 -0.14771102 0.004428126 -0.11002493 -0.25688317 -0.32575405 0.07409492 0.13618068 -0.10025314 0.052696247 0.12159178 -0.24436152 0.016891943 -0.08174315 -0.19330223 -0.1204015 0.14933538 -0.14755565 -0.17920615 -0.01834813 -0.018343873 -0.09705906 0.16613972 0.13422933 0.05409387 -0.075175405 -0.028474143 -0.04781447 -0.007607962 0.04086526 0.007548088 0.026261235 -0.020866409 -0.16768092 -0.20429848 -0.12694226 -0.088337556 -0.28618357 0.053032115 -0.11885126 -0.18133564 0.06478769 0.16473812 -0.2382611 -0.11657729 0.19434783 -0.09741301 0.016630977 -0.12971096 0.007435488 -0.10343924 -0.27596867 0.12637256 0.016745154 0.142643 0.11617984 -0.26174843 -0.047699574 0.018151114 -0.16722323 -0.08721801 0.020133678 -0.037418347 0.17732832 0.009609782 0.025195243 0.023200883 0.0052983076 0.093987934 0.13370733 -0.06996129 0.124922775 -0.15628988 -0.13858892 0.11917427 0.03330432 0.24759585 -0.098736994 0.03160759 -0.16246831 0.04098921 -0.1129768 0.037331656 0.092980385 -0.0054210783 0.015586574 0.14128341 0.18177743 -0.09516867 -0.06323682 0.29630247 -0.22679548 -0.2968458 -0.21493126 -0.14646174 -0.012128819 -0.0469238 -0.18788953 -0.044155955 -0.0213001 0.10835998 -0.053739253 -0.111251436 -0.20224594 -0.27916116 0.12068135 -0.13340566 -0.3408986 0.15670103 0.07980295 0.19542515 0.0598634 0.24012758 0.038044907 0.15657932 0.22426413 0.016640373 0.009174513 0.049163334 -0.19705726 0.1326156 0.072761625 0.12556413 -0.008925694 0.06078663 0.18873268 -0.11228494 -0.08297653 -0.011596341 -0.23253371 0.18021914 0.31487706 0.12081633 0.105817914 0.0724953 -0.01160722 0.054409817 -0.0033972505 -0.016849698 -0.20926085 -0.08822984 0.20749436 -0.21978337 -0.025435615 -0.080080085 0.1570748 -0.11431678 -0.048777714 0.061491717 0.26208517 -0.26086152 -0.032828387 0.03138904 0.26697594 -0.097592376 -0.042859487 -0.008042501 0.34426904 -0.14699286 -0.14219576 0.04644136 -0.06425115 0.08462024 0.04234425 0.1569123 -0.23369071 0.20754354 -0.019145936 0.10578995 0.0702048 0.34609005 0.004857931 0.07738316 0.065518916 -0.20433004 -0.10678833 -0.10860788 -0.11543817 -0.047357313 0.032110885 -0.091357104 0.19809629 0.22437082 -0.015429332 -0.031936858 0.12993187 -0.07388567 0.24204874 0.022037366 0.072542585 0.0337551 0.08012462 0.044477392 0.10006866 -0.0044493363 0.32230735 -0.13824612 0.20609246 -0.011757571 0.066262215 0.05738224 -0.08267682 -0.18548763 -0.12895039 0.21216685 0.27732983 0.014202649 0.12043378 -0.09281093 -0.28966174 -0.077001646 -0.19203842 -0.086641185 -0.026373716 -0.1547582 -0.20547476 0.04040105 0.011825927 -0.17497225 -0.041251436 0.13645673 0.009873 -0.15787213 0.09814234 -0.10234706 0.13075306 0.0024630493 0.08148499 0.23994985 0.036376078 0.27347407 0.11653722 -0.08369222 0.12937716 0.036733292 0.06814046 -0.11259119 0.065506615 -0.14436081 -0.02793518 -0.36318734 0.08132228 -0.21098454 -0.056014393 -0.20836772 -0.34256154 0.24290827 0.22284174 0.2636441 -0.012920691 -0.1882114 0.01610965 -0.11276805 0.0046045245 -0.040511496 0.1882336 0.15724514 -0.07154301 0.084118016 -0.13067399 -0.16451892 0.09329911 -0.0012685029 -0.13412544 -0.1264508 0.056324515 0.012037192 0.075454056 0.17059039 -0.06483841
验证 -0.25366825 0.11054359 -0.14030066 0.24524184 0.11504665 0.003134249 -0.037667982 -0.12636203 -0.037163883 0.15127653 0.12864569 -0.046007387 -0.007858047 0.03581966 0.16055235 -0.11950418 -0.21981107 -0.15425238 0.27247325 0.24447112 0.053999435 -0.09229981 0.15097494 -0.11947403 -0.1894111 -0.09967577 0.028279064 0.0051439367 -0.11402475 0.12537527 0.2372197 -0.17977424 -0.008864523 -0.12875944 -0.3118564 -0.38970158 0.08794555 0.15866391 -0.12579551 0.062260807 0.14591715 -0.3074194 0.026688313 -0.096517466 -0.22992508 -0.14748348 0.18109581 -0.17798342 -0.21417421 -0.017816475 -0.02607377 -0.12219193 0.19259179 0.16697147 0.06962093 -0.085109115 -0.036452763 -0.06698217 -0.015170927 0.042835124 0.0034562093 0.037287556 -0.02952137 -0.1960071 -0.24291502 -0.15723997 -0.11265971 -0.34111944 0.06758529 -0.12849134 -0.2154494 0.08134148 0.2030921 -0.28118956 -0.13749893 0.24235867 -0.112539835 0.017548056 -0.16039424 0.0125638805 -0.12362856 -0.33215708 0.14990601 0.025045045 0.17466147 0.15576972 -0.31476465 -0.051019024 0.025952198 -0.1956633 -0.10586858 0.033905823 -0.040765937 0.20343071 0.006836873 0.020907668 0.031680282 0.0050121206 0.107301936 0.16645332 -0.08411044 0.15440083 -0.1813556 -0.16281888 0.14580196 0.050000783 0.2912404 -0.12245311 0.029895842 -0.19537307 0.05809593 -0.12944366 0.04423719 0.11493526 -0.012602622 0.017647635 0.16837116 0.23082711 -0.11852579 -0.0724978 0.35763267 -0.26595244 -0.3608952 -0.26358998 -0.17565353 -0.019298485 -0.07042426 -0.22920416 -0.060232397 -0.03262844 0.13715044 -0.06847143 -0.13023515 -0.2444907 -0.3438646 0.15024056 -0.15832928 -0.41597843 0.1891791 0.1002742 0.23756294 0.0775094 0.28515103 0.045545984 0.18889512 0.26503205 0.017430408 0.006495616 0.053992264 -0.24503249 0.16521758 0.09166373 0.15887672 -0.019138059 0.061613295 0.22097462 -0.13958545 -0.09664835 -0.012979914 -0.28711295 0.22043815 0.378633 0.13386598 0.12735766 0.089556776 -0.019338522 0.06337224 -0.005302552 -0.012648661 -0.2526962 -0.10891413 0.25165293 -0.2695151 -0.029548572 -0.09848864 0.1949213 -0.13912903 -0.05927759 0.06829348 0.3221574 -0.31909242 -0.03455505 0.041014545 0.32843065 -0.12374064 -0.058810048 -0.020771971 0.40816668 -0.17404628 -0.17224132 0.055895906 -0.07131444 0.09211324 0.04943081 0.19875334 -0.29146695 0.2422508 -0.037769724 0.13350034 0.07978429 0.42577597 0.0075288294 0.087944925 0.085691065 -0.24205779 -0.12422255 -0.1260551 -0.14083469 -0.058183912 0.0326585 -0.10671233 0.23611376 0.26420805 -0.024935665 -0.030581985 0.159938 -0.0909079 0.29294494 0.008042513 0.08340563 0.041424245 0.10478904 0.05573122 0.12782073 -0.008517517 0.3832413 -0.16851193 0.2588342 -0.010973205 0.08762753 0.072615266 -0.088567354 -0.22941062 -0.14851351 0.25979546 0.3390227 0.013463872 0.16075271 -0.11932912 -0.36182824 -0.08948908 -0.23067507 -0.104186326 -0.029600557 -0.1806331 -0.24177487 0.04344318 0.010989989 -0.21258788 -0.056151956 0.1642223 0.01680743 -0.19185407 0.11550655 -0.13159363 0.15973297 -0.0036927166 0.088252515 0.29443547 0.05307142 0.32919577 0.14325257 -0.102640264 0.16110933 0.03668404 0.08000126 -0.13703871 0.07996439 -0.16558437 -0.030045753 -0.4313112 0.09408507 -0.25357547 -0.06584833 -0.24835038 -0.4169411 0.29482153 0.27012908 0.30822477 -0.02257725 -0.23669347 0.030878322 -0.13360125 0.0009779836 -0.057025626 0.22171977 0.1942953 -0.09354128 0.10660667 -0.16444154 -0.19307204 0.10983479 0.009471201 -0.16029964 -0.1554281 0.056939404 0.012490568 0.08941749 0.20759243 -0.07405117
幻灯片 -0.2594025 0.13404068 -0.16760352 0.24220291 0.11975156 -0.0013354914 -0.03439318 -0.119117044 -0.03905529 0.17807747 0.14522183 -0.055867683 0.006697166 0.014810653 0.16005914 -0.15157285 -0.24186571 -0.19176073 0.2732629 0.19901974 0.05238681 -0.07589844 0.17235777 -0.10075547 -0.21606705 -0.09352687 0.0066928235 0.03946297 -0.121353954 0.104089886 0.25270757 -0.18472834 -0.037569005 -0.10708435 -0.33089465 -0.40976787 0.07120939 0.13156411 -0.1234441 0.035424568 0.11947455 -0.29344824 0.050299585 -0.089686185 -0.24890423 -0.11511727 0.20756264 -0.19338724 -0.22708054 -0.04216045 0.0003171026 -0.14589725 0.16611524 0.14235711 0.1040292 -0.09103981 -0.056293305 -0.11739141 -0.020712195 0.05310861 0.031095622 0.029138234 -0.041260462 -0.18730597 -0.21996464 -0.16487096 -0.12002779 -0.3312811 0.082128376 -0.14929944 -0.19240852 0.022507716 0.2484162 -0.31353277 -0.08508947 0.25042424 -0.15165028 -0.032960657 -0.19626093 0.0031910685 -0.120775834 -0.36788452 0.1721587 0.04882078 0.22473979 0.19332586 -0.3258048 -0.0631493 0.053518146 -0.17473604 -0.13262522 0.03977587 -0.023579182 0.15742543 -0.00019969641 -0.017120963 0.022174519 0.04478757 0.086370684 0.18173411 -0.105806105 0.13716938 -0.16666518 -0.19074057 0.19272418 0.0533733 0.2713595 -0.11685681 0.023028146 -0.18934469 0.08372085 -0.14246944 0.037333123 0.120744795 -0.03339493 -0.0016526397 0.13455604 0.22547956 -0.111375354 -0.024724087 0.3673019 -0.26359418 -0.40181014 -0.2559556 -0.19850497 -0.012806164 -0.11114776 -0.2915255 -0.05557164 -0.034833297 0.13978039 -0.05177703 -0.10053011 -0.24879804 -0.3412073 0.1539812 -0.115864985 -0.39567634 0.26664492 0.09571403 0.22642426 0.100743085 0.285164 0.036540203 0.16159147 0.24097489 -0.008699188 0.018088186 0.035588607 -0.28323045 0.16630413 0.059557468 0.24703175 -0.041550387 0.057211753 0.18545786 -0.10602457 -0.09479001 -0.004248375 -0.3193802 0.20753616 0.36809644 0.08763271 0.09430962 0.096082635 -0.024200948 0.057272017 -0.022046719 0.0040329467 -0.25260392 -0.10725028 0.23356594 -0.27787483 -0.053310856 -0.06668025 0.23850048 -0.13954635 -0.04208997 0.06676742 0.3469582 -0.3324887 0.0035092565 0.035918724 0.2646682 -0.14741941 -0.05527234 -0.032949556 0.38739443 -0.19711897 -0.1978026 0.09703468 -0.08414114 0.06461035 0.073583126 0.2084799 -0.32525572 0.19746782 -0.08946007 0.15400755 0.08559984 0.42012993 0.06376193 0.056476135 0.052888565 -0.25558436 -0.11303363 -0.101559386 -0.17119102 -0.028700342 0.01625363 -0.0651824 0.20159009 0.24423695 -0.036672417 -0.011761623 0.1679435 -0.08468911 0.29581326 -0.033158675 0.08844153 0.027088886 0.15056495 0.07412289 0.13556771 -0.010020885 0.3481795 -0.18374845 0.31423956 -0.012011509 0.07288984 0.07679039 -0.08437364 -0.2802524 -0.119946815 0.29381254 0.34342232 0.00047286748 0.17587845 -0.1318814 -0.39123318 -0.057157423 -0.24969183 -0.11594949 -0.048056267 -0.14991915 -0.21688053 0.02199393 0.017690262 -0.2474016 -0.12563676 0.18345709 0.01542924 -0.18500675 0.13801165 -0.11198907 0.15699 -0.043622334 0.035027534 0.304927 0.11270283 0.3106979 0.15313953 -0.12750813 0.16972223 -0.003768607 0.10534503 -0.112658575 0.09884642 -0.17820086 -0.039013382 -0.4090132 0.07196039 -0.23983012 -0.101303205 -0.2459883 -0.41332874 0.34367687 0.25905433 0.2806945 -0.063539416 -0.23680453 0.049750704 -0.12712471 -0.033046015 -0.07600367 0.21832344 0.23854603 -0.09054551 0.12665385 -0.17767566 -0.19847257 0.07862785 0.041805748 -0.16084905 -0.14880441 0.04103421 -0.007337281 0.09946356 0.2250673 -0.064025715
格式 -0.19305827 0.12611121 -0.12780061 0.22583175 0.07681426 0.024921525 -0.027115839 -0.11964521 -0.025471346 0.13081102 0.12245798 -0.033146016 -0.01585796 0.013410657 0.13666992 -0.10787148 -0.1712466 -0.14516343 0.24807832 0.22685687 0.040864646 -0.08741407 0.12858033 -0.11513473 -0.16337247 -0.08579239 0.033746682 0.008442766 -0.11460205 0.08496214 0.21207502 -0.15513505 0.0049995217 -0.13097952 -0.25950578 -0.35712036 0.09261375 0.17348598 -0.11910837 0.0438343 0.12236579 -0.21491688 0.012527769 -0.09959674 -0.19288146 -0.09977564 0.15290028 -0.14768974 -0.1785159 -0.023275105 0.00037425847 -0.10179843 0.18292429 0.13105404 0.042457815 -0.08760923 0.0072087604 -0.051924217 0.0036585631 0.039629653 0.026822647 0.023798892 0.0013518779 -0.17389566 -0.22496918 -0.13918824 -0.10696503 -0.30249083 0.039791808 -0.145329 -0.20662926 0.05062861 0.17286223 -0.28400207 -0.12587762 0.210334 -0.10142386 -0.0043252693 -0.12567669 -0.003869515 -0.10503732 -0.2974219 0.13916041 0.038400166 0.14684576 0.119816065 -0.28726712 -0.051352005 0.02249851 -0.19479935 -0.10538528 -0.004803775 -0.045989905 0.21726042 0.016531622 0.040846538 0.0059280843 0.0055518523 0.10315531 0.11441661 -0.07320558 0.13545236 -0.18019855 -0.1623912 0.13144626 0.0106303785 0.28112626 -0.102199085 0.046330895 -0.20396197 0.019152423 -0.120514914 0.04918551 0.09440177 -0.007394337 0.02806478 0.15207803 0.18227476 -0.09460526 -0.06766459 0.3266482 -0.25341117 -0.32480973 -0.2289705 -0.15841177 -0.002852433 -0.03473443 -0.19721997 -0.029252399 -0.03356692 0.123992935 -0.031818468 -0.11473601 -0.22817202 -0.27779743 0.118157215 -0.12991112 -0.33641967 0.15641493 0.095114365 0.22314939 0.029071646 0.2593599 0.038837235 0.16322432 0.25155315 -0.0076383916 0.008481408 0.09032766 -0.18159643 0.13597392 0.078648336 0.1365287 -0.025719177 0.100905076 0.21574432 -0.12443494 -0.11743545 -0.014246553 -0.23702496 0.18491235 0.3377285 0.14263281 0.10761681 0.11796986 0.02472153 0.071597844 -0.0074441456 -0.03868642 -0.21192494 -0.069399595 0.20835505 -0.24570224 -0.018863248 -0.08477566 0.1425451 -0.10875367 -0.04771123 0.076219484 0.26980776 -0.27482408 -0.038503345 0.04405478 0.26863295 -0.08585813 -0.04314306 0.016160816 0.3594651 -0.15289393 -0.15917423 0.038277574 -0.11035992 0.08484408 0.02669413 0.16306317 -0.20639324 0.2392656 0.010931253 0.11510718 0.10344268 0.37358525 -0.0036378123 0.11219341 0.049286176 -0.23343861 -0.12392711 -0.11254811 -0.121310614 -0.05829346 0.06711611 -0.07976038 0.22116731 0.26184303 -0.034366466 -0.011267315 0.13409841 -0.08829328 0.25390792 0.052283246 0.07540925 0.045637377 0.09747889 0.051178634 0.09373079 0.0156141985 0.36221382 -0.1577195 0.21100782 -0.016456142 0.073823124 0.04090616 -0.107321344 -0.1840162 -0.13063386 0.2263839 0.30194104 0.040570572 0.10632988 -0.09837831 -0.29221517 -0.101161815 -0.21066016 -0.09269477 -0.019685108 -0.16484955 -0.1890031 0.039024446 0.039175853 -0.17394234 -0.037903495 0.13105962 0.022727255 -0.16254754 0.09029037 -0.06988063 0.10860788 0.009662414 0.11818565 0.23396578 0.036008105 0.31612864 0.11394574 -0.09104363 0.11235326 0.058943313 0.083631195 -0.090932526 0.09185823 -0.19259116 -0.029137447 -0.40990677 0.070501804 -0.21749146 -0.055153944 -0.22840486 -0.37809157 0.23408118 0.22374143 0.27372533 -0.039847117 -0.19861786 -0.009101705 -0.13202085 0.020014511 -0.031395853 0.23187356 0.14559032 -0.045391038 0.06506517 -0.13488778 -0.18239664 0.10925839 -0.024665909 -0.17290398 -0.12704828 0.07647639 0.031701207 0.076818496 0.18539967 -0.09604083
Word -0.16650309 0.081021264 -0.096154794 0.16694674 0.07323866 0.008555473 -0.025787642 -0.09258177 -0.024066476 0.09792736 0.08269158 -0.0259793 -0.007663531 0.021951223 0.10829044 -0.08235788 -0.14241277 -0.109669454 0.19052327 0.1689437 0.033688903 -0.066205904 0.097660966 -0.08726504 -0.12974079 -0.06193834 0.024546184 0.0022454245 -0.080124855 0.08273389 0.16319086 -0.124879226 0.0010227235 -0.09337228 -0.20505816 -0.270754 0.06266338 0.11424592 -0.085972115 0.03837807 0.10079071 -0.19564988 0.013813009 -0.06580876 -0.15839 -0.097661495 0.12213612 -0.12106197 -0.14701279 -0.011480362 -0.013998259 -0.079994276 0.13699166 0.106926806 0.043850526 -0.06460017 -0.017383961 -0.03773326 -0.0061359205 0.029190406 0.009385968 0.020013534 -0.015836626 -0.13846521 -0.17291704 -0.10507244 -0.07511214 -0.23592813 0.042539787 -0.10162904 -0.15322377 0.05081411 0.13369866 -0.20202821 -0.09432032 0.15925725 -0.08142131 0.0073789186 -0.10599034 0.0034677174 -0.08479122 -0.22516823 0.104048066 0.021678232 0.11872896 0.094507664 -0.2175914 -0.036308076 0.014267574 -0.13972521 -0.073827006 0.008697981 -0.03333815 0.15022534 0.0060234256 0.020974034 0.014817241 0.0063213785 0.08044443 0.10828114 -0.05918913 0.10336974 -0.12893549 -0.115759335 0.10187086 0.021685965 0.20638339 -0.08059764 0.027170828 -0.14063801 0.033342633 -0.09261845 0.029978126 0.07577035 -0.00429923 0.010064032 0.11376353 0.15055011 -0.07832056 -0.053576294 0.24694864 -0.18819104 -0.24335414 -0.17906688 -0.122927316 -0.008093181 -0.038631164 -0.15599763 -0.03407924 -0.020715212 0.092394955 -0.03770906 -0.09221487 -0.1711561 -0.2256158 0.10054827 -0.10421403 -0.27893078 0.12461482 0.06870376 0.16065764 0.044918947 0.1982583 0.029960118 0.129932 0.18548477 0.007592138 0.005245602 0.049471878 -0.15578972 0.11244435 0.0608077 0.10300125 -0.009555349 0.055155654 0.15830025 -0.09533043 -0.07038277 -0.010944521 -0.1893069 0.1491819 0.25885254 0.09961761 0.089783445 0.070248626 -0.004101514 0.049234796 -0.0021653413 -0.018022617 -0.17077969 -0.07025831 0.16641107 -0.18329135 -0.01642748 -0.06583007 0.12836175 -0.0925484 -0.040779956 0.05166158 0.21479084 -0.21963722 -0.024956724 0.027609395 0.21714927 -0.08175311 -0.032362875 -0.0059013013 0.2813878 -0.11705238 -0.11921948 0.0347615 -0.058653854 0.06658983 0.031281028 0.13025384 -0.187414 0.17577243 -0.008218141 0.08463691 0.064662404 0.28501344 0.0036172832 0.07179722 0.051517025 -0.1715786 -0.09005152 -0.08945844 -0.09453795 -0.039654523 0.034038164 -0.07137024 0.16527015 0.19052257 -0.01852926 -0.02046095 0.10897857 -0.06298319 0.19955873 0.021051096 0.058311354 0.03146278 0.06741714 0.037761226 0.08355927 -0.00034197193 0.26454365 -0.116271146 0.1674797 -0.012365008 0.055326477 0.045338903 -0.07190238 -0.15446302 -0.10691325 0.17353289 0.2270408 0.014025096 0.09915111 -0.07960426 -0.22991386 -0.05839062 -0.15770546 -0.07135553 -0.02144978 -0.1291766 -0.16083963 0.032375745 0.011584304 -0.13958403 -0.031395856 0.11568106 0.01016858 -0.12979233 0.07619079 -0.08247292 0.10300512 0.001205533 0.070850104 0.18975954 0.033945072 0.23137566 0.09418531 -0.06985616 0.10172974 0.033569813 0.053567175 -0.088758215 0.062264685 -0.123266324 -0.020710126 -0.29976946 0.06488539 -0.17171481 -0.04784749 -0.17211613 -0.28308955 0.19841866 0.18432398 0.2170443 -0.017676303 -0.15505174 0.010094948 -0.097633764 0.005746418 -0.032247804 0.16224271 0.1286261 -0.05591667 0.068221964 -0.10973858 -0.13545941 0.07654477 -0.0068553397 -0.11360908 -0.10315225 0.04780077 0.010377424 0.060555477 0.1467771 -0.05928217
内容 -0.24829747 0.10312729 -0.1361933 0.21838027 0.09614607 -0.018795362 -0.053663965 -0.09127847 -0.033544455 0.16984528 0.12569344 -0.023889191 -0.0022555352 0.006014306 0.13902578 -0.094880454 -0.20245555 -0.13635518 0.26453376 0.21224177 0.052849524 -0.099348456 0.14093307 -0.1027781 -0.16974695 -0.09796812 0.014711415 -0.008529389 -0.1064279 0.13760811 0.22247759 -0.13776062 -0.0038559143 -0.11464011 -0.3093909 -0.36047405 0.090223484 0.14725645 -0.11427844 0.06345406 0.13195239 -0.29134536 0.017170874 -0.10503289 -0.19431177 -0.14559203 0.15204534 -0.13112287 -0.18721278 -0.021425223 -0.050180916 -0.12792468 0.1754876 0.16591084 0.04167127 -0.06704743 -0.012203944 -0.06748542 -0.01029727 0.030038785 -0.021474747 0.050099436 -0.019969864 -0.16590203 -0.1978262 -0.1389326 -0.13356522 -0.31323412 0.07042348 -0.08600248 -0.19504549 0.096704066 0.16763277 -0.25732636 -0.139397 0.218477 -0.09288738 0.034971844 -0.1282516 0.022990022 -0.104461335 -0.3134603 0.12911779 0.02593115 0.13526201 0.16044614 -0.28592768 -0.027479459 0.015943946 -0.17655413 -0.089556105 0.03675236 -0.02918817 0.19233418 0.01071835 0.031627484 0.019346757 0.013062785 0.103616014 0.17012393 -0.078882374 0.14869593 -0.14348465 -0.15102176 0.114310205 0.066248484 0.26495954 -0.107991815 0.030412782 -0.17409018 0.036567654 -0.11688867 0.053592097 0.078893095 -0.0041814647 0.027961079 0.15491633 0.2076268 -0.15112492 -0.06998762 0.31616268 -0.22141565 -0.348349 -0.22730677 -0.15960568 -0.025515772 -0.06683531 -0.2147313 -0.08053623 -0.052105665 0.17158426 -0.07152486 -0.1202061 -0.25348955 -0.33089358 0.12887518 -0.15911381 -0.38874438 0.14847063 0.095714934 0.22195697 0.076146506 0.25218004 0.019203445 0.1971083 0.26038593 -0.0077683004 -0.028967999 0.061649695 -0.22809108 0.1472096 0.108256854 0.11910041 -0.022314021 0.03707678 0.19179104 -0.1388687 -0.08582887 -0.039076585 -0.24808048 0.21443114 0.36216733 0.13299707 0.13044855 0.068623185 -0.012567466 0.053664807 0.007723192 -0.013196273 -0.22767133 -0.07168809 0.2400496 -0.2598583 -0.038888328 -0.07802522 0.17473108 -0.13706848 -0.048996408 0.048108403 0.30031532 -0.27855203 -0.044758063 0.027952462 0.30226302 -0.105606295 -0.07833836 -0.028342439 0.3680369 -0.16070688 -0.14240123 0.015330569 -0.07321651 0.08579121 0.044373732 0.19010556 -0.26960093 0.21177234 -0.042412743 0.1395075 0.06765012 0.40541643 -0.022730166 0.10463484 0.1118505 -0.21577287 -0.10639513 -0.11008716 -0.14239995 -0.06083937 0.044837616 -0.092411734 0.22182103 0.23609833 -0.014359094 -0.01856569 0.13082305 -0.07888294 0.27288023 0.0014280314 0.06785916 0.048805628 0.11223421 0.03350889 0.11567431 -0.023373038 0.35186726 -0.14618072 0.23191226 -0.015852908 0.07485893 0.06822656 -0.07028837 -0.17806222 -0.123012856 0.22728445 0.31377542 0.0115548195 0.1564264 -0.11946747 -0.35613063 -0.09409751 -0.2097974 -0.07961362 -0.022848625 -0.15546016 -0.22827716 0.036923703 -0.0019244353 -0.2300424 -0.046379738 0.11268757 0.026865179 -0.18690813 0.11438691 -0.12106223 0.1370497 0.004804043 0.082679234 0.2739231 0.037705794 0.30119446 0.11523681 -0.09381209 0.1406103 0.02347904 0.059689827 -0.13584267 0.05484968 -0.121630944 -0.018535879 -0.41481906 0.08334643 -0.22587843 -0.046103965 -0.2226541 -0.3900798 0.24308889 0.24670608 0.2558349 -0.015055878 -0.21925451 0.026969597 -0.11052679 0.01252158 -0.046191923 0.1913402 0.15644164 -0.07736867 0.09145266 -0.12928343 -0.17101778 0.090662666 0.050287355 -0.15759787 -0.1543931 0.02911092 0.013795751 0.06464258 0.17196058 -0.08950089
图片 -0.21335043 0.09393384 -0.10060276 0.22164486 0.10095513 0.0035543363 -0.02864545 -0.12565666 -0.030265126 0.110835396 0.11131674 -0.043866515 -0.01170607 0.075861044 0.12763429 -0.10495531 -0.20335613 -0.12833007 0.23234415 0.21770704 0.03649381 -0.07853585 0.10036875 -0.10891532 -0.16434768 -0.08713646 0.036133833 -0.010803767 -0.10236252 0.11863299 0.19481988 -0.17397141 -0.009216258 -0.11577336 -0.23793858 -0.30871916 0.0769226 0.14386849 -0.11306976 0.045096707 0.1269194 -0.28178698 0.041598372 -0.0699842 -0.20216349 -0.13432768 0.13771857 -0.17612591 -0.18633805 -0.0020388346 -0.026541987 -0.108546466 0.17137364 0.14282627 0.06486537 -0.07030105 -0.04435421 -0.039808482 -0.022342071 0.016670851 -0.016545253 0.027933149 -0.045493677 -0.17383723 -0.23144293 -0.14086945 -0.09633536 -0.29409516 0.060625583 -0.11005547 -0.19281738 0.07993242 0.16894211 -0.21701297 -0.12177887 0.20814805 -0.10679609 0.027595922 -0.15780938 -0.0029924957 -0.09854264 -0.25840828 0.12042845 0.022747649 0.1371936 0.121051535 -0.26866472 -0.03530712 0.018653985 -0.17344858 -0.08479785 0.02111293 -0.050320085 0.16163854 -0.008676867 -0.006404436 0.037861407 -0.005854116 0.087204605 0.13957237 -0.07388906 0.13979931 -0.16426307 -0.13243608 0.11877083 0.030229669 0.24860173 -0.09520169 0.025049146 -0.1724762 0.048848286 -0.106249556 0.013184192 0.09129204 -0.011569384 0.012295235 0.13863133 0.21350825 -0.09101283 -0.07488077 0.3059361 -0.22863044 -0.28951362 -0.22640862 -0.14496358 -0.008318902 -0.08088506 -0.16617487 -0.05324722 -0.021113839 0.09781265 -0.056289393 -0.13823298 -0.20822127 -0.29671404 0.13975528 -0.14611793 -0.37478426 0.15611383 0.08296615 0.1945074 0.08972505 0.23993857 0.035702385 0.1457501 0.23141146 0.008448904 0.0076269717 0.056773696 -0.17972982 0.16175447 0.08369335 0.12863868 -0.016171958 0.042090286 0.19921324 -0.13210365 -0.07708226 -0.013334271 -0.2467629 0.19512977 0.3259921 0.10478515 0.12003117 0.077170946 -0.033152685 0.059440505 0.018106142 0.0068133282 -0.21139449 -0.0936698 0.20850994 -0.22528343 -0.008279828 -0.10730402 0.16993839 -0.12977949 -0.041582458 0.0627851 0.27902874 -0.2860714 -0.03269374 0.040645342 0.3004036 -0.09479961 -0.029296411 -0.025194753 0.35012314 -0.1401555 -0.13798155 0.046084154 -0.030185508 0.08206113 0.0514972 0.16871154 -0.25865227 0.21858786 -0.033675432 0.10040258 0.06778263 0.3677676 -0.0050997194 0.07486995 0.08568181 -0.19473751 -0.10903647 -0.10496834 -0.10328224 -0.058226332 0.016015366 -0.105025366 0.20347199 0.2235442 -0.025881844 -0.037188668 0.1518932 -0.07741188 0.25748256 0.0021177582 0.07367458 0.0487849 0.06268682 0.040213116 0.11548663 -0.017721243 0.3216164 -0.14721198 0.20619151 -0.010597259 0.095395386 0.07631047 -0.0688177 -0.21867368 -0.15456069 0.21067281 0.2751779 -0.012040213 0.16642494 -0.10905019 -0.27985144 -0.056869593 -0.17991117 -0.08387186 -0.025658987 -0.16977668 -0.19585583 0.03580509 -0.0034643998 -0.15611 -0.037658047 0.16165175 0.0065013836 -0.16300644 0.06465081 -0.13279268 0.15282121 0.0051683816 0.05816868 0.23830858 0.056671605 0.27902249 0.1338219 -0.08483458 0.13908227 0.03876036 0.05465524 -0.12655918 0.077335775 -0.1051874 -0.038958542 -0.3569926 0.09843269 -0.22931968 -0.049031485 -0.1901897 -0.3244942 0.25506794 0.23374237 0.26959574 -0.02056012 -0.21204999 0.036879174 -0.12215781 0.00841974 -0.04287788 0.18036036 0.16789743 -0.0936292 0.113020614 -0.15636428 -0.16773634 0.09479402 0.01401204 -0.13663575 -0.11661797 0.047708165 0.009099296 0.085020564 0.19882423 -0.058190025
打开 -0.208533 0.08586498 -0.11751428 0.19058879 0.08258549 -0.0080202725 -0.042988967 -0.08534519 -0.024595091 0.13091992 0.10601725 -0.028595196 -0.0031474766 0.017585253 0.12207323 -0.09061047 -0.17711894 -0.11851225 0.22733293 0.19176765 0.039810836 -0.08428488 0.12230151 -0.09628101 -0.15623564 -0.076398745 0.015308802 -0.006995443 -0.088064626 0.11103533 0.18995702 -0.12937298 -0.0018508254 -0.0987152 -0.2661805 -0.30955592 0.07262044 0.13293238 -0.09853161 0.054903995 0.11361683 -0.24299784 0.018699743 -0.08615079 -0.17060299 -0.121598125 0.14049676 -0.119548 -0.16135949 -0.017375007 -0.031382617 -0.10374743 0.15934113 0.13816284 0.035049953 -0.058459748 -0.018000757 -0.056545444 -0.0052096033 0.03265106 -0.011529415 0.034504246 -0.017740203 -0.15488106 -0.17721078 -0.118023455 -0.11063352 -0.2698063 0.058765464 -0.09376927 -0.1688162 0.071050234 0.15458933 -0.2245798 -0.119146906 0.18772063 -0.082295045 0.02242741 -0.118761726 0.012478092 -0.09006825 -0.27006564 0.11967891 0.01877131 0.12273009 0.13009208 -0.24786425 -0.03131463 0.020608237 -0.15092976 -0.081897326 0.032199554 -0.023910299 0.16591607 0.014468209 0.02752481 0.017997473 0.014128782 0.088046335 0.1333797 -0.06672919 0.1288212 -0.1368888 -0.1308352 0.10296281 0.046876084 0.23410794 -0.09814262 0.030095402 -0.15133369 0.033185903 -0.102441266 0.043753125 0.07926868 -0.00511587 0.020104824 0.13548583 0.17604463 -0.116109796 -0.056493055 0.27241424 -0.1998902 -0.29794472 -0.19771439 -0.13592982 -0.016283074 -0.056472167 -0.1858599 -0.05690223 -0.03421435 0.129827 -0.056773063 -0.106138006 -0.20739523 -0.27597472 0.108770676 -0.1308321 -0.32445174 0.13235775 0.08217451 0.18839383 0.059831847 0.21871455 0.02487587 0.16248998 0.21746834 -0.0027391799 -0.01394006 0.047053516 -0.1898727 0.12475704 0.078839466 0.110720344 -0.019544821 0.041352123 0.17166539 -0.1175201 -0.07741572 -0.020706354 -0.2107361 0.18065998 0.3115305 0.11744078 0.105999455 0.054507583 -0.012129041 0.043849528 0.00059135095 -0.013809096 -0.19904435 -0.0633329 0.20865114 -0.21796404 -0.028888725 -0.067432195 0.14813179 -0.11409497 -0.041173257 0.043704454 0.25677606 -0.24334686 -0.039279763 0.025174662 0.25789177 -0.09238577 -0.063006096 -0.015833322 0.32476357 -0.14098637 -0.12700167 0.028050898 -0.05451583 0.07317728 0.040023275 0.15894076 -0.231434 0.18047851 -0.032406025 0.11851687 0.06275189 0.34077495 -0.008001152 0.0806111 0.08458755 -0.18985371 -0.09813058 -0.09284993 -0.11880674 -0.047066756 0.03476763 -0.07833471 0.19143122 0.20482858 -0.013147128 -0.017921885 0.11646083 -0.067226194 0.23206626 0.005965312 0.059249707 0.03837086 0.087950066 0.033295244 0.094500154 -0.008821252 0.2967089 -0.13145861 0.2002287 -0.014705671 0.05994463 0.057438206 -0.06442426 -0.1554946 -0.11667422 0.20070635 0.2613203 0.012515744 0.12591876 -0.09322783 -0.29767117 -0.083750784 -0.1833154 -0.07262469 -0.024195123 -0.13736263 -0.19563717 0.029365083 0.010659182 -0.18577303 -0.044109847 0.10712646 0.021504167 -0.15904182 0.09451833 -0.10275464 0.12277447 0.002897173 0.07163821 0.23527388 0.031083237 0.25766778 0.10131517 -0.07591162 0.121859156 0.02395577 0.054075297 -0.112517476 0.053894904 -0.11727784 -0.021289272 -0.3538603 0.071277 -0.20009653 -0.042795278 -0.19785565 -0.32983845 0.2202247 0.21054988 0.22789448 -0.016433729 -0.17806852 0.025364833 -0.10388939 0.007897535 -0.04267306 0.16596635 0.13866538 -0.06389942 0.07810658 -0.11370059 -0.14915605 0.07835444 0.03239421 -0.13289888 -0.12591588 0.034320273 0.011001774 0.05957173 0.14228964 -0.07165878
视图 -0.20334424 0.100551695 -0.12785228 0.18592681 0.093909025 -5.1868133e-06 -0.027063305 -0.08990241 -0.029411351 0.13444722 0.109944426 -0.045766827 0.011408834 0.011957279 0.12046013 -0.119892985 -0.18510647 -0.14499609 0.20865542 0.15752539 0.042861078 -0.06228355 0.13035084 -0.07756315 -0.16386902 -0.06732598 0.0027663987 0.030262694 -0.09341294 0.077877544 0.19378239 -0.14606377 -0.024364352 -0.082354985 -0.25887382 -0.31607202 0.05769501 0.099771276 -0.09594008 0.026015043 0.0944059 -0.22371015 0.036244474 -0.06973286 -0.19196352 -0.09191495 0.16627215 -0.15113722 -0.17566834 -0.03091234 -0.000894733 -0.10996255 0.13060415 0.10764834 0.07707763 -0.067025244 -0.04398392 -0.091354586 -0.012813013 0.03964189 0.029868893 0.02702588 -0.030609656 -0.14103344 -0.16925725 -0.12760156 -0.08705927 -0.25633648 0.06426603 -0.119648315 -0.14670667 0.017839912 0.18828847 -0.23958631 -0.06646094 0.18998761 -0.11314057 -0.024324045 -0.15065867 0.0032149896 -0.0938473 -0.28494847 0.13254575 0.037089642 0.17007434 0.14682283 -0.24508391 -0.04999003 0.04356178 -0.13218598 -0.1032682 0.03327799 -0.016718779 0.12161191 0.0027357112 -0.009648002 0.02063912 0.035946187 0.07181278 0.13703762 -0.08005036 0.10620232 -0.12486671 -0.14769891 0.1493505 0.04315601 0.20837799 -0.08722458 0.016202047 -0.14653344 0.06518938 -0.11194983 0.032588482 0.09636229 -0.02013237 -0.0050104423 0.10727886 0.17176063 -0.08270709 -0.020933531 0.28423393 -0.20366114 -0.30922776 -0.19929487 -0.15487824 -0.011657965 -0.08065487 -0.22323966 -0.038653973 -0.025375823 0.10074258 -0.038640805 -0.07649143 -0.18741183 -0.2563509 0.11991175 -0.09019299 -0.30122226 0.2053901 0.078256615 0.1717418 0.073659055 0.22041985 0.032056656 0.12727937 0.17967294 -0.0007895334 0.018295592 0.024496647 -0.22007853 0.1259449 0.03992049 0.18682192 -0.028177671 0.041430328 0.14108372 -0.08168562 -0.07748254 -0.004429987 -0.24440987 0.16198449 0.2795536 0.06403009 0.07358583 0.07244479 -0.016339162 0.040498875 -0.019877648 0.00791744 -0.1977328 -0.089142546 0.1798657 -0.2105469 -0.042572603 -0.051798556 0.18299246 -0.105152 -0.033621687 0.04953964 0.26609907 -0.25755075 0.004370617 0.02972272 0.20635374 -0.118123814 -0.04268511 -0.01952652 0.29701704 -0.15407433 -0.1532287 0.07668952 -0.06597221 0.05235181 0.063367456 0.15986873 -0.250427 0.1506546 -0.06443526 0.12111131 0.067146204 0.31824735 0.051990762 0.042358655 0.03790454 -0.19584002 -0.08589802 -0.076144755 -0.12720042 -0.017493067 0.009630624 -0.051402688 0.15510082 0.18955855 -0.02983585 -0.013382349 0.12844652 -0.065469705 0.22698584 -0.020438308 0.07172017 0.012717175 0.11087381 0.05552759 0.10379488 -0.0021192478 0.26768747 -0.14610651 0.23577279 -0.010243118 0.052846827 0.05659324 -0.059711095 -0.21314172 -0.09316073 0.22555321 0.2650687 0.0040463647 0.13198802 -0.0929739 -0.30121765 -0.045051947 -0.19002265 -0.08623794 -0.043122288 -0.11972378 -0.16979417 0.016260566 0.013968327 -0.18735446 -0.09311268 0.13579091 0.014734927 -0.13950792 0.11106494 -0.08397536 0.123720326 -0.033811387 0.03041489 0.23217231 0.085920185 0.23730306 0.118464075 -0.101481386 0.12442409 0.00048127846 0.07997293 -0.08692088 0.07455082 -0.14442143 -0.028087312 -0.31455457 0.053281743 -0.19145742 -0.084264636 -0.18952692 -0.3224436 0.2680048 0.19431122 0.21869917 -0.041772187 -0.17814276 0.03634465 -0.09885914 -0.022516975 -0.057795692 0.17286406 0.1803938 -0.07018558 0.09410864 -0.13187209 -0.15710948 0.061368696 0.025947789 -0.122080304 -0.11900991 0.034633785 -0.006952309 0.07759304 0.17331578 -0.050168138
